{"learner":{"attributes":{"best_iteration":"95","best_score":"0.7398532328680448"},"feature_names":[],"feature_types":[],"gradient_booster":{"model":{"gbtree_model_param":{"num_parallel_tree":"1","num_trees":"146"},"iteration_indptr":[0,1,2,3,4,5,6,7,8,9,10,11,12,13,14,15,16,17,18,19,20,21,22,23,24,25,26,27,28,29,30,31,32,33,34,35,36,37,38,39,40,41,42,43,44,45,46,47,48,49,50,51,52,53,54,55,56,57,58,59,60,61,62,63,64,65,66,67,68,69,70,71,72,73,74,75,76,77,78,79,80,81,82,83,84,85,86,87,88,89,90,91,92,93,94,95,96,97,98,99,100,101,102,103,104,105,106,107,108,109,110,111,112,113,114,115,116,117,118,119,120,121,122,123,124,125,126,127,128,129,130,131,132,133,134,135,136,137,138,139,140,141,142,143,144,145,146],"tree_info":[0,0,0,0,0,0,0,0,0,0,0,0,0,0,0,0,0,0,0,0,0,0,0,0,0,0,0,0,0,0,0,0,0,0,0,0,0,0,0,0,0,0,0,0,0,0,0,0,0,0,0,0,0,0,0,0,0,0,0,0,0,0,0,0,0,0,0,0,0,0,0,0,0,0,0,0,0,0,0,0,0,0,0,0,0,0,0,0,0,0,0,0,0,0,0,0,0,0,0,0,0,0,0,0,0,0,0,0,0,0,0,0,0,0,0,0,0,0,0,0,0,0,0,0,0,0,0,0,0,0,0,0,0,0,0,0,0,0,0,0,0,0,0,0,0,0],"trees":[{"base_weights":[3.306364E-9,-2.2390336E-1,2.2409001E-1,-4.4286054E-1,1.4100169E-2,2.334806E-2,3.61606E-1,-3.4904537E-1,-8.30913E-1,8.530555E-2,-2.6459408E-1,1.07538074E-1,-3.0482665E-1,4.1927642E-1,1.3836488E-1,-5.222612E-1,-2.1247095E-1,-1.0093244E0,-6.446953E-1,-3.653752E-2,2.0622817E-1,-3.620106E-1,1.4503733E-2,-9.173766E-2,1.9753383E-1,-5.007055E-1,-1.7927124E-1,3.1448123E-1,4.8916993E-1,2.5543185E-2,3.1576738E-1,-6.799468E-1,-3.567997E-1,-3.5156417E-1,-7.4094646E-2,-7.375459E-1,-1.1417583E0,-4.5422196E-1,-7.787792E-1,-1.09511785E-1,1.6918892E-1,1.2935548E-1,3.5620463E-1,-2.5527155E-1,-6.111725E-1,-6.4174786E-2,2.1691413E-1,-2.4209267E-1,5.847334E-2,4.0676977E-2,3.0621818E-1,-3.3481243E-1,-7.544955E-1,-5.377755E-3,-2.9120788E-1,2.4577783E-1,4.7220814E-1,4.1659755E-1,5.6371766E-1,1.304976E-1,-1.374723E-1,2.0161636E-1,4.2895606E-1,-4.129471E-2,-6.875226E-2,-3.4240346E-2,-1.4604736E-2,-1.6170502E-2,-4.0348746E-2,8.993809E-4,-1.7295437E-2,-8.286771E-2,-4.8234675E-2,-9.397692E-2,-6.7271166E-2,-4.7754128E-2,-2.1115309E-2,-7.502594E-2,-4.8121706E-2,-1.818627E-2,-1.6323294E-3,1.9108485E-2,-2.5093753E-3,1.2693804E-3,1.5462551E-2,3.3474945E-2,1.9218564E-2,-2.8499898E-2,-1.0468124E-2,-6.0738E-2,-3.1309146E-2,-1.0117969E-2,1.1383333E-2,3.8540617E-2,1.0770677E-2,-4.7623675E-2,-1.3235174E-2,9.252401E-3,-2.1625875E-2,1.2969362E-2,-3.97607E-3,1.5329204E-2,3.015356E-2,-3.589952E-2,-7.463229E-3,-7.586353E-2,-3.8128972E-2,-1.25506455E-2,6.678123E-3,-3.332413E-2,-9.831668E-3,1.0127203E-2,2.6742902E-2,2.7984466E-2,3.980124E-2,2.4133837E-2,3.6489297E-2,3.921536E-2,4.8897464E-2,2.7688262E-3,2.1243393E-2,-1.8295364E-2,7.1145636E-3,-4.1708536E-2,1.6289635E-2,3.701336E-2,1.9388597E-2],"categories":[],"categories_nodes":[],"categories_segments":[],"categories_sizes":[],"default_left":[0,0,0,0,0,0,0,0,0,0,0,0,0,0,0,0,0,0,0,0,0,0,0,0,0,0,0,0,0,0,0,0,0,0,0,0,0,0,0,0,0,0,0,0,0,0,0,0,0,0,0,0,0,0,0,0,0,0,0,0,0,0,0,0,0,0,0,0,0,0,0,0,0,0,0,0,0,0,0,0,0,0,0,0,0,0,0,0,0,0,0,0,0,0,0,0,0,0,0,0,0,0,0,0,0,0,0,0,0,0,0,0,0,0,0,0,0,0,0,0,0,0,0,0,0,0,0],"id":0,"left_children":[1,3,5,7,9,11,13,15,17,19,21,23,25,27,29,31,33,35,37,39,41,43,45,47,49,51,53,55,57,59,61,63,65,67,69,71,73,75,77,79,81,83,85,87,89,91,93,95,97,99,101,103,105,107,109,111,113,115,117,119,121,123,125,-1,-1,-1,-1,-1,-1,-1,-1,-1,-1,-1,-1,-1,-1,-1,-1,-1,-1,-1,-1,-1,-1,-1,-1,-1,-1,-1,-1,-1,-1,-1,-1,-1,-1,-1,-1,-1,-1,-1,-1,-1,-1,-1,-1,-1,-1,-1,-1,-1,-1,-1,-1,-1,-1,-1,-1,-1,-1,-1,-1,-1,-1,-1,-1],"loss_changes":[2.8901519E3,1.5015265E3,7.9471875E2,5.460427E2,2.74016E2,3.234306E2,2.1990112E2,2.8582947E2,9.63949E1,1.6204749E2,7.640561E1,1.6709099E2,5.868904E1,9.929077E1,7.022404E1,1.3876965E2,1.3008505E2,5.278711E1,3.621869E1,8.227331E1,6.3594498E1,5.5242004E1,1.1607575E1,6.5488E1,1.0940083E2,3.9028564E1,2.8378475E1,5.8779663E1,4.3819702E1,3.673428E1,1.7537216E1,8.300635E1,4.1971313E1,8.5322235E1,4.5677864E1,1.631958E1,2.6115234E1,1.8540565E1,2.4854767E1,4.7191498E1,2.489825E1,3.1526508E1,1.673233E1,2.1015488E1,2.3676758E1,8.039661E0,4.3670263E0,3.7247307E1,3.2691395E1,3.257131E1,3.6911102E1,1.911021E1,2.2763428E1,8.762244E0,2.1687828E1,4.6431686E1,9.35022E0,2.7225098E1,1.4128174E1,1.865765E1,2.0825743E1,8.159643E0,7.3984146E0,0E0,0E0,0E0,0E0,0E0,0E0,0E0,0E0,0E0,0E0,0E0,0E0,0E0,0E0,0E0,0E0,0E0,0E0,0E0,0E0,0E0,0E0,0E0,0E0,0E0,0E0,0E0,0E0,0E0,0E0,0E0,0E0,0E0,0E0,0E0,0E0,0E0,0E0,0E0,0E0,0E0,0E0,0E0,0E0,0E0,0E0,0E0,0E0,0E0,0E0,0E0,0E0,0E0,0E0,0E0,0E0,0E0,0E0,0E0,0E0,0E0,0E0,0E0,0E0],"parents":[2147483647,0,0,1,1,2,2,3,3,4,4,5,5,6,6,7,7,8,8,9,9,10,10,11,11,12,12,13,13,14,14,15,15,16,16,17,17,18,18,19,19,20,20,21,21,22,22,23,23,24,24,25,25,26,26,27,27,28,28,29,29,30,30,31,31,32,32,33,33,34,34,35,35,36,36,37,37,38,38,39,39,40,40,41,41,42,42,43,43,44,44,45,45,46,46,47,47,48,48,49,49,50,50,51,51,52,52,53,53,54,54,55,55,56,56,57,57,58,58,59,59,60,60,61,61,62,62],"right_children":[2,4,6,8,10,12,14,16,18,20,22,24,26,28,30,32,34,36,38,40,42,44,46,48,50,52,54,56,58,60,62,64,66,68,70,72,74,76,78,80,82,84,86,88,90,92,94,96,98,100,102,104,106,108,110,112,114,116,118,120,122,124,126,-1,-1,-1,-1,-1,-1,-1,-1,-1,-1,-1,-1,-1,-1,-1,-1,-1,-1,-1,-1,-1,-1,-1,-1,-1,-1,-1,-1,-1,-1,-1,-1,-1,-1,-1,-1,-1,-1,-1,-1,-1,-1,-1,-1,-1,-1,-1,-1,-1,-1,-1,-1,-1,-1,-1,-1,-1,-1,-1,-1,-1,-1,-1,-1],"split_conditions":[1.7835326E-1,6.267672E-2,-2.367062E-1,1E0,1E0,1E0,1E0,-7.356777E-1,1E0,1E0,1.1852635E0,-1.1648028E0,8.757608E-1,8.757608E-1,1.2244645E0,1E0,1E0,-4.6717978E-1,-2.1118455E-1,1.1852635E0,9.791984E-1,5.5680114E-1,6.6962266E-1,1E0,8.757608E-1,3.008059E-1,-3.1358263E-1,9.109283E-1,1E0,3.008059E-1,5.6164825E-1,4.5440304E-1,3.2887638E-1,2.4960686E-1,4.03204E-1,-1.2164618E0,6.364839E-1,-6.358834E-1,-2.2543044E-1,-8.6775804E-1,5.0560206E-1,-8.6775804E-1,9.600973E-2,1E0,-8.0019146E-2,1.9587685E0,-1.0303693E0,-1.102258E0,1.0687916E0,-2.1118455E-1,1E0,3.9702561E-1,1E0,-9.851635E-1,1E0,1E0,-2.2543044E-1,4.0742558E-1,9.109283E-1,3.2887638E-1,9.109283E-1,-1.6512784E0,6.0800016E-1,-4.129471E-2,-6.875226E-2,-3.4240346E-2,-1.4604736E-2,-1.6170502E-2,-4.0348746E-2,8.993809E-4,-1.7295437E-2,-8.286771E-2,-4.8234675E-2,-9.397692E-2,-6.7271166E-2,-4.7754128E-2,-2.1115309E-2,-7.502594E-2,-4.8121706E-2,-1.818627E-2,-1.6323294E-3,1.9108485E-2,-2.5093753E-3,1.2693804E-3,1.5462551E-2,3.3474945E-2,1.9218564E-2,-2.8499898E-2,-1.0468124E-2,-6.0738E-2,-3.1309146E-2,-1.0117969E-2,1.1383333E-2,3.8540617E-2,1.0770677E-2,-4.7623675E-2,-1.3235174E-2,9.252401E-3,-2.1625875E-2,1.2969362E-2,-3.97607E-3,1.5329204E-2,3.015356E-2,-3.589952E-2,-7.463229E-3,-7.586353E-2,-3.8128972E-2,-1.25506455E-2,6.678123E-3,-3.332413E-2,-9.831668E-3,1.0127203E-2,2.6742902E-2,2.7984466E-2,3.980124E-2,2.4133837E-2,3.6489297E-2,3.921536E-2,4.8897464E-2,2.7688262E-3,2.1243393E-2,-1.8295364E-2,7.1145636E-3,-4.1708536E-2,1.6289635E-2,3.701336E-2,1.9388597E-2],"split_indices":[17,1,1,31,31,31,31,1,34,34,1,1,17,17,17,34,34,12,12,1,1,12,5,34,17,12,12,1,34,12,1,12,5,12,12,17,4,1,7,17,12,17,12,34,5,1,12,5,12,12,34,5,34,1,34,34,7,1,1,5,1,19,12,0,0,0,0,0,0,0,0,0,0,0,0,0,0,0,0,0,0,0,0,0,0,0,0,0,0,0,0,0,0,0,0,0,0,0,0,0,0,0,0,0,0,0,0,0,0,0,0,0,0,0,0,0,0,0,0,0,0,0,0,0,0,0,0],"split_type":[0,0,0,0,0,0,0,0,0,0,0,0,0,0,0,0,0,0,0,0,0,0,0,0,0,0,0,0,0,0,0,0,0,0,0,0,0,0,0,0,0,0,0,0,0,0,0,0,0,0,0,0,0,0,0,0,0,0,0,0,0,0,0,0,0,0,0,0,0,0,0,0,0,0,0,0,0,0,0,0,0,0,0,0,0,0,0,0,0,0,0,0,0,0,0,0,0,0,0,0,0,0,0,0,0,0,0,0,0,0,0,0,0,0,0,0,0,0,0,0,0,0,0,0,0,0,0],"sum_hessian":[5.76E4,2.8812E4,2.8788E4,1.5006E4,1.3806E4,1.1704E4,1.7084E4,1.2086E4,2.92E3,1.0997E4,2.809E3,9.315E3,2.389E3,1.3576E4,3.508E3,5.327E3,6.759E3,1.489E3,1.431E3,5.478E3,5.519E3,2.082E3,7.27E2,2.898E3,6.417E3,9.32E2,1.457E3,5.434E3,8.142E3,2.145E3,1.363E3,2.726E3,2.601E3,3.37E3,3.389E3,4.9E2,9.99E2,5.93E2,8.38E2,4.044E3,1.434E3,3.65E3,1.869E3,1.459E3,6.23E2,5.24E2,2.03E2,1.448E3,1.45E3,2.627E3,3.79E3,5.65E2,3.67E2,5.71E2,8.86E2,3.787E3,1.647E3,4.129E3,4.013E3,1.305E3,8.4E2,6.8E2,6.83E2,1.765E3,9.61E2,1.609E3,9.92E2,1.95E3,1.42E3,2.187E3,1.202E3,9.8E1,3.92E2,6.84E2,3.15E2,2.87E2,3.06E2,3.18E2,5.2E2,1.607E3,2.437E3,1.008E3,4.26E2,1.482E3,2.168E3,9.81E2,8.88E2,7.01E2,7.58E2,3.06E2,3.17E2,3.95E2,1.29E2,3.9E1,1.64E2,2.06E2,1.242E3,1.222E3,2.28E2,1.089E3,1.538E3,1.839E3,1.951E3,3.5E2,2.15E2,1.78E2,1.89E2,2.1E2,3.61E2,4.52E2,4.34E2,1.895E3,1.892E3,6.14E2,1.033E3,1.755E3,2.374E3,2.748E3,1.265E3,8.1E2,4.95E2,5.76E2,2.64E2,1.3E1,6.67E2,4.94E2,1.89E2],"tree_param":{"num_deleted":"0","num_feature":"38","num_nodes":"127","size_leaf_vector":"1"}},{"base_weights":[-1.1429504E-5,-2.0713595E-1,2.0728576E-1,-4.0969372E-1,1.3041622E-2,2.1577716E-2,3.3450294E-1,-3.2288614E-1,-7.687604E-1,7.8913644E-2,-2.4477816E-1,9.94707E-2,-2.82051E-1,3.8784936E-1,1.2799999E-1,-4.8312142E-1,-1.965464E-1,-9.3382126E-1,-5.964772E-1,-3.3797797E-2,1.9077362E-1,-3.458617E-1,-1.36296535E-2,-3.5893177E-3,2.5794998E-1,-4.633212E-1,-1.6585952E-1,2.909144E-1,4.5250043E-1,2.363342E-2,2.9210752E-1,-6.289911E-1,-3.300585E-1,-3.252136E-1,-6.854238E-2,-6.8249696E-1,-1.0562876E0,-7.5616246E-1,-4.4944397E-1,-1.013033E-1,1.565113E-1,9.538896E-2,2.9441655E-1,-2.4249218E-1,-5.851831E-1,2.2772945E-1,-8.0513656E-2,-2.9945695E-1,5.5195592E-2,8.817026E-2,3.3654535E-1,-3.0977812E-1,-6.982181E-1,-4.984688E-3,-2.6941594E-1,2.0350066E-1,3.978092E-1,3.853674E-1,5.214608E-1,-6.888458E-2,1.8509562E-1,2.2788328E-1,4.699165E-1,-3.819936E-2,-6.3601196E-2,-2.9984644E-2,-9.808444E-3,-1.4958335E-2,-3.7324715E-2,3.2935692E-3,-1.3009393E-2,-7.671541E-2,-4.4626277E-2,-9.1647536E-2,-6.715124E-2,-5.177807E-2,-1.0915896E-1,-4.6682723E-2,-2.018394E-2,-2.6967383E-3,-2.0782402E-2,1.7345363E-2,-3.277172E-3,1.7043056E-2,1.4070816E-3,2.9343577E-2,1.618474E-2,-2.8231265E-2,-9.4862245E-3,-5.8922436E-2,-2.8808331E-2,-6.026539E-6,2.9419465E-2,-9.49033E-3,1.887128E-2,-3.1790957E-2,-6.08349E-3,-4.354452E-3,1.2279032E-2,-2.7111316E-2,9.432653E-3,1.8915072E-2,3.1213438E-2,-3.321473E-2,-6.9060787E-3,-7.0205554E-2,-3.528435E-2,-1.1613809E-2,6.178648E-3,-3.0830335E-2,-9.095987E-3,6.700694E-3,2.3911964E-2,2.5574435E-2,3.8496E-2,2.2324827E-2,3.3753753E-2,3.6275275E-2,4.5233052E-2,3.629074E-3,-1.7588902E-2,7.517109E-3,2.25776E-2,8.906475E-3,2.4692252E-2,3.585092E-2,-4.9163584E-2],"categories":[],"categories_nodes":[],"categories_segments":[],"categories_sizes":[],"default_left":[0,0,0,0,0,0,0,0,0,0,0,0,0,0,0,0,0,0,0,0,0,0,0,0,0,0,0,0,0,0,0,0,0,0,0,0,0,0,0,0,0,0,0,0,0,0,0,0,0,0,0,0,0,0,0,0,0,0,0,0,0,0,0,0,0,0,0,0,0,0,0,0,0,0,0,0,0,0,0,0,0,0,0,0,0,0,0,0,0,0,0,0,0,0,0,0,0,0,0,0,0,0,0,0,0,0,0,0,0,0,0,0,0,0,0,0,0,0,0,0,0,0,0,0,0,0,0],"id":1,"left_children":[1,3,5,7,9,11,13,15,17,19,21,23,25,27,29,31,33,35,37,39,41,43,45,47,49,51,53,55,57,59,61,63,65,67,69,71,73,75,77,79,81,83,85,87,89,91,93,95,97,99,101,103,105,107,109,111,113,115,117,119,121,123,125,-1,-1,-1,-1,-1,-1,-1,-1,-1,-1,-1,-1,-1,-1,-1,-1,-1,-1,-1,-1,-1,-1,-1,-1,-1,-1,-1,-1,-1,-1,-1,-1,-1,-1,-1,-1,-1,-1,-1,-1,-1,-1,-1,-1,-1,-1,-1,-1,-1,-1,-1,-1,-1,-1,-1,-1,-1,-1,-1,-1,-1,-1,-1,-1],"loss_changes":[2.4732188E3,1.2850273E3,6.8014014E2,4.6751538E2,2.3450514E2,2.768577E2,1.8816187E2,2.4459521E2,8.250806E1,1.3866812E2,6.5651825E1,1.5215799E2,5.0261444E1,8.495471E1,6.009293E1,1.1875195E2,1.1131436E2,4.5139526E1,3.3282166E1,7.040409E1,5.4542343E1,4.822191E1,1.3836799E1,9.8214874E1,4.8955795E1,3.343405E1,2.4288387E1,5.07041E1,3.7497314E1,3.2070045E1,1.5469315E1,7.104248E1,3.610794E1,7.301367E1,4.0004604E1,1.4011398E1,2.5569946E1,3.0508698E1,2.3166214E1,4.6457626E1,2.148848E1,2.905346E1,2.005162E1,2.119078E1,2.3437744E1,6.9716015E0,1.0288752E1,2.5393806E1,5.7912277E1,1.97075E1,1.6747162E1,1.6357471E1,1.9495682E1,7.502125E0,1.8563164E1,3.9362213E1,1.5859253E1,2.3294922E1,1.2093262E1,2.6525492E1,7.6642838E0,1.106514E1,3.6024933E0,0E0,0E0,0E0,0E0,0E0,0E0,0E0,0E0,0E0,0E0,0E0,0E0,0E0,0E0,0E0,0E0,0E0,0E0,0E0,0E0,0E0,0E0,0E0,0E0,0E0,0E0,0E0,0E0,0E0,0E0,0E0,0E0,0E0,0E0,0E0,0E0,0E0,0E0,0E0,0E0,0E0,0E0,0E0,0E0,0E0,0E0,0E0,0E0,0E0,0E0,0E0,0E0,0E0,0E0,0E0,0E0,0E0,0E0,0E0,0E0,0E0,0E0,0E0,0E0],"parents":[2147483647,0,0,1,1,2,2,3,3,4,4,5,5,6,6,7,7,8,8,9,9,10,10,11,11,12,12,13,13,14,14,15,15,16,16,17,17,18,18,19,19,20,20,21,21,22,22,23,23,24,24,25,25,26,26,27,27,28,28,29,29,30,30,31,31,32,32,33,33,34,34,35,35,36,36,37,37,38,38,39,39,40,40,41,41,42,42,43,43,44,44,45,45,46,46,47,47,48,48,49,49,50,50,51,51,52,52,53,53,54,54,55,55,56,56,57,57,58,58,59,59,60,60,61,61,62,62],"right_children":[2,4,6,8,10,12,14,16,18,20,22,24,26,28,30,32,34,36,38,40,42,44,46,48,50,52,54,56,58,60,62,64,66,68,70,72,74,76,78,80,82,84,86,88,90,92,94,96,98,100,102,104,106,108,110,112,114,116,118,120,122,124,126,-1,-1,-1,-1,-1,-1,-1,-1,-1,-1,-1,-1,-1,-1,-1,-1,-1,-1,-1,-1,-1,-1,-1,-1,-1,-1,-1,-1,-1,-1,-1,-1,-1,-1,-1,-1,-1,-1,-1,-1,-1,-1,-1,-1,-1,-1,-1,-1,-1,-1,-1,-1,-1,-1,-1,-1,-1,-1,-1,-1,-1,-1,-1,-1],"split_conditions":[1.7835326E-1,6.267672E-2,-2.367062E-1,1E0,1E0,1E0,1E0,-7.356777E-1,1E0,1E0,1.1033379E0,1.2244645E0,8.757608E-1,8.757608E-1,1.2244645E0,1E0,1E0,-4.6717978E-1,-6.358834E-1,1.1852635E0,7.6123685E-1,5.5680114E-1,-8.255731E-1,-1.484135E0,-1.1348549E0,3.008059E-1,-3.1358263E-1,6.115454E-1,1E0,8.11134E-1,1.0387324E0,4.5440304E-1,1E0,2.4960686E-1,-6.3883606E-3,-1.2164618E0,2.109534E-1,1.4783839E0,2.109534E-1,6.0800016E-1,6.0800016E-1,-3.6478168E-1,-1.0878645E-1,2.109534E-1,-8.0019146E-2,-8.6775804E-1,1.2148167E0,4.6517488E-1,1E0,-1.5111535E0,1E0,3.9702561E-1,1E0,-9.851635E-1,1E0,1E0,1.3629957E0,4.0742558E-1,9.109283E-1,2.4960686E-1,1.3162559E0,1E0,2.451166E0,-3.819936E-2,-6.3601196E-2,-2.9984644E-2,-9.808444E-3,-1.4958335E-2,-3.7324715E-2,3.2935692E-3,-1.3009393E-2,-7.671541E-2,-4.4626277E-2,-9.1647536E-2,-6.715124E-2,-5.177807E-2,-1.0915896E-1,-4.6682723E-2,-2.018394E-2,-2.6967383E-3,-2.0782402E-2,1.7345363E-2,-3.277172E-3,1.7043056E-2,1.4070816E-3,2.9343577E-2,1.618474E-2,-2.8231265E-2,-9.4862245E-3,-5.8922436E-2,-2.8808331E-2,-6.026539E-6,2.9419465E-2,-9.49033E-3,1.887128E-2,-3.1790957E-2,-6.08349E-3,-4.354452E-3,1.2279032E-2,-2.7111316E-2,9.432653E-3,1.8915072E-2,3.1213438E-2,-3.321473E-2,-6.9060787E-3,-7.0205554E-2,-3.528435E-2,-1.1613809E-2,6.178648E-3,-3.0830335E-2,-9.095987E-3,6.700694E-3,2.3911964E-2,2.5574435E-2,3.8496E-2,2.2324827E-2,3.3753753E-2,3.6275275E-2,4.5233052E-2,3.629074E-3,-1.7588902E-2,7.517109E-3,2.25776E-2,8.906475E-3,2.4692252E-2,3.585092E-2,-4.9163584E-2],"split_indices":[17,1,1,31,31,31,31,1,34,34,1,17,17,17,17,34,34,12,1,1,1,12,12,1,1,12,12,1,34,1,1,12,33,12,12,17,7,12,7,12,12,12,12,7,5,17,5,5,34,5,34,5,34,1,34,34,1,1,1,12,1,34,12,0,0,0,0,0,0,0,0,0,0,0,0,0,0,0,0,0,0,0,0,0,0,0,0,0,0,0,0,0,0,0,0,0,0,0,0,0,0,0,0,0,0,0,0,0,0,0,0,0,0,0,0,0,0,0,0,0,0,0,0,0,0,0,0],"split_type":[0,0,0,0,0,0,0,0,0,0,0,0,0,0,0,0,0,0,0,0,0,0,0,0,0,0,0,0,0,0,0,0,0,0,0,0,0,0,0,0,0,0,0,0,0,0,0,0,0,0,0,0,0,0,0,0,0,0,0,0,0,0,0,0,0,0,0,0,0,0,0,0,0,0,0,0,0,0,0,0,0,0,0,0,0,0,0,0,0,0,0,0,0,0,0,0,0,0,0,0,0,0,0,0,0,0,0,0,0,0,0,0,0,0,0,0,0,0,0,0,0,0,0,0,0,0,0],"sum_hessian":[5.76E4,2.8812E4,2.8788E4,1.5006E4,1.3806E4,1.1704E4,1.7084E4,1.2086E4,2.92E3,1.0997E4,2.809E3,9.315E3,2.389E3,1.3576E4,3.508E3,5.327E3,6.759E3,1.489E3,1.431E3,5.478E3,5.519E3,1.954E3,8.55E2,5.645E3,3.67E3,9.32E2,1.457E3,5.434E3,8.142E3,2.145E3,1.363E3,2.726E3,2.601E3,3.37E3,3.389E3,4.9E2,9.99E2,6.84E2,7.47E2,4.044E3,1.434E3,2.875E3,2.644E3,1.366E3,5.88E2,1.85E2,6.7E2,9.35E2,4.71E3,1.162E3,2.508E3,5.65E2,3.67E2,5.71E2,8.86E2,2.991E3,2.443E3,4.129E3,4.013E3,1.364E3,7.81E2,1.003E3,3.6E2,1.765E3,9.61E2,1.926E3,6.75E2,1.95E3,1.42E3,1.636E3,1.753E3,9.8E1,3.92E2,4.89E2,5.1E2,6.27E2,5.7E1,3.8E2,3.67E2,2.949E3,1.095E3,1.044E3,3.9E2,1.056E3,1.819E3,1.183E3,1.461E3,6.33E2,7.33E2,2.93E2,2.95E2,7.8E1,1.07E2,5.89E2,8.1E1,5.95E2,3.4E2,2.305E3,2.405E3,8.9E1,1.073E3,1.22E3,1.288E3,3.5E2,2.15E2,1.78E2,1.89E2,2.1E2,3.61E2,4.52E2,4.34E2,1.504E3,1.487E3,1.64E3,8.03E2,1.755E3,2.374E3,2.748E3,1.265E3,7.99E2,5.65E2,4.52E2,3.29E2,4.84E2,5.19E2,3.58E2,2E0],"tree_param":{"num_deleted":"0","num_feature":"38","num_nodes":"127","size_leaf_vector":"1"}},{"base_weights":[-2.2090844E-5,-1.9162656E-1,1.9174212E-1,-3.8724372E-1,3.8681594E-3,1.9943286E-2,3.0943093E-1,-3.0633184E-1,-7.21805E-1,6.492895E-2,-2.3574512E-1,9.201067E-2,-2.609771E-1,3.5877776E-1,1.1841037E-1,-4.6505004E-1,-2.0005688E-1,-5.409519E-1,-8.5173166E-1,-4.060181E-2,1.6991693E-1,-3.1845942E-1,1.4539465E-2,-5.2710287E-2,1.9207422E-1,-3.7713304E-1,-1.02439456E-1,2.9792446E-1,4.5123935E-1,2.1868434E-2,2.7021432E-1,-6.091995E-1,-3.1345314E-1,-1.0638251E-1,-3.6599034E-1,-6.892915E-1,-3.8121355E-1,-9.354291E-1,-5.290319E-1,-1.9862871E-1,4.207696E-2,1.0367971E-1,3.075782E-1,-4.6115553E-1,-1.8488786E-1,-1.7965122E-1,8.103105E-2,-2.351492E-1,3.8529925E-2,3.1695906E-2,2.660015E-1,-2.4606854E-1,-5.7907945E-1,-2.2716872E-1,3.5182282E-2,2.2183725E-1,3.8985464E-1,3.9279607E-1,5.135956E-1,-8.283378E-2,1.4889178E-1,1.693354E-1,3.7025577E-1,-6.303922E-2,-3.647969E-2,-2.7802901E-2,-3.7962825E-3,-1.4131378E-2,1.1056868E-3,-3.7671104E-2,-1.7024448E-2,-6.836987E-2,-4.383728E-2,-4.2998936E-2,-1.8514717E-2,-7.83943E-2,-4.7475044E-2,-4.728765E-2,-1.4947461E-2,-1.2122024E-2,-4.2909212E-2,7.7775954E-3,-8.804938E-3,1.2005968E-2,-2.0765264E-3,3.395768E-2,1.9273033E-2,-2.6733195E-2,-5.2901447E-2,-2.7425954E-2,-5.956533E-3,-2.3857063E-2,9.852184E-3,2.3168955E-2,1.1217461E-3,-2.398861E-2,-1.1954821E-3,-5.0834944E-3,1.0474962E-2,-1.7087307E-2,7.0336703E-3,1.3390517E-2,2.6124308E-2,-2.722408E-2,-9.012735E-3,-6.657182E-2,-3.566761E-2,-3.1249383E-2,-9.53684E-3,-1.6188505E-4,4.202655E-2,9.123759E-3,2.4087692E-2,3.2155402E-2,1.9774348E-2,2.3213848E-2,3.410507E-2,3.4155797E-2,4.1917972E-2,-1.3498875E-2,1.0098715E-2,2.8070373E-2,5.815014E-3,-4.001607E-2,1.3785975E-2,2.8366962E-2,-5.9082646E-2],"categories":[],"categories_nodes":[],"categories_segments":[],"categories_sizes":[],"default_left":[0,0,0,0,0,0,0,0,0,0,0,0,0,0,0,0,0,0,0,0,0,0,0,0,0,0,0,0,0,0,0,0,0,0,0,0,0,0,0,0,0,0,0,0,0,0,0,0,0,0,0,0,0,0,0,0,0,0,0,0,0,0,0,0,0,0,0,0,0,0,0,0,0,0,0,0,0,0,0,0,0,0,0,0,0,0,0,0,0,0,0,0,0,0,0,0,0,0,0,0,0,0,0,0,0,0,0,0,0,0,0,0,0,0,0,0,0,0,0,0,0,0,0,0,0,0,0],"id":2,"left_children":[1,3,5,7,9,11,13,15,17,19,21,23,25,27,29,31,33,35,37,39,41,43,45,47,49,51,53,55,57,59,61,63,65,67,69,71,73,75,77,79,81,83,85,87,89,91,93,95,97,99,101,103,105,107,109,111,113,115,117,119,121,123,125,-1,-1,-1,-1,-1,-1,-1,-1,-1,-1,-1,-1,-1,-1,-1,-1,-1,-1,-1,-1,-1,-1,-1,-1,-1,-1,-1,-1,-1,-1,-1,-1,-1,-1,-1,-1,-1,-1,-1,-1,-1,-1,-1,-1,-1,-1,-1,-1,-1,-1,-1,-1,-1,-1,-1,-1,-1,-1,-1,-1,-1,-1,-1,-1],"loss_changes":[2.1164634E3,1.1018718E3,5.82073E2,3.8964062E2,2.1087694E2,2.3699402E2,1.61005E2,1.9555627E2,6.542676E1,1.2726558E2,6.05997E1,1.3491786E2,4.3973434E1,7.625769E1,5.142006E1,1.01445496E2,1.07974335E2,2.7579437E1,4.353003E1,7.486043E1,5.2471268E1,4.1847076E1,9.414526E0,6.3412777E1,6.5296234E1,3.6356888E1,1.7379436E1,5.7207153E1,1.9430298E1,2.8553328E1,1.37028885E1,6.728589E1,3.4125015E1,4.4151066E1,4.7378967E1,1.363147E1,1.4518272E1,4.2285522E1,1.1183144E1,2.710514E1,3.698363E1,2.8818283E1,1.3623108E1,2.6930115E1,2.1669907E1,8.0505085E0,8.171652E0,2.3574745E1,2.7318981E1,2.8041988E1,2.708194E1,1.2291718E1,1.6888199E1,1.0010014E1,9.453377E0,4.4584732E1,1.8082214E1,1.4224548E1,6.608032E0,2.4892796E1,1.5571217E1,7.0279617E0,6.6112137E0,0E0,0E0,0E0,0E0,0E0,0E0,0E0,0E0,0E0,0E0,0E0,0E0,0E0,0E0,0E0,0E0,0E0,0E0,0E0,0E0,0E0,0E0,0E0,0E0,0E0,0E0,0E0,0E0,0E0,0E0,0E0,0E0,0E0,0E0,0E0,0E0,0E0,0E0,0E0,0E0,0E0,0E0,0E0,0E0,0E0,0E0,0E0,0E0,0E0,0E0,0E0,0E0,0E0,0E0,0E0,0E0,0E0,0E0,0E0,0E0,0E0,0E0,0E0,0E0],"parents":[2147483647,0,0,1,1,2,2,3,3,4,4,5,5,6,6,7,7,8,8,9,9,10,10,11,11,12,12,13,13,14,14,15,15,16,16,17,17,18,18,19,19,20,20,21,21,22,22,23,23,24,24,25,25,26,26,27,27,28,28,29,29,30,30,31,31,32,32,33,33,34,34,35,35,36,36,37,37,38,38,39,39,40,40,41,41,42,42,43,43,44,44,45,45,46,46,47,47,48,48,49,49,50,50,51,51,52,52,53,53,54,54,55,55,56,56,57,57,58,58,59,59,60,60,61,61,62,62],"right_children":[2,4,6,8,10,12,14,16,18,20,22,24,26,28,30,32,34,36,38,40,42,44,46,48,50,52,54,56,58,60,62,64,66,68,70,72,74,76,78,80,82,84,86,88,90,92,94,96,98,100,102,104,106,108,110,112,114,116,118,120,122,124,126,-1,-1,-1,-1,-1,-1,-1,-1,-1,-1,-1,-1,-1,-1,-1,-1,-1,-1,-1,-1,-1,-1,-1,-1,-1,-1,-1,-1,-1,-1,-1,-1,-1,-1,-1,-1,-1,-1,-1,-1,-1,-1,-1,-1,-1,-1,-1,-1,-1,-1,-1,-1,-1,-1,-1,-1,-1,-1,-1,-1,-1,-1,-1,-1],"split_conditions":[1.7835326E-1,1.27795655E-2,-2.367062E-1,1E0,1E0,1E0,1E0,-8.3547205E-1,-2.1118455E-1,1E0,1.1852635E0,8.757608E-1,1.2244645E0,1.2244645E0,1.2244645E0,1E0,4.03204E-1,1E0,8.740704E-1,4.3623787E-1,9.791984E-1,1E0,-6.252132E-1,-1.0849578E0,-1.1348549E0,3.008059E-1,-6.3758475E-1,5.996996E-1,1E0,1.2442861E-1,5.6164825E-1,-3.5261616E-1,1.010369E0,-5.190543E-1,1E0,-9.851635E-1,-8.3547205E-1,1.083721E0,1E0,1.4271849E0,5.5680114E-1,5.5680114E-1,-6.71976E-1,5.5680114E-1,-2.2543044E-1,1.9587685E0,-8.255731E-1,6.6962266E-1,1E0,-8.978102E-1,1E0,1E0,-1.2845464E0,-5.3740084E-1,1.6918614E0,1E0,7.6159734E-1,-2.1631765E-1,4.3623787E-1,9.109283E-1,-7.23175E-1,-1.6512784E0,2.451166E0,-6.303922E-2,-3.647969E-2,-2.7802901E-2,-3.7962825E-3,-1.4131378E-2,1.1056868E-3,-3.7671104E-2,-1.7024448E-2,-6.836987E-2,-4.383728E-2,-4.2998936E-2,-1.8514717E-2,-7.83943E-2,-4.7475044E-2,-4.728765E-2,-1.4947461E-2,-1.2122024E-2,-4.2909212E-2,7.7775954E-3,-8.804938E-3,1.2005968E-2,-2.0765264E-3,3.395768E-2,1.9273033E-2,-2.6733195E-2,-5.2901447E-2,-2.7425954E-2,-5.956533E-3,-2.3857063E-2,9.852184E-3,2.3168955E-2,1.1217461E-3,-2.398861E-2,-1.1954821E-3,-5.0834944E-3,1.0474962E-2,-1.7087307E-2,7.0336703E-3,1.3390517E-2,2.6124308E-2,-2.722408E-2,-9.012735E-3,-6.657182E-2,-3.566761E-2,-3.1249383E-2,-9.53684E-3,-1.6188505E-4,4.202655E-2,9.123759E-3,2.4087692E-2,3.2155402E-2,1.9774348E-2,2.3213848E-2,3.410507E-2,3.4155797E-2,4.1917972E-2,-1.3498875E-2,1.0098715E-2,2.8070373E-2,5.815014E-3,-4.001607E-2,1.3785975E-2,2.8366962E-2,-5.9082646E-2],"split_indices":[17,1,1,31,31,31,31,1,12,34,1,17,17,17,17,34,12,34,5,1,1,34,5,1,1,12,14,1,34,5,1,5,5,17,34,1,1,7,35,12,12,12,12,12,7,1,12,5,34,5,34,34,1,19,5,34,12,5,1,1,12,19,12,0,0,0,0,0,0,0,0,0,0,0,0,0,0,0,0,0,0,0,0,0,0,0,0,0,0,0,0,0,0,0,0,0,0,0,0,0,0,0,0,0,0,0,0,0,0,0,0,0,0,0,0,0,0,0,0,0,0,0,0,0,0,0,0],"split_type":[0,0,0,0,0,0,0,0,0,0,0,0,0,0,0,0,0,0,0,0,0,0,0,0,0,0,0,0,0,0,0,0,0,0,0,0,0,0,0,0,0,0,0,0,0,0,0,0,0,0,0,0,0,0,0,0,0,0,0,0,0,0,0,0,0,0,0,0,0,0,0,0,0,0,0,0,0,0,0,0,0,0,0,0,0,0,0,0,0,0,0,0,0,0,0,0,0,0,0,0,0,0,0,0,0,0,0,0,0,0,0,0,0,0,0,0,0,0,0,0,0,0,0,0,0,0,0],"sum_hessian":[5.76E4,2.8812E4,2.8788E4,1.4401E4,1.4411E4,1.1704E4,1.7084E4,1.1598E4,2.803E3,1.1485E4,2.926E3,9.315E3,2.389E3,1.3576E4,3.508E3,4.65E3,6.948E3,1.174E3,1.629E3,5.728E3,5.757E3,2.199E3,7.27E2,3.808E3,5.507E3,1.378E3,1.011E3,8.19E3,5.386E3,2.145E3,1.363E3,2.382E3,2.268E3,4.442E3,2.506E3,6.07E2,5.67E2,1.292E3,3.37E2,1.967E3,3.761E3,3.888E3,1.869E3,1.062E3,1.137E3,1.85E2,5.42E2,1.269E3,2.539E3,1.738E3,3.769E3,8.37E2,5.41E2,5.3E2,4.81E2,4.483E3,3.707E3,2.784E3,2.602E3,1.176E3,9.69E2,6.8E2,6.83E2,8.24E2,1.558E3,1.862E3,4.06E2,2.648E3,1.794E3,1.264E3,1.242E3,1.92E2,4.15E2,2.32E2,3.35E2,9.46E2,3.46E2,2.57E2,8E1,1.791E3,1.76E2,2.713E3,1.048E3,2.72E3,1.168E3,4.81E2,1.388E3,7.45E2,3.17E2,4.18E2,7.19E2,1.28E2,5.7E1,1.21E2,4.21E2,9.15E2,3.54E2,1.238E3,1.301E3,3.35E2,1.403E3,1.829E3,1.94E3,4.33E2,4.04E2,1.34E2,4.07E2,1.82E2,3.48E2,4.5E2,3.1E1,2.233E3,2.25E3,2.832E3,8.75E2,1.19E3,1.594E3,1.144E3,1.458E3,8.13E2,3.63E2,2.32E2,7.37E2,1.3E1,6.67E2,6.79E2,4E0],"tree_param":{"num_deleted":"0","num_feature":"38","num_nodes":"127","size_leaf_vector":"1"}},{"base_weights":[-3.070879E-5,-1.7727736E-1,1.773637E-1,-4.005127E-1,-2.8520998E-2,1.8436633E-2,2.8623486E-1,-3.269325E-1,-7.1249396E-1,3.282248E-2,-2.674278E-1,8.511091E-2,-2.4146128E-1,3.3188552E-1,1.0952206E-1,-4.5426822E-1,-1.9665381E-1,-8.705611E-1,-5.459552E-1,-6.913531E-2,1.3758464E-1,-4.4770357E-1,-1.3755174E-1,-5.370711E-3,2.2424851E-1,-4.61269E-2,-3.2716426E-1,2.4680458E-1,3.8863155E-1,2.0242509E-2,2.4990651E-1,-3.1610268E-1,-6.135602E-1,-4.4187E-1,-1.4552899E-1,-1.2049322E0,-7.88497E-1,-4.9418056E-1,-1.099235E0,-2.0119356E-1,1.960592E-2,4.8516434E-2,2.2740291E-1,-3.4244815E-1,-7.38699E-1,-2.604899E-1,-2.2579791E-2,-1.6912486E-1,7.700904E-2,7.918124E-2,2.9140234E-1,-1.7070355E-1,1.0964E-1,-4.467645E-1,-1.5610354E-1,3.326736E-1,1.5769015E-1,3.306955E-1,4.481451E-1,1.1047682E-1,-1.19907625E-1,1.9363168E-1,4.0810016E-1,-6.400925E-2,-2.0792108E-2,-5.812554E-2,-3.3777524E-2,-3.992168E-2,-3.470952E-3,-7.984406E-3,-2.8914832E-2,-9.189359E-2,5.047396E-2,-4.4364486E-2,-7.004633E-2,-5.1843353E-2,-2.817388E-2,-9.750584E-2,-1.5935985E-2,-6.964586E-3,-3.201103E-2,-6.94295E-3,9.672111E-3,-2.545424E-3,1.2699938E-2,2.277963E-2,1.0978553E-2,-3.737181E-2,-1.4996139E-2,-6.788194E-2,-4.0173277E-2,-2.4689514E-2,5.377083E-3,-1.33908205E-2,8.182246E-3,-2.4478296E-2,-5.502948E-3,-1.7232364E-3,1.2845091E-2,9.251944E-3,-2.1404235E-2,1.6494138E-2,2.6916444E-2,-2.0783886E-2,7.0889234E-3,1.4750202E-2,-3.6643727E-3,-4.3507926E-2,-2.306192E-2,-2.2464734E-2,-5.3301844E-4,1.9404517E-2,3.0312978E-2,6.0121217E-3,2.4568658E-2,1.895578E-2,2.9114353E-2,2.9487321E-2,3.691984E-2,-1.0671464E-5,1.6282791E-2,-1.3185558E-2,1.3625546E-2,6.8224296E-3,2.1678222E-2,1.4696518E-2,3.358161E-2],"categories":[],"categories_nodes":[],"categories_segments":[],"categories_sizes":[],"default_left":[0,0,0,0,0,0,0,0,0,0,0,0,0,0,0,0,0,0,0,0,0,0,0,0,0,0,0,0,0,0,0,0,0,0,0,0,0,0,0,0,0,0,0,0,0,0,0,0,0,0,0,0,0,0,0,0,0,0,0,0,0,0,0,0,0,0,0,0,0,0,0,0,0,0,0,0,0,0,0,0,0,0,0,0,0,0,0,0,0,0,0,0,0,0,0,0,0,0,0,0,0,0,0,0,0,0,0,0,0,0,0,0,0,0,0,0,0,0,0,0,0,0,0,0,0,0,0],"id":3,"left_children":[1,3,5,7,9,11,13,15,17,19,21,23,25,27,29,31,33,35,37,39,41,43,45,47,49,51,53,55,57,59,61,63,65,67,69,71,73,75,77,79,81,83,85,87,89,91,93,95,97,99,101,103,105,107,109,111,113,115,117,119,121,123,125,-1,-1,-1,-1,-1,-1,-1,-1,-1,-1,-1,-1,-1,-1,-1,-1,-1,-1,-1,-1,-1,-1,-1,-1,-1,-1,-1,-1,-1,-1,-1,-1,-1,-1,-1,-1,-1,-1,-1,-1,-1,-1,-1,-1,-1,-1,-1,-1,-1,-1,-1,-1,-1,-1,-1,-1,-1,-1,-1,-1,-1,-1,-1,-1],"loss_changes":[1.8111545E3,9.5680133E2,4.981186E2,2.6426196E2,2.534295E2,2.0285071E2,1.3778918E2,1.5460431E2,5.738562E1,1.4698445E2,8.265834E1,1.1728402E2,3.999527E1,6.545398E1,4.397485E1,1.03576904E2,5.7742126E1,2.9947144E1,3.0193787E1,8.173233E1,5.4284637E1,4.504709E1,2.9040398E1,7.6177704E1,3.5739166E1,1.4184306E1,3.3912476E1,4.153708E1,2.7928589E1,2.7152317E1,1.2063751E1,5.2550964E1,5.7324585E1,2.8411667E1,3.5750725E1,9.217865E0,2.5433228E1,2.2701035E1,1.5930702E1,6.847124E1,5.119133E1,3.3965996E1,2.085147E1,2.406215E1,1.2759735E1,2.2686104E1,2.185014E1,2.8434288E1,3.541185E1,1.8766506E1,1.202388E1,1.148499E1,4.4926615E0,1.7965225E1,1.4636335E1,1.4524994E1,3.5128403E1,1.841217E1,9.543274E0,1.5404288E1,1.4209813E1,9.847561E0,2.9155617E0,0E0,0E0,0E0,0E0,0E0,0E0,0E0,0E0,0E0,0E0,0E0,0E0,0E0,0E0,0E0,0E0,0E0,0E0,0E0,0E0,0E0,0E0,0E0,0E0,0E0,0E0,0E0,0E0,0E0,0E0,0E0,0E0,0E0,0E0,0E0,0E0,0E0,0E0,0E0,0E0,0E0,0E0,0E0,0E0,0E0,0E0,0E0,0E0,0E0,0E0,0E0,0E0,0E0,0E0,0E0,0E0,0E0,0E0,0E0,0E0,0E0,0E0,0E0,0E0],"parents":[2147483647,0,0,1,1,2,2,3,3,4,4,5,5,6,6,7,7,8,8,9,9,10,10,11,11,12,12,13,13,14,14,15,15,16,16,17,17,18,18,19,19,20,20,21,21,22,22,23,23,24,24,25,25,26,26,27,27,28,28,29,29,30,30,31,31,32,32,33,33,34,34,35,35,36,36,37,37,38,38,39,39,40,40,41,41,42,42,43,43,44,44,45,45,46,46,47,47,48,48,49,49,50,50,51,51,52,52,53,53,54,54,55,55,56,56,57,57,58,58,59,59,60,60,61,61,62,62],"right_children":[2,4,6,8,10,12,14,16,18,20,22,24,26,28,30,32,34,36,38,40,42,44,46,48,50,52,54,56,58,60,62,64,66,68,70,72,74,76,78,80,82,84,86,88,90,92,94,96,98,100,102,104,106,108,110,112,114,116,118,120,122,124,126,-1,-1,-1,-1,-1,-1,-1,-1,-1,-1,-1,-1,-1,-1,-1,-1,-1,-1,-1,-1,-1,-1,-1,-1,-1,-1,-1,-1,-1,-1,-1,-1,-1,-1,-1,-1,-1,-1,-1,-1,-1,-1,-1,-1,-1,-1,-1,-1,-1,-1,-1,-1,-1,-1,-1,-1,-1,-1,-1,-1,-1,-1,-1,-1],"split_conditions":[1.7835326E-1,-2.367062E-1,-2.367062E-1,1E0,1E0,1E0,1E0,1E0,1E0,5.1453984E-1,4.119568E-1,1.2244645E0,-5.183788E-1,8.757608E-1,1.2244645E0,1.4720878E-1,-1.484135E0,-1.2164618E0,1.3759859E0,-8.6775804E-1,1E0,6.5919924E-1,1E0,-1.0849578E0,-1.1348549E0,3.6214837E-1,1.2244645E0,4.4810683E-2,1E0,3.008059E-1,1.0606197E0,-1.9831065E0,2.109534E-1,8.740704E-1,1.0687916E0,2.645951E0,-2.1118455E-1,-2.2543044E-1,-1.703505E-1,5.5680114E-1,1E0,-5.190543E-1,4.4810683E-2,2.109534E-1,-1.1869896E-2,1.6593856E0,9.109283E-1,-2.8446692E-1,1E0,1.2735878E0,1E0,-5.626684E-1,8.8000435E-1,1E0,1E0,1E0,8.610312E-1,4.0742558E-1,4.6185395E-1,5.6164825E-1,1.3162559E0,1E0,-8.802684E-1,-6.400925E-2,-2.0792108E-2,-5.812554E-2,-3.3777524E-2,-3.992168E-2,-3.470952E-3,-7.984406E-3,-2.8914832E-2,-9.189359E-2,5.047396E-2,-4.4364486E-2,-7.004633E-2,-5.1843353E-2,-2.817388E-2,-9.750584E-2,-1.5935985E-2,-6.964586E-3,-3.201103E-2,-6.94295E-3,9.672111E-3,-2.545424E-3,1.2699938E-2,2.277963E-2,1.0978553E-2,-3.737181E-2,-1.4996139E-2,-6.788194E-2,-4.0173277E-2,-2.4689514E-2,5.377083E-3,-1.33908205E-2,8.182246E-3,-2.4478296E-2,-5.502948E-3,-1.7232364E-3,1.2845091E-2,9.251944E-3,-2.1404235E-2,1.6494138E-2,2.6916444E-2,-2.0783886E-2,7.0889234E-3,1.4750202E-2,-3.6643727E-3,-4.3507926E-2,-2.306192E-2,-2.2464734E-2,-5.3301844E-4,1.9404517E-2,3.0312978E-2,6.0121217E-3,2.4568658E-2,1.895578E-2,2.9114353E-2,2.9487321E-2,3.691984E-2,-1.0671464E-5,1.6282791E-2,-1.3185558E-2,1.3625546E-2,6.8224296E-3,2.1678222E-2,1.4696518E-2,3.358161E-2],"split_indices":[17,1,1,31,31,31,31,34,34,1,1,17,12,17,17,12,1,17,12,17,34,12,34,1,1,10,17,12,34,12,1,1,7,5,12,5,12,7,17,12,34,17,12,7,5,1,1,5,34,12,34,1,13,34,34,34,1,1,1,1,1,34,13,0,0,0,0,0,0,0,0,0,0,0,0,0,0,0,0,0,0,0,0,0,0,0,0,0,0,0,0,0,0,0,0,0,0,0,0,0,0,0,0,0,0,0,0,0,0,0,0,0,0,0,0,0,0,0,0,0,0,0,0,0,0,0,0],"split_type":[0,0,0,0,0,0,0,0,0,0,0,0,0,0,0,0,0,0,0,0,0,0,0,0,0,0,0,0,0,0,0,0,0,0,0,0,0,0,0,0,0,0,0,0,0,0,0,0,0,0,0,0,0,0,0,0,0,0,0,0,0,0,0,0,0,0,0,0,0,0,0,0,0,0,0,0,0,0,0,0,0,0,0,0,0,0,0,0,0,0,0,0,0,0,0,0,0,0,0,0,0,0,0,0,0,0,0,0,0,0,0,0,0,0,0,0,0,0,0,0,0,0,0,0,0,0,0],"sum_hessian":[5.76E4,2.8812E4,2.8788E4,1.1521E4,1.7291E4,1.1704E4,1.7084E4,9.324E3,2.197E3,1.3759E4,3.532E3,9.315E3,2.389E3,1.3576E4,3.508E3,4.714E3,4.61E3,1.125E3,1.072E3,6.973E3,6.786E3,1.478E3,2.054E3,5.645E3,3.67E3,7.29E2,1.66E3,5.434E3,8.142E3,2.145E3,1.363E3,2.526E3,2.188E3,7.94E2,3.816E3,2.19E2,9.06E2,9.82E2,9E1,2.802E3,4.171E3,3.408E3,3.378E3,1.087E3,3.91E2,9.92E2,1.062E3,1.889E3,3.756E3,1.162E3,2.508E3,4.05E2,3.24E2,9.76E2,6.84E2,2.766E3,2.668E3,4.129E3,4.013E3,1.305E3,8.4E2,1.007E3,3.56E2,1.69E2,2.357E3,1.098E3,1.09E3,6.46E2,1.48E2,3.283E3,5.33E2,2.17E2,2E0,3.87E2,5.19E2,3.67E2,6.15E2,7.3E1,1.7E1,1.894E3,9.08E2,2.059E3,2.112E3,2.026E3,1.382E3,1.738E3,1.64E3,5.18E2,5.69E2,2.13E2,1.78E2,8.22E2,1.7E2,4.86E2,5.76E2,7.14E2,1.175E3,1.823E3,1.933E3,1.037E3,1.25E2,1.22E3,1.288E3,2.89E2,1.16E2,2.09E2,1.15E2,4.97E2,4.79E2,3.48E2,3.36E2,1.362E3,1.404E3,1.833E3,8.35E2,1.755E3,2.374E3,1.791E3,2.222E3,6.41E2,6.64E2,7.09E2,1.31E2,4.86E2,5.21E2,5.7E1,2.99E2],"tree_param":{"num_deleted":"0","num_feature":"38","num_nodes":"127","size_leaf_vector":"1"}},{"base_weights":[-3.8389877E-5,-1.6400874E-1,1.6406865E-1,-3.7052685E-1,-2.6392175E-2,-2.4592787E-2,2.4284524E-1,-3.024401E-1,-6.592158E-1,3.0361349E-2,-2.4742305E-1,3.522356E-2,-2.5769657E-1,2.8891367E-1,6.431742E-2,-1.9281304E-1,-4.3364236E-1,-6.102029E-1,-1.145804E0,-4.5430522E-2,1.5127668E-1,-4.1423428E-1,-1.2724729E-1,-5.7240553E-2,1.7645095E-1,-3.6295182E-1,-1.2196893E-1,2.2354901E-1,3.645108E-1,-5.594294E-2,1.7705606E-1,-3.4673214E-1,-1.18313104E-1,-5.675852E-1,-2.9082406E-1,-7.574921E-1,-4.5719844E-1,-1.2872905E0,-7.9421425E-1,-1.6458546E-1,3.3975933E-2,6.624815E-2,2.3666592E-1,-3.203416E-1,-6.9378346E-1,-2.4097262E-1,-2.0891206E-2,-2.1261571E-1,2.1731397E-2,2.003802E-2,2.3394427E-1,-3.2203957E-1,-1.0285999E0,-2.4246427E-1,5.681001E-2,1.2181712E-1,2.923313E-1,4.2027664E-1,3.066282E-1,-1.9441985E-1,7.773433E-2,2.3837778E-1,1.5542391E-2,-3.877622E-2,-1.5297997E-2,-3.158556E-2,-6.121654E-3,-5.377009E-2,-3.1246532E-2,-4.420984E-2,-1.7363848E-2,-6.6933624E-2,-4.2323846E-2,-4.796567E-2,-2.606427E-2,-1.6380365E-1,-8.784286E-2,-6.761058E-2,2.4102941E-2,-5.4517738E-3,-2.8577412E-2,-4.6539647E-3,9.6703665E-3,9.570328E-3,-7.061373E-3,1.069331E-2,2.1944279E-2,-3.4988824E-2,-1.3893352E-2,-4.6880864E-2,-9.128192E-2,-2.284005E-2,4.97616E-3,-1.2388572E-2,7.5696413E-3,-2.8579222E-2,-3.5806412E-3,-1.3529332E-2,6.2748617E-3,-6.915364E-3,9.7777825E-3,7.0050647E-3,2.1600164E-2,-6.502745E-2,-2.1579295E-2,-3.85241E-2,-1.01001926E-1,-3.2874998E-2,-1.0508693E-2,5.2823797E-2,2.0989128E-3,1.6630336E-3,1.672494E-2,1.701714E-2,2.686792E-2,2.9220749E-2,3.946897E-2,1.8863449E-2,2.9103998E-2,-2.011057E-2,1.3836523E-2,-7.356934E-3,1.358652E-2,1.1718693E-2,2.7571853E-2,-8.197229E-3,1.577002E-2],"categories":[],"categories_nodes":[],"categories_segments":[],"categories_sizes":[],"default_left":[0,0,0,0,0,0,0,0,0,0,0,0,0,0,0,0,0,0,0,0,0,0,0,0,0,0,0,0,0,0,0,0,0,0,0,0,0,0,0,0,0,0,0,0,0,0,0,0,0,0,0,0,0,0,0,0,0,0,0,0,0,0,0,0,0,0,0,0,0,0,0,0,0,0,0,0,0,0,0,0,0,0,0,0,0,0,0,0,0,0,0,0,0,0,0,0,0,0,0,0,0,0,0,0,0,0,0,0,0,0,0,0,0,0,0,0,0,0,0,0,0,0,0,0,0,0,0],"id":4,"left_children":[1,3,5,7,9,11,13,15,17,19,21,23,25,27,29,31,33,35,37,39,41,43,45,47,49,51,53,55,57,59,61,63,65,67,69,71,73,75,77,79,81,83,85,87,89,91,93,95,97,99,101,103,105,107,109,111,113,115,117,119,121,123,125,-1,-1,-1,-1,-1,-1,-1,-1,-1,-1,-1,-1,-1,-1,-1,-1,-1,-1,-1,-1,-1,-1,-1,-1,-1,-1,-1,-1,-1,-1,-1,-1,-1,-1,-1,-1,-1,-1,-1,-1,-1,-1,-1,-1,-1,-1,-1,-1,-1,-1,-1,-1,-1,-1,-1,-1,-1,-1,-1,-1,-1,-1,-1,-1],"loss_changes":[1.5499943E3,8.188648E2,4.278711E2,2.2627563E2,2.1692322E2,1.1826319E2,1.6701282E2,1.340409E2,5.1721313E1,1.2610901E2,7.0772156E1,8.815475E1,2.469915E1,7.9687256E1,5.650605E1,5.823407E1,8.102045E1,4.470288E1,8.926666E0,8.004186E1,3.8479607E1,3.8597992E1,2.4850975E1,5.006736E1,2.4014809E1,2.6221054E1,1.6342634E1,6.0561462E1,2.4028442E1,3.7352234E1,2.1300446E1,4.017549E1,3.8032143E1,4.9055542E1,3.627777E1,2.6009644E1,1.9436295E1,1.2115967E1,7.469185E0,6.726151E1,4.6305744E1,2.6170784E1,1.387587E1,2.1814026E1,1.2578201E1,1.9417236E1,1.8701384E1,3.8167545E1,3.3889168E1,8.916135E0,1.4810982E1,1.6956192E1,8.481071E0,9.019815E0,5.691497E0,3.5232063E1,2.2198334E1,1.2174072E1,1.6399506E1,2.7731483E1,1.869261E1,1.6491127E1,1.4438321E1,0E0,0E0,0E0,0E0,0E0,0E0,0E0,0E0,0E0,0E0,0E0,0E0,0E0,0E0,0E0,0E0,0E0,0E0,0E0,0E0,0E0,0E0,0E0,0E0,0E0,0E0,0E0,0E0,0E0,0E0,0E0,0E0,0E0,0E0,0E0,0E0,0E0,0E0,0E0,0E0,0E0,0E0,0E0,0E0,0E0,0E0,0E0,0E0,0E0,0E0,0E0,0E0,0E0,0E0,0E0,0E0,0E0,0E0,0E0,0E0,0E0,0E0,0E0,0E0],"parents":[2147483647,0,0,1,1,2,2,3,3,4,4,5,5,6,6,7,7,8,8,9,9,10,10,11,11,12,12,13,13,14,14,15,15,16,16,17,17,18,18,19,19,20,20,21,21,22,22,23,23,24,24,25,25,26,26,27,27,28,28,29,29,30,30,31,31,32,32,33,33,34,34,35,35,36,36,37,37,38,38,39,39,40,40,41,41,42,42,43,43,44,44,45,45,46,46,47,47,48,48,49,49,50,50,51,51,52,52,53,53,54,54,55,55,56,56,57,57,58,58,59,59,60,60,61,61,62,62],"right_children":[2,4,6,8,10,12,14,16,18,20,22,24,26,28,30,32,34,36,38,40,42,44,46,48,50,52,54,56,58,60,62,64,66,68,70,72,74,76,78,80,82,84,86,88,90,92,94,96,98,100,102,104,106,108,110,112,114,116,118,120,122,124,126,-1,-1,-1,-1,-1,-1,-1,-1,-1,-1,-1,-1,-1,-1,-1,-1,-1,-1,-1,-1,-1,-1,-1,-1,-1,-1,-1,-1,-1,-1,-1,-1,-1,-1,-1,-1,-1,-1,-1,-1,-1,-1,-1,-1,-1,-1,-1,-1,-1,-1,-1,-1,-1,-1,-1,-1,-1,-1,-1,-1,-1,-1,-1,-1],"split_conditions":[1.7835326E-1,-2.367062E-1,-5.626684E-1,1E0,1E0,1E0,1E0,1.4720878E-1,1.3759859E0,7.6123685E-1,4.119568E-1,1.2244645E0,1.2244645E0,4.3623787E-1,3.6205962E-1,-4.2076543E-1,1E0,1E0,-5.360891E-1,-8.6775804E-1,1E0,7.1039826E-1,1E0,-4.2076543E-1,-1.3843408E0,1.6319811E0,-6.3758475E-1,8.757608E-1,4.4810683E-2,1E0,6.0800016E-1,-8.853692E-1,-1.7336208E0,2.109534E-1,-1.484135E0,-5.190543E-1,-2.2543044E-1,-1.3748549E0,1.3115005E0,6.0800016E-1,1E0,5.5680114E-1,-2.2543044E-1,2.109534E-1,1.5732951E0,1.6593856E0,9.109283E-1,1E0,-1.484135E0,1E0,-5.5706394E-1,-1.5793028E0,1E0,-5.3740084E-1,-1.5674164E0,1E0,1E0,1.4844443E0,1.2244645E0,1.010369E0,-2.2543044E-1,1.2244645E0,6.4733726E-1,-3.877622E-2,-1.5297997E-2,-3.158556E-2,-6.121654E-3,-5.377009E-2,-3.1246532E-2,-4.420984E-2,-1.7363848E-2,-6.6933624E-2,-4.2323846E-2,-4.796567E-2,-2.606427E-2,-1.6380365E-1,-8.784286E-2,-6.761058E-2,2.4102941E-2,-5.4517738E-3,-2.8577412E-2,-4.6539647E-3,9.6703665E-3,9.570328E-3,-7.061373E-3,1.069331E-2,2.1944279E-2,-3.4988824E-2,-1.3893352E-2,-4.6880864E-2,-9.128192E-2,-2.284005E-2,4.97616E-3,-1.2388572E-2,7.5696413E-3,-2.8579222E-2,-3.5806412E-3,-1.3529332E-2,6.2748617E-3,-6.915364E-3,9.7777825E-3,7.0050647E-3,2.1600164E-2,-6.502745E-2,-2.1579295E-2,-3.85241E-2,-1.01001926E-1,-3.2874998E-2,-1.0508693E-2,5.2823797E-2,2.0989128E-3,1.6630336E-3,1.672494E-2,1.701714E-2,2.686792E-2,2.9220749E-2,3.946897E-2,1.8863449E-2,2.9103998E-2,-2.011057E-2,1.3836523E-2,-7.356934E-3,1.358652E-2,1.1718693E-2,2.7571853E-2,-8.197229E-3,1.577002E-2],"split_indices":[17,1,1,31,31,31,31,12,12,1,1,17,17,1,1,5,34,34,1,17,34,12,34,5,1,12,14,17,12,34,12,1,1,7,1,17,7,5,4,12,34,12,7,7,16,1,1,34,1,34,5,5,15,19,4,34,34,1,17,5,7,17,7,0,0,0,0,0,0,0,0,0,0,0,0,0,0,0,0,0,0,0,0,0,0,0,0,0,0,0,0,0,0,0,0,0,0,0,0,0,0,0,0,0,0,0,0,0,0,0,0,0,0,0,0,0,0,0,0,0,0,0,0,0,0,0,0],"split_type":[0,0,0,0,0,0,0,0,0,0,0,0,0,0,0,0,0,0,0,0,0,0,0,0,0,0,0,0,0,0,0,0,0,0,0,0,0,0,0,0,0,0,0,0,0,0,0,0,0,0,0,0,0,0,0,0,0,0,0,0,0,0,0,0,0,0,0,0,0,0,0,0,0,0,0,0,0,0,0,0,0,0,0,0,0,0,0,0,0,0,0,0,0,0,0,0,0,0,0,0,0,0,0,0,0,0,0,0,0,0,0,0,0,0,0,0,0,0,0,0,0,0,0,0,0,0,0],"sum_hessian":[5.76E4,2.8812E4,2.8788E4,1.1521E4,1.7291E4,8.48E3,2.0308E4,9.324E3,2.197E3,1.3759E4,3.532E3,6.749E3,1.731E3,1.6142E4,4.166E3,5.081E3,4.243E3,1.998E3,1.99E2,8.458E3,5.301E3,1.478E3,2.054E3,4.079E3,2.67E3,9.74E2,7.57E2,8.659E3,7.483E3,2.016E3,2.15E3,1.656E3,3.425E3,2.188E3,2.055E3,1.016E3,9.82E2,1.4E2,5.9E1,3.382E3,5.076E3,2.657E3,2.644E3,1.108E3,3.7E2,9.92E2,1.062E3,1.374E3,2.705E3,7.18E2,1.952E3,9.19E2,5.5E1,4.52E2,3.05E2,3.494E3,5.165E3,3.808E3,3.675E3,9.9E2,1.026E3,1.558E3,5.92E2,7.54E2,9.02E2,3.69E2,3.056E3,1.098E3,1.09E3,3.39E2,1.716E3,5.96E2,4.2E2,3.67E2,6.15E2,1.4E1,1.26E2,5.4E1,5E0,2.375E3,1.007E3,2.524E3,2.552E3,1.922E3,7.35E2,9.87E2,1.657E3,5.31E2,5.77E2,3.29E2,4.1E1,8.22E2,1.7E2,4.86E2,5.76E2,6.79E2,6.95E2,6.34E2,2.071E3,3.56E2,3.62E2,5.43E2,1.409E3,5.3E1,8.66E2,2.2E1,3.3E1,1.54E2,2.98E2,1.2E1,2.93E2,1.761E3,1.733E3,2.594E3,2.571E3,2.957E3,8.51E2,2.194E3,1.481E3,8.29E2,1.61E2,3.8E2,6.46E2,9.54E2,6.04E2,3.61E2,2.31E2],"tree_param":{"num_deleted":"0","num_feature":"38","num_nodes":"127","size_leaf_vector":"1"}},{"base_weights":[-5.143447E-5,-1.2436274E-1,1.8750921E-1,-2.595983E-1,4.7379166E-2,2.588188E-2,2.6160172E-1,-1.9680837E-1,-5.1658106E-1,9.6093275E-2,-1.4033625E-1,8.2282E-2,-1.952765E-1,2.9843172E-1,1.1787982E-1,-3.166952E-1,-9.1442674E-2,-6.537384E-1,-3.7355745E-1,9.795928E-3,1.8139774E-1,-7.769985E-2,-3.324395E-1,-1.0387336E-1,1.3127585E-1,-2.5682247E-1,-3.8642325E-2,2.3933598E-1,3.5814348E-1,2.7586916E-1,5.6665182E-2,-4.3600476E-1,-1.9272493E-1,-1.8885592E-1,7.579634E-3,-4.7942078E-1,-7.765809E-1,-4.6463418E-1,-1.9124298E-1,-8.601316E-2,1.0253543E-1,1.919093E-2,2.2728969E-1,-1.8347837E-1,2.3608122E-2,-4.6733272E-1,-1.3899481E-1,-2.3593825E-1,3.5605837E-2,-1.6685432E-2,1.9058383E-1,-2.9519358E-1,8.165795E-2,-1.19057894E-1,1.2188828E-1,1.3797955E-1,2.8449377E-1,4.0527678E-1,2.990677E-1,2.026206E-1,3.7869948E-1,-2.4265867E-2,2.00874E-1,-4.1703466E-2,-2.0945877E-2,-2.6901996E-2,-8.106232E-3,-1.0802711E-2,-3.476209E-2,-6.54988E-3,7.6658158E-3,-4.5368683E-2,-1.804923E-2,-9.389695E-2,-5.406186E-2,-2.828293E-2,-5.3303108E-2,-3.3395723E-2,-2.6383535E-3,-2.1516451E-5,-1.678223E-2,3.800825E-3,1.873851E-2,-3.8118893E-3,1.4784658E-2,2.0074736E-2,5.700362E-3,-1.7629705E-2,9.866257E-3,-9.909114E-3,7.99166E-3,-2.2184087E-2,-5.1054318E-2,-2.3512868E-2,8.97987E-4,-3.6320124E-2,-1.0630015E-2,1.8661965E-2,-5.8989637E-3,1.3143261E-2,-7.273903E-3,1.9863183E-2,7.648918E-3,-6.9303373E-3,-2.9365525E-2,1.3625262E-2,-4.9738135E-2,-5.108043E-3,-4.2729184E-2,4.167969E-2,3.9567873E-3,5.9800586E-3,2.2394381E-2,1.6561804E-2,2.5894787E-2,2.5886951E-2,3.3250257E-2,1.986865E-2,3.3602104E-2,7.121932E-3,2.3430102E-2,2.5607573E-2,4.223202E-2,-1.0502025E-2,6.794755E-3,8.360372E-3,2.2623936E-2],"categories":[],"categories_nodes":[],"categories_segments":[],"categories_sizes":[],"default_left":[0,0,0,0,0,0,0,0,0,0,0,0,0,0,0,0,0,0,0,0,0,0,0,0,0,0,0,0,0,0,0,0,0,0,0,0,0,0,0,0,0,0,0,0,0,0,0,0,0,0,0,0,0,0,0,0,0,0,0,0,0,0,0,0,0,0,0,0,0,0,0,0,0,0,0,0,0,0,0,0,0,0,0,0,0,0,0,0,0,0,0,0,0,0,0,0,0,0,0,0,0,0,0,0,0,0,0,0,0,0,0,0,0,0,0,0,0,0,0,0,0,0,0,0,0,0,0],"id":5,"left_children":[1,3,5,7,9,11,13,15,17,19,21,23,25,27,29,31,33,35,37,39,41,43,45,47,49,51,53,55,57,59,61,63,65,67,69,71,73,75,77,79,81,83,85,87,89,91,93,95,97,99,101,103,105,107,109,111,113,115,117,119,121,123,125,-1,-1,-1,-1,-1,-1,-1,-1,-1,-1,-1,-1,-1,-1,-1,-1,-1,-1,-1,-1,-1,-1,-1,-1,-1,-1,-1,-1,-1,-1,-1,-1,-1,-1,-1,-1,-1,-1,-1,-1,-1,-1,-1,-1,-1,-1,-1,-1,-1,-1,-1,-1,-1,-1,-1,-1,-1,-1,-1,-1,-1,-1,-1,-1],"loss_changes":[1.343043E3,8.04594E2,2.7494775E2,3.1262878E2,1.3957515E2,9.004877E1,8.3297E1,1.9673907E2,7.439746E1,8.920548E1,3.7816868E1,5.247456E1,1.4132252E1,4.413257E1,3.1058132E1,1.0768207E2,7.9986755E1,4.119153E1,3.0878754E1,5.3542675E1,4.535927E1,2.543389E1,2.0105995E1,2.2094343E1,3.996582E1,1.3700325E1,5.371813E0,2.8800629E1,1.7228577E1,6.6796265E0,2.7046513E1,6.968103E1,5.0182358E1,5.138585E1,3.695017E1,2.397522E1,2.9234009E1,2.6504272E1,2.46836E1,3.5001175E1,2.3378685E1,1.6766726E1,2.8992172E1,1.88978E1,1.5682837E1,1.6454475E1,8.407949E0,1.4341988E1,1.4247141E1,2.0114084E1,2.136193E1,1.8446838E1,8.165658E0,6.321576E0,4.1395574E0,1.816217E1,1.6785797E1,7.770569E0,1.396817E1,6.187216E0,2.3639336E0,1.9758171E1,7.4715652E0,0E0,0E0,0E0,0E0,0E0,0E0,0E0,0E0,0E0,0E0,0E0,0E0,0E0,0E0,0E0,0E0,0E0,0E0,0E0,0E0,0E0,0E0,0E0,0E0,0E0,0E0,0E0,0E0,0E0,0E0,0E0,0E0,0E0,0E0,0E0,0E0,0E0,0E0,0E0,0E0,0E0,0E0,0E0,0E0,0E0,0E0,0E0,0E0,0E0,0E0,0E0,0E0,0E0,0E0,0E0,0E0,0E0,0E0,0E0,0E0,0E0,0E0,0E0,0E0],"parents":[2147483647,0,0,1,1,2,2,3,3,4,4,5,5,6,6,7,7,8,8,9,9,10,10,11,11,12,12,13,13,14,14,15,15,16,16,17,17,18,18,19,19,20,20,21,21,22,22,23,23,24,24,25,25,26,26,27,27,28,28,29,29,30,30,31,31,32,32,33,33,34,34,35,35,36,36,37,37,38,38,39,39,40,40,41,41,42,42,43,43,44,44,45,45,46,46,47,47,48,48,49,49,50,50,51,51,52,52,53,53,54,54,55,55,56,56,57,57,58,58,59,59,60,60,61,61,62,62],"right_children":[2,4,6,8,10,12,14,16,18,20,22,24,26,28,30,32,34,36,38,40,42,44,46,48,50,52,54,56,58,60,62,64,66,68,70,72,74,76,78,80,82,84,86,88,90,92,94,96,98,100,102,104,106,108,110,112,114,116,118,120,122,124,126,-1,-1,-1,-1,-1,-1,-1,-1,-1,-1,-1,-1,-1,-1,-1,-1,-1,-1,-1,-1,-1,-1,-1,-1,-1,-1,-1,-1,-1,-1,-1,-1,-1,-1,-1,-1,-1,-1,-1,-1,-1,-1,-1,-1,-1,-1,-1,-1,-1,-1,-1,-1,-1,-1,-1,-1,-1,-1,-1,-1,-1,-1,-1,-1],"split_conditions":[5.2705705E-1,1.407653E-1,-4.8619196E-1,1E0,1E0,1E0,1E0,-6.358834E-1,1E0,-5.190543E-1,7.1039826E-1,-1.484135E0,1.5731684E0,1E0,-5.695779E-1,1E0,-5.190543E-1,-2.1118455E-1,-1.703505E-1,1E0,-7.615117E-1,1E0,9.109283E-1,1E0,-5.5706394E-1,1.2829659E0,4.5763335E-1,6.267672E-2,1.4720878E-1,2.607271E-1,7.0005137E-1,1.9257787E-1,-8.6775804E-1,1.1711897E0,1E0,-1.703505E-1,-1.5340321E0,7.1039826E-1,-2.2543044E-1,3.008059E-1,1.083721E0,1.1852635E0,8.1279635E-1,1.6593856E0,-2.2543044E-1,2.692002E-1,1E0,8.757608E-1,-4.1598073E-1,-5.695779E-1,1.4720878E-1,-4.6717978E-1,1.4725507E0,2.6724404E-1,5.960983E-1,1E0,1.2244645E0,2.1236818E-1,1.1604141E0,5.0208604E-1,1E0,1E0,1E0,-4.1703466E-2,-2.0945877E-2,-2.6901996E-2,-8.106232E-3,-1.0802711E-2,-3.476209E-2,-6.54988E-3,7.6658158E-3,-4.5368683E-2,-1.804923E-2,-9.389695E-2,-5.406186E-2,-2.828293E-2,-5.3303108E-2,-3.3395723E-2,-2.6383535E-3,-2.1516451E-5,-1.678223E-2,3.800825E-3,1.873851E-2,-3.8118893E-3,1.4784658E-2,2.0074736E-2,5.700362E-3,-1.7629705E-2,9.866257E-3,-9.909114E-3,7.99166E-3,-2.2184087E-2,-5.1054318E-2,-2.3512868E-2,8.97987E-4,-3.6320124E-2,-1.0630015E-2,1.8661965E-2,-5.8989637E-3,1.3143261E-2,-7.273903E-3,1.9863183E-2,7.648918E-3,-6.9303373E-3,-2.9365525E-2,1.3625262E-2,-4.9738135E-2,-5.108043E-3,-4.2729184E-2,4.167969E-2,3.9567873E-3,5.9800586E-3,2.2394381E-2,1.6561804E-2,2.5894787E-2,2.5886951E-2,3.3250257E-2,1.986865E-2,3.3602104E-2,7.121932E-3,2.3430102E-2,2.5607573E-2,4.223202E-2,-1.0502025E-2,6.794755E-3,8.360372E-3,2.2623936E-2],"split_indices":[17,1,1,31,31,31,31,1,34,17,12,1,17,34,12,34,17,12,17,34,5,34,1,34,5,5,4,1,12,5,1,5,17,12,34,17,1,12,7,12,7,1,12,1,7,19,34,17,12,12,12,12,3,4,4,33,17,1,1,1,25,34,34,0,0,0,0,0,0,0,0,0,0,0,0,0,0,0,0,0,0,0,0,0,0,0,0,0,0,0,0,0,0,0,0,0,0,0,0,0,0,0,0,0,0,0,0,0,0,0,0,0,0,0,0,0,0,0,0,0,0,0,0,0,0,0,0],"split_type":[0,0,0,0,0,0,0,0,0,0,0,0,0,0,0,0,0,0,0,0,0,0,0,0,0,0,0,0,0,0,0,0,0,0,0,0,0,0,0,0,0,0,0,0,0,0,0,0,0,0,0,0,0,0,0,0,0,0,0,0,0,0,0,0,0,0,0,0,0,0,0,0,0,0,0,0,0,0,0,0,0,0,0,0,0,0,0,0,0,0,0,0,0,0,0,0,0,0,0,0,0,0,0,0,0,0,0,0,0,0,0,0,0,0,0,0,0,0,0,0,0,0,0,0,0,0,0],"sum_hessian":[5.76E4,3.4641E4,2.2959E4,1.938E4,1.5261E4,7.217E3,1.5742E4,1.5576E4,3.804E3,1.2117E4,3.144E3,5.751E3,1.466E3,1.253E4,3.212E3,7.285E3,8.291E3,1.94E3,1.864E3,6.024E3,6.093E3,2.372E3,7.72E2,1.198E3,4.553E3,1.052E3,4.14E2,6.3E3,6.23E3,8.96E2,2.316E3,3.711E3,3.574E3,4.179E3,4.112E3,8.04E2,1.136E3,1.242E3,6.22E2,2.963E3,3.061E3,1.344E3,4.749E3,1.16E3,1.212E3,4.54E2,3.18E2,6.15E2,5.83E2,1.303E3,3.25E3,9.45E2,1.07E2,2.76E2,1.38E2,1.943E3,4.357E3,3.462E3,2.768E3,5.25E2,3.71E2,1.484E3,8.32E2,2.1E3,1.611E3,1.206E3,2.368E3,3.594E3,5.85E2,2.053E3,2.059E3,5.26E2,2.78E2,1.17E2,1.019E3,9.18E2,3.24E2,2.36E2,3.86E2,1.827E3,1.136E3,2.265E3,7.96E2,9.65E2,3.79E2,3.748E3,1.001E3,9.97E2,1.63E2,4.21E2,7.91E2,2.53E2,2.01E2,1.47E2,1.71E2,1.68E2,4.47E2,2.03E2,3.8E2,3.84E2,9.19E2,1.767E3,1.483E3,3.05E2,6.4E2,9.5E1,1.2E1,2.49E2,2.7E1,1.8E1,1.2E2,1.427E3,5.16E2,2.13E3,2.227E3,1.346E3,2.116E3,2.254E3,5.14E2,2.66E2,2.59E2,3.11E2,6E1,7.39E2,7.45E2,4.42E2,3.9E2],"tree_param":{"num_deleted":"0","num_feature":"38","num_nodes":"127","size_leaf_vector":"1"}},{"base_weights":[-5.279311E-5,-1.7448506E-1,1.1609414E-1,-3.2598352E-1,-2.3457605E-2,-5.440924E-2,1.8747638E-1,-2.6378444E-1,-5.844001E-1,-7.767005E-2,1.2738125E-1,-1.6665469E-1,6.0292903E-2,2.2721837E-1,3.1954706E-2,-1.7929372E-1,-4.139195E-1,-5.392955E-1,-9.877214E-1,-1.7479673E-1,1.5878964E-2,5.904716E-2,2.2715983E-1,-1.10317856E-1,-3.987737E-1,1.12806335E-1,-1.359747E-1,1.571953E-1,2.9778287E-1,-4.031255E-2,1.8133791E-1,-2.3851426E-1,-1.5111938E-3,-6.7969805E-1,-3.398601E-1,-6.573685E-1,-4.151362E-1,-1.1726385E0,-6.616849E-1,-2.7673826E-1,-6.811053E-2,-1.04264826E-1,8.639807E-2,1.9836089E-1,-1.2403212E-3,2.7271825E-1,5.5401817E-2,-2.7804816E-1,-3.1517994E-2,-5.3687125E-1,-2.5541738E-1,-7.6920465E-2,1.5540624E-1,-2.976911E-1,-6.4958796E-2,8.1317216E-2,2.4386425E-1,2.4736501E-1,3.511113E-1,5.4139312E-2,-1.8930878E-1,-3.0841664E-3,2.2931303E-1,-2.59914E-2,-1.0224145E-2,-2.7405271E-2,2.5070922E-3,-5.8365814E-2,-1.3179258E-2,-3.4628417E-2,-1.5708134E-2,-5.413884E-2,-2.4429264E-2,-4.0572096E-2,-2.2793602E-2,-7.444963E-2,-1.2823802E-1,-6.00187E-2,1.6863126E-2,-1.6148122E-2,-3.751947E-2,-1.0845138E-4,-1.6706435E-2,-3.4456588E-3,-2.4251927E-2,1.644434E-2,8.173549E-4,1.8585993E-2,-1.9719811E-4,1.0660077E-3,-3.3055883E-2,2.5810013E-2,9.64598E-3,6.097923E-3,-6.721139E-2,-3.1380214E-2,-1.02638E-2,6.433009E-3,-8.194259E-3,-3.629312E-2,-9.336421E-2,-7.0234776E-2,-1.5482284E-2,-1.4522964E-2,5.7093548E-3,1.4134217E-2,-5.81024E-3,-3.7091073E-2,-8.977881E-3,-2.0998027E-2,5.218595E-4,-4.6713604E-3,9.870957E-3,6.9284793E-3,2.1176014E-2,1.5880767E-2,2.596438E-2,3.1160308E-2,2.3314279E-2,-4.275815E-3,1.0823163E-2,-1.8760666E-2,8.12122E-3,1.4381004E-2,-1.3513923E-2,2.0702705E-2,7.6387455E-3],"categories":[],"categories_nodes":[],"categories_segments":[],"categories_sizes":[],"default_left":[0,0,0,0,0,0,0,0,0,0,0,0,0,0,0,0,0,0,0,0,0,0,0,0,0,0,0,0,0,0,0,0,0,0,0,0,0,0,0,0,0,0,0,0,0,0,0,0,0,0,0,0,0,0,0,0,0,0,0,0,0,0,0,0,0,0,0,0,0,0,0,0,0,0,0,0,0,0,0,0,0,0,0,0,0,0,0,0,0,0,0,0,0,0,0,0,0,0,0,0,0,0,0,0,0,0,0,0,0,0,0,0,0,0,0,0,0,0,0,0,0,0,0,0,0,0,0],"id":6,"left_children":[1,3,5,7,9,11,13,15,17,19,21,23,25,27,29,31,33,35,37,39,41,43,45,47,49,51,53,55,57,59,61,63,65,67,69,71,73,75,77,79,81,83,85,87,89,91,93,95,97,99,101,103,105,107,109,111,113,115,117,119,121,123,125,-1,-1,-1,-1,-1,-1,-1,-1,-1,-1,-1,-1,-1,-1,-1,-1,-1,-1,-1,-1,-1,-1,-1,-1,-1,-1,-1,-1,-1,-1,-1,-1,-1,-1,-1,-1,-1,-1,-1,-1,-1,-1,-1,-1,-1,-1,-1,-1,-1,-1,-1,-1,-1,-1,-1,-1,-1,-1,-1,-1,-1,-1,-1,-1],"loss_changes":[1.1670035E3,5.2679126E2,4.2085605E2,1.8459204E2,9.430285E1,1.3139731E2,1.5064209E2,1.1746521E2,4.0016663E1,7.70802E1,2.0775513E1,6.74064E1,5.2043488E1,9.587555E1,5.357465E1,6.2443466E1,6.54328E1,2.9149353E1,1.2668686E1,4.5246056E1,3.6626865E1,1.5210606E1,9.680092E0,5.4868732E1,1.9798615E1,3.220392E1,1.2223072E1,6.407257E1,2.5907532E1,4.7084335E1,1.4316246E1,4.9072495E1,1.8867178E1,3.5907654E1,4.1396667E1,2.172763E1,1.3564163E1,1.1935135E1,1.0375732E1,2.9111664E1,2.0978756E1,2.041743E1,2.7321817E1,5.437521E0,8.598144E0,1.0030937E1,6.5062184E0,2.6240868E1,2.577711E1,1.8596085E1,1.6354424E1,1.3072805E1,2.505149E1,1.1328062E1,1.1475649E1,3.755096E1,2.649237E1,1.7433441E1,1.2036987E1,2.0534016E1,2.3525475E1,1.159367E1,7.6187057E0,0E0,0E0,0E0,0E0,0E0,0E0,0E0,0E0,0E0,0E0,0E0,0E0,0E0,0E0,0E0,0E0,0E0,0E0,0E0,0E0,0E0,0E0,0E0,0E0,0E0,0E0,0E0,0E0,0E0,0E0,0E0,0E0,0E0,0E0,0E0,0E0,0E0,0E0,0E0,0E0,0E0,0E0,0E0,0E0,0E0,0E0,0E0,0E0,0E0,0E0,0E0,0E0,0E0,0E0,0E0,0E0,0E0,0E0,0E0,0E0,0E0,0E0,0E0,0E0],"parents":[2147483647,0,0,1,1,2,2,3,3,4,4,5,5,6,6,7,7,8,8,9,9,10,10,11,11,12,12,13,13,14,14,15,15,16,16,17,17,18,18,19,19,20,20,21,21,22,22,23,23,24,24,25,25,26,26,27,27,28,28,29,29,30,30,31,31,32,32,33,33,34,34,35,35,36,36,37,37,38,38,39,39,40,40,41,41,42,42,43,43,44,44,45,45,46,46,47,47,48,48,49,49,50,50,51,51,52,52,53,53,54,54,55,55,56,56,57,57,58,58,59,59,60,60,61,61,62,62],"right_children":[2,4,6,8,10,12,14,16,18,20,22,24,26,28,30,32,34,36,38,40,42,44,46,48,50,52,54,56,58,60,62,64,66,68,70,72,74,76,78,80,82,84,86,88,90,92,94,96,98,100,102,104,106,108,110,112,114,116,118,120,122,124,126,-1,-1,-1,-1,-1,-1,-1,-1,-1,-1,-1,-1,-1,-1,-1,-1,-1,-1,-1,-1,-1,-1,-1,-1,-1,-1,-1,-1,-1,-1,-1,-1,-1,-1,-1,-1,-1,-1,-1,-1,-1,-1,-1,-1,-1,-1,-1,-1,-1,-1,-1,-1,-1,-1,-1,-1,-1,-1,-1,-1,-1,-1,-1,-1],"split_conditions":[-1.703505E-1,1.27795655E-2,-5.626684E-1,1E0,1.1604141E0,8.757608E-1,1E0,4.03204E-1,1.3759859E0,1E0,2.607271E-1,1E0,1E0,8.757608E-1,1.2244645E0,1E0,-1.2346493E0,2.109534E-1,-1.3414189E-1,5.6279358E-2,-2.2543044E-1,-5.183788E-1,1E0,-4.2076543E-1,1E0,-8.978102E-1,-1.3344436E0,4.3623787E-1,4.0742558E-1,3.008059E-1,-1.5660368E-1,-6.857806E-1,-1.7336208E0,1.010369E0,1E0,1.010369E0,-8.6775804E-1,2.0415735E0,1.6007577E0,1E0,5.0560206E-1,1E0,-3.6478168E-1,1E0,2.1439714E0,4.03204E-1,2.0415735E0,1E0,-2.6238358E-1,1.580782E0,-1.4430043E0,-9.851635E-1,1.2223887E0,1E0,-8.446774E-1,-6.252132E-1,-8.2966095E-1,1E0,-2.6238358E-1,2.9122874E-1,9.422197E-1,2E0,6.5919924E-1,-2.59914E-2,-1.0224145E-2,-2.7405271E-2,2.5070922E-3,-5.8365814E-2,-1.3179258E-2,-3.4628417E-2,-1.5708134E-2,-5.413884E-2,-2.4429264E-2,-4.0572096E-2,-2.2793602E-2,-7.444963E-2,-1.2823802E-1,-6.00187E-2,1.6863126E-2,-1.6148122E-2,-3.751947E-2,-1.0845138E-4,-1.6706435E-2,-3.4456588E-3,-2.4251927E-2,1.644434E-2,8.173549E-4,1.8585993E-2,-1.9719811E-4,1.0660077E-3,-3.3055883E-2,2.5810013E-2,9.64598E-3,6.097923E-3,-6.721139E-2,-3.1380214E-2,-1.02638E-2,6.433009E-3,-8.194259E-3,-3.629312E-2,-9.336421E-2,-7.0234776E-2,-1.5482284E-2,-1.4522964E-2,5.7093548E-3,1.4134217E-2,-5.81024E-3,-3.7091073E-2,-8.977881E-3,-2.0998027E-2,5.218595E-4,-4.6713604E-3,9.870957E-3,6.9284793E-3,2.1176014E-2,1.5880767E-2,2.596438E-2,3.1160308E-2,2.3314279E-2,-4.275815E-3,1.0823163E-2,-1.8760666E-2,8.12122E-3,1.4381004E-2,-1.3513923E-2,2.0702705E-2,7.6387455E-3],"split_indices":[17,1,1,31,1,17,31,12,12,34,5,31,31,17,17,33,1,7,14,5,7,12,31,5,34,5,1,1,1,12,1,1,1,5,34,5,17,12,0,31,12,31,12,31,12,12,12,34,12,12,5,1,12,34,19,5,5,33,12,1,5,6,12,0,0,0,0,0,0,0,0,0,0,0,0,0,0,0,0,0,0,0,0,0,0,0,0,0,0,0,0,0,0,0,0,0,0,0,0,0,0,0,0,0,0,0,0,0,0,0,0,0,0,0,0,0,0,0,0,0,0,0,0,0,0,0,0],"split_type":[0,0,0,0,0,0,0,0,0,0,0,0,0,0,0,0,0,0,0,0,0,0,0,0,0,0,0,0,0,0,0,0,0,0,0,0,0,0,0,0,0,0,0,0,0,0,0,0,0,0,0,0,0,0,0,0,0,0,0,0,0,0,0,0,0,0,0,0,0,0,0,0,0,0,0,0,0,0,0,0,0,0,0,0,0,0,0,0,0,0,0,0,0,0,0,0,0,0,0,0,0,0,0,0,0,0,0,0,0,0,0,0,0,0,0,0,0,0,0,0,0,0,0,0,0,0,0],"sum_hessian":[5.76E4,2.3023E4,3.4577E4,1.1493E4,1.153E4,1.0204E4,2.4373E4,9.265E3,2.228E3,8.482E3,3.048E3,5.157E3,5.047E3,1.9412E4,4.961E3,5.93E3,3.335E3,2.006E3,2.22E2,4.161E3,4.321E3,1.81E3,1.238E3,4.151E3,1.006E3,3.982E3,1.065E3,9.745E3,9.667E3,3.344E3,1.617E3,4.448E3,1.482E3,7.25E2,2.61E3,1.026E3,9.8E2,1.4E2,8.2E1,2.127E3,2.034E3,1.598E3,2.723E3,5.46E2,1.264E3,9.78E2,2.6E2,1.326E3,2.825E3,5.11E2,4.95E2,7.3E2,3.252E3,3.24E2,7.41E2,5.197E3,4.548E3,4.972E3,4.695E3,2.047E3,1.297E3,3.34E2,1.283E3,2.161E3,2.287E3,1.29E2,1.353E3,6.06E2,1.19E2,1.348E3,1.262E3,8.58E2,1.68E2,4.58E2,5.22E2,1.07E2,3.3E1,7.1E1,1.1E1,1.67E3,4.57E2,1.422E3,6.12E2,1.263E3,3.35E2,9.86E2,1.737E3,4.38E2,1.08E2,1.222E3,4.2E1,6.53E2,3.25E2,2.54E2,6E0,6.64E2,6.62E2,1.126E3,1.699E3,4.77E2,3.4E1,3.2E1,4.63E2,4.14E2,3.16E2,2.848E3,4.04E2,1.53E2,1.71E2,1.85E2,5.56E2,1.348E3,3.849E3,9.22E2,3.626E3,3.657E3,1.315E3,1.803E3,2.892E3,9.17E2,1.13E3,1.077E3,2.2E2,1.59E2,1.75E2,9.38E2,3.45E2],"tree_param":{"num_deleted":"0","num_feature":"38","num_nodes":"127","size_leaf_vector":"1"}},{"base_weights":[-6.379923E-5,-1.6142869E-1,1.0738213E-1,-2.8610602E-1,-2.7884445E-3,-5.6315575E-2,1.7123802E-1,-2.2955778E-1,-5.221272E-1,-5.245319E-2,1.2470461E-1,-1.5791947E-1,4.799452E-2,2.0837076E-1,2.603695E-2,-3.3213308E-1,-1.2492663E-1,-6.527531E-1,-3.9045072E-1,3.223352E-3,-1.846768E-1,5.8266737E-2,2.2177777E-1,-2.645256E-1,-5.0858025E-2,9.600444E-2,-1.3332309E-1,1.420106E-1,2.7526146E-1,-1.1040964E-1,9.447488E-2,-8.856783E-1,-3.0347508E-1,-3.669295E-1,-8.340887E-2,-8.498021E-1,-5.836771E-1,-5.501559E-1,-2.6658937E-1,-3.873807E-2,1.7952608E-1,-2.904119E-1,-8.8840134E-2,-2.6987465E-2,1.3902877E-1,1.9445711E-1,4.5776448E-1,-4.4843036E-1,-1.7822422E-1,-1.1380844E-1,1.8178263E-1,9.418278E-3,1.7852212E-1,-2.7550602E-1,-6.5071575E-2,9.66012E-2,2.7444494E-1,2.2324507E-1,3.2793304E-1,-2.2579193E-1,5.9237233E-3,-4.358055E-3,1.8095613E-1,-7.617943E-2,-4.0171128E-2,-1.652837E-2,-3.442004E-2,-1.9648343E-2,-5.061884E-2,9.155146E-4,-1.2182395E-2,-8.1286214E-2,-5.013009E-2,-4.2057052E-2,-1.095757E-1,-3.5533145E-2,-7.164302E-2,-1.2166415E-3,-2.613277E-2,-1.2564236E-2,2.6881217E-3,2.0045696E-2,5.6621875E-3,-3.1132597E-2,-1.3223058E-2,-2.800937E-4,-1.5247718E-2,2.0187601E-2,-4.086201E-3,6.481904E-3,2.2510324E-2,3.9670356E-3,1.8100072E-2,3.3644852E-3,3.7142556E-2,-4.147491E-2,-1.5724769E-2,-8.036169E-3,-3.432085E-2,7.652325E-3,-1.2820704E-2,2.0189958E-2,1.6463321E-3,-1.4172162E-2,4.5012296E-3,1.6141545E-2,-9.843975E-3,-3.432731E-2,-8.3084535E-3,-2.0571634E-2,4.8347667E-4,1.2994882E-2,1.4010179E-3,1.0360029E-2,2.3464428E-2,9.747401E-3,2.074211E-2,2.7303433E-2,2.1156408E-2,-8.20803E-3,-3.1289656E-2,-2.7338222E-2,4.645115E-3,1.5903795E-2,-4.605345E-3,1.7892523E-2,2.958891E-3],"categories":[],"categories_nodes":[],"categories_segments":[],"categories_sizes":[],"default_left":[0,0,0,0,0,0,0,0,0,0,0,0,0,0,0,0,0,0,0,0,0,0,0,0,0,0,0,0,0,0,0,0,0,0,0,0,0,0,0,0,0,0,0,0,0,0,0,0,0,0,0,0,0,0,0,0,0,0,0,0,0,0,0,0,0,0,0,0,0,0,0,0,0,0,0,0,0,0,0,0,0,0,0,0,0,0,0,0,0,0,0,0,0,0,0,0,0,0,0,0,0,0,0,0,0,0,0,0,0,0,0,0,0,0,0,0,0,0,0,0,0,0,0,0,0,0,0],"id":7,"left_children":[1,3,5,7,9,11,13,15,17,19,21,23,25,27,29,31,33,35,37,39,41,43,45,47,49,51,53,55,57,59,61,63,65,67,69,71,73,75,77,79,81,83,85,87,89,91,93,95,97,99,101,103,105,107,109,111,113,115,117,119,121,123,125,-1,-1,-1,-1,-1,-1,-1,-1,-1,-1,-1,-1,-1,-1,-1,-1,-1,-1,-1,-1,-1,-1,-1,-1,-1,-1,-1,-1,-1,-1,-1,-1,-1,-1,-1,-1,-1,-1,-1,-1,-1,-1,-1,-1,-1,-1,-1,-1,-1,-1,-1,-1,-1,-1,-1,-1,-1,-1,-1,-1,-1,-1,-1,-1],"loss_changes":[9.9870355E2,4.553872E2,3.6145563E2,1.7194421E2,6.4167786E1,1.0285359E2,1.3411346E2,1.11598694E2,4.2591248E1,5.368986E1,1.8309639E1,5.609485E1,4.1701252E1,8.7890625E1,4.73267E1,8.3046326E1,5.1723625E1,1.6504578E1,2.4441498E1,3.7980434E1,2.1872253E1,1.1626144E1,7.351185E0,3.9010925E1,3.595909E1,2.7056015E1,9.715384E0,5.9786407E1,2.6952087E1,2.2726158E1,2.8847572E1,1.120137E1,6.442496E1,2.4195381E1,3.3232597E1,1.2944595E1,1.7838501E1,1.6317215E1,1.4379715E1,3.9836906E1,8.989788E0,1.4538582E1,1.105575E1,6.7080946E0,7.3217735E0,6.862221E0,1.8188782E0,1.9508469E1,3.3271893E1,2.3842535E1,7.301428E0,1.8571003E1,2.2071339E1,9.703125E0,1.0161482E1,4.4250107E1,1.3251663E1,2.4661652E1,8.008545E0,1.8883915E1,1.7534222E1,1.9469316E1,1.4664513E1,0E0,0E0,0E0,0E0,0E0,0E0,0E0,0E0,0E0,0E0,0E0,0E0,0E0,0E0,0E0,0E0,0E0,0E0,0E0,0E0,0E0,0E0,0E0,0E0,0E0,0E0,0E0,0E0,0E0,0E0,0E0,0E0,0E0,0E0,0E0,0E0,0E0,0E0,0E0,0E0,0E0,0E0,0E0,0E0,0E0,0E0,0E0,0E0,0E0,0E0,0E0,0E0,0E0,0E0,0E0,0E0,0E0,0E0,0E0,0E0,0E0,0E0,0E0,0E0],"parents":[2147483647,0,0,1,1,2,2,3,3,4,4,5,5,6,6,7,7,8,8,9,9,10,10,11,11,12,12,13,13,14,14,15,15,16,16,17,17,18,18,19,19,20,20,21,21,22,22,23,23,24,24,25,25,26,26,27,27,28,28,29,29,30,30,31,31,32,32,33,33,34,34,35,35,36,36,37,37,38,38,39,39,40,40,41,41,42,42,43,43,44,44,45,45,46,46,47,47,48,48,49,49,50,50,51,51,52,52,53,53,54,54,55,55,56,56,57,57,58,58,59,59,60,60,61,61,62,62],"right_children":[2,4,6,8,10,12,14,16,18,20,22,24,26,28,30,32,34,36,38,40,42,44,46,48,50,52,54,56,58,60,62,64,66,68,70,72,74,76,78,80,82,84,86,88,90,92,94,96,98,100,102,104,106,108,110,112,114,116,118,120,122,124,126,-1,-1,-1,-1,-1,-1,-1,-1,-1,-1,-1,-1,-1,-1,-1,-1,-1,-1,-1,-1,-1,-1,-1,-1,-1,-1,-1,-1,-1,-1,-1,-1,-1,-1,-1,-1,-1,-1,-1,-1,-1,-1,-1,-1,-1,-1,-1,-1,-1,-1,-1,-1,-1,-1,-1,-1,-1,-1,-1,-1,-1,-1,-1,-1],"split_conditions":[-1.703505E-1,1.407653E-1,-5.8598626E-1,1E0,1.1852635E0,8.757608E-1,1E0,1E0,1E0,5.5680114E-1,2.607271E-1,1E0,1E0,8.757608E-1,5.2705705E-1,-1.9831065E0,-1.3843408E0,-1.2164618E0,-6.358834E-1,1E0,1E0,1E0,2.3080485E0,-4.2076543E-1,1E0,1E0,-1.3344436E0,9.109283E-1,1E0,1E0,2.9122874E-1,1.083721E0,4.5440304E-1,6.5919924E-1,-1.0878645E-1,-5.9671694E-1,1.9391754E0,1.0175925E0,-6.207769E-1,-2.2543044E-1,-3.6478168E-1,2.109534E-1,3.4796846E-1,-1.4399617E0,1.083721E0,-1.2164618E0,-1.3360634E0,-8.853692E-1,1E0,-7.74374E-1,5.5252236E-1,-8.2966095E-1,1.3247868E0,1E0,-8.446774E-1,4.4810683E-2,-7.615117E-1,-2.2543044E-1,1.4720878E-1,3.008059E-1,-1.098198E0,-7.74374E-1,5.5680114E-1,-7.617943E-2,-4.0171128E-2,-1.652837E-2,-3.442004E-2,-1.9648343E-2,-5.061884E-2,9.155146E-4,-1.2182395E-2,-8.1286214E-2,-5.013009E-2,-4.2057052E-2,-1.095757E-1,-3.5533145E-2,-7.164302E-2,-1.2166415E-3,-2.613277E-2,-1.2564236E-2,2.6881217E-3,2.0045696E-2,5.6621875E-3,-3.1132597E-2,-1.3223058E-2,-2.800937E-4,-1.5247718E-2,2.0187601E-2,-4.086201E-3,6.481904E-3,2.2510324E-2,3.9670356E-3,1.8100072E-2,3.3644852E-3,3.7142556E-2,-4.147491E-2,-1.5724769E-2,-8.036169E-3,-3.432085E-2,7.652325E-3,-1.2820704E-2,2.0189958E-2,1.6463321E-3,-1.4172162E-2,4.5012296E-3,1.6141545E-2,-9.843975E-3,-3.432731E-2,-8.3084535E-3,-2.0571634E-2,4.8347667E-4,1.2994882E-2,1.4010179E-3,1.0360029E-2,2.3464428E-2,9.747401E-3,2.074211E-2,2.7303433E-2,2.1156408E-2,-8.20803E-3,-3.1289656E-2,-2.7338222E-2,4.645115E-3,1.5903795E-2,-4.605345E-3,1.7892523E-2,2.958891E-3],"split_indices":[17,1,1,31,1,17,31,34,34,12,5,34,31,17,17,1,1,17,1,33,34,34,1,5,33,34,1,1,34,34,1,7,12,12,12,1,12,12,12,7,12,7,3,12,7,17,0,1,31,12,2,5,12,34,19,12,5,7,12,12,7,12,12,0,0,0,0,0,0,0,0,0,0,0,0,0,0,0,0,0,0,0,0,0,0,0,0,0,0,0,0,0,0,0,0,0,0,0,0,0,0,0,0,0,0,0,0,0,0,0,0,0,0,0,0,0,0,0,0,0,0,0,0,0,0,0,0],"split_type":[0,0,0,0,0,0,0,0,0,0,0,0,0,0,0,0,0,0,0,0,0,0,0,0,0,0,0,0,0,0,0,0,0,0,0,0,0,0,0,0,0,0,0,0,0,0,0,0,0,0,0,0,0,0,0,0,0,0,0,0,0,0,0,0,0,0,0,0,0,0,0,0,0,0,0,0,0,0,0,0,0,0,0,0,0,0,0,0,0,0,0,0,0,0,0,0,0,0,0,0,0,0,0,0,0,0,0,0,0,0,0,0,0,0,0,0,0,0,0,0,0,0,0,0,0,0,0],"sum_hessian":[5.76E4,2.3023E4,3.4577E4,1.2891E4,1.0132E4,9.703E3,2.4874E4,1.0401E4,2.49E3,7.292E3,2.84E3,4.915E3,4.788E3,1.9808E4,5.066E3,5.251E3,5.15E3,1.248E3,1.242E3,5.132E3,2.16E3,1.687E3,1.153E3,2.462E3,2.453E3,3.786E3,1.002E3,9.945E3,9.863E3,1.692E3,3.374E3,2.57E2,4.994E3,7.53E2,4.397E3,3.21E2,9.27E2,5.41E2,7.01E2,4.146E3,9.86E2,1.026E3,1.134E3,8.21E2,8.66E2,1.035E3,1.18E2,7.85E2,1.677E3,1.931E3,5.22E2,1.848E3,1.938E3,3.24E2,6.78E2,7.407E3,2.538E3,4.965E3,4.898E3,8.49E2,8.43E2,1.575E3,1.799E3,1.86E2,7.1E1,3.256E3,1.738E3,5.63E2,1.9E2,1.99E3,2.407E3,1.38E2,1.83E2,9.05E2,2.2E1,4.57E2,8.4E1,1.73E2,5.28E2,1.52E3,2.626E3,5.34E2,4.52E2,4.89E2,5.37E2,6.51E2,4.83E2,6.9E1,7.52E2,6.54E2,2.12E2,2.58E2,7.77E2,1E1,1.08E2,5.45E2,2.4E2,1.338E3,3.39E2,4.04E2,1.527E3,3.37E2,1.85E2,3.75E2,1.473E3,1.733E3,2.05E2,1.53E2,1.71E2,1.72E2,5.06E2,3.733E3,3.674E3,5.59E2,1.979E3,1.807E3,3.158E3,2.736E3,2.162E3,5.29E2,3.2E2,1.1E2,7.33E2,3.28E2,1.247E3,1.278E3,5.21E2],"tree_param":{"num_deleted":"0","num_feature":"38","num_nodes":"127","size_leaf_vector":"1"}},{"base_weights":[-7.037957E-5,-9.9699415E-2,1.502497E-1,-2.516213E-1,2.011286E-3,-5.3267278E-2,1.9000652E-1,-2.0125188E-1,-4.6197903E-1,4.574069E-2,-1.6693206E-1,-1.6226949E-1,5.3350933E-2,1.3574693E-1,2.616327E-1,-1.521077E-1,-3.9558873E-1,-3.1596917E-1,-5.656047E-1,-3.0854281E-2,1.2151678E-1,-2.8994212E-1,-7.860455E-2,-1.05978824E-1,-3.8654193E-1,8.7539144E-2,-2.4739264E-1,1.73552E-1,-1.334713E-2,3.154712E-1,2.0575644E-1,-2.5616723E-1,-7.1641706E-2,-6.7207265E-1,-3.3940598E-1,-4.0745234E-1,-1.4795184E-1,-6.404035E-1,-2.7643767E-1,-1.268087E-1,4.789314E-2,4.2238872E-2,2.0176625E-1,-2.2122689E-1,-4.8709217E-1,1.6501886E-1,-1.150779E-1,-2.550048E-1,-1.3655596E-2,-5.834565E-1,-2.665652E-1,-1.2598777E-1,1.3507988E-1,-1.7376986E-1,-1.0555855E0,2.1731679E-1,8.2102135E-2,1.2382416E-1,-7.733337E-2,2.9005334E-1,4.185982E-1,1.15704335E-1,2.5009513E-1,-2.7831532E-2,-1.0264138E-2,-1.2619742E-2,2.201452E-3,-5.8128428E-2,-2.7194588E-2,-3.4103088E-2,-1.5778415E-2,-3.4393627E-2,8.730154E-3,-6.0322345E-3,-4.1644886E-2,-6.080175E-2,-3.609386E-2,-1.2583319E-2,-5.2399334E-2,-1.5643813E-2,1.8577855E-4,-2.3424572E-3,9.386842E-3,1.0601519E-2,-2.465791E-3,9.888992E-3,2.1014122E-2,-2.394563E-2,-9.224471E-3,-3.1770788E-2,-7.769308E-2,4.712377E-3,2.684127E-2,-1.1526172E-2,6.3405777E-3,-3.3784743E-2,-1.0496958E-2,-1.0058349E-2,6.887437E-3,-5.9947893E-3,-5.4893203E-2,-2.7162114E-2,1.872188E-2,-1.2030608E-2,3.324078E-2,1.3560423E-2,-3.2144603E-3,-8.063522E-3,-8.1515715E-2,-1.2068614E-1,-3.346817E-2,1.19974855E-2,2.0519374E-2,-2.0696307E-3,9.314955E-3,-7.836473E-2,9.899627E-3,-8.293748E-3,1.8265087E-2,1.9657802E-2,2.8990105E-2,2.8638892E-2,3.448276E-2,1.2360199E-2,-5.0968025E-3,1.5853144E-2,2.6375428E-2],"categories":[],"categories_nodes":[],"categories_segments":[],"categories_sizes":[],"default_left":[0,0,0,0,0,0,0,0,0,0,0,0,0,0,0,0,0,0,0,0,0,0,0,0,0,0,0,0,0,0,0,0,0,0,0,0,0,0,0,0,0,0,0,0,0,0,0,0,0,0,0,0,0,0,0,0,0,0,0,0,0,0,0,0,0,0,0,0,0,0,0,0,0,0,0,0,0,0,0,0,0,0,0,0,0,0,0,0,0,0,0,0,0,0,0,0,0,0,0,0,0,0,0,0,0,0,0,0,0,0,0,0,0,0,0,0,0,0,0,0,0,0,0,0,0,0,0],"id":8,"left_children":[1,3,5,7,9,11,13,15,17,19,21,23,25,27,29,31,33,35,37,39,41,43,45,47,49,51,53,55,57,59,61,63,65,67,69,71,73,75,77,79,81,83,85,87,89,91,93,95,97,99,101,103,105,107,109,111,113,115,117,119,121,123,125,-1,-1,-1,-1,-1,-1,-1,-1,-1,-1,-1,-1,-1,-1,-1,-1,-1,-1,-1,-1,-1,-1,-1,-1,-1,-1,-1,-1,-1,-1,-1,-1,-1,-1,-1,-1,-1,-1,-1,-1,-1,-1,-1,-1,-1,-1,-1,-1,-1,-1,-1,-1,-1,-1,-1,-1,-1,-1,-1,-1,-1,-1,-1,-1],"loss_changes":[8.626617E2,5.352915E2,1.8578375E2,1.4710114E2,1.5331172E2,4.3624596E1,7.461456E1,1.0700122E2,4.0416077E1,9.568379E1,4.6338905E1,2.339E1,1.9536674E1,6.1615067E1,2.4837769E1,7.4913895E1,3.4908966E1,1.709349E1,3.3737793E1,6.195905E1,5.2713463E1,2.404692E1,2.2100105E1,2.0427975E1,8.633038E0,1.732486E1,1.1359844E1,3.488208E1,1.9424465E1,1.0924622E1,1.6201752E1,5.3450775E1,4.9264492E1,1.18606415E1,2.7902985E1,1.9391647E1,1.0818878E1,3.3351166E1,1.4747404E1,3.907611E1,2.7539753E1,3.105075E1,2.2540909E1,1.2713043E1,1.5587463E1,6.363003E0,1.667373E1,1.2709335E1,1.1677015E1,1.0406479E1,1.1587996E1,6.164203E0,1.1358042E1,1.0712463E1,4.6788883E0,1.8988098E1,1.3044521E1,6.860551E0,1.61262E1,9.023956E0,1.0816803E0,1.21216755E1,1.0635391E1,0E0,0E0,0E0,0E0,0E0,0E0,0E0,0E0,0E0,0E0,0E0,0E0,0E0,0E0,0E0,0E0,0E0,0E0,0E0,0E0,0E0,0E0,0E0,0E0,0E0,0E0,0E0,0E0,0E0,0E0,0E0,0E0,0E0,0E0,0E0,0E0,0E0,0E0,0E0,0E0,0E0,0E0,0E0,0E0,0E0,0E0,0E0,0E0,0E0,0E0,0E0,0E0,0E0,0E0,0E0,0E0,0E0,0E0,0E0,0E0,0E0,0E0,0E0,0E0],"parents":[2147483647,0,0,1,1,2,2,3,3,4,4,5,5,6,6,7,7,8,8,9,9,10,10,11,11,12,12,13,13,14,14,15,15,16,16,17,17,18,18,19,19,20,20,21,21,22,22,23,23,24,24,25,25,26,26,27,27,28,28,29,29,30,30,31,31,32,32,33,33,34,34,35,35,36,36,37,37,38,38,39,39,40,40,41,41,42,42,43,43,44,44,45,45,46,46,47,47,48,48,49,49,50,50,51,51,52,52,53,53,54,54,55,55,56,56,57,57,58,58,59,59,60,60,61,61,62,62],"right_children":[2,4,6,8,10,12,14,16,18,20,22,24,26,28,30,32,34,36,38,40,42,44,46,48,50,52,54,56,58,60,62,64,66,68,70,72,74,76,78,80,82,84,86,88,90,92,94,96,98,100,102,104,106,108,110,112,114,116,118,120,122,124,126,-1,-1,-1,-1,-1,-1,-1,-1,-1,-1,-1,-1,-1,-1,-1,-1,-1,-1,-1,-1,-1,-1,-1,-1,-1,-1,-1,-1,-1,-1,-1,-1,-1,-1,-1,-1,-1,-1,-1,-1,-1,-1,-1,-1,-1,-1,-1,-1,-1,-1,-1,-1,-1,-1,-1,-1,-1,-1,-1,-1,-1,-1,-1,-1],"split_conditions":[5.2705705E-1,-2.367062E-1,-9.851635E-1,1E0,1E0,1E0,3.6205962E-1,8.6399543E-1,-2.1118455E-1,1E0,4.119568E-1,1E0,1.3247868E0,1E0,4.4810683E-2,-1.481684E-1,-1.484135E0,-3.139429E-1,8.740704E-1,4.3623787E-1,-5.190543E-1,7.1039826E-1,-1.1327673E0,-2.8446692E-1,-2.2543044E-1,-8.978102E-1,1.4598969E0,5.0560206E-1,-4.6717978E-1,1.5096941E0,-4.2076543E-1,1E0,2.109534E-1,8.557201E-1,1E0,1.380733E0,1.2076519E0,-5.190543E-1,1.2735878E0,3.2887638E-1,-5.190543E-1,-1.599855E-1,1.2442861E-1,1E0,1.5732951E0,-1.703505E-1,1.6593856E0,-2.2543044E-1,-1.4342378E0,-6.207769E-1,1.0907203E0,1.6007577E0,1E0,2.451166E0,-3.1438267E-1,1E0,-5.5706394E-1,-2.0040724E0,1.3511152E0,8.0592114E-1,2.5806668E-1,1E0,1.3162559E0,-2.7831532E-2,-1.0264138E-2,-1.2619742E-2,2.201452E-3,-5.8128428E-2,-2.7194588E-2,-3.4103088E-2,-1.5778415E-2,-3.4393627E-2,8.730154E-3,-6.0322345E-3,-4.1644886E-2,-6.080175E-2,-3.609386E-2,-1.2583319E-2,-5.2399334E-2,-1.5643813E-2,1.8577855E-4,-2.3424572E-3,9.386842E-3,1.0601519E-2,-2.465791E-3,9.888992E-3,2.1014122E-2,-2.394563E-2,-9.224471E-3,-3.1770788E-2,-7.769308E-2,4.712377E-3,2.684127E-2,-1.1526172E-2,6.3405777E-3,-3.3784743E-2,-1.0496958E-2,-1.0058349E-2,6.887437E-3,-5.9947893E-3,-5.4893203E-2,-2.7162114E-2,1.872188E-2,-1.2030608E-2,3.324078E-2,1.3560423E-2,-3.2144603E-3,-8.063522E-3,-8.1515715E-2,-1.2068614E-1,-3.346817E-2,1.19974855E-2,2.0519374E-2,-2.0696307E-3,9.314955E-3,-7.836473E-2,9.899627E-3,-8.293748E-3,1.8265087E-2,1.9657802E-2,2.8990105E-2,2.8638892E-2,3.448276E-2,1.2360199E-2,-5.0968025E-3,1.5853144E-2,2.6375428E-2],"split_indices":[17,1,1,31,31,34,1,12,12,34,1,31,12,31,12,5,1,14,5,1,17,12,12,5,7,5,19,12,12,1,5,34,7,4,34,4,4,17,12,5,17,12,5,34,16,17,1,7,1,12,10,0,31,12,10,34,5,14,5,5,10,31,1,0,0,0,0,0,0,0,0,0,0,0,0,0,0,0,0,0,0,0,0,0,0,0,0,0,0,0,0,0,0,0,0,0,0,0,0,0,0,0,0,0,0,0,0,0,0,0,0,0,0,0,0,0,0,0,0,0,0,0,0,0,0,0,0],"split_type":[0,0,0,0,0,0,0,0,0,0,0,0,0,0,0,0,0,0,0,0,0,0,0,0,0,0,0,0,0,0,0,0,0,0,0,0,0,0,0,0,0,0,0,0,0,0,0,0,0,0,0,0,0,0,0,0,0,0,0,0,0,0,0,0,0,0,0,0,0,0,0,0,0,0,0,0,0,0,0,0,0,0,0,0,0,0,0,0,0,0,0,0,0,0,0,0,0,0,0,0,0,0,0,0,0,0,0,0,0,0,0,0,0,0,0,0,0,0,0,0,0,0,0,0,0,0,0],"sum_hessian":[5.76E4,3.4641E4,2.2959E4,1.3891E4,2.075E4,3.752E3,1.9207E4,1.1209E4,2.682E3,1.6484E4,4.266E3,1.855E3,1.897E3,1.093E4,8.277E3,8.948E3,2.261E3,1.115E3,1.567E3,8.198E3,8.286E3,1.782E3,2.484E3,1.484E3,3.71E2,1.704E3,1.93E2,8.719E3,2.211E3,4.213E3,4.064E3,3.901E3,5.047E3,3.8E2,1.881E3,7.21E2,3.94E2,1.244E3,3.23E2,3.695E3,4.503E3,4.169E3,4.117E3,1.323E3,4.59E2,3.23E2,2.161E3,5.67E2,9.17E2,1.39E2,2.32E2,3.1E2,1.394E3,1.78E2,1.5E1,5.896E3,2.823E3,7.03E2,1.508E3,3.383E3,8.3E2,1.342E3,2.722E3,1.986E3,1.915E3,2.579E3,2.468E3,2.84E2,9.6E1,9.92E2,8.89E2,6.57E2,6.4E1,3.39E2,5.5E1,5.99E2,6.45E2,2.58E2,6.5E1,2.263E3,1.432E3,2.225E3,2.278E3,1.797E3,2.372E3,2.178E3,1.939E3,6.61E2,6.62E2,4.13E2,4.6E1,2.12E2,1.11E2,1.811E3,3.5E2,2.09E2,3.58E2,4.28E2,4.89E2,3.2E1,1.07E2,1.96E2,3.6E1,2.93E2,1.7E1,1.109E3,2.85E2,1.67E2,1.1E1,7E0,8E0,2.922E3,2.974E3,7.83E2,2.04E3,4E0,6.99E2,1.367E3,1.41E2,2.626E3,7.57E2,4.44E2,3.86E2,1.059E3,2.83E2,1.973E3,7.49E2],"tree_param":{"num_deleted":"0","num_feature":"38","num_nodes":"127","size_leaf_vector":"1"}},{"base_weights":[-7.709703E-5,-1.4047518E-1,9.340794E-2,-3.3573744E-1,-6.0749426E-2,-1.0802571E-1,1.3230555E-1,-3.8758156E-1,-8.866259E-2,-1.6323892E-2,-2.3236826E-1,-2.0876524E-1,-5.797293E-3,8.5081905E-2,2.2840065E-1,-3.5046583E-1,-7.4893963E-1,9.3195E-2,-1.4917988E-1,-9.496811E-2,6.329753E-2,-3.502944E-1,-1.10525206E-1,-1.4815333E-1,-4.4351107E-1,-7.990896E-2,1.3097768E-1,4.911237E-2,2.2788036E-1,1.6820021E-1,2.7376336E-1,-4.511846E-1,-2.4641648E-1,-8.74058E-1,-3.657785E-1,-1.0749826E-1,2.6154315E-1,-4.6272706E-3,-2.4976593E-1,-1.7460479E-1,1.4429437E-2,-3.5174113E-2,1.2430147E-1,-4.6316954E-1,-2.3949607E-1,-1.9807352E-1,-2.4312396E-2,-3.0228794E-1,-7.109005E-2,-6.8964195E-1,-3.124565E-1,-1.2961838E-1,1.0720402E-1,1.5831253E-1,-4.3867567E-1,-1.2963168E-2,1.4453572E-1,1.4450338E-1,2.7616376E-1,2.0230302E-1,3.9436057E-2,2.239E-1,3.2080325E-1,-1.8570982E-2,-3.9293386E-2,-2.2433639E-2,-3.6260218E-3,-6.1400127E-2,-1.3483496E-1,-4.8044406E-2,-9.1713417E-4,4.2757434E-3,-4.2731248E-2,1.2200453E-2,5.08476E-2,-1.19378725E-2,1.618006E-2,-2.3502449E-2,7.1827485E-4,4.15325E-3,-1.6252879E-2,1.1066334E-2,-2.4507914E-3,-5.4662786E-3,1.906414E-2,-1.5179153E-3,1.2972982E-2,1.0142228E-2,-3.6980376E-2,-2.6382882E-2,-8.745572E-3,-1.8470755E-2,5.614591E-3,-2.9714077E-3,3.709247E-2,-5.0376654E-2,-1.8410467E-2,-1.2310714E-2,9.543056E-4,-1.8747058E-2,-6.4736366E-2,-3.207019E-2,-1.7482019E-3,5.5413684E-3,-1.4022441E-2,1.227187E-2,-1.5118574E-2,1.3139027E-3,1.8181598E-2,-6.549426E-2,-1.0772634E-2,-7.415164E-3,5.3192945E-3,8.008059E-3,1.9962326E-2,6.2325387E-3,1.963387E-2,1.5850408E-2,2.5644451E-2,1.8217854E-2,7.2997725E-3,1.2989767E-3,3.4481898E-2,1.8893233E-2,8.696831E-3,2.5245672E-2,1.6035603E-2],"categories":[],"categories_nodes":[],"categories_segments":[],"categories_sizes":[],"default_left":[0,0,0,0,0,0,0,0,0,0,0,0,0,0,0,0,0,0,0,0,0,0,0,0,0,0,0,0,0,0,0,0,0,0,0,0,0,0,0,0,0,0,0,0,0,0,0,0,0,0,0,0,0,0,0,0,0,0,0,0,0,0,0,0,0,0,0,0,0,0,0,0,0,0,0,0,0,0,0,0,0,0,0,0,0,0,0,0,0,0,0,0,0,0,0,0,0,0,0,0,0,0,0,0,0,0,0,0,0,0,0,0,0,0,0,0,0,0,0,0,0,0,0,0,0,0,0],"id":9,"left_children":[1,3,5,7,9,11,13,15,17,19,21,23,25,27,29,31,33,35,37,39,41,43,45,47,49,51,53,55,57,59,61,63,65,67,69,71,73,75,77,79,81,83,85,87,89,91,93,95,97,99,101,103,105,107,109,111,113,115,117,119,121,123,125,-1,-1,-1,-1,-1,-1,-1,-1,-1,-1,-1,-1,-1,-1,-1,-1,-1,-1,-1,-1,-1,-1,-1,-1,-1,-1,-1,-1,-1,-1,-1,-1,-1,-1,-1,-1,-1,-1,-1,-1,-1,-1,-1,-1,-1,-1,-1,-1,-1,-1,-1,-1,-1,-1,-1,-1,-1,-1,-1,-1,-1,-1,-1,-1],"loss_changes":[7.560331E2,3.5840408E2,2.7094293E2,8.546826E1,1.2465283E2,5.7639168E1,1.3149976E2,7.373193E1,1.2769309E1,8.134008E1,4.8268112E1,4.004413E1,2.8180136E1,9.980948E1,2.6030914E1,5.2339844E1,2.4273743E1,9.826153E0,1.26486225E1,5.6935806E1,3.8780575E1,2.1249954E1,1.2486771E1,2.660925E1,1.8428818E1,1.6784098E1,1.52827E1,9.196352E1,1.5700684E1,1.8022385E1,1.2697418E1,3.7505005E1,2.5704788E1,1.8278198E1,1.2428692E1,1.01463585E1,6.394906E0,1.2226248E1,8.464535E0,3.6630394E1,1.727493E1,2.6970545E1,2.8045048E1,1.5186615E1,1.1879913E1,1.0819778E1,6.65129E0,1.5512802E1,1.16696005E1,1.5042023E1,1.2608517E1,1.6644136E1,6.635894E0,1.1044336E1,5.6444254E0,6.779741E1,2.8075478E1,1.0319492E1,1.047876E1,1.3811035E1,7.995902E0,7.97081E0,4.66156E0,0E0,0E0,0E0,0E0,0E0,0E0,0E0,0E0,0E0,0E0,0E0,0E0,0E0,0E0,0E0,0E0,0E0,0E0,0E0,0E0,0E0,0E0,0E0,0E0,0E0,0E0,0E0,0E0,0E0,0E0,0E0,0E0,0E0,0E0,0E0,0E0,0E0,0E0,0E0,0E0,0E0,0E0,0E0,0E0,0E0,0E0,0E0,0E0,0E0,0E0,0E0,0E0,0E0,0E0,0E0,0E0,0E0,0E0,0E0,0E0,0E0,0E0,0E0,0E0],"parents":[2147483647,0,0,1,1,2,2,3,3,4,4,5,5,6,6,7,7,8,8,9,9,10,10,11,11,12,12,13,13,14,14,15,15,16,16,17,17,18,18,19,19,20,20,21,21,22,22,23,23,24,24,25,25,26,26,27,27,28,28,29,29,30,30,31,31,32,32,33,33,34,34,35,35,36,36,37,37,38,38,39,39,40,40,41,41,42,42,43,43,44,44,45,45,46,46,47,47,48,48,49,49,50,50,51,51,52,52,53,53,54,54,55,55,56,56,57,57,58,58,59,59,60,60,61,61,62,62],"right_children":[2,4,6,8,10,12,14,16,18,20,22,24,26,28,30,32,34,36,38,40,42,44,46,48,50,52,54,56,58,60,62,64,66,68,70,72,74,76,78,80,82,84,86,88,90,92,94,96,98,100,102,104,106,108,110,112,114,116,118,120,122,124,126,-1,-1,-1,-1,-1,-1,-1,-1,-1,-1,-1,-1,-1,-1,-1,-1,-1,-1,-1,-1,-1,-1,-1,-1,-1,-1,-1,-1,-1,-1,-1,-1,-1,-1,-1,-1,-1,-1,-1,-1,-1,-1,-1,-1,-1,-1,-1,-1,-1,-1,-1,-1,-1,-1,-1,-1,-1,-1,-1,-1,-1,-1,-1,-1],"split_conditions":[-1.703505E-1,-5.360891E-1,-9.851635E-1,1.010369E0,1E0,1E0,1.2244645E0,1.3759859E0,-6.71976E-1,2.109534E-1,4.119568E-1,1E0,1.2244645E0,1E0,6.267672E-2,1E0,1.083721E0,-1.1446928E-3,-3.8376254E-1,5.1453984E-1,-2.8446692E-1,1E0,-1.1869896E-2,-4.2076543E-1,-2.2543044E-1,1E0,1.6831801E0,4.3623787E-1,-2.2543044E-1,1E0,2.109534E-1,-7.23175E-1,1E0,1.4983065E0,5.2920264E-1,2E0,1E0,-9.4645065E-1,4E0,-1.0303693E0,-6.71976E-1,1.459797E0,-1.2164618E0,-1.5270308E0,2.109534E-1,1.6593856E0,1.6519449E0,-1.098198E0,-1.4342378E0,-4.1598073E-1,6.53792E-1,-7.74374E-1,1.1199906E0,-2.8446692E-1,-6.910391E-1,1E0,1.459797E0,5.1453984E-1,1E0,6.5919924E-1,1.6918614E0,1E0,1.1711897E0,-1.8570982E-2,-3.9293386E-2,-2.2433639E-2,-3.6260218E-3,-6.1400127E-2,-1.3483496E-1,-4.8044406E-2,-9.1713417E-4,4.2757434E-3,-4.2731248E-2,1.2200453E-2,5.08476E-2,-1.19378725E-2,1.618006E-2,-2.3502449E-2,7.1827485E-4,4.15325E-3,-1.6252879E-2,1.1066334E-2,-2.4507914E-3,-5.4662786E-3,1.906414E-2,-1.5179153E-3,1.2972982E-2,1.0142228E-2,-3.6980376E-2,-2.6382882E-2,-8.745572E-3,-1.8470755E-2,5.614591E-3,-2.9714077E-3,3.709247E-2,-5.0376654E-2,-1.8410467E-2,-1.2310714E-2,9.543056E-4,-1.8747058E-2,-6.4736366E-2,-3.207019E-2,-1.7482019E-3,5.5413684E-3,-1.4022441E-2,1.227187E-2,-1.5118574E-2,1.3139027E-3,1.8181598E-2,-6.549426E-2,-1.0772634E-2,-7.415164E-3,5.3192945E-3,8.008059E-3,1.9962326E-2,6.2325387E-3,1.963387E-2,1.5850408E-2,2.5644451E-2,1.8217854E-2,7.2997725E-3,1.2989767E-3,3.4481898E-2,1.8893233E-2,8.696831E-3,2.5245672E-2,1.6035603E-2],"split_indices":[17,1,1,5,31,34,17,12,12,7,1,31,17,33,1,34,7,0,19,1,5,34,5,5,7,33,12,1,7,31,7,12,33,19,16,15,33,1,8,12,12,1,17,4,7,1,19,7,1,12,4,12,12,5,19,34,1,1,34,12,5,31,12,0,0,0,0,0,0,0,0,0,0,0,0,0,0,0,0,0,0,0,0,0,0,0,0,0,0,0,0,0,0,0,0,0,0,0,0,0,0,0,0,0,0,0,0,0,0,0,0,0,0,0,0,0,0,0,0,0,0,0,0,0,0,0,0],"split_type":[0,0,0,0,0,0,0,0,0,0,0,0,0,0,0,0,0,0,0,0,0,0,0,0,0,0,0,0,0,0,0,0,0,0,0,0,0,0,0,0,0,0,0,0,0,0,0,0,0,0,0,0,0,0,0,0,0,0,0,0,0,0,0,0,0,0,0,0,0,0,0,0,0,0,0,0,0,0,0,0,0,0,0,0,0,0,0,0,0,0,0,0,0,0,0,0,0,0,0,0,0,0,0,0,0,0,0,0,0,0,0,0,0,0,0,0,0,0,0,0,0,0,0,0,0,0,0],"sum_hessian":[5.76E4,2.3023E4,3.4577E4,6.674E3,1.6349E4,5.596E3,2.8981E4,5.516E3,1.158E3,1.2988E4,3.361E3,2.818E3,2.778E3,1.9433E4,9.548E3,5.004E3,5.12E2,2.89E2,8.69E2,6.534E3,6.454E3,1.707E3,1.654E3,2.241E3,5.77E2,1.802E3,9.76E2,1.5524E4,3.909E3,4.105E3,5.443E3,2.541E3,2.463E3,3.85E2,1.27E2,1.32E2,1.57E2,3.57E2,5.12E2,3.781E3,2.753E3,2.469E3,3.985E3,8.44E2,8.63E2,8.2E2,8.34E2,7.46E2,1.495E3,1.99E2,3.78E2,1.424E3,3.78E2,9.32E2,4.4E1,9.406E3,6.118E3,1.435E3,2.474E3,3.245E3,8.6E2,2.645E3,2.798E3,6.7E2,1.871E3,1.945E3,5.18E2,3.65E2,2E1,7.1E1,5.6E1,9.8E1,3.4E1,1.28E2,2.9E1,2.1E2,1.47E2,4.11E2,1.01E2,5.85E2,3.196E3,7.19E2,2.034E3,2.185E3,2.84E2,1.004E3,2.981E3,4E1,8.04E2,4.5E2,4.13E2,6.97E2,1.23E2,8.11E2,2.3E1,9.8E1,6.48E2,7.08E2,7.87E2,5.7E1,1.42E2,2.7E2,1.08E2,3.13E2,1.111E3,3.2E2,5.8E1,3.49E2,5.83E2,1.7E1,2.7E1,4.647E3,4.759E3,4.67E3,1.448E3,9.43E2,4.92E2,1.248E3,1.226E3,2.339E3,9.06E2,8.18E2,4.2E1,2.099E3,5.46E2,2.436E3,3.62E2],"tree_param":{"num_deleted":"0","num_feature":"38","num_nodes":"127","size_leaf_vector":"1"}},{"base_weights":[-7.7987024E-5,-1.06405795E-1,1.0633846E-1,-2.8363776E-1,-3.3900935E-2,1.7771067E-2,1.770607E-1,-3.2942256E-1,-6.1741553E-2,5.513264E-3,-1.8804736E-1,5.8574505E-2,-1.4244628E-1,1.2154957E-1,2.3263295E-1,-3.8221812E-1,-1.3035093E-1,4.679253E-3,-2.6326236E-1,-6.741472E-2,7.809215E-2,-2.8443238E-1,-8.89912E-2,-1.1914544E-1,8.9845635E-2,-6.286026E-2,-2.6487872E-1,2.2524133E-1,8.2517356E-2,1.7604636E-1,2.8827745E-1,-2.7566493E-1,-4.68157E-1,3.255658E-1,-1.9334303E-1,-6.741401E-2,1.160387E-1,-2.0358038E-1,-6.407371E-1,-1.4746459E-1,1.7546214E-2,-1.1105537E-2,1.322275E-1,-3.8777277E-1,-1.8072444E-1,-1.4551194E-1,5.4308712E-2,1.4128552E-3,-2.477102E-1,3.4309022E-2,1.7443438E-1,-1.05131656E-1,1.4539583E-1,-3.9212263E-1,-1.3686745E-1,5.7043503E-3,2.427755E-1,2.4918644E-2,1.680075E-1,1.4175907E-1,2.8884804E-1,2.1723565E-1,3.1697503E-1,-2.3324143E-2,-1.6194897E-3,-4.387611E-2,-2.6024101E-2,3.658962E-2,8.499025E-3,-1.2528612E-2,-5.5067725E-2,-5.1104E-4,-2.6620435E-2,5.967294E-3,3.7154615E-2,-2.0829527E-2,1.2509257E-2,-8.3626114E-2,-2.2158432E-3,1.0739832E-2,-1.3729927E-2,-3.9655254E-3,6.5887603E-3,-5.4138806E-3,7.3646996E-3,1.2480288E-2,-1.5043259E-3,-2.3001947E-2,-4.0110365E-2,-2.0540807E-4,-1.9929372E-2,-1.8466394E-2,-3.7932547E-3,-5.0784107E-3,1.2458724E-2,-1.2032478E-2,8.56349E-3,-1.3937761E-2,-3.5254974E-2,-3.4383258E-3,8.512897E-3,2.0687692E-2,1.0299518E-2,-1.2870198E-2,2.961905E-3,1.7127393E-2,-8.601331E-3,-4.9539644E-2,-1.6452335E-2,3.3275314E-2,-1.2198985E-2,-2.4643235E-2,7.47572E-3,7.0967353E-3,1.9535653E-2,-9.693103E-4,1.5489184E-2,5.891946E-3,1.7043399E-2,1.5597516E-2,4.573623E-3,2.186534E-2,-4.755729E-2,1.392636E-2,2.637226E-2,2.2370912E-2,2.9232986E-2],"categories":[],"categories_nodes":[],"categories_segments":[],"categories_sizes":[],"default_left":[0,0,0,0,0,0,0,0,0,0,0,0,0,0,0,0,0,0,0,0,0,0,0,0,0,0,0,0,0,0,0,0,0,0,0,0,0,0,0,0,0,0,0,0,0,0,0,0,0,0,0,0,0,0,0,0,0,0,0,0,0,0,0,0,0,0,0,0,0,0,0,0,0,0,0,0,0,0,0,0,0,0,0,0,0,0,0,0,0,0,0,0,0,0,0,0,0,0,0,0,0,0,0,0,0,0,0,0,0,0,0,0,0,0,0,0,0,0,0,0,0,0,0,0,0,0,0],"id":10,"left_children":[1,3,5,7,9,11,13,15,17,19,21,23,25,27,29,31,33,35,37,39,41,43,45,47,49,51,53,55,57,59,61,63,65,67,69,71,73,75,77,79,81,83,85,87,89,91,93,95,97,99,101,103,105,107,109,111,113,115,117,119,121,123,125,-1,-1,-1,-1,-1,-1,-1,-1,-1,-1,-1,-1,-1,-1,-1,-1,-1,-1,-1,-1,-1,-1,-1,-1,-1,-1,-1,-1,-1,-1,-1,-1,-1,-1,-1,-1,-1,-1,-1,-1,-1,-1,-1,-1,-1,-1,-1,-1,-1,-1,-1,-1,-1,-1,-1,-1,-1,-1,-1,-1,-1,-1,-1,-1],"loss_changes":[6.517682E2,3.7024255E2,1.8032205E2,8.496362E1,1.2424013E2,8.3576164E1,4.935135E1,7.282721E1,1.9168804E1,8.620759E1,3.9730606E1,5.6636112E1,2.5268791E1,3.240043E1,2.5132843E1,5.0051636E1,4.184931E1,8.6622925E0,7.867153E0,5.525482E1,3.9418537E1,2.2543243E1,1.6652203E1,2.3637157E1,4.070022E1,1.3871641E1,1.6593346E1,8.4288025E0,2.8659126E1,1.5305946E1,8.149231E0,2.1972427E1,4.272876E1,6.0417557E0,1.8068207E1,1.1410342E1,5.827445E0,8.504532E0,1.3881056E1,4.3311462E1,1.9520672E1,2.0596138E1,2.6442436E1,1.2424973E1,1.5960232E1,1.4079884E1,7.951391E0,1.4400008E1,1.006599E1,3.321714E1,1.2883415E1,1.259056E1,5.7661257E0,2.3596184E1,7.721612E0,5.153071E0,5.2933197E0,2.3911724E1,1.2397049E1,1.6272266E1,2.4787216E0,4.8661346E0,3.7886047E0,0E0,0E0,0E0,0E0,0E0,0E0,0E0,0E0,0E0,0E0,0E0,0E0,0E0,0E0,0E0,0E0,0E0,0E0,0E0,0E0,0E0,0E0,0E0,0E0,0E0,0E0,0E0,0E0,0E0,0E0,0E0,0E0,0E0,0E0,0E0,0E0,0E0,0E0,0E0,0E0,0E0,0E0,0E0,0E0,0E0,0E0,0E0,0E0,0E0,0E0,0E0,0E0,0E0,0E0,0E0,0E0,0E0,0E0,0E0,0E0,0E0,0E0,0E0,0E0],"parents":[2147483647,0,0,1,1,2,2,3,3,4,4,5,5,6,6,7,7,8,8,9,9,10,10,11,11,12,12,13,13,14,14,15,15,16,16,17,17,18,18,19,19,20,20,21,21,22,22,23,23,24,24,25,25,26,26,27,27,28,28,29,29,30,30,31,31,32,32,33,33,34,34,35,35,36,36,37,37,38,38,39,39,40,40,41,41,42,42,43,43,44,44,45,45,46,46,47,47,48,48,49,49,50,50,51,51,52,52,53,53,54,54,55,55,56,56,57,57,58,58,59,59,60,60,61,61,62,62],"right_children":[2,4,6,8,10,12,14,16,18,20,22,24,26,28,30,32,34,36,38,40,42,44,46,48,50,52,54,56,58,60,62,64,66,68,70,72,74,76,78,80,82,84,86,88,90,92,94,96,98,100,102,104,106,108,110,112,114,116,118,120,122,124,126,-1,-1,-1,-1,-1,-1,-1,-1,-1,-1,-1,-1,-1,-1,-1,-1,-1,-1,-1,-1,-1,-1,-1,-1,-1,-1,-1,-1,-1,-1,-1,-1,-1,-1,-1,-1,-1,-1,-1,-1,-1,-1,-1,-1,-1,-1,-1,-1,-1,-1,-1,-1,-1,-1,-1,-1,-1,-1,-1,-1,-1,-1,-1,-1],"split_conditions":[1.7835326E-1,-5.626684E-1,-1.5660368E-1,1.010369E0,1E0,1E0,1E0,1E0,7.1039826E-1,1E0,4.119568E-1,-1.484135E0,3.008059E-1,-5.695779E-1,2.109534E-1,-1.0878645E-1,-1.1839664E0,6.546699E-1,1.333774E0,4.0742558E-1,-2.2543044E-1,2.109534E-1,6.014734E-1,4.4810683E-2,1.2244645E0,1.010369E0,1E0,-1.4430043E0,1.2244645E0,1.1604141E0,-4.8891467E-1,1.5201049E0,2.109534E-1,2.6583904E-1,1E0,1E0,1.4615042E0,7.998065E-1,-5.190543E-1,-1.2351655E0,5.6279358E-2,6.614426E-1,9.1519445E-1,4.03204E-1,-4.6717978E-1,1E0,9.444324E-1,-2.1631765E-1,1.0368065E0,2.109534E-1,-6.207769E-1,1E0,1E0,-3.3854008E-1,-2.0400326E0,-8.629207E-1,1.27795655E-2,1.3600026E0,-2.8446692E-1,1.4720878E-1,2.451166E0,1.5731684E0,1E0,-2.3324143E-2,-1.6194897E-3,-4.387611E-2,-2.6024101E-2,3.658962E-2,8.499025E-3,-1.2528612E-2,-5.5067725E-2,-5.1104E-4,-2.6620435E-2,5.967294E-3,3.7154615E-2,-2.0829527E-2,1.2509257E-2,-8.3626114E-2,-2.2158432E-3,1.0739832E-2,-1.3729927E-2,-3.9655254E-3,6.5887603E-3,-5.4138806E-3,7.3646996E-3,1.2480288E-2,-1.5043259E-3,-2.3001947E-2,-4.0110365E-2,-2.0540807E-4,-1.9929372E-2,-1.8466394E-2,-3.7932547E-3,-5.0784107E-3,1.2458724E-2,-1.2032478E-2,8.56349E-3,-1.3937761E-2,-3.5254974E-2,-3.4383258E-3,8.512897E-3,2.0687692E-2,1.0299518E-2,-1.2870198E-2,2.961905E-3,1.7127393E-2,-8.601331E-3,-4.9539644E-2,-1.6452335E-2,3.3275314E-2,-1.2198985E-2,-2.4643235E-2,7.47572E-3,7.0967353E-3,1.9535653E-2,-9.693103E-4,1.5489184E-2,5.891946E-3,1.7043399E-2,1.5597516E-2,4.573623E-3,2.186534E-2,-4.755729E-2,1.392636E-2,2.637226E-2,2.2370912E-2,2.9232986E-2],"split_indices":[17,1,1,5,31,31,34,33,12,34,1,1,12,12,7,12,12,11,0,1,7,7,5,12,17,5,34,5,17,1,5,7,7,0,29,31,4,0,17,12,5,1,12,12,12,34,1,5,2,7,12,20,37,4,14,16,1,1,5,12,12,17,33,0,0,0,0,0,0,0,0,0,0,0,0,0,0,0,0,0,0,0,0,0,0,0,0,0,0,0,0,0,0,0,0,0,0,0,0,0,0,0,0,0,0,0,0,0,0,0,0,0,0,0,0,0,0,0,0,0,0,0,0,0,0,0,0],"split_type":[0,0,0,0,0,0,0,0,0,0,0,0,0,0,0,0,0,0,0,0,0,0,0,0,0,0,0,0,0,0,0,0,0,0,0,0,0,0,0,0,0,0,0,0,0,0,0,0,0,0,0,0,0,0,0,0,0,0,0,0,0,0,0,0,0,0,0,0,0,0,0,0,0,0,0,0,0,0,0,0,0,0,0,0,0,0,0,0,0,0,0,0,0,0,0,0,0,0,0,0,0,0,0,0,0,0,0,0,0,0,0,0,0,0,0,0,0,0,0,0,0,0,0,0,0,0,0],"sum_hessian":[5.76E4,2.8812E4,2.8788E4,8.364E3,2.0448E4,1.2782E4,1.6006E4,6.933E3,1.431E3,1.6285E4,4.163E3,1.0188E4,2.594E3,8.009E3,7.997E3,5.479E3,1.454E3,1.077E3,3.54E2,8.123E3,8.162E3,2.109E3,2.054E3,1.524E3,8.664E3,1.573E3,1.021E3,2.189E3,5.82E3,3.967E3,4.03E3,2.448E3,3.031E3,1.76E2,1.278E3,6.54E2,4.23E2,3.07E2,4.7E1,4.182E3,3.941E3,3.083E3,5.079E3,1.055E3,1.054E3,1.473E3,5.81E2,7.87E2,7.37E2,5.231E3,3.433E3,1.308E3,2.65E2,5.11E2,5.1E2,1.62E2,2.027E3,3.478E3,2.342E3,3.044E3,9.23E2,1.162E3,2.868E3,2.149E3,2.99E2,1.541E3,1.49E3,9.9E1,7.7E1,1.22E3,5.8E1,5.41E2,1.13E2,3.87E2,3.6E1,2.56E2,5.1E1,2.6E1,2.1E1,4.56E2,3.726E3,1.969E3,1.972E3,1.978E3,1.105E3,4.148E3,9.31E2,6.82E2,3.73E2,3.41E2,7.13E2,7.14E2,7.59E2,2.78E2,3.03E2,3.23E2,4.64E2,5.78E2,1.59E2,2.6E3,2.631E3,9.18E2,2.515E3,8.96E2,4.12E2,2.01E2,6.4E1,1.99E2,3.12E2,2.1E1,4.89E2,3.5E1,1.27E2,2.17E2,1.81E3,2.879E3,5.99E2,9.34E2,1.408E3,1.672E3,1.372E3,9.21E2,2E0,9.43E2,2.19E2,2.286E3,5.82E2],"tree_param":{"num_deleted":"0","num_feature":"38","num_nodes":"127","size_leaf_vector":"1"}},{"base_weights":[-7.579679E-5,-1.2189941E-1,8.10413E-2,-2.170862E-1,-7.8326825E-4,-9.479053E-2,1.1499513E-1,-1.7328781E-1,-3.998938E-1,4.669412E-2,-1.0522728E-1,-1.868465E-1,-1.3754249E-3,1.449387E-1,-2.625015E-3,-4.270302E-1,-1.4420876E-1,-5.1269203E-1,-2.8622934E-1,-4.916137E-2,1.0381031E-1,-1.5591979E-1,1.5767293E-2,-1.3355455E-1,-3.93237E-1,-6.643412E-2,1.18688256E-1,5.2184783E-2,1.7741309E-1,6.0751915E-2,-1.0299154E-1,-4.9887583E-1,-6.2142197E-2,-2.2945884E-1,-5.739795E-2,-6.393909E-1,-4.11106E-1,-4.218828E-1,-1.8108635E-1,-9.715773E-2,1.3821645E-1,7.529366E-2,3.0029985E-1,-2.414224E-1,-7.526306E-2,4.306115E-2,-3.446678E-1,-2.7360588E-1,-6.3533224E-2,-6.207057E-1,-2.7216318E-1,-2.832795E-2,-2.684577E-1,1.4384657E-1,-4.0556517E-1,-2.913952E-2,1.3351882E-1,1.2846586E-1,2.2660916E-1,-1.0421263E-2,1.3819535E-1,-1.8115725E-1,5.2961618E-2,-3.0671054E-2,-5.574338E-2,2.2245606E-3,-8.498326E-2,-9.623743E-3,-2.323842E-2,1.3344495E-2,-6.509431E-3,-5.744328E-2,-2.4840036E-2,2.8466778E-2,-3.2180917E-2,-2.3045812E-2,-5.063903E-2,-2.0741327E-2,-4.7242723E-4,4.024217E-3,-1.1021043E-2,-3.211797E-2,1.1919516E-2,-2.6656082E-4,1.1211649E-2,1.7806007E-2,2.9422194E-2,-2.665882E-2,-1.0560681E-2,-1.3158261E-2,1.7877136E-3,6.8755704E-5,1.6958416E-2,-4.557986E-2,6.256492E-3,-4.584898E-2,-1.6625147E-2,-7.985516E-3,6.7725587E-3,-1.6727393E-2,-5.832446E-2,-2.8276572E-2,-6.7236274E-4,-5.087578E-2,-9.7337255E-4,-1.4794373E-2,-7.781242E-2,1.2400596E-3,1.649254E-2,-6.050766E-2,-9.987309E-3,-4.9226317E-3,1.4166235E-2,6.1825733E-3,1.5570876E-2,2.991712E-3,1.3429305E-2,2.0293513E-2,1.3469144E-2,-3.1680202E-3,1.0774984E-2,8.198386E-4,1.33449705E-2,-1.770438E-2,6.481269E-3,-1.8616507E-2,6.4688614E-3],"categories":[],"categories_nodes":[],"categories_segments":[],"categories_sizes":[],"default_left":[0,0,0,0,0,0,0,0,0,0,0,0,0,0,0,0,0,0,0,0,0,0,0,0,0,0,0,0,0,0,0,0,0,0,0,0,0,0,0,0,0,0,0,0,0,0,0,0,0,0,0,0,0,0,0,0,0,0,0,0,0,0,0,0,0,0,0,0,0,0,0,0,0,0,0,0,0,0,0,0,0,0,0,0,0,0,0,0,0,0,0,0,0,0,0,0,0,0,0,0,0,0,0,0,0,0,0,0,0,0,0,0,0,0,0,0,0,0,0,0,0,0,0,0,0,0,0],"id":11,"left_children":[1,3,5,7,9,11,13,15,17,19,21,23,25,27,29,31,33,35,37,39,41,43,45,47,49,51,53,55,57,59,61,63,65,67,69,71,73,75,77,79,81,83,85,87,89,91,93,95,97,99,101,103,105,107,109,111,113,115,117,119,121,123,125,-1,-1,-1,-1,-1,-1,-1,-1,-1,-1,-1,-1,-1,-1,-1,-1,-1,-1,-1,-1,-1,-1,-1,-1,-1,-1,-1,-1,-1,-1,-1,-1,-1,-1,-1,-1,-1,-1,-1,-1,-1,-1,-1,-1,-1,-1,-1,-1,-1,-1,-1,-1,-1,-1,-1,-1,-1,-1,-1,-1,-1,-1,-1,-1],"loss_changes":[5.6922174E2,2.6543564E2,2.0644719E2,1.0315277E2,5.0251713E1,4.8130684E1,1.02074066E2,7.669049E1,3.1790741E1,3.814874E1,1.942731E1,3.0953545E1,2.1715174E1,6.957388E1,3.7421204E1,2.7993484E1,6.90643E1,1.5812805E1,1.765252E1,2.3414394E1,2.444107E1,1.5374508E1,9.222894E0,2.1968964E1,1.5749474E1,1.3872512E1,1.2944322E1,3.9637577E1,4.1171936E1,1.9877337E1,2.7766653E1,1.9320404E1,1.7435907E1,3.824675E1,3.2014584E1,2.1347946E1,1.0053337E1,1.5526802E1,1.1711838E1,1.5566433E1,6.297509E0,2.2312853E1,3.1061363E0,1.2374981E1,1.1421154E1,6.7191906E0,7.4832435E0,1.2966816E1,9.891716E0,1.2309837E1,1.0456409E1,1.5137061E1,1.5455355E1,9.030245E0,4.8105407E0,2.3859102E1,1.1322735E1,3.843721E1,1.7591736E1,9.223554E0,8.731785E0,2.2305325E1,7.6514225E0,0E0,0E0,0E0,0E0,0E0,0E0,0E0,0E0,0E0,0E0,0E0,0E0,0E0,0E0,0E0,0E0,0E0,0E0,0E0,0E0,0E0,0E0,0E0,0E0,0E0,0E0,0E0,0E0,0E0,0E0,0E0,0E0,0E0,0E0,0E0,0E0,0E0,0E0,0E0,0E0,0E0,0E0,0E0,0E0,0E0,0E0,0E0,0E0,0E0,0E0,0E0,0E0,0E0,0E0,0E0,0E0,0E0,0E0,0E0,0E0,0E0,0E0,0E0,0E0],"parents":[2147483647,0,0,1,1,2,2,3,3,4,4,5,5,6,6,7,7,8,8,9,9,10,10,11,11,12,12,13,13,14,14,15,15,16,16,17,17,18,18,19,19,20,20,21,21,22,22,23,23,24,24,25,25,26,26,27,27,28,28,29,29,30,30,31,31,32,32,33,33,34,34,35,35,36,36,37,37,38,38,39,39,40,40,41,41,42,42,43,43,44,44,45,45,46,46,47,47,48,48,49,49,50,50,51,51,52,52,53,53,54,54,55,55,56,56,57,57,58,58,59,59,60,60,61,61,62,62],"right_children":[2,4,6,8,10,12,14,16,18,20,22,24,26,28,30,32,34,36,38,40,42,44,46,48,50,52,54,56,58,60,62,64,66,68,70,72,74,76,78,80,82,84,86,88,90,92,94,96,98,100,102,104,106,108,110,112,114,116,118,120,122,124,126,-1,-1,-1,-1,-1,-1,-1,-1,-1,-1,-1,-1,-1,-1,-1,-1,-1,-1,-1,-1,-1,-1,-1,-1,-1,-1,-1,-1,-1,-1,-1,-1,-1,-1,-1,-1,-1,-1,-1,-1,-1,-1,-1,-1,-1,-1,-1,-1,-1,-1,-1,-1,-1,-1,-1,-1,-1,-1,-1,-1,-1,-1,-1,-1],"split_conditions":[-1.703505E-1,1.407653E-1,-9.851635E-1,1E0,5.0560206E-1,1E0,1E0,-1.5839293E0,1E0,-2.2543044E-1,1.1604141E0,1E0,1.2244645E0,-6.252132E-1,3.008059E-1,1.010369E0,2.109534E-1,-5.6566435E-1,-6.358834E-1,1E0,1.6593856E0,2.109534E-1,2.1439714E0,-4.2076543E-1,-2.2543044E-1,1.0687916E0,1.6831801E0,8.757608E-1,2.1236818E-1,2.6226532E-1,1.2244645E0,6.5919924E-1,1.3576555E0,-1.0878645E-1,-1.2351655E0,6.941776E-1,-2.0031512E0,7.805001E-1,3.9702561E-1,-9.791702E-1,-1.5962634E0,1E0,3.2887638E-1,1E0,-1.1869896E-2,1E0,2E0,-1.098198E0,-1.1648028E0,-4.1598073E-1,6.53792E-1,-1.5921645E0,1.4983065E0,-2.8446692E-1,-6.910391E-1,1.2103112E0,4.0742558E-1,-2.2543044E-1,4.4810683E-2,1.010369E0,-6.618143E-1,9.422197E-1,-8.893061E-1,-3.0671054E-2,-5.574338E-2,2.2245606E-3,-8.498326E-2,-9.623743E-3,-2.323842E-2,1.3344495E-2,-6.509431E-3,-5.744328E-2,-2.4840036E-2,2.8466778E-2,-3.2180917E-2,-2.3045812E-2,-5.063903E-2,-2.0741327E-2,-4.7242723E-4,4.024217E-3,-1.1021043E-2,-3.211797E-2,1.1919516E-2,-2.6656082E-4,1.1211649E-2,1.7806007E-2,2.9422194E-2,-2.665882E-2,-1.0560681E-2,-1.3158261E-2,1.7877136E-3,6.8755704E-5,1.6958416E-2,-4.557986E-2,6.256492E-3,-4.584898E-2,-1.6625147E-2,-7.985516E-3,6.7725587E-3,-1.6727393E-2,-5.832446E-2,-2.8276572E-2,-6.7236274E-4,-5.087578E-2,-9.7337255E-4,-1.4794373E-2,-7.781242E-2,1.2400596E-3,1.649254E-2,-6.050766E-2,-9.987309E-3,-4.9226317E-3,1.4166235E-2,6.1825733E-3,1.5570876E-2,2.991712E-3,1.3429305E-2,2.0293513E-2,1.3469144E-2,-3.1680202E-3,1.0774984E-2,8.198386E-4,1.33449705E-2,-1.770438E-2,6.481269E-3,-1.8616507E-2,6.4688614E-3],"split_indices":[17,1,1,31,12,34,31,1,34,7,1,31,17,5,12,5,7,14,1,33,1,7,12,5,7,12,12,17,1,1,17,12,4,12,12,4,12,3,5,12,4,34,5,34,5,33,15,7,1,12,4,2,19,5,19,1,1,7,12,5,7,5,14,0,0,0,0,0,0,0,0,0,0,0,0,0,0,0,0,0,0,0,0,0,0,0,0,0,0,0,0,0,0,0,0,0,0,0,0,0,0,0,0,0,0,0,0,0,0,0,0,0,0,0,0,0,0,0,0,0,0,0,0,0,0,0,0],"split_type":[0,0,0,0,0,0,0,0,0,0,0,0,0,0,0,0,0,0,0,0,0,0,0,0,0,0,0,0,0,0,0,0,0,0,0,0,0,0,0,0,0,0,0,0,0,0,0,0,0,0,0,0,0,0,0,0,0,0,0,0,0,0,0,0,0,0,0,0,0,0,0,0,0,0,0,0,0,0,0,0,0,0,0,0,0,0,0,0,0,0,0,0,0,0,0,0,0,0,0,0,0,0,0,0,0,0,0,0,0,0,0,0,0,0,0,0,0,0,0,0,0,0,0,0,0,0,0],"sum_hessian":[5.76E4,2.3023E4,3.4577E4,1.2891E4,1.0132E4,5.596E3,2.8981E4,1.0401E4,2.49E3,6.966E3,3.166E3,2.818E3,2.778E3,2.31E4,5.881E3,1.068E3,9.333E3,1.248E3,1.242E3,2.601E3,4.365E3,2.231E3,9.35E2,2.241E3,5.77E2,1.802E3,9.76E2,5.991E3,1.7109E4,3.605E3,2.276E3,8.92E2,1.76E2,4.708E3,4.625E3,5.53E2,6.95E2,5.41E2,7.01E2,2.071E3,5.3E2,3.813E3,5.52E2,1.082E3,1.149E3,8.7E2,6.5E1,7.46E2,1.495E3,1.99E2,3.78E2,1.517E3,2.85E2,9.32E2,4.4E1,2.996E3,2.995E3,8.578E3,8.531E3,1.879E3,1.726E3,1.516E3,7.6E2,6.54E2,2.38E2,1.63E2,1.3E1,2.086E3,2.622E3,5.13E2,4.112E3,3.91E2,1.62E2,1.5E1,6.8E2,3.74E2,1.67E2,4.53E2,2.48E2,5.14E2,1.557E3,1.8E1,5.12E2,1.849E3,1.964E3,3.3E2,2.22E2,5.06E2,5.76E2,5.71E2,5.78E2,7.08E2,1.62E2,4E1,2.5E1,9.8E1,6.48E2,1.169E3,3.26E2,5.7E1,1.42E2,2.7E2,1.08E2,3.4E1,1.483E3,2.62E2,2.3E1,3.49E2,5.83E2,1.7E1,2.7E1,2.567E3,4.29E2,1.774E3,1.221E3,3.119E3,5.459E3,4.406E3,4.125E3,1.558E3,3.21E2,4.11E2,1.315E3,1.258E3,2.58E2,7.5E1,6.85E2],"tree_param":{"num_deleted":"0","num_feature":"38","num_nodes":"127","size_leaf_vector":"1"}},{"base_weights":[-8.228694E-5,-7.624442E-2,1.14830986E-1,-2.246831E-1,-1.5521893E-2,-3.5289824E-2,1.4415671E-1,-3.1173047E-1,-1.3474037E-1,2.0745533E-2,-1.5635312E-1,-1.17617264E-1,4.5234416E-2,2.0702088E-1,1.0074652E-1,-1.844603E-1,-3.9868307E-1,-1.8176782E-1,4.107776E-2,-4.5102634E-2,8.6061634E-2,-2.1007806E-1,-1.1460932E-2,-2.3295642E-1,-4.9948364E-2,7.295566E-2,-1.9863133E-1,1.6357127E-1,2.4949777E-1,7.1336865E-2,2.1977755E-1,-4.5048815E-1,-1.3590401E-1,-4.7816205E-1,-2.5057554E-1,-1.4189914E-1,-3.8150695E-1,7.181142E-2,-2.43762E-1,-4.653608E-3,-1.7977478E-1,4.1528642E-2,1.7130724E-1,-3.1987596E-1,-1.0507683E-1,-1.1814974E-1,8.7698914E-2,-2.7649513E-1,1.4806907E-1,-2.5702894E-1,-1.5043236E-3,-1.1027577E-1,1.13752805E-1,-1.3373408E-1,-9.122549E-1,1.10210985E-1,2.1613784E-1,2.2638431E-1,3.406574E-1,-1.6850712E-2,1.1525948E-1,1.9680326E-1,3.255991E-1,-4.037482E-2,2.5971914E-3,-3.040896E-2,-7.42887E-3,-5.2763335E-2,-3.0215634E-2,-1.4399662E-2,-6.1863974E-2,-1.9806433E-2,-6.0787164E-3,-7.3854394E-2,-2.3277925E-2,3.303385E-2,3.6050896E-3,-4.109066E-2,1.1871748E-3,-2.7783585E-3,1.1197133E-2,-3.1244947E-2,-9.809227E-3,-2.0327372E-3,8.248317E-3,1.0421377E-2,2.0573856E-2,-1.749081E-2,-3.516882E-2,-4.501134E-3,-2.0286757E-2,-1.47954635E-2,4.202526E-3,-2.8908188E-2,9.321998E-3,-4.8822347E-2,-1.6812546E-2,-3.1644054E-2,2.0336282E-2,-2.5528157E-2,8.941277E-3,8.093518E-3,-6.49362E-3,-2.7962022E-2,-2.95402E-3,1.156137E-2,-3.2578127E-3,-3.6398657E-2,4.7249199E-4,-1.064863E-1,-2.6979508E-2,4.09751E-3,1.5410765E-2,-7.483723E-3,1.6747402E-2,1.4364033E-2,2.091761E-2,1.6551565E-2,2.7969118E-2,-4.6920143E-3,9.686406E-3,5.3334385E-3,1.4174057E-2,7.635033E-3,1.7095763E-2,2.7924698E-2,1.7563604E-2],"categories":[],"categories_nodes":[],"categories_segments":[],"categories_sizes":[],"default_left":[0,0,0,0,0,0,0,0,0,0,0,0,0,0,0,0,0,0,0,0,0,0,0,0,0,0,0,0,0,0,0,0,0,0,0,0,0,0,0,0,0,0,0,0,0,0,0,0,0,0,0,0,0,0,0,0,0,0,0,0,0,0,0,0,0,0,0,0,0,0,0,0,0,0,0,0,0,0,0,0,0,0,0,0,0,0,0,0,0,0,0,0,0,0,0,0,0,0,0,0,0,0,0,0,0,0,0,0,0,0,0,0,0,0,0,0,0,0,0,0,0,0,0,0,0,0,0],"id":12,"left_children":[1,3,5,7,9,11,13,15,17,19,21,23,25,27,29,31,33,35,37,39,41,43,45,47,49,51,53,55,57,59,61,63,65,67,69,71,73,75,77,79,81,83,85,87,89,91,93,95,97,99,101,103,105,107,109,111,113,115,117,119,121,123,125,-1,-1,-1,-1,-1,-1,-1,-1,-1,-1,-1,-1,-1,-1,-1,-1,-1,-1,-1,-1,-1,-1,-1,-1,-1,-1,-1,-1,-1,-1,-1,-1,-1,-1,-1,-1,-1,-1,-1,-1,-1,-1,-1,-1,-1,-1,-1,-1,-1,-1,-1,-1,-1,-1,-1,-1,-1,-1,-1,-1,-1,-1,-1,-1],"loss_changes":[5.0413504E2,3.122447E2,1.0108423E2,7.869705E1,1.2557835E2,2.4885288E1,5.239673E1,5.6476135E1,4.0918922E1,8.409596E1,3.9191658E1,1.4474205E1,1.2845469E1,1.4437927E1,3.976583E1,2.6755135E1,3.5606537E1,3.1034729E1,9.165612E0,5.304008E1,3.7256805E1,4.2312088E1,1.4429873E1,1.1421249E1,1.1746875E1,1.2757963E1,8.862568E0,1.0862259E1,8.277206E0,3.5304375E1,5.4085007E0,1.3655136E1,1.741304E1,3.3207123E1,3.5568596E1,2.4186974E1,2.754277E1,8.241495E0,8.061075E0,3.7350025E1,2.6035873E1,3.0298912E1,1.1187332E1,2.3076157E1,1.3989462E1,9.065783E0,1.2289131E1,1.1924709E1,5.095416E0,7.002224E0,8.852871E0,5.7736306E0,8.865366E0,8.8158245E0,3.9763346E0,1.0196842E1,4.4427414E0,5.7433777E0,3.0142746E0,2.0236097E1,1.9789154E1,5.455765E0,1.6215973E0,0E0,0E0,0E0,0E0,0E0,0E0,0E0,0E0,0E0,0E0,0E0,0E0,0E0,0E0,0E0,0E0,0E0,0E0,0E0,0E0,0E0,0E0,0E0,0E0,0E0,0E0,0E0,0E0,0E0,0E0,0E0,0E0,0E0,0E0,0E0,0E0,0E0,0E0,0E0,0E0,0E0,0E0,0E0,0E0,0E0,0E0,0E0,0E0,0E0,0E0,0E0,0E0,0E0,0E0,0E0,0E0,0E0,0E0,0E0,0E0,0E0,0E0,0E0,0E0],"parents":[2147483647,0,0,1,1,2,2,3,3,4,4,5,5,6,6,7,7,8,8,9,9,10,10,11,11,12,12,13,13,14,14,15,15,16,16,17,17,18,18,19,19,20,20,21,21,22,22,23,23,24,24,25,25,26,26,27,27,28,28,29,29,30,30,31,31,32,32,33,33,34,34,35,35,36,36,37,37,38,38,39,39,40,40,41,41,42,42,43,43,44,44,45,45,46,46,47,47,48,48,49,49,50,50,51,51,52,52,53,53,54,54,55,55,56,56,57,57,58,58,59,59,60,60,61,61,62,62],"right_children":[2,4,6,8,10,12,14,16,18,20,22,24,26,28,30,32,34,36,38,40,42,44,46,48,50,52,54,56,58,60,62,64,66,68,70,72,74,76,78,80,82,84,86,88,90,92,94,96,98,100,102,104,106,108,110,112,114,116,118,120,122,124,126,-1,-1,-1,-1,-1,-1,-1,-1,-1,-1,-1,-1,-1,-1,-1,-1,-1,-1,-1,-1,-1,-1,-1,-1,-1,-1,-1,-1,-1,-1,-1,-1,-1,-1,-1,-1,-1,-1,-1,-1,-1,-1,-1,-1,-1,-1,-1,-1,-1,-1,-1,-1,-1,-1,-1,-1,-1,-1,-1,-1,-1,-1,-1,-1],"split_conditions":[5.2705705E-1,-5.626684E-1,-9.851635E-1,1E0,1E0,1E0,-2.1118455E-1,-2.1118455E-1,1E0,1E0,9.109283E-1,-2.2543044E-1,1.3247868E0,2.109534E-1,1E0,-9.659594E-1,3.9702561E-1,9.663935E-1,1.3247868E0,7.6159734E-1,7.113397E-1,2.109534E-1,1E0,1.2829659E0,-8.978102E-1,-8.978102E-1,1.4598969E0,1E0,1E0,-4.2076543E-1,1.010369E0,-6.857806E-1,-1.833415E0,-6.618143E-1,1.6319811E0,-8.6775804E-1,-1.3067057E0,-1.4686644E0,-2.1667665E-1,1.2103112E0,-1.2164618E0,2.109534E-1,1E0,4.03204E-1,8.6399543E-1,1.6593856E0,-1.4430043E0,-1.9831065E0,1E0,1.2443569E0,-1.0878645E-1,-7.7661383E-1,1E0,-8.0626786E-1,-3.1438267E-1,3.9702561E-1,-1.97969E0,4.3623787E-1,-7.615117E-1,8.610312E-1,5.0208604E-1,8.757608E-1,1E0,-4.037482E-2,2.5971914E-3,-3.040896E-2,-7.42887E-3,-5.2763335E-2,-3.0215634E-2,-1.4399662E-2,-6.1863974E-2,-1.9806433E-2,-6.0787164E-3,-7.3854394E-2,-2.3277925E-2,3.303385E-2,3.6050896E-3,-4.109066E-2,1.1871748E-3,-2.7783585E-3,1.1197133E-2,-3.1244947E-2,-9.809227E-3,-2.0327372E-3,8.248317E-3,1.0421377E-2,2.0573856E-2,-1.749081E-2,-3.516882E-2,-4.501134E-3,-2.0286757E-2,-1.47954635E-2,4.202526E-3,-2.8908188E-2,9.321998E-3,-4.8822347E-2,-1.6812546E-2,-3.1644054E-2,2.0336282E-2,-2.5528157E-2,8.941277E-3,8.093518E-3,-6.49362E-3,-2.7962022E-2,-2.95402E-3,1.156137E-2,-3.2578127E-3,-3.6398657E-2,4.7249199E-4,-1.064863E-1,-2.6979508E-2,4.09751E-3,1.5410765E-2,-7.483723E-3,1.6747402E-2,1.4364033E-2,2.091761E-2,1.6551565E-2,2.7969118E-2,-4.6920143E-3,9.686406E-3,5.3334385E-3,1.4174057E-2,7.635033E-3,1.7095763E-2,2.7924698E-2,1.7563604E-2],"split_indices":[17,1,1,34,31,34,12,12,33,34,1,7,12,7,33,5,5,12,12,12,1,7,34,5,5,5,19,34,33,5,5,1,1,7,12,17,5,3,11,1,17,7,33,12,12,1,5,1,8,2,12,3,31,19,10,5,10,1,5,1,1,17,20,0,0,0,0,0,0,0,0,0,0,0,0,0,0,0,0,0,0,0,0,0,0,0,0,0,0,0,0,0,0,0,0,0,0,0,0,0,0,0,0,0,0,0,0,0,0,0,0,0,0,0,0,0,0,0,0,0,0,0,0,0,0,0,0],"split_type":[0,0,0,0,0,0,0,0,0,0,0,0,0,0,0,0,0,0,0,0,0,0,0,0,0,0,0,0,0,0,0,0,0,0,0,0,0,0,0,0,0,0,0,0,0,0,0,0,0,0,0,0,0,0,0,0,0,0,0,0,0,0,0,0,0,0,0,0,0,0,0,0,0,0,0,0,0,0,0,0,0,0,0,0,0,0,0,0,0,0,0,0,0,0,0,0,0,0,0,0,0,0,0,0,0,0,0,0,0,0,0,0,0,0,0,0,0,0,0,0,0,0,0,0,0,0,0],"sum_hessian":[5.76E4,3.4641E4,2.2959E4,1.0056E4,2.4585E4,3.752E3,1.9207E4,5.109E3,4.947E3,1.9551E4,5.034E3,1.855E3,1.897E3,7.844E3,1.1363E4,2.075E3,3.034E3,3.903E3,1.044E3,9.736E3,9.815E3,3.672E3,1.362E3,6.85E2,1.17E3,1.704E3,1.93E2,3.88E3,3.964E3,9.113E3,2.25E3,3.19E2,1.756E3,1.973E3,1.061E3,3.255E3,6.48E2,9.43E2,1.01E2,7.488E3,2.248E3,6.448E3,3.367E3,1.794E3,1.878E3,6.56E2,7.06E2,6.15E2,7E1,2.21E2,9.49E2,3.1E2,1.394E3,1.78E2,1.5E1,1.927E3,1.953E3,3.165E3,7.99E2,3.03E3,6.083E3,1.851E3,3.99E2,2.7E2,4.9E1,2.1E2,1.546E3,4.92E2,1.481E3,9.64E2,9.7E1,1.081E3,2.174E3,6.7E1,5.81E2,5.6E1,8.87E2,4.6E1,5.5E1,6.187E3,1.301E3,3.84E2,1.864E3,3.22E3,3.228E3,2.564E3,8.03E2,1.136E3,6.58E2,1.477E3,4.01E2,4.51E2,2.05E2,5E1,6.56E2,7.4E1,5.41E2,1.2E1,5.8E1,1.81E2,4E1,4.15E2,5.34E2,6.5E1,2.45E2,1.109E3,2.85E2,5E1,1.28E2,7E0,8E0,1.218E3,7.09E2,4.3E1,1.91E3,1.905E3,1.26E3,1.71E2,6.28E2,2.308E3,7.22E2,3.806E3,2.277E3,4.58E2,1.393E3,2.62E2,1.37E2],"tree_param":{"num_deleted":"0","num_feature":"38","num_nodes":"127","size_leaf_vector":"1"}},{"base_weights":[-8.557422E-5,-1.343827E-1,5.7748612E-2,-2.3243347E-1,-3.615796E-2,-2.7424071E-2,1.1550062E-1,-1.9045405E-1,-4.0690163E-1,-1.06118746E-1,3.0407475E-2,-9.360749E-2,6.100814E-2,6.116294E-2,1.7026061E-1,-4.267604E-1,-1.5961567E-1,-1.8791454E-1,-4.695889E-1,-1.9600134E-1,-1.9075368E-2,-3.321027E-3,1.6608833E-1,-2.3614723E-2,-1.848348E-1,9.3956195E-2,-6.350413E-2,9.151689E-2,-5.9413683E-2,1.20436564E-1,2.1907401E-1,-5.2002794E-1,-1.9889691E-1,-2.4576297E-1,-7.3110014E-2,5.408274E-1,-2.3692839E-1,-6.3465875E-1,-3.9920613E-1,-2.6018113E-1,-6.708027E-2,6.838762E-2,-9.355326E-2,-9.65944E-2,5.0250724E-2,1.1403717E-1,3.1534943E-1,-5.796264E-2,1.4333707E-1,-3.2844442E-1,-1.1588076E-1,1.1623722E-1,-6.628902E-2,3.1857748E-2,-1.3079661E-1,-2.0049913E-3,1.250546E-1,-2.2571903E-1,-7.1913446E-3,1.4939828E-1,6.25394E-3,1.7412886E-2,2.2811362E-1,-4.5599468E-2,-1.6444532E-2,1.7243737E-2,-2.6226211E-2,-1.0090552E-2,-2.5071684E-2,-1.3244771E-2,-9.1366126E-4,-3.4256455E-2,7.338476E-2,-2.4371821E-2,1.0259726E-2,-5.522985E-2,-2.271941E-2,-1.15267284E-1,-2.8874965E-2,-4.3063335E-2,-1.614435E-2,1.6417047E-2,-7.782431E-3,-1.4933544E-2,8.321788E-3,-5.8429036E-3,-4.457213E-2,8.646612E-3,-9.59867E-3,6.9291973E-3,-3.4775238E-3,4.3344763E-3,2.1628829E-2,1.0911108E-2,3.0868568E-2,-1.5730745E-3,-1.5948607E-2,1.5498308E-2,-4.614249E-3,-3.3275314E-2,-1.6071875E-2,-1.2203638E-2,5.4852394E-3,3.7543096E-3,1.3408231E-2,-3.8671657E-2,-2.3216438E-3,-1.6244803E-2,5.3890967E-3,-1.4268532E-2,5.0573777E-3,-6.1789923E-3,5.4219896E-3,1.3635751E-2,5.615668E-3,-4.8852872E-2,-9.082881E-3,-9.860954E-3,4.455368E-3,4.5529767E-3,1.3434058E-2,-3.378711E-3,1.3214782E-2,7.5541944E-3,-3.655644E-2,1.5765777E-2,2.2701206E-2],"categories":[],"categories_nodes":[],"categories_segments":[],"categories_sizes":[],"default_left":[0,0,0,0,0,0,0,0,0,0,0,0,0,0,0,0,0,0,0,0,0,0,0,0,0,0,0,0,0,0,0,0,0,0,0,0,0,0,0,0,0,0,0,0,0,0,0,0,0,0,0,0,0,0,0,0,0,0,0,0,0,0,0,0,0,0,0,0,0,0,0,0,0,0,0,0,0,0,0,0,0,0,0,0,0,0,0,0,0,0,0,0,0,0,0,0,0,0,0,0,0,0,0,0,0,0,0,0,0,0,0,0,0,0,0,0,0,0,0,0,0,0,0,0,0,0,0],"id":13,"left_children":[1,3,5,7,9,11,13,15,17,19,21,23,25,27,29,31,33,35,37,39,41,43,45,47,49,51,53,55,57,59,61,63,65,67,69,71,73,75,77,79,81,83,85,87,89,91,93,95,97,99,101,103,105,107,109,111,113,115,117,119,121,123,125,-1,-1,-1,-1,-1,-1,-1,-1,-1,-1,-1,-1,-1,-1,-1,-1,-1,-1,