{"learner":{"attributes":{"best_iteration":"69","best_score":"0.7333173149767026"},"feature_names":[],"feature_types":[],"gradient_booster":{"model":{"gbtree_model_param":{"num_parallel_tree":"1","num_trees":"120"},"iteration_indptr":[0,1,2,3,4,5,6,7,8,9,10,11,12,13,14,15,16,17,18,19,20,21,22,23,24,25,26,27,28,29,30,31,32,33,34,35,36,37,38,39,40,41,42,43,44,45,46,47,48,49,50,51,52,53,54,55,56,57,58,59,60,61,62,63,64,65,66,67,68,69,70,71,72,73,74,75,76,77,78,79,80,81,82,83,84,85,86,87,88,89,90,91,92,93,94,95,96,97,98,99,100,101,102,103,104,105,106,107,108,109,110,111,112,113,114,115,116,117,118,119,120],"tree_info":[0,0,0,0,0,0,0,0,0,0,0,0,0,0,0,0,0,0,0,0,0,0,0,0,0,0,0,0,0,0,0,0,0,0,0,0,0,0,0,0,0,0,0,0,0,0,0,0,0,0,0,0,0,0,0,0,0,0,0,0,0,0,0,0,0,0,0,0,0,0,0,0,0,0,0,0,0,0,0,0,0,0,0,0,0,0,0,0,0,0,0,0,0,0,0,0,0,0,0,0,0,0,0,0,0,0,0,0,0,0,0,0,0,0,0,0,0,0,0,0],"trees":[{"base_weights":[3.979471E-4,-2.2631538E-1,2.2656122E-1,-3.706113E-1,-8.2911834E-2,1.3815367E-1,3.5982502E-1,-2.7991563E-1,-5.7479644E-1,-1.8639622E-2,-2.7983785E-1,2.8390395E-2,2.4684249E-1,2.716694E-1,4.486329E-1,-3.378891E-1,-4.340057E-2,-6.9194704E-1,-4.558488E-1,-6.634616E-2,1.7751686E-1,-4.355359E-1,-1.7651287E-1,-1.17282934E-1,9.913722E-2,3.1463674E-1,1.4349206E-1,3.9703584E-1,2.1895207E-1,4.1901684E-1,5.7194453E-1,-4.750702E-1,-2.4935172E-1,1.0410272E-1,-1.18531436E-1,-9.031642E-1,-6.0378134E-1,-5.4603595E-1,-3.0552948E-1,-1.7726175E-1,1.2117063E-3,1.1358708E-1,2.743297E-1,-3.0136785E-1,-5.11494E-1,-2.375862E-1,8.951688E-2,2.925589E-2,-2.1586552E-1,1.9420649E-1,9.120157E-3,2.7560592E-1,4.6792027E-1,9.97216E-2,3.0565315E-1,3.3296838E-1,4.942387E-1,1.2341218E-1,2.807778E-1,3.4404796E-1,4.6361673E-1,1.5865307E-2,5.8726305E-1,-6.209145E-1,-3.4514585E-1,-3.1263E-1,-6.934727E-2,-2.0457895E-2,2.751162E-1,-2.7332166E-1,-2.7603226E-2,-9.6988565E-1,-6.2958336E-1,-6.6567725E-1,-3.4301496E-1,-4.8723218E-1,-8.9168084E-1,-1.3636698E-1,-3.4440964E-1,-3.1814218E-1,-8.458002E-2,-1.0507719E-1,7.507582E-2,-1.0050969E-1,1.5642379E-1,3.3568907E-1,1.7146957E-1,-4.0681663E-1,-1.022908E-1,-4.789833E-1,-9.388574E-2,-3.182847E-1,-3.1847302E-2,-6.553999E-2,2.3019655E-1,-4.3667585E-2,1.7817558E-1,-3.521458E-1,-1.3218099E-1,8.181035E-2,2.5737762E-1,-4.6981163E-2,2.1746269E-1,2.340752E-1,4.0617165E-1,4.4036785E-1,5.9309524E-1,3.5252623E-2,2.2242354E-1,4.0268993E-1,1.2149736E-1,2.1077955E-1,4.0140224E-1,3.7040058E-1,5.3780264E-1,4.30238E-2,2.4485613E-1,2.4395683E-1,4.323057E-1,4.3138868E-1,2.5633684E-1,4.0494272E-1,5.166845E-1,6.2222254E-1,4.270772E-1,-2.935504E-2,-6.79664E-2,-1.1796159E-2,-4.1908998E-2,-5.0877076E-2,-2.5013542E-2,5.5786795E-3,-1.1031074E-2,9.629753E-3,-2.334292E-2,2.0130666E-3,3.5253797E-2,-3.875197E-2,8.311403E-3,1.6971872E-3,-2.0949062E-2,-6.5966144E-2,-1.0461594E-1,-9.796767E-2,-4.4054132E-2,-7.228146E-2,-4.172935E-2,-1.734007E-2,-4.7969073E-2,-5.8787126E-2,-3.4242593E-2,-7.478499E-2,-1.4346449E-1,-6.636008E-2,4.456756E-3,-5.494175E-2,-3.0069312E-2,-2.509611E-2,-4.7311734E-2,5.043405E-3,-1.8229788E-2,-1.7468508E-2,2.6573098E-4,-7.1528475E-3,1.1167257E-2,-2.5875637E-2,1.7057467E-2,1.2236286E-2,3.314841E-2,1.1923363E-2,3.9887097E-2,2.384843E-2,3.7004773E-3,-1.1924088E-2,-4.9418572E-2,7.944294E-3,-4.3524534E-2,-5.3943623E-2,-1.2719365E-2,-3.998785E-2,-1.3901198E-2,-1.2591404E-2,1.7813629E-2,4.7529335E-3,-4.0897425E-2,3.3086974E-2,-1.2291886E-2,-1.6812392E-2,7.6141926E-3,8.9138123E-4,2.7806465E-2,-7.275397E-2,-2.9892636E-2,-3.3003762E-2,-4.359987E-3,-1.6324448E-3,2.8784355E-2,2.2217145E-2,3.9767724E-2,-1.1933885E-2,8.85405E-3,8.329191E-3,3.0316664E-2,1.7383017E-2,3.348491E-2,3.085194E-2,4.534405E-2,1.44318035E-2,4.5289177E-2,6.706714E-2,3.44759E-2,-1.677058E-2,1.0375846E-2,1.0261336E-2,3.1281248E-2,1.8111033E-2,4.5588527E-2,3.224566E-2,1.4112277E-3,2.790553E-2,-1.3481478E-2,3.6342036E-2,5.627031E-2,4.6684675E-2,1.5477953E-2,4.7015917E-2,6.0308356E-2,1.9166254E-2,-2.494166E-4,-1.6729454E-2,2.7557734E-2,1.5383675E-2,2.9918903E-2,1.5847033E-2,4.784343E-2,3.57422E-2,5.056072E-2,1.5376583E-2,3.2026332E-2,5.897298E-2,3.8797665E-2,5.316285E-2,1.0756644E-2,6.348046E-2,5.092441E-2,6.3296355E-2,3.0869393E-2],"categories":[],"categories_nodes":[],"categories_segments":[],"categories_sizes":[],"default_left":[0,0,0,0,0,0,0,0,0,0,0,0,0,0,0,0,0,0,0,0,0,0,0,0,0,0,0,0,0,0,0,0,0,0,0,0,0,0,0,0,0,0,0,0,0,0,0,0,0,0,0,0,0,0,0,0,0,0,0,0,0,0,0,0,0,0,0,0,0,0,0,0,0,0,0,0,0,0,0,0,0,0,0,0,0,0,0,0,0,0,0,0,0,0,0,0,0,0,0,0,0,0,0,0,0,0,0,0,0,0,0,0,0,0,0,0,0,0,0,0,0,0,0,0,0,0,0,0,0,0,0,0,0,0,0,0,0,0,0,0,0,0,0,0,0,0,0,0,0,0,0,0,0,0,0,0,0,0,0,0,0,0,0,0,0,0,0,0,0,0,0,0,0,0,0,0,0,0,0,0,0,0,0,0,0,0,0,0,0,0,0,0,0,0,0,0,0,0,0,0,0,0,0,0,0,0,0,0,0,0,0,0,0,0,0,0,0,0,0,0,0,0,0,0,0,0,0,0,0,0,0,0,0,0,0,0,0,0,0,0,0,0,0,0,0,0,0],"id":0,"left_children":[1,3,5,7,9,11,13,15,17,19,21,23,25,27,29,31,33,35,37,39,41,43,45,47,49,51,53,55,57,59,61,63,65,67,69,71,73,75,77,79,81,83,85,87,89,91,93,95,97,99,101,103,105,107,109,111,113,115,117,119,121,-1,123,125,127,129,131,133,135,137,139,141,143,145,147,149,151,153,155,157,159,161,163,165,167,169,171,173,175,177,-1,179,181,183,185,187,189,191,193,195,197,199,201,203,205,207,209,211,213,215,217,219,221,223,225,227,229,231,233,235,237,239,241,243,245,-1,-1,-1,-1,-1,-1,-1,-1,-1,-1,-1,-1,-1,-1,-1,-1,-1,-1,-1,-1,-1,-1,-1,-1,-1,-1,-1,-1,-1,-1,-1,-1,-1,-1,-1,-1,-1,-1,-1,-1,-1,-1,-1,-1,-1,-1,-1,-1,-1,-1,-1,-1,-1,-1,-1,-1,-1,-1,-1,-1,-1,-1,-1,-1,-1,-1,-1,-1,-1,-1,-1,-1,-1,-1,-1,-1,-1,-1,-1,-1,-1,-1,-1,-1,-1,-1,-1,-1,-1,-1,-1,-1,-1,-1,-1,-1,-1,-1,-1,-1,-1,-1,-1,-1,-1,-1,-1,-1,-1,-1,-1,-1,-1,-1,-1,-1,-1,-1,-1,-1,-1,-1],"loss_changes":[2.3641519E3,4.764359E2,2.7189136E2,2.1237854E2,1.4618164E2,1.6555814E2,7.194324E1,1.0897882E2,4.886035E1,8.151013E1,4.5643814E1,7.118434E1,4.8811584E1,3.0459808E1,1.650116E1,7.741937E1,1.7366833E1,3.2527588E1,2.3611938E1,5.249772E1,1.0515278E1,1.139241E1,2.7804195E1,3.2625786E1,3.9783695E1,2.5058533E1,1.958802E1,8.348465E0,1.9197983E1,1.2211792E1,5.5097656E0,4.7214355E1,4.4195724E1,1.1274145E1,1.4602095E1,8.899536E0,2.0043976E1,2.1821655E1,4.2938995E0,3.4600365E1,3.419871E1,9.443715E0,4.2152786E0,8.607265E0,9.581665E0,2.3084373E1,6.995359E0,9.879285E0,1.5349598E1,1.6032486E1,2.7933542E1,1.8113647E1,2.6807098E0,1.7221159E1,1.0440697E1,6.830658E0,2.7194214E0,1.2495459E1,1.0919434E1,1.0491913E1,7.0052185E0,0E0,4.5110474E0,2.245633E1,2.2225952E1,3.5076935E1,5.188465E0,7.6562047E0,4.395241E0,1.5662645E1,5.314065E0,9.17691E0,6.517559E0,1.4089081E1,5.550087E0,1.3468338E1,1.1266121E1,1.1953924E1,4.63855E0,1.0834053E1,2.1131645E1,1.339398E1,1.37966585E1,7.422628E0,5.0694866E0,5.737419E0,2.289011E0,6.6997604E0,8.747884E0,1.42438965E1,0E0,1.4557335E1,7.7851496E0,5.9607162E0,6.012945E0,9.123452E0,5.0528326E0,1.0031357E1,1.4672703E1,1.6483204E1,7.058975E0,1.8475327E1,5.8047256E0,1.5423172E1,3.5943756E0,2.5411682E0,2.6777878E0,1.9885983E1,8.0900345E0,4.443653E0,4.3977737E0,7.092737E0,3.0364227E0,2.9223423E0,1.4739532E0,5.2236238E0,6.503603E0,7.8782043E0,4.787369E0,3.6181488E0,4.4947624E0,3.235489E0,7.3589478E0,6.689453E-1,3.6068764E0,0E0,0E0,0E0,0E0,0E0,0E0,0E0,0E0,0E0,0E0,0E0,0E0,0E0,0E0,0E0,0E0,0E0,0E0,0E0,0E0,0E0,0E0,0E0,0E0,0E0,0E0,0E0,0E0,0E0,0E0,0E0,0E0,0E0,0E0,0E0,0E0,0E0,0E0,0E0,0E0,0E0,0E0,0E0,0E0,0E0,0E0,0E0,0E0,0E0,0E0,0E0,0E0,0E0,0E0,0E0,0E0,0E0,0E0,0E0,0E0,0E0,0E0,0E0,0E0,0E0,0E0,0E0,0E0,0E0,0E0,0E0,0E0,0E0,0E0,0E0,0E0,0E0,0E0,0E0,0E0,0E0,0E0,0E0,0E0,0E0,0E0,0E0,0E0,0E0,0E0,0E0,0E0,0E0,0E0,0E0,0E0,0E0,0E0,0E0,0E0,0E0,0E0,0E0,0E0,0E0,0E0,0E0,0E0,0E0,0E0,0E0,0E0,0E0,0E0,0E0,0E0,0E0,0E0,0E0,0E0,0E0,0E0],"parents":[2147483647,0,0,1,1,2,2,3,3,4,4,5,5,6,6,7,7,8,8,9,9,10,10,11,11,12,12,13,13,14,14,15,15,16,16,17,17,18,18,19,19,20,20,21,21,22,22,23,23,24,24,25,25,26,26,27,27,28,28,29,29,30,30,31,31,32,32,33,33,34,34,35,35,36,36,37,37,38,38,39,39,40,40,41,41,42,42,43,43,44,44,45,45,46,46,47,47,48,48,49,49,50,50,51,51,52,52,53,53,54,54,55,55,56,56,57,57,58,58,59,59,60,60,62,62,63,63,64,64,65,65,66,66,67,67,68,68,69,69,70,70,71,71,72,72,73,73,74,74,75,75,76,76,77,77,78,78,79,79,80,80,81,81,82,82,83,83,84,84,85,85,86,86,87,87,88,88,89,89,91,91,92,92,93,93,94,94,95,95,96,96,97,97,98,98,99,99,100,100,101,101,102,102,103,103,104,104,105,105,106,106,107,107,108,108,109,109,110,110,111,111,112,112,113,113,114,114,115,115,116,116,117,117,118,118,119,119,120,120,121,121,122,122,123,123,124,124],"right_children":[2,4,6,8,10,12,14,16,18,20,22,24,26,28,30,32,34,36,38,40,42,44,46,48,50,52,54,56,58,60,62,64,66,68,70,72,74,76,78,80,82,84,86,88,90,92,94,96,98,100,102,104,106,108,110,112,114,116,118,120,122,-1,124,126,128,130,132,134,136,138,140,142,144,146,148,150,152,154,156,158,160,162,164,166,168,170,172,174,176,178,-1,180,182,184,186,188,190,192,194,196,198,200,202,204,206,208,210,212,214,216,218,220,222,224,226,228,230,232,234,236,238,240,242,244,246,-1,-1,-1,-1,-1,-1,-1,-1,-1,-1,-1,-1,-1,-1,-1,-1,-1,-1,-1,-1,-1,-1,-1,-1,-1,-1,-1,-1,-1,-1,-1,-1,-1,-1,-1,-1,-1,-1,-1,-1,-1,-1,-1,-1,-1,-1,-1,-1,-1,-1,-1,-1,-1,-1,-1,-1,-1,-1,-1,-1,-1,-1,-1,-1,-1,-1,-1,-1,-1,-1,-1,-1,-1,-1,-1,-1,-1,-1,-1,-1,-1,-1,-1,-1,-1,-1,-1,-1,-1,-1,-1,-1,-1,-1,-1,-1,-1,-1,-1,-1,-1,-1,-1,-1,-1,-1,-1,-1,-1,-1,-1,-1,-1,-1,-1,-1,-1,-1,-1,-1,-1,-1],"split_conditions":[1.7835326E-1,1E0,1.2244645E0,5.5680114E-1,7.1039826E-1,1E0,1E0,1E0,2.109534E-1,1E0,-8.6775804E-1,-4.2076543E-1,3.008059E-1,-5.183788E-1,1E0,-8.6775804E-1,-7.23175E-1,-5.5706394E-1,3.2887638E-1,-2.2543044E-1,-5.190543E-1,1.0175925E0,1E0,-2.1118455E-1,-6.3883606E-3,1E0,1E0,2.607271E-1,-2.8446692E-1,-2.8446692E-1,-1.8518997E0,-8.0019146E-2,1.083721E0,-5.190543E-1,-2.2543044E-1,1E0,-1.703505E-1,1.7855783E0,5.333241E-1,-8.6775804E-1,-2.1631765E-1,-1.0341088E0,-1.0878645E-1,6.4733726E-1,1.5076592E0,6.014734E-1,-1.654589E-1,8.757608E-1,-2.2543044E-1,-2.2543044E-1,1E0,7.3777187E-1,1.010369E0,8.757608E-1,1.1199906E0,-2.2543044E-1,-6.618143E-1,6.4733726E-1,1E0,-5.7587408E-2,2.109534E-1,1.5865307E-2,9.1519445E-1,-1.2863644E0,-9.791702E-1,-6.933624E-1,-9.791702E-1,7.998065E-1,-7.615117E-1,8.0592114E-1,4E0,-8.629207E-1,-8.6775804E-1,1E0,6.823823E-2,-5.190543E-1,1.1153419E0,1E0,-1.0690796E0,7.600727E-1,-4.1598073E-1,1.083721E0,-1.2164618E0,3.8442892E-1,1.2148167E0,-6.252132E-1,1E0,-1.0386969E0,5.2920264E-1,9.768769E-1,-9.388574E-2,-1.703505E-1,8.984396E-1,4E0,9.2216295E-1,2.109534E-1,-1.3067057E0,-1.3440019E0,-1.2385565E0,8.0592114E-1,1E0,8.757608E-1,-2.2543044E-1,6.4733726E-1,5.2705705E-1,-1.590494E0,6.8840826E-1,-6.618143E-1,-2.1631765E-1,-8.2966095E-1,-2.6812842E-1,1E0,1E0,-7.74374E-1,-1.0303693E0,-5.7587408E-2,-1.5558777E0,-3.2700133E-1,-1.2385622E0,1.5731684E0,-2.2543044E-1,-1.4399617E0,1.8367772E0,1.3135402E0,-3.4535295E-1,-2.935504E-2,-6.79664E-2,-1.1796159E-2,-4.1908998E-2,-5.0877076E-2,-2.5013542E-2,5.5786795E-3,-1.1031074E-2,9.629753E-3,-2.334292E-2,2.0130666E-3,3.5253797E-2,-3.875197E-2,8.311403E-3,1.6971872E-3,-2.0949062E-2,-6.5966144E-2,-1.0461594E-1,-9.796767E-2,-4.4054132E-2,-7.228146E-2,-4.172935E-2,-1.734007E-2,-4.7969073E-2,-5.8787126E-2,-3.4242593E-2,-7.478499E-2,-1.4346449E-1,-6.636008E-2,4.456756E-3,-5.494175E-2,-3.0069312E-2,-2.509611E-2,-4.7311734E-2,5.043405E-3,-1.8229788E-2,-1.7468508E-2,2.6573098E-4,-7.1528475E-3,1.1167257E-2,-2.5875637E-2,1.7057467E-2,1.2236286E-2,3.314841E-2,1.1923363E-2,3.9887097E-2,2.384843E-2,3.7004773E-3,-1.1924088E-2,-4.9418572E-2,7.944294E-3,-4.3524534E-2,-5.3943623E-2,-1.2719365E-2,-3.998785E-2,-1.3901198E-2,-1.2591404E-2,1.7813629E-2,4.7529335E-3,-4.0897425E-2,3.3086974E-2,-1.2291886E-2,-1.6812392E-2,7.6141926E-3,8.9138123E-4,2.7806465E-2,-7.275397E-2,-2.9892636E-2,-3.3003762E-2,-4.359987E-3,-1.6324448E-3,2.8784355E-2,2.2217145E-2,3.9767724E-2,-1.1933885E-2,8.85405E-3,8.329191E-3,3.0316664E-2,1.7383017E-2,3.348491E-2,3.085194E-2,4.534405E-2,1.44318035E-2,4.5289177E-2,6.706714E-2,3.44759E-2,-1.677058E-2,1.0375846E-2,1.0261336E-2,3.1281248E-2,1.8111033E-2,4.5588527E-2,3.224566E-2,1.4112277E-3,2.790553E-2,-1.3481478E-2,3.6342036E-2,5.627031E-2,4.6684675E-2,1.5477953E-2,4.7015917E-2,6.0308356E-2,1.9166254E-2,-2.494166E-4,-1.6729454E-2,2.7557734E-2,1.5383675E-2,2.9918903E-2,1.5847033E-2,4.784343E-2,3.57422E-2,5.056072E-2,1.5376583E-2,3.2026332E-2,5.897298E-2,3.8797665E-2,5.316285E-2,1.0756644E-2,6.348046E-2,5.092441E-2,6.3296355E-2,3.0869393E-2],"split_indices":[17,34,17,12,12,34,34,33,7,33,17,5,12,12,33,17,12,5,5,7,17,12,33,12,12,33,33,5,5,5,5,5,7,17,7,33,17,12,5,17,5,5,12,7,4,5,4,17,7,7,33,5,5,17,12,7,7,7,33,12,7,0,12,12,12,5,12,0,5,5,8,16,17,33,2,17,4,8,0,2,12,7,17,19,5,5,20,2,16,4,0,17,2,8,19,7,5,19,5,5,33,17,7,7,17,4,4,7,5,5,0,23,33,12,12,12,4,4,4,17,7,12,12,2,19,0,0,0,0,0,0,0,0,0,0,0,0,0,0,0,0,0,0,0,0,0,0,0,0,0,0,0,0,0,0,0,0,0,0,0,0,0,0,0,0,0,0,0,0,0,0,0,0,0,0,0,0,0,0,0,0,0,0,0,0,0,0,0,0,0,0,0,0,0,0,0,0,0,0,0,0,0,0,0,0,0,0,0,0,0,0,0,0,0,0,0,0,0,0,0,0,0,0,0,0,0,0,0,0,0,0,0,0,0,0,0,0,0,0,0,0,0,0,0,0,0,0],"split_type":[0,0,0,0,0,0,0,0,0,0,0,0,0,0,0,0,0,0,0,0,0,0,0,0,0,0,0,0,0,0,0,0,0,0,0,0,0,0,0,0,0,0,0,0,0,0,0,0,0,0,0,0,0,0,0,0,0,0,0,0,0,0,0,0,0,0,0,0,0,0,0,0,0,0,0,0,0,0,0,0,0,0,0,0,0,0,0,0,0,0,0,0,0,0,0,0,0,0,0,0,0,0,0,0,0,0,0,0,0,0,0,0,0,0,0,0,0,0,0,0,0,0,0,0,0,0,0,0,0,0,0,0,0,0,0,0,0,0,0,0,0,0,0,0,0,0,0,0,0,0,0,0,0,0,0,0,0,0,0,0,0,0,0,0,0,0,0,0,0,0,0,0,0,0,0,0,0,0,0,0,0,0,0,0,0,0,0,0,0,0,0,0,0,0,0,0,0,0,0,0,0,0,0,0,0,0,0,0,0,0,0,0,0,0,0,0,0,0,0,0,0,0,0,0,0,0,0,0,0,0,0,0,0,0,0,0,0,0,0,0,0,0,0,0,0,0,0],"sum_hessian":[4.6106E4,2.3025E4,2.3081E4,1.1476E4,1.1549E4,1.3877E4,9.204E3,7.948E3,3.528E3,8.708E3,2.841E3,6.905E3,6.972E3,4.621E3,4.583E3,6.383E3,1.565E3,1.775E3,1.753E3,7.005E3,1.703E3,1.132E3,1.709E3,2.257E3,4.648E3,4.209E3,2.763E3,1.366E3,3.255E3,3.699E3,8.84E2,2.502E3,3.881E3,5.28E2,1.037E3,5.2E2,1.255E3,1.094E3,6.59E2,2.651E3,4.354E3,1.027E3,6.76E2,4.11E2,7.21E2,1.39E3,3.19E2,9.08E2,1.349E3,2.26E3,2.388E3,3.357E3,8.52E2,2.177E3,5.86E2,8.26E2,5.4E2,1.28E3,1.975E3,1.383E3,2.316E3,3.2E1,8.52E2,1.177E3,1.325E3,2.871E3,1.01E3,3.06E2,2.22E2,3.83E2,6.54E2,4.16E2,1.04E2,1.013E3,2.42E2,9.37E2,1.57E2,1.24E2,5.35E2,1.051E3,1.6E3,1.785E3,2.569E3,1.71E2,8.56E2,4.22E2,2.54E2,2.68E2,1.43E2,6.72E2,4.9E1,9.98E2,3.92E2,1.52E2,1.67E2,6.1E2,2.98E2,5.12E2,8.37E2,8.14E2,1.446E3,1.882E3,5.06E2,2.549E3,8.08E2,7.02E2,1.5E2,1.428E3,7.49E2,3.83E2,2.03E2,2.98E2,5.28E2,1.43E2,3.97E2,7.71E2,5.09E2,1.591E3,3.84E2,6.91E2,6.92E2,1.104E3,1.212E3,6.97E2,1.55E2,1.8E2,9.97E2,3.26E2,9.99E2,6.92E2,2.179E3,2.49E2,7.61E2,1.98E2,1.08E2,5.2E1,1.7E2,2.9E2,9.3E1,5.26E2,1.28E2,8.4E1,3.32E2,3.5E1,6.9E1,8.22E2,1.91E2,1.09E2,1.33E2,5.51E2,3.86E2,1.26E2,3.1E1,3.1E1,9.3E1,9.2E1,4.43E2,7.35E2,3.16E2,6.72E2,9.28E2,1.084E3,7.01E2,5.13E2,2.056E3,1.08E2,6.3E1,7.18E2,1.38E2,9.6E1,3.26E2,1.69E2,8.5E1,6.3E1,2.05E2,9.3E1,5E1,5.73E2,9.9E1,6.85E2,3.13E2,2.71E2,1.21E2,1.15E2,3.7E1,1.3E2,3.7E1,2.99E2,3.11E2,1.11E2,1.87E2,6.2E1,4.5E2,2.58E2,5.79E2,5.52E2,2.62E2,1.158E3,2.88E2,1.227E3,6.55E2,1.98E2,3.08E2,1.597E3,9.52E2,2.66E2,5.42E2,2.9E1,6.73E2,1.13E2,3.7E1,3.6E2,1.068E3,3.23E2,4.26E2,7.5E1,3.08E2,7E1,1.33E2,2.49E2,4.9E1,4.3E2,9.8E1,9.8E1,4.5E1,1.99E2,1.98E2,1.8E2,5.91E2,3.5E1,4.74E2,6.06E2,9.85E2,5.6E1,3.28E2,3.49E2,3.42E2,2.67E2,4.25E2,9E1,1.014E3,1.169E3,4.3E1,6.23E2,7.4E1,5.5E1,1E2],"tree_param":{"num_deleted":"0","num_feature":"38","num_nodes":"247","size_leaf_vector":"1"}},{"base_weights":[-3.6545735E-4,-2.0542814E-1,2.0415597E-1,-4.8380277E-1,-2.0332882E-2,6.5089627E-3,3.3981425E-1,-3.8976884E-1,-8.7775105E-1,5.5839423E-2,-3.2490477E-1,8.869073E-2,-3.14844E-1,3.9826784E-1,1.1695998E-1,-6.582285E-1,-3.1631023E-1,-1.0211126E0,-7.307814E-1,-1.9121854E-2,2.5346193E-1,-4.4093525E-1,2.6184313E-2,-2.1253559E-1,1.4691657E-1,-4.8050156E-1,-2.1065404E-1,3.4192264E-1,5.1197594E-1,7.815615E-3,2.777327E-1,-8.038469E-1,-4.9739382E-1,-4.4769594E-1,-1.8368581E-1,-1.2352644E0,-9.45623E-1,-2.2291523E-1,-7.6838154E-1,-1.3982749E-1,9.7685196E-2,1.4379855E-1,3.634636E-1,-5.680206E-1,-3.1620702E-1,-2.0560552E-1,8.461009E-2,-3.2867828E-1,-2.6699819E-2,4.8906986E-2,2.9455698E-1,-6.3657093E-1,-3.3377242E-1,-4.5904246E-1,-1.3305736E-1,2.3216501E-1,4.161049E-1,4.6583492E-1,5.795195E-1,-9.158497E-2,1.6742389E-1,1.7646667E-1,4.302401E-1,-1.0854813E0,-6.726858E-1,-7.1447575E-1,-3.6296338E-1,-5.5101496E-1,-3.1224048E-1,-2.770182E-1,-1.0780059E-1,-1.0240554E0,-1.4305E0,-1.296694E0,-8.564131E-1,-4.1109536E-2,5.3453194E-3,-8.572739E-1,-6.009281E-1,-2.8189573E-1,-4.4696137E-2,1.4266532E-2,2.2909349E-1,9.492811E-2,2.5695032E-1,3.2892337E-1,4.999799E-1,-7.533898E-1,-4.9849135E-1,-4.4131348E-1,-1.6651426E-1,-2.6037231E-2,-4.7938186E-1,-3.9239325E-2,1.9702457E-1,-4.605565E-1,-1.7614967E-1,8.833081E-3,-2.830657E-1,-6.2971205E-2,1.5806656E-1,2.0732534E-1,3.7761235E-1,-6.862655E-1,-1.4428742E-2,-5.154499E-1,-2.0800287E-1,-6.895957E-1,-2.4875444E-1,-2.359032E-1,-5.900565E-2,1.3569047E-1,3.2834977E-1,3.46358E-1,4.8925442E-1,4.1296107E-1,5.461252E-1,5.194932E-1,6.4177316E-1,-3.2200557E-1,-4.5290366E-2,7.721064E-2,2.530844E-1,9.482837E-2,3.1071448E-1,2.951736E-1,5.029189E-1,-1.1805886E-1,-6.440797E-2,-5.3066254E-2,-8.104157E-2,-6.3319996E-2,-1.05023265E-1,-4.273085E-2,-1.3675938E-2,-9.0675525E-2,-5.3292494E-2,-4.6978403E-2,-2.1013638E-2,-2.491864E-2,-5.7660144E-2,-6.3523175E-3,-2.3502495E-2,-8.965599E-2,-1.4016683E-1,-1.7187417E-1,-1.1280248E-1,-1.7540608E-1,-1.1580242E-1,-8.196967E-2,-1.2566005E-1,-7.890628E-2,-1.0520201E-1,-8.047849E-2,-3.749902E-2,-3.465375E-2,-1.659767E-2,-1.2367529E-2,6.897901E-3,-1.6825171E-2,6.72149E-3,1.880279E-2,2.8460667E-2,2.8607314E-3,1.9559318E-2,2.9869894E-2,-3.7560572E-3,2.8827533E-2,4.3673377E-2,4.4347513E-2,6.387134E-2,-5.332159E-2,-9.235703E-2,-4.4157997E-2,-8.0052726E-2,-6.043718E-2,-3.6869064E-2,-3.728065E-2,-6.444932E-3,1.2333446E-2,-2.3277467E-2,-8.722013E-2,-9.712299E-3,-1.0916664E-2,2.0439353E-2,-5.2447204E-4,2.4039004E-2,-1.1818609E-2,-5.1594764E-2,-1.3940312E-2,-4.8125174E-2,2.3853976E-2,-3.3316088E-3,-1.0851073E-2,-4.3654814E-2,-2.263555E-2,-2.5474036E-3,7.090247E-3,2.3624474E-2,5.868107E-3,2.7650371E-2,4.0210206E-2,2.9715845E-2,-4.2608015E-2,-7.7555515E-2,-6.428221E-2,-1.0300941E-2,-1.3062725E-2,-6.309419E-2,-8.567911E-2,-4.2105947E-2,-3.596477E-2,2.6153183E-2,-3.0950636E-2,9.606307E-3,4.5659393E-3,-1.6304838E-2,7.86979E-3,2.528428E-2,3.986889E-2,2.9178882E-2,2.610895E-2,3.8381517E-2,4.413272E-2,5.143569E-2,3.5795394E-2,4.671624E-2,4.478958E-2,5.6628257E-2,4.6317264E-2,5.795647E-2,6.517223E-2,5.6599326E-2,-5.9069064E-2,-1.6935809E-2,-1.4348233E-2,5.5279396E-3,3.5641283E-2,-1.274813E-4,2.1407103E-2,4.3504324E-2,-3.6295187E-2,1.3226457E-2,1.7828865E-2,3.7220594E-2,3.6067992E-2,1.039773E-2,4.287256E-2,5.747167E-2],"categories":[],"categories_nodes":[],"categories_segments":[],"categories_sizes":[],"default_left":[0,0,0,0,0,0,0,0,0,0,0,0,0,0,0,0,0,0,0,0,0,0,0,0,0,0,0,0,0,0,0,0,0,0,0,0,0,0,0,0,0,0,0,0,0,0,0,0,0,0,0,0,0,0,0,0,0,0,0,0,0,0,0,0,0,0,0,0,0,0,0,0,0,0,0,0,0,0,0,0,0,0,0,0,0,0,0,0,0,0,0,0,0,0,0,0,0,0,0,0,0,0,0,0,0,0,0,0,0,0,0,0,0,0,0,0,0,0,0,0,0,0,0,0,0,0,0,0,0,0,0,0,0,0,0,0,0,0,0,0,0,0,0,0,0,0,0,0,0,0,0,0,0,0,0,0,0,0,0,0,0,0,0,0,0,0,0,0,0,0,0,0,0,0,0,0,0,0,0,0,0,0,0,0,0,0,0,0,0,0,0,0,0,0,0,0,0,0,0,0,0,0,0,0,0,0,0,0,0,0,0,0,0,0,0,0,0,0,0,0,0,0,0,0,0,0,0,0,0,0,0,0,0,0,0,0,0,0,0,0,0,0,0,0,0,0,0,0,0],"id":1,"left_children":[1,3,5,7,9,11,13,15,17,19,21,23,25,27,29,31,33,35,37,39,41,43,45,47,49,51,53,55,57,59,61,63,65,67,69,71,73,75,77,79,81,83,85,87,89,91,93,95,97,99,101,103,105,107,109,111,113,115,117,119,121,123,125,127,129,131,133,135,137,139,141,143,145,147,149,-1,-1,151,153,155,157,159,161,163,165,167,169,171,173,175,177,179,181,183,185,187,189,191,193,195,197,199,201,203,-1,205,207,209,211,213,215,217,219,221,223,225,227,229,231,233,235,237,239,241,243,245,247,-1,-1,-1,-1,-1,-1,-1,-1,-1,-1,-1,-1,-1,-1,-1,-1,-1,-1,-1,-1,-1,-1,-1,-1,-1,-1,-1,-1,-1,-1,-1,-1,-1,-1,-1,-1,-1,-1,-1,-1,-1,-1,-1,-1,-1,-1,-1,-1,-1,-1,-1,-1,-1,-1,-1,-1,-1,-1,-1,-1,-1,-1,-1,-1,-1,-1,-1,-1,-1,-1,-1,-1,-1,-1,-1,-1,-1,-1,-1,-1,-1,-1,-1,-1,-1,-1,-1,-1,-1,-1,-1,-1,-1,-1,-1,-1,-1,-1,-1,-1,-1,-1,-1,-1,-1,-1,-1,-1,-1,-1,-1,-1,-1,-1,-1,-1,-1,-1,-1,-1,-1,-1],"loss_changes":[1.935895E3,1.1876089E3,6.196337E2,3.4065234E2,3.2122137E2,2.484607E2,1.7847021E2,1.4637561E2,3.6610596E1,1.640851E2,1.1285312E2,1.3143457E2,3.2968674E1,6.9378296E1,4.9990475E1,3.6979187E1,1.0164459E2,1.3300659E1,1.6613953E1,1.1324488E2,3.6692123E1,3.282242E1,9.348179E0,2.6193562E1,9.084384E1,1.6710556E1,2.264383E1,5.903119E1,1.093396E1,2.695437E1,1.7715355E1,3.0151245E1,2.1948502E1,4.0861633E1,2.0559113E1,8.019257E0,1.9747986E1,3.2464106E0,1.1661041E1,5.3372215E1,4.474322E1,8.419579E0,7.0027924E0,1.2899689E1,1.9646599E1,6.8209743E0,7.67901E0,1.4944916E1,4.26571E0,4.611242E1,1.8070557E1,8.6345825E0,8.644142E0,1.3403584E1,6.8327837E0,2.7153305E1,2.193219E1,8.863556E0,5.1037292E0,1.1154005E1,5.0189266E0,7.5766125E0,4.357315E0,1.0322479E1,1.077832E1,7.2487793E0,6.811577E0,1.021225E1,2.034639E1,1.0720657E1,9.026302E0,4.231735E0,8.261978E0,6.404007E0,6.8162537E0,0E0,0E0,6.236908E0,1.2917137E1,1.1811729E1,2.1259377E1,2.4152084E1,3.559784E0,7.1245737E0,5.6671104E0,5.202957E0,2.1076736E0,9.961487E0,1.257283E1,6.5625076E0,1.0103525E1,2.6535704E0,8.174018E0,4.502936E0,2.5362253E0,7.524742E0,3.8344965E0,3.9969087E0,1.4797239E0,1.1420061E1,1.3005432E1,1.2570129E1,2.406433E0,7.1966705E0,0E0,8.129002E0,7.3789196E0,5.610672E0,8.46898E0,9.2168255E0,5.7136145E0,9.761631E0,3.656311E0,6.993469E0,2.3139343E0,3.6937714E0,1.4234619E0,2.2554626E0,1.6644287E-1,7.077429E0,8.628931E0,6.9908E0,2.277876E0,7.4685664E0,2.0671196E0,2.0040026E0,1.335701E0,0E0,0E0,0E0,0E0,0E0,0E0,0E0,0E0,0E0,0E0,0E0,0E0,0E0,0E0,0E0,0E0,0E0,0E0,0E0,0E0,0E0,0E0,0E0,0E0,0E0,0E0,0E0,0E0,0E0,0E0,0E0,0E0,0E0,0E0,0E0,0E0,0E0,0E0,0E0,0E0,0E0,0E0,0E0,0E0,0E0,0E0,0E0,0E0,0E0,0E0,0E0,0E0,0E0,0E0,0E0,0E0,0E0,0E0,0E0,0E0,0E0,0E0,0E0,0E0,0E0,0E0,0E0,0E0,0E0,0E0,0E0,0E0,0E0,0E0,0E0,0E0,0E0,0E0,0E0,0E0,0E0,0E0,0E0,0E0,0E0,0E0,0E0,0E0,0E0,0E0,0E0,0E0,0E0,0E0,0E0,0E0,0E0,0E0,0E0,0E0,0E0,0E0,0E0,0E0,0E0,0E0,0E0,0E0,0E0,0E0,0E0,0E0,0E0,0E0,0E0,0E0,0E0,0E0,0E0,0E0,0E0,0E0],"parents":[2147483647,0,0,1,1,2,2,3,3,4,4,5,5,6,6,7,7,8,8,9,9,10,10,11,11,12,12,13,13,14,14,15,15,16,16,17,17,18,18,19,19,20,20,21,21,22,22,23,23,24,24,25,25,26,26,27,27,28,28,29,29,30,30,31,31,32,32,33,33,34,34,35,35,36,36,37,37,38,38,39,39,40,40,41,41,42,42,43,43,44,44,45,45,46,46,47,47,48,48,49,49,50,50,51,51,52,52,53,53,54,54,55,55,56,56,57,57,58,58,59,59,60,60,61,61,62,62,63,63,64,64,65,65,66,66,67,67,68,68,69,69,70,70,71,71,72,72,73,73,74,74,77,77,78,78,79,79,80,80,81,81,82,82,83,83,84,84,85,85,86,86,87,87,88,88,89,89,90,90,91,91,92,92,93,93,94,94,95,95,96,96,97,97,98,98,99,99,100,100,101,101,102,102,103,103,105,105,106,106,107,107,108,108,109,109,110,110,111,111,112,112,113,113,114,114,115,115,116,116,117,117,118,118,119,119,120,120,121,121,122,122,123,123,124,124,125,125,126,126],"right_children":[2,4,6,8,10,12,14,16,18,20,22,24,26,28,30,32,34,36,38,40,42,44,46,48,50,52,54,56,58,60,62,64,66,68,70,72,74,76,78,80,82,84,86,88,90,92,94,96,98,100,102,104,106,108,110,112,114,116,118,120,122,124,126,128,130,132,134,136,138,140,142,144,146,148,150,-1,-1,152,154,156,158,160,162,164,166,168,170,172,174,176,178,180,182,184,186,188,190,192,194,196,198,200,202,204,-1,206,208,210,212,214,216,218,220,222,224,226,228,230,232,234,236,238,240,242,244,246,248,-1,-1,-1,-1,-1,-1,-1,-1,-1,-1,-1,-1,-1,-1,-1,-1,-1,-1,-1,-1,-1,-1,-1,-1,-1,-1,-1,-1,-1,-1,-1,-1,-1,-1,-1,-1,-1,-1,-1,-1,-1,-1,-1,-1,-1,-1,-1,-1,-1,-1,-1,-1,-1,-1,-1,-1,-1,-1,-1,-1,-1,-1,-1,-1,-1,-1,-1,-1,-1,-1,-1,-1,-1,-1,-1,-1,-1,-1,-1,-1,-1,-1,-1,-1,-1,-1,-1,-1,-1,-1,-1,-1,-1,-1,-1,-1,-1,-1,-1,-1,-1,-1,-1,-1,-1,-1,-1,-1,-1,-1,-1,-1,-1,-1,-1,-1,-1,-1,-1,-1,-1,-1],"split_conditions":[1.7835326E-1,-2.584639E-1,-2.367062E-1,1E0,1E0,1E0,1E0,-1.3843408E0,1E0,9.627658E-1,1.0933272E0,-1.484135E0,8.757608E-1,8.610312E-1,7.113397E-1,1E0,1E0,-1.2346493E0,-1.4537976E0,1E0,1E0,1E0,-1.2164618E0,1.2244645E0,1.2244645E0,1E0,-1.3344436E0,8.757608E-1,1.2244645E0,1.2244645E0,1.2244645E0,-1.9831065E0,-8.6775804E-1,-6.6859406E-1,-7.356777E-1,1E0,-1.2164618E0,-5.190543E-1,-6.358834E-1,-8.6775804E-1,-5.190543E-1,1.6423954E0,-1.703505E-1,5.96069E-2,4.119568E-1,6.546699E-1,1E0,1E0,1.5260165E0,1E0,1E0,1.4519072E0,-1.0350606E0,1E0,-7.971094E-1,1E0,1E0,1.459797E0,1E0,-9.9091375E-1,1E0,1.3162019E0,1.0606197E0,-1.703505E-1,1.3742167E-1,1E0,1E0,-1.7715265E0,-8.6775804E-1,1.4550062E0,8.984396E-1,7.2643435E-1,2E0,-8.853692E-1,-2.8660336E-1,-4.1109536E-2,5.3453194E-3,1E0,2E0,4.275895E-1,3.933502E-1,1.27795655E-2,4.119568E-1,-5.190543E-1,1.5260165E0,1.75918E0,1.627908E0,2E0,1E0,-3.7117586E-2,-5.225461E-1,3.6214837E-1,1.0525448E0,4E0,1E0,-1.1770638E0,-4.5778373E-1,-1.1078804E0,-1.6444705E0,-1.1348549E0,-7.356777E-1,-9.352663E-1,1E0,-9.0033E-1,-1.4428742E-2,7.7847517E-1,3.3334073E-1,5.5252236E-1,1.2443569E0,1E0,2E0,4.6185395E-1,-4.8522934E-1,5.96069E-2,1.2244645E0,1E0,-1.0429546E0,1.3162019E0,1E0,-1.3414189E-1,1E0,1E0,4.9840897E-1,-1.5633631E0,5.2705705E-1,9.6082544E-1,1E0,-1.1805886E-1,-6.440797E-2,-5.3066254E-2,-8.104157E-2,-6.3319996E-2,-1.05023265E-1,-4.273085E-2,-1.3675938E-2,-9.0675525E-2,-5.3292494E-2,-4.6978403E-2,-2.1013638E-2,-2.491864E-2,-5.7660144E-2,-6.3523175E-3,-2.3502495E-2,-8.965599E-2,-1.4016683E-1,-1.7187417E-1,-1.1280248E-1,-1.7540608E-1,-1.1580242E-1,-8.196967E-2,-1.2566005E-1,-7.890628E-2,-1.0520201E-1,-8.047849E-2,-3.749902E-2,-3.465375E-2,-1.659767E-2,-1.2367529E-2,6.897901E-3,-1.6825171E-2,6.72149E-3,1.880279E-2,2.8460667E-2,2.8607314E-3,1.9559318E-2,2.9869894E-2,-3.7560572E-3,2.8827533E-2,4.3673377E-2,4.4347513E-2,6.387134E-2,-5.332159E-2,-9.235703E-2,-4.4157997E-2,-8.0052726E-2,-6.043718E-2,-3.6869064E-2,-3.728065E-2,-6.444932E-3,1.2333446E-2,-2.3277467E-2,-8.722013E-2,-9.712299E-3,-1.0916664E-2,2.0439353E-2,-5.2447204E-4,2.4039004E-2,-1.1818609E-2,-5.1594764E-2,-1.3940312E-2,-4.8125174E-2,2.3853976E-2,-3.3316088E-3,-1.0851073E-2,-4.3654814E-2,-2.263555E-2,-2.5474036E-3,7.090247E-3,2.3624474E-2,5.868107E-3,2.7650371E-2,4.0210206E-2,2.9715845E-2,-4.2608015E-2,-7.7555515E-2,-6.428221E-2,-1.0300941E-2,-1.3062725E-2,-6.309419E-2,-8.567911E-2,-4.2105947E-2,-3.596477E-2,2.6153183E-2,-3.0950636E-2,9.606307E-3,4.5659393E-3,-1.6304838E-2,7.86979E-3,2.528428E-2,3.986889E-2,2.9178882E-2,2.610895E-2,3.8381517E-2,4.413272E-2,5.143569E-2,3.5795394E-2,4.671624E-2,4.478958E-2,5.6628257E-2,4.6317264E-2,5.795647E-2,6.517223E-2,5.6599326E-2,-5.9069064E-2,-1.6935809E-2,-1.4348233E-2,5.5279396E-3,3.5641283E-2,-1.274813E-4,2.1407103E-2,4.3504324E-2,-3.6295187E-2,1.3226457E-2,1.7828865E-2,3.7220594E-2,3.6067992E-2,1.039773E-2,4.287256E-2,5.747167E-2],"split_indices":[17,1,1,31,31,31,31,1,34,1,1,1,17,1,1,34,34,1,2,34,34,34,17,17,17,34,1,17,17,17,17,1,17,1,1,27,17,17,1,17,17,1,17,1,1,11,34,34,11,34,34,2,1,34,1,34,34,1,34,10,34,1,1,17,2,22,35,10,17,10,2,10,6,1,1,0,0,36,6,1,1,1,1,17,11,1,14,6,22,1,10,10,14,8,6,2,14,2,14,1,1,1,35,2,0,10,14,2,2,23,6,1,2,1,17,34,10,1,23,14,34,8,1,10,17,1,34,0,0,0,0,0,0,0,0,0,0,0,0,0,0,0,0,0,0,0,0,0,0,0,0,0,0,0,0,0,0,0,0,0,0,0,0,0,0,0,0,0,0,0,0,0,0,0,0,0,0,0,0,0,0,0,0,0,0,0,0,0,0,0,0,0,0,0,0,0,0,0,0,0,0,0,0,0,0,0,0,0,0,0,0,0,0,0,0,0,0,0,0,0,0,0,0,0,0,0,0,0,0,0,0,0,0,0,0,0,0,0,0,0,0,0,0,0,0,0,0,0,0],"split_type":[0,0,0,0,0,0,0,0,0,0,0,0,0,0,0,0,0,0,0,0,0,0,0,0,0,0,0,0,0,0,0,0,0,0,0,0,0,0,0,0,0,0,0,0,0,0,0,0,0,0,0,0,0,0,0,0,0,0,0,0,0,0,0,0,0,0,0,0,0,0,0,0,0,0,0,0,0,0,0,0,0,0,0,0,0,0,0,0,0,0,0,0,0,0,0,0,0,0,0,0,0,0,0,0,0,0,0,0,0,0,0,0,0,0,0,0,0,0,0,0,0,0,0,0,0,0,0,0,0,0,0,0,0,0,0,0,0,0,0,0,0,0,0,0,0,0,0,0,0,0,0,0,0,0,0,0,0,0,0,0,0,0,0,0,0,0,0,0,0,0,0,0,0,0,0,0,0,0,0,0,0,0,0,0,0,0,0,0,0,0,0,0,0,0,0,0,0,0,0,0,0,0,0,0,0,0,0,0,0,0,0,0,0,0,0,0,0,0,0,0,0,0,0,0,0,0,0,0,0,0,0,0,0,0,0,0,0,0,0,0,0,0,0,0,0,0,0,0,0],"sum_hessian":[4.6157E4,2.3048E4,2.3109E4,9.204E3,1.3844E4,9.406E3,1.3703E4,7.432E3,1.772E3,1.1075E4,2.769E3,7.491E3,1.915E3,1.0855E4,2.848E3,1.595E3,5.837E3,8.94E2,8.78E2,8.03E3,3.045E3,2.081E3,6.88E2,1.213E3,6.278E3,7.38E2,1.177E3,7.261E3,3.594E3,1.697E3,1.151E3,8.35E2,7.6E2,2.931E3,2.906E3,2.29E2,6.65E2,6.1E1,8.17E2,3.949E3,4.081E3,1.526E3,1.519E3,1.029E3,1.052E3,1.38E2,5.5E2,7.46E2,4.67E2,3.774E3,2.504E3,3.56E2,3.82E2,2.79E2,8.98E2,2.93E3,4.331E3,2.14E3,1.454E3,1.046E3,6.51E2,6.93E2,4.58E2,2.63E2,5.72E2,2.89E2,4.71E2,1.661E3,1.27E3,1.302E3,1.604E3,1.13E2,1.16E2,1.32E2,5.33E2,3.6E1,2.5E1,5.31E2,2.86E2,1.583E3,2.366E3,2.497E3,1.584E3,1.067E3,4.59E2,1.215E3,3.04E2,2.78E2,7.51E2,5.72E2,4.8E2,8.4E1,5.4E1,2.62E2,2.88E2,3.99E2,3.47E2,4.11E2,5.6E1,1.864E3,1.91E3,1.223E3,1.281E3,3.23E2,3.3E1,1.55E2,2.27E2,1.32E2,1.47E2,3.75E2,5.23E2,1.464E3,1.466E3,2.22E3,2.111E3,1.294E3,8.46E2,7.45E2,7.09E2,1.74E2,8.72E2,3.18E2,3.33E2,4.32E2,2.61E2,1.62E2,2.96E2,2.15E2,4.8E1,2.84E2,2.88E2,2.35E2,5.4E1,3.66E2,1.05E2,7.8E1,1.583E3,4.98E2,7.72E2,1.193E3,1.09E2,1.191E3,4.13E2,8.7E1,2.6E1,5.7E1,5.9E1,2.8E1,1.04E2,4.91E2,4.2E1,3.97E2,1.34E2,1.49E2,1.37E2,1.015E3,5.68E2,1.396E3,9.7E2,5.61E2,1.936E3,9.13E2,6.71E2,6.44E2,4.23E2,4.02E2,5.7E1,8.85E2,3.3E2,2.19E2,8.5E1,1.23E2,1.55E2,6.34E2,1.17E2,1.74E2,3.98E2,1.58E2,3.22E2,4.9E1,3.5E1,2.6E1,2.8E1,2.04E2,5.8E1,5.1E1,2.37E2,5.6E1,3.43E2,3.11E2,3.6E1,6.3E1,3.48E2,2.7E1,2.9E1,3.47E2,1.517E3,9.04E2,1.006E3,3.89E2,8.34E2,9.79E2,3.02E2,8.4E1,2.39E2,1.18E2,3.7E1,1.93E2,3.4E1,8E1,5.2E1,1.21E2,2.6E1,3.07E2,6.8E1,2.61E2,2.62E2,9.86E2,4.78E2,4.98E2,9.68E2,6.8E2,1.54E3,7.32E2,1.379E3,6.46E2,6.48E2,1.48E2,6.98E2,3.89E2,3.56E2,6.2E2,8.9E1,6.2E1,1.12E2,4.41E2,4.31E2,6.9E1,2.49E2,2.76E2,5.7E1,3.2E1,4E2,8.4E1,1.77E2,1.2E2,4.2E1,1.49E2,1.47E2],"tree_param":{"num_deleted":"0","num_feature":"38","num_nodes":"249","size_leaf_vector":"1"}},{"base_weights":[-1.4004837E-3,-1.8337661E-1,1.8007755E-1,-4.3533996E-1,-1.4679047E-2,-1.2091047E-3,3.0466568E-1,-5.646208E-1,-3.0251917E-1,-8.130364E-2,2.2272432E-1,-1.6316675E-1,8.41083E-2,2.4760452E-1,4.3020642E-1,-4.4197607E-1,-7.1644795E-1,-4.569456E-1,-2.1041884E-1,-1.9399282E-1,2.864287E-2,1.3975425E-1,3.0380484E-1,-2.7161205E-1,-3.1929682E-3,-4.771811E-2,1.7366381E-1,1.7886141E-1,3.545582E-1,3.7966278E-1,4.9996877E-1,-8.741582E-1,-3.9690673E-1,-8.6552435E-1,-5.6275916E-1,-4.069197E-1,-8.866754E-1,-1.5925068E-1,-4.2097095E-1,-1.0159615E-1,-3.629545E-1,8.7906085E-2,-1.4371395E-1,1.9664313E-1,-6.2636905E-3,4.33987E-1,2.53185E-1,-3.879216E-1,-1.4895058E-1,-4.9778518E-1,2.7295435E-2,-1.0538394E-1,1.6366853E-1,8.862029E-2,2.585195E-1,2.477527E-1,4.9187496E-2,2.7434415E-1,4.011363E-1,3.2161334E-1,4.616043E-1,5.1587534E-1,3.3035636E-1,-1.3662419E-1,-7.875693E-1,-1.622685E-1,-4.633608E-1,-1.3056597E0,-7.8187066E-1,-6.9023377E-1,-4.49843E-1,-4.7268033E-1,-1.3086186E-1,-1.305256E0,-6.045509E-1,-2.8316572E-1,-8.857541E-2,-6.8053067E-1,-3.2163036E-1,-1.5156293E-1,1.2020832E-1,-4.6980053E-1,-1.978503E-1,3.264344E-2,1.960241E-1,-3.0003384E-1,-3.546399E-2,1.18572846E-1,3.1679758E-1,-4.618066E-2,4.8418164E-2,1.0605331E-2,4.76441E-1,1.6987503E-1,3.5869274E-1,-6.184252E-1,-2.5901252E-1,-5.8967456E-2,-3.1279677E-1,-1.8856911E-2,-7.713654E-2,-8.7421276E-2,1.306575E-1,-2.3054433E-1,1.0271403E-2,2.0906788E-1,-2.1912375E-1,-2.490584E-2,1.5525967E-1,3.301945E-1,1.674526E-1,1.5561903E-1,3.3940873E-1,-1.7405125E-1,1.0135701E-1,1.8949614E-1,3.666481E-1,4.9301022E-1,3.4773907E-1,2.6658452E-1,4.4046062E-1,3.9876875E-1,5.290026E-1,4.7128478E-1,5.580802E-1,2.3560566E-1,4.8213965E-1,-9.7625226E-2,-5.6389518E-2,-2.509362E-2,1.6510714E-2,-7.1077585E-2,-3.9965432E-2,-1.1408005E-1,-1.6120626E-1,-8.506685E-2,-4.47994E-2,-8.872279E-2,-5.61917E-2,-4.0189978E-2,-8.061339E-2,-5.1389646E-2,-1.294806E-2,2.0606447E-2,-2.2179073E-2,-8.826365E-2,-1.5826544E-1,-1.0635292E-1,-4.0334236E-2,-3.4310386E-2,-9.69684E-3,-3.2279465E-2,-5.4784394E-3,-8.248138E-2,-2.221786E-2,-5.3969115E-2,-1.6882818E-2,7.925993E-3,-1.971098E-2,8.7169325E-3,3.8374703E-2,-5.7214994E-2,-3.0816928E-2,-1.37790395E-2,-4.8032083E-2,-1.359727E-2,7.353101E-3,-3.6229496E-3,2.2573188E-2,-2.4712017E-2,-6.928031E-2,-2.910239E-2,3.4504433E-3,7.575116E-5,1.923157E-2,2.3025166E-2,4.3882713E-2,1.0107704E-2,-4.8269227E-2,4.3796465E-2,6.0699042E-2,1.2107897E-2,3.6646664E-2,2.242968E-2,4.410973E-2,-4.638475E-2,-8.138905E-2,-2.2183476E-2,-8.5489474E-2,-1.0031997E-2,2.7643591E-2,-8.910495E-3,-4.7261152E-2,-1.5701747E-2,1.41309425E-2,1.8790228E-2,-4.0479243E-2,-9.539082E-4,-3.3292968E-2,-1.0161594E-2,1.2191875E-2,1.6880818E-2,4.709521E-2,3.634283E-3,-5.0432153E-2,1.3014137E-2,-1.189039E-2,2.8525004E-2,9.605187E-3,2.8810397E-2,4.8796613E-2,3.328057E-3,2.2715844E-2,8.9577865E-3,2.5906622E-2,2.2122817E-2,3.769503E-2,-3.3375505E-2,-2.568167E-3,2.5567773E-3,2.1273142E-2,1.9097867E-3,2.8579874E-2,3.8775563E-2,1.0156776E-2,5.297878E-2,4.3403264E-2,2.8802766E-2,4.1500553E-2,2.2729954E-2,4.2761542E-2,5.0679732E-2,2.9522885E-2,3.2817073E-2,4.7947105E-2,3.7542596E-2,5.3747933E-2,3.594817E-2,4.9932938E-2,6.283453E-2,5.3338673E-2,4.1536186E-2,6.860283E-3,6.0558982E-2,3.1339906E-2],"categories":[],"categories_nodes":[],"categories_segments":[],"categories_sizes":[],"default_left":[0,0,0,0,0,0,0,0,0,0,0,0,0,0,0,0,0,0,0,0,0,0,0,0,0,0,0,0,0,0,0,0,0,0,0,0,0,0,0,0,0,0,0,0,0,0,0,0,0,0,0,0,0,0,0,0,0,0,0,0,0,0,0,0,0,0,0,0,0,0,0,0,0,0,0,0,0,0,0,0,0,0,0,0,0,0,0,0,0,0,0,0,0,0,0,0,0,0,0,0,0,0,0,0,0,0,0,0,0,0,0,0,0,0,0,0,0,0,0,0,0,0,0,0,0,0,0,0,0,0,0,0,0,0,0,0,0,0,0,0,0,0,0,0,0,0,0,0,0,0,0,0,0,0,0,0,0,0,0,0,0,0,0,0,0,0,0,0,0,0,0,0,0,0,0,0,0,0,0,0,0,0,0,0,0,0,0,0,0,0,0,0,0,0,0,0,0,0,0,0,0,0,0,0,0,0,0,0,0,0,0,0,0,0,0,0,0,0,0,0,0,0,0,0,0,0,0,0,0,0,0,0,0,0,0,0,0,0,0,0,0,0,0,0,0],"id":2,"left_children":[1,3,5,7,9,11,13,15,17,19,21,23,25,27,29,31,33,35,37,39,41,43,45,47,49,51,53,55,57,59,61,63,65,67,69,71,73,75,77,79,81,83,85,87,89,91,93,95,97,99,101,103,105,107,109,111,113,115,117,119,121,123,125,-1,127,129,131,133,135,137,139,141,143,145,147,149,151,153,155,157,159,161,163,165,167,169,171,173,175,-1,177,-1,179,181,183,185,187,189,191,-1,-1,193,195,197,199,201,203,205,207,209,211,213,215,217,219,221,223,225,227,229,231,233,235,237,239,241,243,-1,-1,-1,-1,-1,-1,-1,-1,-1,-1,-1,-1,-1,-1,-1,-1,-1,-1,-1,-1,-1,-1,-1,-1,-1,-1,-1,-1,-1,-1,-1,-1,-1,-1,-1,-1,-1,-1,-1,-1,-1,-1,-1,-1,-1,-1,-1,-1,-1,-1,-1,-1,-1,-1,-1,-1,-1,-1,-1,-1,-1,-1,-1,-1,-1,-1,-1,-1,-1,-1,-1,-1,-1,-1,-1,-1,-1,-1,-1,-1,-1,-1,-1,-1,-1,-1,-1,-1,-1,-1,-1,-1,-1,-1,-1,-1,-1,-1,-1,-1,-1,-1,-1,-1,-1,-1,-1,-1,-1,-1,-1,-1,-1,-1,-1,-1,-1,-1],"loss_changes":[1.5179788E3,9.755398E2,5.1979846E2,1.5787268E2,2.174689E2,1.2955565E2,9.760364E1,8.6512085E1,6.450345E1,1.3302225E2,2.0226776E1,5.6121223E1,7.25076E1,6.890143E1,1.4834656E1,4.9945618E1,4.7214355E1,3.609915E1,3.06053E1,8.273529E1,5.5528004E1,1.2386665E1,9.926376E0,2.744841E1,1.9737347E1,3.030886E1,2.6367561E1,5.101541E1,1.3598145E1,1.1624268E1,4.650818E0,9.277969E0,3.641162E1,3.782312E1,1.4486481E1,2.7550003E1,1.9995087E1,2.0047634E1,1.4117477E1,3.802133E1,3.296576E1,2.4162018E1,2.3527336E1,1.0027702E1,1.0459621E1,5.866356E0,9.599113E0,2.922699E1,1.3840342E1,6.2837925E0,1.4631543E1,2.8272957E1,9.308562E0,1.3833256E1,1.1889519E1,3.1445572E1,2.3112171E1,1.05112915E1,1.1205109E1,9.378708E0,4.125702E0,2.8083496E0,2.1299305E0,0E0,8.270035E0,1.5077753E1,2.8449951E1,6.5966797E0,2.0039185E1,1.1660004E1,9.036804E0,1.7303925E1,9.052784E0,6.809471E0,9.452518E0,9.252113E0,1.154541E1,9.935013E0,1.3370232E1,2.944223E1,5.460702E0,1.863292E1,1.2454102E1,1.847294E1,9.4470215E0,1.1654247E1,1.4726205E1,5.6644583E0,4.35577E0,0E0,1.0536669E1,0E0,1.6228256E0,5.864853E0,5.26128E0,1.0318436E1,1.3900024E1,8.460553E0,1.1862389E1,0E0,0E0,9.334677E0,1.9969025E1,2.1221607E1,1.2704183E1,4.9496937E0,4.1712627E0,9.882164E0,8.838907E0,6.6528397E0,6.46521E0,1.2697548E1,8.2087555E0,8.900818E0,1.3567659E1,1.1579857E1,3.5751114E0,1.613739E0,5.784836E0,6.1972656E0,4.262848E0,2.8850708E0,4.374237E-1,2.3288574E0,1.1101685E0,2.9134455E0,1.0392408E0,0E0,0E0,0E0,0E0,0E0,0E0,0E0,0E0,0E0,0E0,0E0,0E0,0E0,0E0,0E0,0E0,0E0,0E0,0E0,0E0,0E0,0E0,0E0,0E0,0E0,0E0,0E0,0E0,0E0,0E0,0E0,0E0,0E0,0E0,0E0,0E0,0E0,0E0,0E0,0E0,0E0,0E0,0E0,0E0,0E0,0E0,0E0,0E0,0E0,0E0,0E0,0E0,0E0,0E0,0E0,0E0,0E0,0E0,0E0,0E0,0E0,0E0,0E0,0E0,0E0,0E0,0E0,0E0,0E0,0E0,0E0,0E0,0E0,0E0,0E0,0E0,0E0,0E0,0E0,0E0,0E0,0E0,0E0,0E0,0E0,0E0,0E0,0E0,0E0,0E0,0E0,0E0,0E0,0E0,0E0,0E0,0E0,0E0,0E0,0E0,0E0,0E0,0E0,0E0,0E0,0E0,0E0,0E0,0E0,0E0,0E0,0E0,0E0,0E0,0E0,0E0,0E0,0E0],"parents":[2147483647,0,0,1,1,2,2,3,3,4,4,5,5,6,6,7,7,8,8,9,9,10,10,11,11,12,12,13,13,14,14,15,15,16,16,17,17,18,18,19,19,20,20,21,21,22,22,23,23,24,24,25,25,26,26,27,27,28,28,29,29,30,30,31,31,32,32,33,33,34,34,35,35,36,36,37,37,38,38,39,39,40,40,41,41,42,42,43,43,44,44,45,45,46,46,47,47,48,48,49,49,50,50,51,51,52,52,53,53,54,54,55,55,56,56,57,57,58,58,59,59,60,60,61,61,62,62,64,64,65,65,66,66,67,67,68,68,69,69,70,70,71,71,72,72,73,73,74,74,75,75,76,76,77,77,78,78,79,79,80,80,81,81,82,82,83,83,84,84,85,85,86,86,87,87,88,88,90,90,92,92,93,93,94,94,95,95,96,96,97,97,98,98,101,101,102,102,103,103,104,104,105,105,106,106,107,107,108,108,109,109,110,110,111,111,112,112,113,113,114,114,115,115,116,116,117,117,118,118,119,119,120,120,121,121,122,122,123,123,124,124,125,125,126,126],"right_children":[2,4,6,8,10,12,14,16,18,20,22,24,26,28,30,32,34,36,38,40,42,44,46,48,50,52,54,56,58,60,62,64,66,68,70,72,74,76,78,80,82,84,86,88,90,92,94,96,98,100,102,104,106,108,110,112,114,116,118,120,122,124,126,-1,128,130,132,134,136,138,140,142,144,146,148,150,152,154,156,158,160,162,164,166,168,170,172,174,176,-1,178,-1,180,182,184,186,188,190,192,-1,-1,194,196,198,200,202,204,206,208,210,212,214,216,218,220,222,224,226,228,230,232,234,236,238,240,242,244,-1,-1,-1,-1,-1,-1,-1,-1,-1,-1,-1,-1,-1,-1,-1,-1,-1,-1,-1,-1,-1,-1,-1,-1,-1,-1,-1,-1,-1,-1,-1,-1,-1,-1,-1,-1,-1,-1,-1,-1,-1,-1,-1,-1,-1,-1,-1,-1,-1,-1,-1,-1,-1,-1,-1,-1,-1,-1,-1,-1,-1,-1,-1,-1,-1,-1,-1,-1,-1,-1,-1,-1,-1,-1,-1,-1,-1,-1,-1,-1,-1,-1,-1,-1,-1,-1,-1,-1,-1,-1,-1,-1,-1,-1,-1,-1,-1,-1,-1,-1,-1,-1,-1,-1,-1,-1,-1,-1,-1,-1,-1,-1,-1,-1,-1,-1,-1,-1],"split_conditions":[1.7835326E-1,-2.584639E-1,-2.584639E-1,1E0,1.1604141E0,-1.1143434E0,9.0298706E-1,1.9840781E-1,-1.0350606E0,1E0,1E0,1.2244645E0,8.757608E-1,1.2244645E0,1.459797E0,-1.833415E0,2.109534E-1,1.2735878E0,8.6399543E-1,4.03204E-1,7.1039826E-1,5.5680114E-1,-6.71976E-1,1E0,-1.5793028E0,1E0,1E0,4.5440304E-1,-2.2543044E-1,1.2244645E0,1.4271849E0,-1.098198E0,-1.1327673E0,-1.484135E0,-8.0019146E-2,1E0,-2.8446692E-1,-3.5261616E-1,-6.252132E-1,1E0,-5.190543E-1,5.616182E-1,-8.6775804E-1,1.6593856E0,-1.1704072E0,-1.098198E0,1.2442861E-1,-3.5261616E-1,4.5440304E-1,-1.0878645E-1,1E0,1E0,1.3247868E0,-2.8446692E-1,1.4720878E-1,1E0,-8.978102E-1,1E0,-3.6478168E-1,5.333241E-1,1E0,1E0,1.2244645E0,-1.3662419E-1,-5.190543E-1,1E0,-1.2164618E0,-8.893061E-1,1.010369E0,-8.6775804E-1,1.6319811E0,1.5201049E0,-9.4962645E-1,-2.1667665E-1,-1.6444705E0,1.083721E0,-1.098198E0,4E0,-8.6775804E-1,-1.2863644E0,1.1963856E0,2.607271E-1,1.529583E0,-1.2164618E0,-1.2385565E0,1.1963856E0,1.27795655E-2,2E0,3.44972E-1,-4.618066E-2,1.4788123E0,1.0605331E-2,-1.703505E-1,1E0,-8.6775804E-1,1.9840781E-1,1.6319811E0,1.2829659E0,-3.4408218E-1,-1.8856911E-2,-7.713654E-2,8.0592114E-1,1.3247868E0,-5.183788E-1,2.109534E-1,1.3057312E0,2.1899661E-1,-4.3058848E-1,-4.6717978E-1,1.0345706E0,-4.8891467E-1,3.2887638E-1,-6.618143E-1,1E0,6.4733726E-1,-3.5261616E-1,1.4519072E0,4.4122136E-1,3.121625E-1,1E0,4.5440304E-1,-1.1869896E-2,-1.5793028E0,5.2705705E-1,-8.255731E-1,2E0,2.7578858E-1,-9.7625226E-2,-5.6389518E-2,-2.509362E-2,1.6510714E-2,-7.1077585E-2,-3.9965432E-2,-1.1408005E-1,-1.6120626E-1,-8.506685E-2,-4.47994E-2,-8.872279E-2,-5.61917E-2,-4.0189978E-2,-8.061339E-2,-5.1389646E-2,-1.294806E-2,2.0606447E-2,-2.2179073E-2,-8.826365E-2,-1.5826544E-1,-1.0635292E-1,-4.0334236E-2,-3.4310386E-2,-9.69684E-3,-3.2279465E-2,-5.4784394E-3,-8.248138E-2,-2.221786E-2,-5.3969115E-2,-1.6882818E-2,7.925993E-3,-1.971098E-2,8.7169325E-3,3.8374703E-2,-5.7214994E-2,-3.0816928E-2,-1.37790395E-2,-4.8032083E-2,-1.359727E-2,7.353101E-3,-3.6229496E-3,2.2573188E-2,-2.4712017E-2,-6.928031E-2,-2.910239E-2,3.4504433E-3,7.575116E-5,1.923157E-2,2.3025166E-2,4.3882713E-2,1.0107704E-2,-4.8269227E-2,4.3796465E-2,6.0699042E-2,1.2107897E-2,3.6646664E-2,2.242968E-2,4.410973E-2,-4.638475E-2,-8.138905E-2,-2.2183476E-2,-8.5489474E-2,-1.0031997E-2,2.7643591E-2,-8.910495E-3,-4.7261152E-2,-1.5701747E-2,1.41309425E-2,1.8790228E-2,-4.0479243E-2,-9.539082E-4,-3.3292968E-2,-1.0161594E-2,1.2191875E-2,1.6880818E-2,4.709521E-2,3.634283E-3,-5.0432153E-2,1.3014137E-2,-1.189039E-2,2.8525004E-2,9.605187E-3,2.8810397E-2,4.8796613E-2,3.328057E-3,2.2715844E-2,8.9577865E-3,2.5906622E-2,2.2122817E-2,3.769503E-2,-3.3375505E-2,-2.568167E-3,2.5567773E-3,2.1273142E-2,1.9097867E-3,2.8579874E-2,3.8775563E-2,1.0156776E-2,5.297878E-2,4.3403264E-2,2.8802766E-2,4.1500553E-2,2.2729954E-2,4.2761542E-2,5.0679732E-2,2.9522885E-2,3.2817073E-2,4.7947105E-2,3.7542596E-2,5.3747933E-2,3.594817E-2,4.9932938E-2,6.283453E-2,5.3338673E-2,4.1536186E-2,6.860283E-3,6.0558982E-2,3.1339906E-2],"split_indices":[17,1,1,34,1,1,1,12,1,34,34,17,17,17,1,1,7,12,12,12,12,12,12,34,5,33,34,12,7,17,12,7,12,1,5,33,5,5,5,33,17,1,17,1,5,7,5,5,12,12,34,34,12,5,12,34,5,34,12,5,34,34,17,0,17,33,17,14,5,17,12,7,3,11,14,7,7,8,17,12,14,5,12,17,5,14,1,8,2,0,4,0,17,33,17,12,12,5,3,0,0,5,12,12,7,4,11,3,12,4,5,5,7,34,7,5,2,14,1,33,12,5,5,17,12,6,2,0,0,0,0,0,0,0,0,0,0,0,0,0,0,0,0,0,0,0,0,0,0,0,0,0,0,0,0,0,0,0,0,0,0,0,0,0,0,0,0,0,0,0,0,0,0,0,0,0,0,0,0,0,0,0,0,0,0,0,0,0,0,0,0,0,0,0,0,0,0,0,0,0,0,0,0,0,0,0,0,0,0,0,0,0,0,0,0,0,0,0,0,0,0,0,0,0,0,0,0,0,0,0,0,0,0,0,0,0,0,0,0,0,0,0,0,0,0],"split_type":[0,0,0,0,0,0,0,0,0,0,0,0,0,0,0,0,0,0,0,0,0,0,0,0,0,0,0,0,0,0,0,0,0,0,0,0,0,0,0,0,0,0,0,0,0,0,0,0,0,0,0,0,0,0,0,0,0,0,0,0,0,0,0,0,0,0,0,0,0,0,0,0,0,0,0,0,0,0,0,0,0,0,0,0,0,0,0,0,0,0,0,0,0,0,0,0,0,0,0,0,0,0,0,0,0,0,0,0,0,0,0,0,0,0,0,0,0,0,0,0,0,0,0,0,0,0,0,0,0,0,0,0,0,0,0,0,0,0,0,0,0,0,0,0,0,0,0,0,0,0,0,0,0,0,0,0,0,0,0,0,0,0,0,0,0,0,0,0,0,0,0,0,0,0,0,0,0,0,0,0,0,0,0,0,0,0,0,0,0,0,0,0,0,0,0,0,0,0,0,0,0,0,0,0,0,0,0,0,0,0,0,0,0,0,0,0,0,0,0,0,0,0,0,0,0,0,0,0,0,0,0,0,0,0,0,0,0,0,0,0,0,0,0,0,0],"sum_hessian":[4.5963E4,2.295E4,2.3013E4,9.203E3,1.3747E4,9.374E3,1.3639E4,4.662E3,4.541E3,1.0735E4,3.012E3,3.234E3,6.14E3,9.379E3,4.26E3,2.581E3,2.081E3,1.695E3,2.846E3,5.301E3,5.434E3,1.49E3,1.522E3,1.927E3,1.307E3,2.484E3,3.656E3,5.711E3,3.668E3,2.474E3,1.786E3,2.42E2,2.339E3,1.054E3,1.027E3,1.52E3,1.75E2,2.291E3,5.55E2,3.428E3,1.873E3,4.044E3,1.39E3,1.072E3,4.18E2,4.24E2,1.098E3,9.88E2,9.39E2,7.5E1,1.232E3,1.952E3,5.32E2,1.827E3,1.829E3,3.729E3,1.982E3,1.35E3,2.318E3,1.451E3,1.023E3,1.631E3,1.55E2,3.4E1,2.08E2,5.17E2,1.822E3,1.66E2,8.88E2,4.8E2,5.47E2,1.227E3,2.93E2,6.9E1,1.06E2,8.31E2,1.46E3,1.52E2,4.03E2,2.798E3,6.3E2,1.136E3,7.37E2,2.677E3,1.367E3,5.68E2,8.22E2,6.51E2,4.21E2,4.4E1,3.74E2,4.9E1,3.75E2,6.15E2,4.83E2,3.53E2,6.35E2,6.07E2,3.32E2,3.6E1,3.9E1,5.84E2,6.48E2,9.37E2,1.015E3,4.76E2,5.6E1,6.76E2,1.151E3,1.022E3,8.07E2,1.861E3,1.868E3,3.75E2,1.607E3,7.05E2,6.45E2,8.49E2,1.469E3,9.94E2,4.57E2,5.33E2,4.9E2,7.99E2,8.32E2,9.7E1,5.8E1,1.11E2,9.7E1,4.07E2,1.1E2,3.71E2,1.451E3,1.11E2,5.5E1,7.35E2,1.53E2,1.87E2,2.93E2,4.84E2,6.3E1,1.095E3,1.32E2,6.2E1,2.31E2,2.9E1,4E1,3.1E1,7.5E1,6.28E2,2.03E2,1.83E2,1.277E3,1.15E2,3.7E1,1.65E2,2.38E2,4.61E2,2.337E3,5.61E2,6.9E1,6.94E2,4.42E2,6.09E2,1.28E2,5.22E2,2.155E3,1.55E2,1.212E3,5.02E2,6.6E1,1.76E2,6.46E2,2.51E2,4E2,2.48E2,1.73E2,3.41E2,3.3E1,2.93E2,8.2E1,4.94E2,1.21E2,1.85E2,2.98E2,1.99E2,1.54E2,5.99E2,3.6E1,5.41E2,6.6E1,1.39E2,1.93E2,4.48E2,1.36E2,5.86E2,6.2E1,2.97E2,6.4E2,5.07E2,5.08E2,4.14E2,6.2E1,3E1,2.6E1,2.55E2,4.21E2,3.59E2,7.92E2,8.09E2,2.13E2,2.49E2,5.58E2,1.137E3,7.24E2,4.52E2,1.416E3,1.8E2,1.95E2,9.57E2,6.5E2,2.55E2,4.5E2,5.97E2,4.8E1,5.18E2,3.31E2,7.81E2,6.88E2,8.01E2,1.93E2,3.12E2,1.45E2,2.87E2,2.46E2,2.8E1,4.62E2,1.63E2,6.36E2,2.1E2,6.22E2,4.6E1,5.1E1,3.2E1,2.6E1],"tree_param":{"num_deleted":"0","num_feature":"38","num_nodes":"245","size_leaf_vector":"1"}},{"base_weights":[2.4138865E-4,1.6722123E-1,-1.6739155E-1,2.2825496E-1,-7.031976E-2,-9.4576925E-2,-4.60874E-1,2.9346007E-1,1.3101284E-1,5.4029595E-2,-1.5469678E-1,-2.0086965E-1,1.1968447E-2,-5.7851166E-1,-3.4563088E-1,2.2976318E-1,3.5905436E-1,4.287952E-2,2.1694079E-1,-2.9751584E-2,1.3306816E-1,-3.2410774E-1,-1.03048176E-1,-1.8435937E-1,-6.0250634E-1,-5.099899E-2,7.645554E-2,-6.737107E-1,-4.895556E-1,-5.017223E-1,-2.5544086E-1,1.5541983E-1,2.7241388E-1,3.196586E-1,3.978128E-1,-2.8404668E-2,1.09706976E-1,1.0042815E-1,2.5491548E-1,-9.9862784E-2,9.179327E-2,6.0087662E-2,2.057782E-1,-2.1886368E-1,-4.376779E-1,-4.351977E-2,-2.1919526E-1,-2.841507E-1,-1.23012185E-1,-7.408595E-1,-4.5051056E-1,-4.1286577E-2,-3.2748002E-1,8.987444E-2,-2.2209424E-1,-6.3873947E-1,-1.0098279E0,-4.7059727E-1,-9.337365E-2,-4.6704924E-1,-1.1231028E-1,-2.9949272E-1,-1.2295027E-1,2.4979778E-1,1.1301365E-1,3.3244953E-1,2.4226817E-1,3.8983974E-1,2.8507084E-1,4.1249067E-1,3.6679688E-1,2.085482E-2,-8.373554E-2,-4.6385817E-2,1.2424575E-1,6.399571E-2,2.1675299E-1,2.2002509E-1,3.2535937E-1,-1.492612E-1,1.9479682E-1,-2.5707927E-2,2.210582E-1,9.776504E-2,-6.57002E-2,2.4168128E-1,3.3472E-2,2.4376815E-2,-2.5757724E-1,-1.5451668E-1,-5.334157E-1,-1.0876162E-1,1.9362183E-2,-3.244083E-1,-1.1046057E-1,-3.705545E-1,-2.4271587E-1,-1.645828E-1,-5.9083268E-2,-4.228317E-2,-8.12926E-1,-3.2650274E-1,-8.5086554E-2,-1.1417443E-1,-1.69784E-2,-1.474778E-1,-6.6189367E-1,1.0243236E-1,2.8588457E-2,3.9524693E-2,-3.917092E-1,-6.6731787E-1,-3.141476E-1,-6.301749E-2,-1.1767659E0,-5.897396E-1,-3.9170265E-1,-4.3309453E-1,-6.2073463E-1,-2.8405508E-1,-9.0304755E-2,-2.1736473E-1,1.4306706E-1,2.2861317E-2,4.405305E-2,4.1389912E-3,1.5036811E-2,2.2245338E-2,3.5862003E-2,2.1165675E-2,2.8538955E-2,4.0445954E-2,2.3748932E-2,3.0929485E-2,2.3606878E-2,4.2514212E-2,3.862849E-2,4.0123146E-2,3.3008907E-2,3.6864479E-3,-4.0401448E-2,-1.181708E-2,3.466893E-3,-1.962616E-2,1.1966388E-2,8.453784E-3,1.5191472E-2,8.225813E-3,-2.0446341E-2,2.8957983E-2,5.0775995E-3,2.7998645E-2,1.6121468E-2,3.435414E-2,2.3065899E-2,-5.7347533E-3,-2.3773298E-2,4.2451426E-2,9.200598E-3,-1.4023569E-2,2.4921158E-2,3.704105E-2,7.0831478E-3,1.722343E-2,1.5349876E-3,-1.8425187E-2,1.343328E-2,6.2330015E-2,2.1184321E-2,-2.0325113E-2,2.163701E-2,-1.5441246E-2,-4.5031082E-2,-3.165176E-2,1.8120801E-2,-6.693235E-2,-3.8577862E-2,-2.8663415E-3,-2.334816E-2,7.4656243E-3,-8.165667E-3,-3.670693E-2,-1.501933E-3,-7.7874386E-3,-4.6739902E-2,-5.592831E-2,-3.1090463E-2,-1.9241575E-2,-2.775628E-2,-1.5301868E-2,-3.364271E-2,4.7748545E-3,-7.81739E-3,-8.878688E-2,-5.0180282E-2,-1.7960502E-2,-5.9207346E-2,-4.10195E-3,-1.8883178E-2,1.9522021E-4,-1.5251527E-2,-3.508337E-2,7.07319E-3,-9.231791E-2,-3.3495307E-2,1.262877E-2,6.363205E-3,-1.4392671E-2,8.1689805E-3,2.8518138E-2,-2.8677166E-2,-2.4281925E-2,-6.3115455E-2,-7.727133E-2,-6.0504466E-2,-5.202465E-3,-7.220889E-2,-1.5242897E-1,-8.703557E-2,-6.6919446E-2,-3.908444E-2,-4.5174386E-2,-2.6636356E-2,-6.274884E-2,-3.888159E-2,-8.561182E-2,-4.1360583E-2,-3.4853768E-2,-1.8576352E-2,-2.740525E-2,1.656102E-3,-2.8597374E-2,3.4891915E-2],"categories":[],"categories_nodes":[],"categories_segments":[],"categories_sizes":[],"default_left":[0,0,0,0,0,0,0,0,0,0,0,0,0,0,0,0,0,0,0,0,0,0,0,0,0,0,0,0,0,0,0,0,0,0,0,0,0,0,0,0,0,0,0,0,0,0,0,0,0,0,0,0,0,0,0,0,0,0,0,0,0,0,0,0,0,0,0,0,0,0,0,0,0,0,0,0,0,0,0,0,0,0,0,0,0,0,0,0,0,0,0,0,0,0,0,0,0,0,0,0,0,0,0,0,0,0,0,0,0,0,0,0,0,0,0,0,0,0,0,0,0,0,0,0,0,0,0,0,0,0,0,0,0,0,0,0,0,0,0,0,0,0,0,0,0,0,0,0,0,0,0,0,0,0,0,0,0,0,0,0,0,0,0,0,0,0,0,0,0,0,0,0,0,0,0,0,0,0,0,0,0,0,0,0,0,0,0,0,0,0,0,0,0,0,0,0,0,0,0,0,0,0,0,0,0,0,0,0,0,0,0,0,0,0,0,0,0,0,0,0,0,0,0,0,0,0,0,0,0,0,0,0,0],"id":3,"left_children":[1,3,5,7,9,11,13,15,17,19,21,23,25,27,29,31,33,35,37,39,41,43,45,47,49,51,53,55,57,59,61,63,65,67,69,71,73,75,77,79,81,83,85,87,89,91,93,95,97,99,101,103,105,107,109,111,113,115,-1,117,-1,119,121,123,125,127,129,131,133,135,137,139,141,143,145,147,149,151,153,155,157,159,161,163,165,167,169,-1,171,173,175,177,179,181,183,185,187,189,191,-1,193,195,-1,197,199,201,203,205,207,209,211,213,215,-1,217,219,221,223,225,227,-1,229,231,-1,-1,-1,-1,-1,-1,-1,-1,-1,-1,-1,-1,-1,-1,-1,-1,-1,-1,-1,-1,-1,-1,-1,-1,-1,-1,-1,-1,-1,-1,-1,-1,-1,-1,-1,-1,-1,-1,-1,-1,-1,-1,-1,-1,-1,-1,-1,-1,-1,-1,-1,-1,-1,-1,-1,-1,-1,-1,-1,-1,-1,-1,-1,-1,-1,-1,-1,-1,-1,-1,-1,-1,-1,-1,-1,-1,-1,-1,-1,-1,-1,-1,-1,-1,-1,-1,-1,-1,-1,-1,-1,-1,-1,-1,-1,-1,-1,-1,-1,-1,-1,-1,-1,-1,-1,-1,-1,-1,-1,-1],"loss_changes":[1.2907358E3,3.3493457E2,4.916972E2,1.1649695E2,4.9563156E1,2.0881271E2,6.1809326E1,4.588147E1,5.5872726E1,1.2651873E1,2.4588646E1,6.109427E1,3.739785E1,1.8825989E1,3.243399E1,1.7663391E1,8.14563E0,1.7362186E1,1.6504456E1,7.917263E0,5.2038403E0,7.757057E0,1.4910986E1,5.4248047E1,7.3208313E0,1.2499971E1,1.824821E1,1.2167297E1,9.4383545E0,1.7702667E1,8.531105E0,8.128277E0,6.338867E0,6.4234924E0,1.0901794E0,4.8096523E0,4.2745E0,3.885086E0,6.852066E0,8.602394E0,5.1698694E0,2.338187E0,3.0355816E0,6.2059593E0,8.456982E0,5.860525E0,8.327026E0,1.1993011E1,1.458828E1,3.9879913E0,8.460087E0,7.9763455E0,9.413225E0,3.3487892E0,8.712881E0,8.973938E0,5.6596527E0,1.0362427E1,0E0,3.9214935E0,0E0,1.0002007E1,9.273743E0,2.4489021E0,3.7608318E0,3.325653E0,3.0614166E0,1.8773651E0,2.07193E0,4.4677734E-1,9.862137E-1,6.3679724E0,3.3923235E0,4.0302644E0,1.8779793E0,3.458521E0,2.6324768E0,6.609085E0,1.5237961E0,4.092908E0,1.9680345E0,5.670928E0,3.608508E0,2.3234298E0,2.728175E0,4.5023727E0,3.767451E0,0E0,6.2334785E0,4.46276E0,4.4570694E0,6.99619E0,4.0725164E0,4.8912544E0,4.162487E0,1.2119446E1,3.9500122E0,6.5620117E0,4.421261E0,0E0,3.1218796E0,5.199256E0,0E0,6.141961E0,8.667551E0,4.6397347E0,4.389143E0,3.3370628E0,6.809062E0,6.334018E0,4.0892124E0,5.498535E0,8.730757E0,0E0,6.0207825E0,6.802475E0,5.004547E0,5.4455795E0,6.617832E0,6.7487106E0,0E0,3.6114578E0,8.666719E0,0E0,0E0,0E0,0E0,0E0,0E0,0E0,0E0,0E0,0E0,0E0,0E0,0E0,0E0,0E0,0E0,0E0,0E0,0E0,0E0,0E0,0E0,0E0,0E0,0E0,0E0,0E0,0E0,0E0,0E0,0E0,0E0,0E0,0E0,0E0,0E0,0E0,0E0,0E0,0E0,0E0,0E0,0E0,0E0,0E0,0E0,0E0,0E0,0E0,0E0,0E0,0E0,0E0,0E0,0E0,0E0,0E0,0E0,0E0,0E0,0E0,0E0,0E0,0E0,0E0,0E0,0E0,0E0,0E0,0E0,0E0,0E0,0E0,0E0,0E0,0E0,0E0,0E0,0E0,0E0,0E0,0E0,0E0,0E0,0E0,0E0,0E0,0E0,0E0,0E0,0E0,0E0,0E0,0E0,0E0,0E0,0E0,0E0,0E0,0E0,0E0,0E0,0E0,0E0,0E0,0E0,0E0,0E0,0E0,0E0],"parents":[2147483647,0,0,1,1,2,2,3,3,4,4,5,5,6,6,7,7,8,8,9,9,10,10,11,11,12,12,13,13,14,14,15,15,16,16,17,17,18,18,19,19,20,20,21,21,22,22,23,23,24,24,25,25,26,26,27,27,28,28,29,29,30,30,31,31,32,32,33,33,34,34,35,35,36,36,37,37,38,38,39,39,40,40,41,41,42,42,43,43,44,44,45,45,46,46,47,47,48,48,49,49,50,50,51,51,52,52,53,53,54,54,55,55,56,56,57,57,59,59,61,61,62,62,63,63,64,64,65,65,66,66,67,67,68,68,69,69,70,70,71,71,72,72,73,73,74,74,75,75,76,76,77,77,78,78,79,79,80,80,81,81,82,82,83,83,84,84,85,85,86,86,88,88,89,89,90,90,91,91,92,92,93,93,94,94,95,95,96,96,97,97,98,98,100,100,101,101,103,103,104,104,105,105,106,106,107,107,108,108,109,109,110,110,111,111,112,112,114,114,115,115,116,116,117,117,118,118,119,119,121,121,122,122],"right_children":[2,4,6,8,10,12,14,16,18,20,22,24,26,28,30,32,34,36,38,40,42,44,46,48,50,52,54,56,58,60,62,64,66,68,70,72,74,76,78,80,82,84,86,88,90,92,94,96,98,100,102,104,106,108,110,112,114,116,-1,118,-1,120,122,124,126,128,130,132,134,136,138,140,142,144,146,148,150,152,154,156,158,160,162,164,166,168,170,-1,172,174,176,178,180,182,184,186,188,190,192,-1,194,196,-1,198,200,202,204,206,208,210,212,214,216,-1,218,220,222,224,226,228,-1,230,232,-1,-1,-1,-1,-1,-1,-1,-1,-1,-1,-1,-1,-1,-1,-1,-1,-1,-1,-1,-1,-1,-1,-1,-1,-1,-1,-1,-1,-1,-1,-1,-1,-1,-1,-1,-1,-1,-1,-1,-1,-1,-1,-1,-1,-1,-1,-1,-1,-1,-1,-1,-1,-1,-1,-1,-1,-1,-1,-1,-1,-1,-1,-1,-1,-1,-1,-1,-1,-1,-1,-1,-1,-1,-1,-1,-1,-1,-1,-1,-1,-1,-1,-1,-1,-1,-1,-1,-1,-1,-1,-1,-1,-1,-1,-1,-1,-1,-1,-1,-1,-1,-1,-1,-1,-1,-1,-1,-1,-1,-1],"split_conditions":[8.3028555E-1,1E0,1E0,-2.830522E-1,-8.397211E-1,1E0,1E0,1E0,1E0,1E0,-6.618143E-1,1E0,2.109534E-1,2.109534E-1,-2.2543044E-1,-2.2543044E-1,2.109534E-1,2.109534E-1,-6.618143E-1,6.4733726E-1,2.109534E-1,2E0,2.7361667E-1,-2.2543044E-1,2.6583904E-1,1E0,1E0,1.4519072E0,1E0,1E0,8.984396E-1,-1.39639E0,-1.39639E0,-1.39639E0,-8.397211E-1,2E0,-1.3360634E0,1E0,1.083721E0,1.3135402E0,2.6583904E-1,1E0,1.466762E0,-1.3360634E0,-6.5234995E-1,1E0,1E0,-1.098198E0,1.083721E0,1E0,1.333774E0,-1.098198E0,2E0,1E0,1E0,1.6007577E0,1E0,-2.6812842E-1,-9.337365E-2,1E0,-1.1231028E-1,8.292561E-1,1E0,1.6007577E0,-1.098198E0,2.109534E-1,1.083721E0,1.4519072E0,2E0,1E0,1E0,1.6594574E0,1E0,2.7361667E-1,-1.1446928E-3,1.5902741E0,1E0,2.7361667E-1,1E0,-1.1446928E-3,1E0,1E0,6.546699E-1,-6.618143E-1,1E0,-1.3360634E0,-3.4686247E-1,2.4376815E-2,2E0,1E0,-1.098198E0,6.546699E-1,1E0,1E0,1.3827237E0,-8.020959E-1,-2.77679E-1,1.6007577E0,-1.1770638E0,-4.228317E-2,1E0,2E0,-8.5086554E-2,2E0,1.5260165E0,1E0,5.5252236E-1,6.546699E-1,6.4733726E-1,-2.77679E-1,5.328228E-1,1E0,1.3742167E-1,-6.301749E-2,2.9324678E-1,6.9088924E-1,8.8000435E-1,1E0,1E0,5.328228E-1,-9.0304755E-2,1.466762E0,-2.935108E-1,2.2861317E-2,4.405305E-2,4.1389912E-3,1.5036811E-2,2.2245338E-2,3.5862003E-2,2.1165675E-2,2.8538955E-2,4.0445954E-2,2.3748932E-2,3.0929485E-2,2.3606878E-2,4.2514212E-2,3.862849E-2,4.0123146E-2,3.3008907E-2,3.6864479E-3,-4.0401448E-2,-1.181708E-2,3.466893E-3,-1.962616E-2,1.1966388E-2,8.453784E-3,1.5191472E-2,8.225813E-3,-2.0446341E-2,2.8957983E-2,5.0775995E-3,2.7998645E-2,1.6121468E-2,3.435414E-2,2.3065899E-2,-5.7347533E-3,-2.3773298E-2,4.2451426E-2,9.200598E-3,-1.4023569E-2,2.4921158E-2,3.704105E-2,7.0831478E-3,1.722343E-2,1.5349876E-3,-1.8425187E-2,1.343328E-2,6.2330015E-2,2.1184321E-2,-2.0325113E-2,2.163701E-2,-1.5441246E-2,-4.5031082E-2,-3.165176E-2,1.8120801E-2,-6.693235E-2,-3.8577862E-2,-2.8663415E-3,-2.334816E-2,7.4656243E-3,-8.165667E-3,-3.670693E-2,-1.501933E-3,-7.7874386E-3,-4.6739902E-2,-5.592831E-2,-3.1090463E-2,-1.9241575E-2,-2.775628E-2,-1.5301868E-2,-3.364271E-2,4.7748545E-3,-7.81739E-3,-8.878688E-2,-5.0180282E-2,-1.7960502E-2,-5.9207346E-2,-4.10195E-3,-1.8883178E-2,1.9522021E-4,-1.5251527E-2,-3.508337E-2,7.07319E-3,-9.231791E-2,-3.3495307E-2,1.262877E-2,6.363205E-3,-1.4392671E-2,8.1689805E-3,2.8518138E-2,-2.8677166E-2,-2.4281925E-2,-6.3115455E-2,-7.727133E-2,-6.0504466E-2,-5.202465E-3,-7.220889E-2,-1.5242897E-1,-8.703557E-2,-6.6919446E-2,-3.908444E-2,-4.5174386E-2,-2.6636356E-2,-6.274884E-2,-3.888159E-2,-8.561182E-2,-4.1360583E-2,-3.4853768E-2,-1.8576352E-2,-2.740525E-2,1.656102E-3,-2.8597374E-2,3.4891915E-2],"split_indices":[18,31,31,18,18,34,34,34,34,34,7,29,7,7,7,7,7,7,7,7,7,6,18,7,0,29,29,2,29,29,2,18,18,18,18,6,0,32,7,2,0,36,13,0,11,34,34,7,7,6,0,7,9,22,9,0,9,0,0,26,0,2,36,0,7,7,7,2,15,21,28,2,36,18,0,2,20,18,23,0,15,21,11,7,21,0,2,0,9,21,7,11,21,23,2,0,2,0,2,0,32,15,0,6,11,9,2,11,7,2,0,9,2,0,13,2,13,6,27,0,0,13,13,0,0,0,0,0,0,0,0,0,0,0,0,0,0,0,0,0,0,0,0,0,0,0,0,0,0,0,0,0,0,0,0,0,0,0,0,0,0,0,0,0,0,0,0,0,0,0,0,0,0,0,0,0,0,0,0,0,0,0,0,0,0,0,0,0,0,0,0,0,0,0,0,0,0,0,0,0,0,0,0,0,0,0,0,0,0,0,0,0,0,0,0,0,0,0,0,0,0,0,0,0,0,0,0,0,0,0,0,0,0],"split_type":[0,0,0,0,0,0,0,0,0,0,0,0,0,0,0,0,0,0,0,0,0,0,0,0,0,0,0,0,0,0,0,0,0,0,0,0,0,0,0,0,0,0,0,0,0,0,0,0,0,0,0,0,0,0,0,0,0,0,0,0,0,0,0,0,0,0,0,0,0,0,0,0,0,0,0,0,0,0,0,0,0,0,0,0,0,0,0,0,0,0,0,0,0,0,0,0,0,0,0,0,0,0,0,0,0,0,0,0,0,0,0,0,0,0,0,0,0,0,0,0,0,0,0,0,0,0,0,0,0,0,0,0,0,0,0,0,0,0,0,0,0,0,0,0,0,0,0,0,0,0,0,0,0,0,0,0,0,0,0,0,0,0,0,0,0,0,0,0,0,0,0,0,0,0,0,0,0,0,0,0,0,0,0,0,0,0,0,0,0,0,0,0,0,0,0,0,0,0,0,0,0,0,0,0,0,0,0,0,0,0,0,0,0,0,0,0,0,0,0,0,0,0,0,0,0,0,0,0,0,0,0,0,0],"sum_hessian":[4.611E4,2.31E4,2.301E4,1.8378E4,4.722E3,1.8437E4,4.573E3,1.1E4,7.378E3,1.909E3,2.813E3,9.229E3,9.208E3,2.261E3,2.312E3,5.583E3,5.417E3,3.643E3,3.735E3,9.27E2,9.82E2,6.56E2,2.157E3,8.866E3,3.63E2,4.659E3,4.549E3,1.089E3,1.172E3,8.45E2,1.467E3,2.037E3,3.546E3,2.691E3,2.726E3,1.763E3,1.88E3,9.19E2,2.816E3,5.88E2,3.39E2,4.91E2,4.91E2,3.42E2,3.14E2,1.427E3,7.3E2,3.374E3,5.492E3,1.88E2,1.75E2,4.502E3,1.57E2,4.354E3,1.95E2,9.89E2,1E2,1.126E3,4.6E1,8.02E2,4.3E1,1.1E3,3.67E2,6.3E2,1.407E3,1.182E3,2.364E3,8.85E2,1.806E3,1.842E3,8.84E2,9.33E2,8.3E2,1.6E2,1.72E3,7.01E2,2.18E2,1.886E3,9.3E2,5.04E2,8.4E1,1.78E2,1.61E2,3.78E2,1.13E2,4.06E2,8.5E1,2.6E1,3.16E2,8E1,2.34E2,7E2,7.27E2,3.7E2,3.6E2,1.091E3,2.283E3,3.327E3,2.165E3,3.6E1,1.52E2,1.35E2,4E1,1.125E3,3.377E3,1.03E2,5.4E1,3.613E3,7.41E2,7.7E1,1.18E2,9.08E2,8.1E1,3.2E1,6.8E1,4.46E2,6.8E2,6.6E2,1.42E2,1.074E3,2.6E1,2.71E2,9.6E1,5.69E2,6.1E1,4.83E2,9.24E2,2.29E2,9.53E2,1.386E3,9.78E2,8.06E2,7.9E1,1.205E3,6.01E2,1.232E3,6.1E2,4.51E2,4.33E2,9E2,3.3E1,6.43E2,1.87E2,8.4E1,7.6E1,7.08E2,1.012E3,6.57E2,4.4E1,1.51E2,6.7E1,9.32E2,9.54E2,7.78E2,1.52E2,2.48E2,2.56E2,2.5E1,5.9E1,1.26E2,5.2E1,8E1,8.1E1,1.98E2,1.8E2,7.1E1,4.2E1,2.8E1,3.78E2,3.7E1,4.8E1,2.07E2,1.09E2,5.4E1,2.6E1,1.2E2,1.14E2,4.27E2,2.73E2,4.7E2,2.57E2,3.25E2,4.5E1,3.31E2,2.9E1,2.6E2,8.31E2,9.37E2,1.346E3,3.119E3,2.08E2,3.28E2,1.837E3,1.21E2,3.1E1,8.8E1,4.7E1,5.69E2,5.56E2,2.964E3,4.13E2,5.3E1,5E1,2.9E1,2.5E1,2.236E3,1.377E3,1.74E2,5.67E2,4.4E1,3.3E1,7.4E1,4.4E1,3.33E2,5.75E2,5E1,3.1E1,3E1,3.8E1,3.17E2,1.29E2,4.58E2,2.22E2,1.2E2,5.4E2,6.5E1,7.7E1,6.47E2,4.27E2,2.18E2,5.3E1,3.1E1,6.5E1],"tree_param":{"num_deleted":"0","num_feature":"38","num_nodes":"233","size_leaf_vector":"1"}},{"base_weights":[3.3411535E-4,1.4917286E-1,-1.497434E-1,2.0358194E-1,-6.196635E-2,-2.7901298E-1,-1.3994064E-2,9.4632454E-2,2.706327E-1,-2.6403558E-1,2.0632174E-2,-2.0782456E-1,-5.767011E-1,4.4615906E-2,-2.476706E-1,2.0853023E-1,2.1294912E-2,3.2409918E-1,1.9153745E-1,-3.83986E-1,-1.7243132E-1,1.4996624E-1,-6.3154E-2,-3.0211565E-1,-1.1109408E-1,-4.4162765E-1,-6.936087E-1,-4.1525897E-2,1.2971479E-1,-3.462685E-1,-1.4174956E-1,1.1304997E-1,2.544069E-1,-7.794645E-2,1.1836398E-1,2.725414E-1,3.7742937E-1,1.4614658E-1,3.3480746E-1,-3.185283E-1,-6.458911E-1,-5.362496E-2,-2.5724983E-1,5.5686995E-2,2.3216511E-1,-1.664285E-1,8.748919E-2,-4.297155E-1,-2.1553275E-1,-2.3695232E-1,-5.539405E-2,-5.895288E-1,-2.8540212E-1,-5.9942585E-1,-8.9562E-1,-1.4025684E-1,3.232534E-2,5.9946425E-2,2.0272233E-1,-3.833029E-1,-6.6388495E-2,-2.4248315E-2,-2.884539E-1,-3.9455857E-2,1.2872745E-1,1.8310092E-1,3.2004926E-1,-2.4255076E-1,2.2081446E-3,1.6685506E-2,1.846057E-1,2.5816387E-1,4.80954E-1,2.8950256E-1,3.9806634E-1,2.2689344E-1,6.8978E-2,2.3485449E-1,3.6684632E-1,-3.5738286E-1,1.5423511E-2,-8.0948704E-1,-2.348067E-2,5.9174236E-2,-3.06613E-1,-3.1332567E-1,6.228657E-3,2.7660376E-1,-4.6045203E-2,3.86851E-1,1.8766811E-1,-2.4646707E-1,7.476475E-2,1.6176167E-1,-6.435684E-2,-3.103527E-1,-5.474151E-1,-1.9565426E-1,-7.5189304E-1,-4.6920976E-1,-1.8182959E-1,1.7978393E-2,-1.920701E-1,-3.383966E-1,-6.931718E-1,-6.8687505E-1,-1.7843038E-1,-8.280014E-1,-4.3945915E-1,-3.210057E-2,-9.4165605E-1,-1.8698831E-1,8.485228E-2,-3.0657047E-2,1.3037087E-1,-2.1966556E-2,1.4761968E-1,2.7750257E-1,1.3114907E-1,-3.122181E-1,-6.015439E-1,-2.9891659E-2,6.6484146E-2,-4.1884184E-1,1.532708E-2,-1.6542982E-1,-5.153244E-1,-1.8192194E-2,1.53713105E-2,9.095575E-3,2.2387374E-2,-9.39189E-3,3.339045E-2,-3.9777588E-2,-1.238361E-2,-7.247768E-3,5.886681E-3,-2.7261777E-3,2.2421706E-2,2.4686595E-2,4.7455793E-3,3.1193381E-2,2.0423446E-2,5.0978757E-2,3.003681E-2,2.0020721E-2,3.5616938E-2,4.392564E-2,3.7050493E-2,2.7963651E-2,1.2613425E-2,1.4369947E-2,-5.087254E-3,3.5073917E-2,1.8448008E-2,4.1430593E-2,2.9956935E-2,-4.9955886E-2,-2.2886936E-2,-9.9171154E-2,-4.096198E-2,-1.4008078E-3,4.750035E-2,-5.511703E-2,2.905449E-2,-2.5807524E-2,-7.040771E-2,3.936966E-2,-2.2941321E-2,1.39530925E-2,3.769387E-2,-8.233113E-3,3.4732345E-2,1.851893E-2,4.4318683E-2,8.076273E-3,2.71132E-2,-1.140581E-2,-4.1088205E-2,1.7658223E-3,2.6817447E-2,1.931349E-2,-1.4784144E-2,1.4861777E-2,-1.6092543E-2,-3.9540138E-2,-6.650723E-3,-6.147043E-2,-3.4848332E-2,-3.0589655E-2,-1.2009195E-2,-3.769619E-2,-1.3478854E-1,-1.5215883E-2,-5.8303434E-2,-1.2229089E-2,-4.0100545E-2,1.1571622E-2,-5.135262E-3,-7.524013E-3,-3.42971E-2,5.090685E-3,-4.1431304E-2,-8.886234E-2,-4.4680398E-2,-9.415202E-2,-3.8381055E-2,-5.983174E-3,-4.050347E-2,-1.0090085E-1,-6.856454E-2,-5.560058E-2,-4.010924E-3,-1.0286819E-1,-6.393787E-2,-7.3965783E-3,-3.3988006E-2,2.181566E-2,-5.820801E-3,1.40834665E-2,-9.446549E-3,-2.3098213E-3,1.9071762E-2,1.6615387E-2,-7.3084617E-3,2.286203E-2,4.528904E-3,1.7217664E-2,3.1711664E-2,-3.776852E-3,2.12217E-2,-9.699577E-3,-3.8086575E-2,-4.566621E-2,-1.0652838E-1,-1.0155983E-2,2.529504E-2,-1.6603164E-2,-6.3977405E-2,-1.4457697E-3,4.669041E-2,1.7736187E-2,-2.7374253E-2,-6.0736384E-2,1.4252508E-3],"categories":[],"categories_nodes":[],"categories_segments":[],"categories_sizes":[],"default_left":[0,0,0,0,0,0,0,0,0,0,0,0,0,0,0,0,0,0,0,0,0,0,0,0,0,0,0,0,0,0,0,0,0,0,0,0,0,0,0,0,0,0,0,0,0,0,0,0,0,0,0,0,0,0,0,0,0,0,0,0,0,0,0,0,0,0,0,0,0,0,0,0,0,0,0,0,0,0,0,0,0,0,0,0,0,0,0,0,0,0,0,0,0,0,0,0,0,0,0,0,0,0,0,0,0,0,0,0,0,0,0,0,0,0,0,0,0,0,0,0,0,0,0,0,0,0,0,0,0,0,0,0,0,0,0,0,0,0,0,0,0,0,0,0,0,0,0,0,0,0,0,0,0,0,0,0,0,0,0,0,0,0,0,0,0,0,0,0,0,0,0,0,0,0,0,0,0,0,0,0,0,0,0,0,0,0,0,0,0,0,0,0,0,0,0,0,0,0,0,0,0,0,0,0,0,0,0,0,0,0,0,0,0,0,0,0,0,0,0,0,0,0,0,0,0,0,0,0,0,0,0,0,0,0,0,0,0,0,0,0,0,0,0,0,0],"id":4,"left_children":[1,3,5,7,9,11,13,15,17,19,21,23,25,27,29,31,33,35,37,39,41,43,45,47,49,51,53,55,57,59,61,63,65,67,69,71,73,75,77,79,81,83,85,87,89,91,93,95,97,99,101,103,105,107,109,111,113,115,117,119,121,123,125,-1,127,129,131,133,135,137,139,141,143,145,147,149,151,153,155,157,-1,159,-1,161,163,165,167,169,171,173,175,177,179,181,183,185,187,189,191,193,195,197,199,201,203,205,207,209,211,-1,213,215,217,219,221,223,225,227,229,231,233,-1,235,237,239,241,243,-1,-1,-1,-1,-1,-1,-1,-1,-1,-1,-1,-1,-1,-1,-1,-1,-1,-1,-1,-1,-1,-1,-1,-1,-1,-1,-1,-1,-1,-1,-1,-1,-1,-1,-1,-1,-1,-1,-1,-1,-1,-1,-1,-1,-1,-1,-1,-1,-1,-1,-1,-1,-1,-1,-1,-1,-1,-1,-1,-1,-1,-1,-1,-1,-1,-1,-1,-1,-1,-1,-1,-1,-1,-1,-1,-1,-1,-1,-1,-1,-1,-1,-1,-1,-1,-1,-1,-1,-1,-1,-1,-1,-1,-1,-1,-1,-1,-1,-1,-1,-1,-1,-1,-1,-1,-1,-1,-1,-1,-1,-1,-1,-1,-1,-1,-1,-1,-1],"loss_changes":[1.029506E3,2.6584247E2,4.0271112E2,1.3438184E2,7.9152374E1,2.4899146E2,1.5333527E2,5.8558327E1,4.810138E1,1.5053238E1,3.649565E1,8.650479E1,3.5507935E1,6.562132E1,2.3396774E1,1.1999588E1,4.110474E1,1.857782E1,2.9839554E1,9.994759E0,7.8664036E0,1.0247604E1,3.1814299E1,5.2981842E1,3.283017E1,2.4208527E1,2.256073E1,3.244398E1,2.29244E1,1.2018906E1,1.8678938E1,7.1573067E0,8.619408E0,2.7839436E1,1.4525085E1,1.023761E1,5.9398804E0,2.1743416E1,3.4524765E0,8.83551E0,7.745636E0,9.349693E0,6.73925E0,1.3901883E1,4.793724E0,2.3435097E1,9.393692E0,2.709906E1,3.0388962E1,1.8312119E1,3.2585255E1,1.3846619E1,2.1994774E1,3.002121E1,9.855652E0,2.0045334E1,1.5725906E1,1.6549595E1,1.1738586E1,1.57291565E1,4.25271E0,9.422985E0,1.3367626E1,0E0,6.7574253E0,3.3271408E0,5.560501E0,1.2684143E1,6.0131364E0,7.776734E0,1.1140202E1,9.322891E0,1.0028152E0,3.7267303E0,2.9024353E0,9.0310135E0,1.6010624E1,1.5172911E0,2.5419922E0,7.961685E0,0E0,5.714485E0,0E0,6.9145694E0,1.49101095E1,7.935829E0,7.485917E0,2.6292782E0,6.080664E0,1.7015667E0,4.8945312E0,1.9785622E1,3.3418865E0,5.4582596E0,5.6591797E0,2.0007324E1,1.2850494E1,2.2979485E1,2.2284412E1,9.835533E0,1.5127468E1,1.4337738E1,1.998396E1,4.749815E0,1.799739E1,7.9734077E0,1.094075E1,8.094879E0,2.2830261E1,0E0,8.680908E0,2.7225758E1,6.2678394E0,1.6985308E1,9.228718E0,1.14748335E1,9.215132E0,4.43071E0,1.5427229E1,1.142807E1,1.6377586E1,0E0,2.7831283E0,2.965743E0,7.3908668E0,1.1706962E1,8.246048E0,0E0,0E0,0E0,0E0,0E0,0E0,0E0,0E0,0E0,0E0,0E0,0E0,0E0,0E0,0E0,0E0,0E0,0E0,0E0,0E0,0E0,0E0,0E0,0E0,0E0,0E0,0E0,0E0,0E0,0E0,0E0,0E0,0E0,0E0,0E0,0E0,0E0,0E0,0E0,0E0,0E0,0E0,0E0,0E0,0E0,0E0,0E0,0E0,0E0,0E0,0E0,0E0,0E0,0E0,0E0,0E0,0E0,0E0,0E0,0E0,0E0,0E0,0E0,0E0,0E0,0E0,0E0,0E0,0E0,0E0,0E0,0E0,0E0,0E0,0E0,0E0,0E0,0E0,0E0,0E0,0E0,0E0,0E0,0E0,0E0,0E0,0E0,0E0,0E0,0E0,0E0,0E0,0E0,0E0,0E0,0E0,0E0,0E0,0E0,0E0,0E0,0E0,0E0,0E0,0E0,0E0,0E0,0E0,0E0,0E0,0E0,0E0,0E0,0E0,0E0,0E0,0E0,0E0],"parents":[2147483647,0,0,1,1,2,2,3,3,4,4,5,5,6,6,7,7,8,8,9,9,10,10,11,11,12,12,13,13,14,14,15,15,16,16,17,17,18,18,19,19,20,20,21,21,22,22,23,23,24,24,25,25,26,26,27,27,28,28,29,29,30,30,31,31,32,32,33,33,34,34,35,35,36,36,37,37,38,38,39,39,40,40,41,41,42,42,43,43,44,44,45,45,46,46,47,47,48,48,49,49,50,50,51,51,52,52,53,53,54,54,55,55,56,56,57,57,58,58,59,59,60,60,61,61,62,62,64,64,65,65,66,66,67,67,68,68,69,69,70,70,71,71,72,72,73,73,74,74,75,75,76,76,77,77,78,78,79,79,81,81,83,83,84,84,85,85,86,86,87,87,88,88,89,89,90,90,91,91,92,92,93,93,94,94,95,95,96,96,97,97,98,98,99,99,100,100,101,101,102,102,103,103,104,104,105,105,106,106,107,107,108,108,110,110,111,111,112,112,113,113,114,114,115,115,116,116,117,117,118,118,119,119,120,120,122,122,123,123,124,124,125,125,126,126],"right_children":[2,4,6,8,10,12,14,16,18,20,22,24,26,28,30,32,34,36,38,40,42,44,46,48,50,52,54,56,58,60,62,64,66,68,70,72,74,76,78,80,82,84,86,88,90,92,94,96,98,100,102,104,106,108,110,112,114,116,118,120,122,124,126,-1,128,130,132,134,136,138,140,142,144,146,148,150,152,154,156,158,-1,160,-1,162,164,166,168,170,172,174,176,178,180,182,184,186,188,190,192,194,196,198,200,202,204,206,208,210,212,-1,214,216,218,220,222,224,226,228,230,232,234,-1,236,238,240,242,244,-1,-1,-1,-1,-1,-1,-1,-1,-1,-1,-1,-1,-1,-1,-1,-1,-1,-1,-1,-1,-1,-1,-1,-1,-1,-1,-1,-1,-1,-1,-1,-1,-1,-1,-1,-1,-1,-1,-1,-1,-1,-1,-1,-1,-1,-1,-1,-1,-1,-1,-1,-1,-1,-1,-1,-1,-1,-1,-1,-1,-1,-1,-1,-1,-1,-1,-1,-1,-1,-1,-1,-1,-1,-1,-1,-1,-1,-1,-1,-1,-1,-1,-1,-1,-1,-1,-1,-1,-1,-1,-1,-1,-1,-1,-1,-1,-1,-1,-1,-1,-1,-1,-1,-1,-1,-1,-1,-1,-1,-1,-1,-1,-1,-1,-1,-1,-1,-1],"split_conditions":[8.3028555E-1,1E0,4.5659117E-2,-3.139429E-1,-5.297041E-1,1E0,1E0,-8.397211E-1,-2.830522E-1,-1.481684E-1,-8.397211E-1,1E0,-5.1709485E-1,1E0,-1.1869896E-2,-1.1769878E0,1E0,1E0,1.088505E0,2.7361667E-1,-8.397211E-1,3.3334073E-1,2.607271E-1,-2.1631765E-1,-9.971868E-1,1E0,-1.3931212E-1,-1.481684E-1,5.6279358E-2,1.5919478E0,7.805001E-1,-1.920049E0,1E0,-4.2076543E-1,-1.033147E0,1.555563E0,-8.2966095E-1,2.7578858E-1,-6.933624E-1,1.4983065E0,-1.710695E-1,2E0,-6.7354494E-1,-6.2359625E-1,-1.3931212E-1,9.446642E-1,2.7361667E-1,-4.8522934E-1,1E0,-8.978102E-1,1.3742167E-1,-9.0033E-1,-1.5006295E0,-7.4546534E-1,-1.0691072E0,1.4121468E0,9.08704E-1,6.531601E-2,6.2170583E-1,1.1751734E0,-4.1354194E-1,-1.405874E0,3E0,-3.9455857E-2,-1.4976401E0,-5.346988E-1,-1.8518997E0,-1.0691072E0,3.2887638E-1,1.0785182E0,1.3742167E-1,4.8333892E-1,1.1268806E0,4.0526113E-1,1.3742167E-1,9.535128E-1,3.4796846E-1,-5.148899E-1,1.1751734E0,1E0,1.5423511E-2,-8.5334593E-1,-2.348067E-2,1.4192644E0,7.5187135E-1,4.1415545E-1,-6.6739434E-1,-2.060623E-1,1.5732951E0,-5.148899E-1,8.727438E-1,4.1415545E-1,1.0758013E0,1.5590571E0,-2.0849556E-1,-4.5778373E-1,-2.060623E-1,-8.1738573E-1,8.844948E-2,-1.3154308E0,1.749558E-1,-2.5757584E-1,-5.1709485E-1,-8.978102E-1,-5.6566435E-1,2.4930397E-2,3.9417025E-1,2E0,8.0592114E-1,-3.210057E-2,4E0,6.9088924E-1,1.0368065E0,-3.4686247E-1,2.607271E-1,-3.4686247E-1,7.600727E-1,-7.8855115E-1,5.8506215E-1,-3.4408218E-1,8.670064E-1,-2.9891659E-2,1E0,-3.4408218E-1,6.939938E-1,-4.160459E-1,1.6998284E0,-1.8192194E-2,1.53713105E-2,9.095575E-3,2.2387374E-2,-9.39189E-3,3.339045E-2,-3.9777588E-2,-1.238361E-2,-7.247768E-3,5.886681E-3,-2.7261777E-3,2.2421706E-2,2.4686595E-2,4.7455793E-3,3.1193381E-2,2.0423446E-2,5.0978757E-2,3.003681E-2,2.0020721E-2,3.5616938E-2,4.392564E-2,3.7050493E-2,2.7963651E-2,1.2613425E-2,1.4369947E-2,-5.087254E-3,3.5073917E-2,1.8448008E-2,4.1430593E-2,2.9956935E-2,-4.9955886E-2,-2.2886936E-2,-9.9171154E-2,-4.096198E-2,-1.4008078E-3,4.750035E-2,-5.511703E-2,2.905449E-2,-2.5807524E-2,-7.040771E-2,3.936966E-2,-2.2941321E-2,1.39530925E-2,3.769387E-2,-8.233113E-3,3.4732345E-2,1.851893E-2,4.4318683E-2,8.076273E-3,2.71132E-2,-1.140581E-2,-4.1088205E-2,1.7658223E-3,2.6817447E-2,1.931349E-2,-1.4784144E-2,1.4861777E-2,-1.6092543E-2,-3.9540138E-2,-6.650723E-3,-6.147043E-2,-3.4848332E-2,-3.0589655E-2,-1.2009195E-2,-3.769619E-2,-1.3478854E-1,-1.5215883E-2,-5.8303434E-2,-1.2229089E-2,-4.0100545E-2,1.1571622E-2,-5.135262E-3,-7.524013E-3,-3.42971E-2,5.090685E-3,-4.1431304E-2,-8.886234E-2,-4.4680398E-2,-9.415202E-2,-3.8381055E-2,-5.983174E-3,-4.050347E-2,-1.0090085E-1,-6.856454E-2,-5.560058E-2,-4.010924E-3,-1.0286819E-1,-6.393787E-2,-7.3965783E-3,-3.3988006E-2,2.181566E-2,-5.820801E-3,1.40834665E-2,-9.446549E-3,-2.3098213E-3,1.9071762E-2,1.6615387E-2,-7.3084617E-3,2.286203E-2,4.528904E-3,1.7217664E-2,3.1711664E-2,-3.776852E-3,2.12217E-2,-9.699577E-3,-3.8086575E-2,-4.566621E-2,-1.0652838E-1,-1.0155983E-2,2.529504E-2,-1.6603164E-2,-6.3977405E-2,-1.4457697E-3,4.669041E-2,1.7736187E-2,-2.7374253E-2,-6.0736384E-2,1.4252508E-3],"split_indices":[18,31,14,14,14,31,31,18,18,5,18,34,3,34,5,14,34,34,14,18,18,14,5,5,14,34,2,5,5,14,3,5,34,5,14,5,5,2,5,19,3,15,14,2,2,14,18,2,29,5,2,2,14,14,14,14,14,4,2,2,4,4,8,0,19,4,5,14,5,5,2,2,4,14,2,3,3,16,2,34,0,14,0,5,4,2,4,14,16,16,14,2,19,3,2,14,14,14,3,2,3,3,3,5,14,4,4,8,5,0,8,2,2,2,5,2,2,4,14,3,3,0,28,3,3,2,14,0,0,0,0,0,0,0,0,0,0,0,0,0,0,0,0,0,0,0,0,0,0,0,0,0,0,0,0,0,0,0,0,0,0,0,0,0,0,0,0,0,0,0,0,0,0,0,0,0,0,0,0,0,0,0,0,0,0,0,0,0,0,0,0,0,0,0,0,0,0,0,0,0,0,0,0,0,0,0,0,0,0,0,0,0,0,0,0,0,0,0,0,0,0,0,0,0,0,0,0,0,0,0,0,0,0,0,0,0,0,0,0,0,0,0,0,0,0],"split_type":[0,0,0,0,0,0,0,0,0,0,0,0,0,0,0,0,0,0,0,0,0,0,0,0,0,0,0,0,0,0,0,0,0,0,0,0,0,0,0,0,0,0,0,0,0,0,0,0,0,0,0,0,0,0,0,0,0,0,0,0,0,0,0,0,0,0,0,0,0,0,0,0,0,0,0,0,0,0,0,0,0,0,0,0,0,0,0,0,0,0,0,0,0,0,0,0,0,0,0,0,0,0,0,0,0,0,0,0,0,0,0,0,0,0,0,0,0,0,0,0,0,0,0,0,0,0,0,0,0,0,0,0,0,0,0,0,0,0,0,0,0,0,0,0,0,0,0,0,0,0,0,0,0,0,0,0,0,0,0,0,0,0,0,0,0,0,0,0,0,0,0,0,0,0,0,0,0,0,0,0,0,0,0,0,0,0,0,0,0,0,0,0,0,0,0,0,0,0,0,0,0,0,0,0,0,0,0,0,0,0,0,0,0,0,0,0,0,0,0,0,0,0,0,0,0,0,0,0,0,0,0,0,0,0,0,0,0,0,0,0,0,0,0,0,0],"sum_hessian":[4.6087E4,2.3139E4,2.2948E4,1.8398E4,4.741E3,1.1754E4,1.1194E4,7.01E3,1.1388E4,1.375E3,3.366E3,9.487E3,2.267E3,8.95E3,2.244E3,2.745E3,4.265E3,6.793E3,4.595E3,5.94E2,7.81E2,1.323E3,2.043E3,4.803E3,4.684E3,1.054E3,1.213E3,4.448E3,4.502E3,1.161E3,1.083E3,8.92E2,1.853E3,2.109E3,2.156E3,3.457E3,3.336E3,3.491E3,1.104E3,4.77E2,1.17E2,3.26E2,4.55E2,6.17E2,7.06E2,1.212E3,8.31E2,1.94E3,2.863E3,1.436E3,3.248E3,5.4E2,5.14E2,8.3E2,3.83E2,1.903E3,2.545E3,2.303E3,2.199E3,1.025E3,1.36E2,6.02E2,4.81E2,2.6E1,8.66E2,8.9E2,9.63E2,6.9E2,1.419E3,8.51E2,1.305E3,3.236E3,2.21E2,6.37E2,2.699E3,1.705E3,1.786E3,2.7E2,8.34E2,4.41E2,3.6E1,8.3E1,3.4E1,2.26E2,1E2,3.75E2,8E1,1.94E2,4.23E2,1.56E2,5.5E2,9.1E2,3.02E2,5.58E2,2.73E2,9.65E2,9.75E2,2.762E3,1.01E2,2.74E2,1.162E3,2.114E3,1.134E3,1.59E2,3.81E2,1.07E2,4.07E2,3.4E2,4.9E2,2.9E1,3.54E2,1.576E3,3.27E2,1.55E3,9.95E2,1.191E3,1.112E3,1.074E3,1.125E3,7.75E2,2.5E2,4.9E1,8.7E1,5.4E1,5.48E2,3.13E2,1.68E2,6.4E1,8.02E2,2.74E2,6.16E2,3.1E1,9.32E2,2.98E2,3.92E2,6.12E2,8.07E2,7.03E2,1.48E2,8.97E2,4.08E2,1.618E3,1.618E3,1.89E2,3.2E1,2.74E2,3.63E2,1.076E3,1.623E3,1.118E3,5.87E2,1.1E3,6.86E2,8E1,1.9E2,4.86E2,3.48E2,2.08E2,2.33E2,5.6E1,2.7E1,1.93E2,3.3E1,7.1E1,2.9E1,3.3E2,4.5E1,3E1,5E1,8.3E1,1.11E2,3.88E2,3.5E1,3.5E1,1.21E2,2.42E2,3.08E2,5.05E2,4.05E2,2.34E2,6.8E1,5.07E2,5.1E1,8.5E1,1.88E2,7.15E2,2.5E2,7.27E2,2.48E2,1.122E3,1.64E3,6.3E1,3.8E1,7.3E1,2.01E2,9.15E2,2.47E2,8.77E2,1.237E3,6.4E2,4.94E2,2.6E1,1.33E2,2.11E2,1.7E2,5.7E1,5E1,2.68E2,1.39E2,1.47E2,1.93E2,3.79E2,1.11E2,2.73E2,8.1E1,9.07E2,6.69E2,1.69E2,1.58E2,4.2E2,1.13E3,2.81E2,7.14E2,2.54E2,9.37E2,6.2E2,4.92E2,2.95E2,7.79E2,3.65E2,7.6E2,1.88E2,5.87E2,1.92E2,5.8E1,4.6E1,4.1E1,2.6E1,2.8E1,5.15E2,3.3E1,7.5E1,2.38E2,1.43E2,2.5E1],"tree_param":{"num_deleted":"0","num_feature":"38","num_nodes":"245","size_leaf_vector":"1"}},{"base_weights":[6.930074E-4,1.3234316E-1,-1.313979E-1,1.8172576E-1,-5.889768E-2,-2.4873133E-1,-7.379734E-3,3.758915E-2,2.271844E-1,-2.3448327E-1,1.3130843E-2,-1.8511309E-1,-5.088508E-1,4.2724602E-2,-2.0511243E-1,1.523388E-1,-3.4536123E-2,2.7765858E-1,1.5242028E-1,-3.8176814E-1,-1.4614785E-1,1.2018775E-1,-5.611377E-2,-2.7044672E-1,-9.874631E-2,-6.16419E-1,-3.9830944E-1,-3.1811982E-2,1.15501806E-1,-3.3624887E-1,-1.3139328E-1,8.8445865E-2,2.1688399E-1,-1.1157468E-1,4.3157678E-2,2.3148482E-1,3.255281E-1,7.754273E-2,2.2491111E-1,-2.9756626E-1,-6.5125966E-1,8.2714304E-2,-2.0240943E-1,6.944835E-2,2.488225E-1,-1.417279E-1,3.4385066E-2,-4.1999367E-1,-2.2066133E-1,-1.7176306E-1,-2.4471475E-2,-7.731093E-1,-5.0162E-1,-5.517168E-1,-3.0837882E-1,1.5874258E-1,-6.910823E-2,2.7099406E-2,1.696386E-1,-9.76378E-3,-3.9166683E-1,-2.2760102E-1,-3.7882775E-2,2.2102132E-1,4.920129E-2,1.444537E-1,2.8795183E-1,-8.254358E-2,-3.5745728E-1,-2.5048962E-2,1.5223132E-1,1.55884E-1,2.7441585E-1,2.8813237E-1,3.740602E-1,3.486332E-2,2.5553447E-1,1.9542193E-1,3.4054396E-1,-5.0893205E-1,-1.9195692E-1,-9.160281E-1,-4.2024037E-1,2.900094E-1,-6.0357973E-2,-1.2456526E-1,-3.269015E-1,2.3924372E-1,1.0583791E-2,3.764825E-1,1.7897771E-1,-1.9477615E-1,1.7504098E-1,-7.8862675E-2,1.0004649E-1,-3.3719236E-1,-5.818739E-1,-2.8712666E-1,-1.0756923E-1,-2.1655534E-1,-2.9724982E-2,4.5720167E-3,-2.653662E-1,-8.8113785E-1,-4.8725915E-1,-2.705858E-1,-6.508853E-1,-3.9579257E-1,-7.252406E-1,-5.081568E-1,-2.3302078E-1,1.5854532E-2,2.357891E-1,-1.2969394E-1,6.7110434E-2,3.985607E-2,-6.911535E-2,1.4602274E-1,3.6742678E-1,-2.7111778E-2,1.7705713E-1,-4.4707248E-1,-2.8212253E-2,-2.029224E-1,-6.176276E-2,1.01461E-1,-1.9959027E-1,1.1490609E-2,3.7872102E-2,8.2041295E-3,-1.3369418E-2,9.67256E-3,3.208726E-2,3.3109196E-2,8.54914E-3,-3.1205742E-2,-5.5936896E-3,-5.264333E-2,-2.057839E-2,5.553446E-3,-1.6083833E-2,2.031172E-2,9.2339574E-4,1.1425515E-2,2.8333167E-2,2.527818E-2,3.9479155E-2,3.413016E-2,2.1820933E-2,3.6109466E-2,4.578459E-2,1.0860605E-2,-6.3934396E-3,9.975604E-3,3.094329E-2,3.1830564E-2,1.435878E-2,2.4637057E-2,4.0554952E-2,-3.2242812E-2,-1.07585266E-1,-3.979111E-2,-7.452422E-3,-4.5979194E-2,-1.2961064E-1,-7.44017E-2,-1.3761024E-2,4.3359358E-2,8.411075E-3,2.3878932E-2,-2.2714725E-2,-6.98184E-3,-5.8897037E-2,-5.8781285E-2,-2.0948729E-2,-1.7731603E-3,2.912325E-2,1.2843807E-2,-6.1986884E-3,2.8631303E-2,4.8852157E-2,1.3711809E-2,5.087763E-2,-8.4656095E-3,-3.270906E-2,1.0495712E-2,4.131249E-2,-1.6978051E-3,-3.538573E-2,-3.8924906E-2,1.2520196E-2,-4.254629E-2,-1.3030541E-2,-5.347846E-2,-1.147955E-1,-2.3635004E-2,-5.1406194E-2,-2.131742E-3,-1.9709555E-2,-4.632673E-2,-1.8562017E-2,1.4906726E-2,-7.553412E-3,-1.4671549E-2,5.3720796E-3,-1.4366627E-2,-5.9925903E-2,-7.542708E-2,-1.15305774E-1,-6.1836947E-2,7.4652582E-3,3.6827654E-2,-3.7087474E-2,-5.1150102E-2,-8.552011E-2,-2.4600355E-2,-6.0192406E-2,-3.1464364E-2,-8.721378E-2,-9.407214E-2,-4.127426E-2,2.9992252E-3,-3.3241373E-2,1.0494134E-2,-3.3223156E-2,3.078115E-2,1.0370184E-2,-3.716871E-3,-1.8954275E-2,1.522501E-2,-3.1565656E-3,1.0341865E-2,-2.636792E-3,2.512446E-2,1.043802E-2,1.1771186E-2,4.149012E-2,4.8583494E-3,3.9260548E-2,-3.5664093E-2,-6.7530915E-2,9.979618E-3,-3.141549E-2,-3.0106245E-2,-7.1480074E-3,3.351706E-2,3.4414206E-4,-4.0276296E-2,4.7496287E-4],"categories":[],"categories_nodes":[],"categories_segments":[],"categories_sizes":[],"default_left":[0,0,0,0,0,0,0,0,0,0,0,0,0,0,0,0,0,0,0,0,0,0,0,0,0,0,0,0,0,0,0,0,0,0,0,0,0,0,0,0,0,0,0,0,0,0,0,0,0,0,0,0,0,0,0,0,0,0,0,0,0,0,0,0,0,0,0,0,0,0,0,0,0,0,0,0,0,0,0,0,0,0,0,0,0,0,0,0,0,0,0,0,0,0,0,0,0,0,0,0,0,0,0,0,0,0,0,0,0,0,0,0,0,0,0,0,0,0,0,0,0,0,0,0,0,0,0,0,0,0,0,0,0,0,0,0,0,0,0,0,0,0,0,0,0,0,0,0,0,0,0,0,0,0,0,0,0,0,0,0,0,0,0,0,0,0,0,0,0,0,0,0,0,0,0,0,0,0,0,0,0,0,0,0,0,0,0,0,0,0,0,0,0,0,0,0,0,0,0,0,0,0,0,0,0,0,0,0,0,0,0,0,0,0,0,0,0,0,0,0,0,0,0,0,0,0,0,0,0,0,0,0,0,0,0,0,0,0,0,0,0,0,0,0,0,0,0,0,0],"id":5,"left_children":[1,3,5,7,9,11,13,15,17,19,21,23,25,27,29,31,33,35,37,39,41,43,45,47,49,51,53,55,57,59,61,63,65,67,69,71,73,75,77,79,81,83,85,87,89,91,93,95,97,99,101,103,105,107,109,111,113,115,117,119,121,123,125,127,129,131,133,135,137,139,141,143,145,147,149,151,153,155,157,159,161,163,165,167,169,171,173,175,177,179,181,183,185,187,189,191,193,195,197,199,201,203,205,207,209,211,213,215,217,219,221,223,225,227,229,231,-1,233,235,-1,237,239,241,243,-1,245,247,-1,-1,-1,-1,-1,-1,-1,-1,-1,-1,-1,-1,-1,-1,-1,-1,-1,-1,-1,-1,-1,-1,-1,-1,-1,-1,-1,-1,-1,-1,-1,-1,-1,-1,-1,-1,-1,-1,-1,-1,-1,-1,-1,-1,-1,-1,-1,-1,-1,-1,-1,-1,-1,-1,-1,-1,-1,-1,-1,-1,-1,-1,-1,-1,-1,-1,-1,-1,-1,-1,-1,-1,-1,-1,-1,-1,-1,-1,-1,-1,-1,-1,-1,-1,-1,-1,-1,-1,-1,-1,-1,-1,-1,-1,-1,-1,-1,-1,-1,-1,-1,-1,-1,-1,-1,-1,-1,-1,-1,-1,-1,-1,-1,-1,-1,-1,-1,-1,-1,-1,-1,-1],"loss_changes":[8.0130414E2,2.1795865E2,3.3469666E2,1.2017285E2,5.991273E1,1.9549072E2,1.1080171E2,3.6412926E1,5.2577576E1,1.7872635E1,2.4914804E1,6.997345E1,2.7364746E1,4.840706E1,2.1813515E1,6.983341E0,1.6177416E1,1.8321045E1,3.0498413E1,1.1515114E1,1.1128857E1,8.598162E0,1.5818499E1,3.5473328E1,2.5604652E1,2.0747955E1,1.5667694E1,3.1345608E1,2.160339E1,1.4705894E1,1.302721E1,4.437577E0,4.302864E0,9.657089E0,1.0017443E1,1.3718658E1,7.304291E0,2.1010838E1,9.672165E0,8.719578E0,7.0773773E0,5.089054E0,6.675131E0,9.472662E0,3.2584286E0,1.7661524E1,7.3918467E0,1.5781235E1,2.6924011E1,1.5141983E1,1.6386839E1,1.4856262E1,2.3308426E1,1.1157883E1,1.0811432E1,7.9447784E0,3.0445415E1,1.575041E1,1.3024979E1,5.8583436E0,1.3982903E1,6.7471504E0,1.6604488E1,3.2196798E0,3.9811246E0,3.5054216E0,3.683712E0,7.402066E0,3.5566387E0,9.080157E0,3.767376E0,8.127487E0,6.939377E0,8.517242E0,1.7618256E0,1.6275719E1,4.4611053E0,1.446418E1,3.444603E0,1.35041275E1,6.379571E0,9.114761E0,6.028721E0,2.0329947E0,5.1434855E0,1.0840658E1,8.025692E0,3.2649612E0,6.0376596E0,1.1835556E0,3.284913E0,1.3071163E1,2.476201E0,6.20554E0,7.7907505E0,1.4389824E1,1.0101944E1,2.589746E1,1.02580805E1,1.3728073E1,4.696121E0,1.5555714E1,1.0153858E1,1.1480438E1,1.0212959E1,1.7371634E1,1.1324142E1,6.799076E0,1.1728378E1,7.783737E0,1.3838894E1,7.9113746E0,4.4297905E0,1.4130253E1,9.548624E0,7.103929E0,0E0,1.0941185E1,3.4839706E0,0E0,1.9193852E0,1.2204948E1,3.4354362E0,8.660009E0,0E0,9.070459E0,1.4158964E1,0E0,0E0,0E0,0E0,0E0,0E0,0E0,0E0,0E0,0E0,0E0,0E0,0E0,0E0,0E0,0E0,0E0,0E0,0E0,0E0,0E0,0E0,0E0,0E0,0E0,0E0,0E0,0E0,0E0,0E0,0E0,0E0,0E0,0E0,0E0,0E0,0E0,0E0,0E0,0E0,0E0,0E0,0E0,0E0,0E0,0E0,0E0,0E0,0E0,0E0,0E0,0E0,0E0,0E0,0E0,0E0,0E0,0E0,0E0,0E0,0E0,0E0,0E0,0E0,0E0,0E0,0E0,0E0,0E0,0E0,0E0,0E0,0E0,0E0,0E0,0E0,0E0,0E0,0E0,0E0,0E0,0E0,0E0,0E0,0E0,0E0,0E0,0E0,0E0,0E0,0E0,0E0,0E0,0E0,0E0,0E0,0E0,0E0,0E0,0E0,0E0,0E0,0E0,0E0,0E0,0E0,0E0,0E0,0E0,0E0,0E0,0E0,0E0,0E0,0E0,0E0,0E0,0E0,0E0,0E0,0E0,0E0],"parents":[2147483647,0,0,1,1,2,2,3,3,4,4,5,5,6,6,7,7,8,8,9,9,10,10,11,11,12,12,13,13,14,14,15,15,16,16,17,17,18,18,19,19,20,20,21,21,22,22,23,23,24,24,25,25,26,26,27,27,28,28,29,29,30,30,31,31,32,32,33,33,34,34,35,35,36,36,37,37,38,38,39,39,40,40,41,41,42,42,43,43,44,44,45,45,46,46,47,47,48,48,49,49,50,50,51,51,52,52,53,53,54,54,55,55,56,56,57,57,58,58,59,59,60,60,61,61,62,62,63,63,64,64,65,65,66,66,67,67,68,68,69,69,70,70,71,71,72,72,73,73,74,74,75,75,76,76,77,77,78,78,79,79,80,80,81,81,82,82,83,83,84,84,85,85,86,86,87,87,88,88,89,89,90,90,91,91,92,92,93,93,94,94,95,95,96,96,97,97,98,98,99,99,100,100,101,101,102,102,103,103,104,104,105,105,106,106,107,107,108,108,109,109,110,110,111,111,112,112,113,113,114,114,115,115,117,117,118,118,120,120,121,121,122,122,123,123,125,125,126,126],"right_children":[2,4,6,8,10,12,14,16,18,20,22,24,26,28,30,32,34,36,38,40,42,44,46,48,50,52,54,56,58,60,62,64,66,68,70,72,74,76,78,80,82,84,86,88,90,92,94,96,98,100,102,104,106,108,110,112,114,116,118,120,122,124,126,128,130,132,134,136,138,140,142,144,146,148,150,152,154,156,158,160,162,164,166,168,170,172,174,176,178,180,182,184,186,188,190,192,194,196,198,200,202,204,206,208,210,212,214,216,218,220,222,224,226,228,230,232,-1,234,236,-1,238,240,242,244,-1,246,248,-1,-1,-1,-1,-1,-1,-1,-1,-1,-1,-1,-1,-1,-1,-1,-1,-1,-1,-1,-1,-1,-1,-1,-1,-1,-1,-1,-1,-1,-1,-1,-1,-1,-1,-1,-1,-1,-1,-1,-1,-1,-1,-1,-1,-1,-1,-1,-1,-1,-1,-1,-1,-1,-1,-1,-1,-1,-1,-1,-1,-1,-1,-1,-1,-1,-1,-1,-1,-1,-1,-1,-1,-1,-1,-1,-1,-1,-1,-1,-1,-1,-1,-1,-1,-1,-1,-1,-1,-1,-1,-1,-1,-1,-1,-1,-1,-1,-1,-1,-1,-1,-1,-1,-1,-1,-1,-1,-1,-1,-1,-1,-1,-1,-1,-1,-1,-1,-1,-1,-1,-1,-1],"split_conditions":[8.3028555E-1,1E0,4.5659117E-2,-7.0950514E-1,-5.297041E-1,1E0,1E0,-8.397211E-1,-2.830522E-1,-2.2543044E-1,-8.397211E-1,1E0,1E0,1E0,-2.2543044E-1,1E0,1E0,1E0,1E0,-7.0128664E-2,-1.2956518E0,8.367836E-1,1E0,-6.618143E-1,2.109534E-1,-7.4546534E-1,-2.2543044E-1,-5.544128E-1,-2.2543044E-1,-6.2359625E-1,1E0,-1.2956518E0,-1.1769878E0,4.1415545E-1,-1.033147E0,-2.2543044E-1,4.4122136E-1,1.088505E0,1.088505E0,-2.935108E-1,1E0,-2.6812842E-1,-2.830522E-1,-6.2359625E-1,3.4796846E-1,1.268306E0,-2.2543044E-1,-7.0128664E-2,-4.5778373E-1,1E0,8.984396E-1,1.083721E0,-5.544128E-1,-2.5757584E-1,-1.1050674E0,3.3334073E-1,1.1244652E0,1.7286409E0,1.6638682E0,4.0526113E-1,1.5919478E0,1.6455634E0,6.0748744E-1,3.1010753E-1,1.0907203E0,1E0,4.1415545E-1,-2.0040724E0,-1.0691072E0,4.228385E-1,1E0,9.08704E-1,1.2323458E0,1.3742167E-1,1.7357886E0,4.344748E-1,-6.618143E-1,-4.8522934E-1,-2.2543044E-1,2.7361667E-1,-1.098198E0,-1.6685903E-1,-9.252663E-1,-2.77679E-1,1E0,1.1265254E0,-5.225461E-1,-8.802684E-1,-3.4408218E-1,2.9324678E-1,1.3509245E0,4.1415545E-1,1.0667902E0,1.466762E0,-1.8235674E0,-4.5778373E-1,1.1265254E0,2.7578858E-1,-9.4521884E-4,-1.5725499E0,-9.983157E-1,-1.1769878E0,-2.5757584E-1,-1.710695E-1,1.2252643E0,-1.0361328E0,1.9431484E-3,2.6583904E-1,-1.1078804E0,-8.629207E-1,-1.0386969E0,1E0,3.8442892E-1,-8.456318E-2,9.535128E-1,6.2170583E-1,-6.911535E-2,-7.0128664E-2,1E0,-2.7111778E-2,8.008234E-1,1.2443569E0,1.4725507E0,1.083721E0,-6.176276E-2,6.823823E-2,2.9324678E-1,1.1490609E-2,3.7872102E-2,8.2041295E-3,-1.3369418E-2,9.67256E-3,3.208726E-2,3.3109196E-2,8.54914E-3,-3.1205742E-2,-5.5936896E-3,-5.264333E-2,-2.057839E-2,5.553446E-3,-1.6083833E-2,2.031172E-2,9.2339574E-4,1.1425515E-2,2.8333167E-2,2.527818E-2,3.9479155E-2,3.413016E-2,2.1820933E-2,3.6109466E-2,4.578459E-2,1.0860605E-2,-6.3934396E-3,9.975604E-3,3.094329E-2,3.1830564E-2,1.435878E-2,2.4637057E-2,4.0554952E-2,-3.2242812E-2,-1.07585266E-1,-3.979111E-2,-7.452422E-3,-4.5979194E-2,-1.2961064E-1,-7.44017E-2,-1.3761024E-2,4.3359358E-2,8.411075E-3,2.3878932E-2,-2.2714725E-2,-6.98184E-3,-5.8897037E-2,-5.8781285E-2,-2.0948729E-2,-1.7731603E-3,2.912325E-2,1.2843807E-2,-6.1986884E-3,2.8631303E-2,4.8852157E-2,1.3711809E-2,5.087763E-2,-8.4656095E-3,-3.270906E-2,1.0495712E-2,4.131249E-2,-1.6978051E-3,-3.538573E-2,-3.8924906E-2,1.2520196E-2,-4.254629E-2,-1.3030541E-2,-5.347846E-2,-1.147955E-1,-2.3635004E-2,-5.1406194E-2,-2.131742E-3,-1.9709555E-2,-4.632673E-2,-1.8562017E-2,1.4906726E-2,-7.553412E-3,-1.4671549E-2,5.3720796E-3,-1.4366627E-2,-5.9925903E-2,-7.542708E-2,-1.15305774E-1,-6.1836947E-2,7.4652582E-3,3.6827654E-2,-3.7087474E-2,-5.1150102E-2,-8.552011E-2,-2.4600355E-2,-6.0192406E-2,-3.1464364E-2,-8.721378E-2,-9.407214E-2,-4.127426E-2,2.9992252E-3,-3.3241373E-2,1.0494134E-2,-3.3223156E-2,3.078115E-2,1.0370184E-2,-3.716871E-3,-1.8954275E-2,1.522501E-2,-3.1565656E-3,1.0341865E-2,-2.636792E-3,2.512446E-2,1.043802E-2,1.1771186E-2,4.149012E-2,4.8583494E-3,3.9260548E-2,-3.5664093E-2,-6.7530915E-2,9.979618E-3,-3.141549E-2,-3.0106245E-2,-7.1480074E-3,3.351706E-2,3.4414206E-4,-4.0276296E-2,4.7496287E-4],"split_indices":[18,31,14,14,14,31,31,18,18,7,18,34,34,34,7,34,34,34,34,2,3,14,34,7,7,14,7,2,7,2,34,3,14,2,14,7,14,14,14,13,27,0,18,2,3,14,7,2,14,33,2,7,2,3,14,14,14,2,14,14,14,3,3,10,10,33,2,14,14,19,36,14,14,2,14,3,7,2,7,18,7,16,14,2,15,3,10,13,3,13,10,2,0,13,10,14,3,2,2,14,19,14,3,3,16,3,3,0,2,16,2,22,19,3,3,2,0,2,6,0,14,2,3,7,0,2,13,0,0,0,0,0,0,0,0,0,0,0,0,0,0,0,0,0,0,0,0,0,0,0,0,0,0,0,0,0,0,0,0,0,0,0,0,0,0,0,0,0,0,0,0,0,0,0,0,0,0,0,0,0,0,0,0,0,0,0,0,0,0,0,0,0,0,0,0,0,0,0,0,0,0,0,0,0,0,0,0,0,0,0,0,0,0,0,0,0,0,0,0,0,0,0,0,0,0,0,0,0,0,0,0,0,0,0,0,0,0,0,0,0,0,0,0,0,0,0,0,0,0],"split_type":[0,0,0,0,0,0,0,0,0,0,0,0,0,0,0,0,0,0,0,0,0,0,0,0,0,0,0,0,0,0,0,0,0,0,0,0,0,0,0,0,0,0,0,0,0,0,0,0,0,0,0,0,0,0,0,0,0,0,0,0,0,0,0,0,0,0,0,0,0,0,0,0,0,0,0,0,0,0,0,0,0,0,0,0,0,0,0,0,0,0,0,0,0,0,0,0,0,0,0,0,0,0,0,0,0,0,0,0,0,0,0,0,0,0,0,0,0,0,0,0,0,0,0,0,0,0,0,0,0,0,0,0,0,0,0,0,0,0,0,0,0,0,0,0,0,0,0,0,0,0,0,0,0,0,0,0,0,0,0,0,0,0,0,0,0,0,0,0,0,0,0,0,0,0,0,0,0,0,0,0,0,0,0,0,0,0,0,0,0,0,0,0,0,0,0,0,0,0,0,0,0,0,0,0,0,0,0,0,0,0,0,0,0,0,0,0,0,0,0,0,0,0,0,0,0,0,0,0,0,0,0,0,0,0,0,0,0,0,0,0,0,0,0,0,0,0,0,0,0],"sum_hessian":[4.6077E4,2.3077E4,2.3E4,1.8341E4,4.736E3,1.1818E4,1.1182E4,4.398E3,1.3943E4,1.377E3,3.359E3,9.497E3,2.321E3,8.922E3,2.26E3,1.697E3,2.701E3,8.322E3,5.621E3,5.15E2,8.62E2,1.319E3,2.04E3,4.776E3,4.721E3,1.174E3,1.147E3,4.408E3,4.514E3,8.12E2,1.448E3,8.54E2,8.43E2,1.356E3,1.345E3,4.239E3,4.083E3,2.766E3,2.855E3,3.94E2,1.21E2,1.7E2,6.92E2,9.47E2,3.72E2,1.048E3,9.92E2,1.191E3,3.585E3,2.38E3,2.341E3,4.94E2,6.8E2,4.22E2,7.25E2,7.21E2,3.687E3,1.715E3,2.799E3,1.18E2,6.94E2,7.13E2,7.35E2,1.94E2,6.6E2,4.19E2,4.24E2,1.214E3,1.42E2,8.28E2,5.17E2,1.537E3,2.702E3,2.31E3,1.773E3,2.232E3,5.34E2,2.277E3,5.78E2,1.3E2,2.64E2,5.5E1,6.6E1,6.9E1,1.01E2,4.27E2,2.65E2,2.43E2,7.04E2,1.3E2,2.42E2,8.98E2,1.5E2,3.64E2,6.28E2,7.9E2,4.01E2,2.257E3,1.328E3,1.809E3,5.71E2,2.09E3,2.51E2,3.57E2,1.37E2,2.68E2,4.12E2,2.24E2,1.98E2,1.97E2,5.28E2,2.53E2,4.68E2,2.552E3,1.135E3,1.686E3,2.9E1,2.502E3,2.97E2,4.9E1,6.9E1,6.02E2,9.2E1,6.72E2,4.1E1,3.95E2,3.4E2,1.17E2,7.7E1,5.6E2,1E2,3.31E2,8.8E1,3.49E2,7.5E1,1.25E2,1.089E3,6.6E1,7.6E1,5.2E2,3.08E2,3.81E2,1.36E2,1.16E3,3.77E2,2.293E3,4.09E2,1.31E3,1E3,1.54E3,2.33E2,1.278E3,9.54E2,1.38E2,3.96E2,6.74E2,1.603E3,2.38E2,3.4E2,9.9E1,3.1E1,9.5E1,1.69E2,2.6E1,2.9E1,3E1,3.6E1,4E1,2.9E1,3.6E1,6.5E1,3.83E2,4.4E1,8.1E1,1.84E2,4.1E1,2.02E2,2.68E2,4.36E2,7.4E1,5.6E1,2.16E2,2.6E1,4.91E2,4.07E2,1.17E2,3.3E1,2.98E2,6.6E1,3E1,5.98E2,5.53E2,2.37E2,3.72E2,2.9E1,1.846E3,4.11E2,6.77E2,6.51E2,2E2,1.609E3,1.16E2,4.55E2,5.12E2,1.578E3,1.85E2,6.6E1,2.46E2,1.11E2,1.11E2,2.6E1,3.6E1,2.32E2,2.47E2,1.65E2,1.31E2,9.3E1,5.3E1,1.45E2,3.4E1,1.63E2,1.45E2,3.83E2,2.02E2,5.1E1,3.02E2,1.66E2,1.003E3,1.549E3,6.09E2,5.26E2,8.6E2,8.26E2,7.08E2,1.794E3,4.8E1,2.49E2,4.4E1,2.5E1,4.33E2,1.69E2,6.4E1,2.8E1,3.84E2,2.88E2,1.16E2,2.79E2,1.7E2,1.7E2],"tree_param":{"num_deleted":"0","num_feature":"38","num_nodes":"249","size_leaf_vector":"1"}},{"base_weights":[-9.92803E-4,-1.4971358E-1,9.77327E-2,-2.6073626E-1,-3.892756E-2,-6.005709E-3,1.6802324E-1,-1.956876E-1,-4.5250246E-1,2.4857946E-2,-1.6700615E-1,1.2027501E-1,-6.009996E-2,2.583932E-1,1.2595423E-1,-2.629766E-1,-1.2867397E-1,-4.0160957E-1,-6.629546E-1,-4.3694455E-2,9.069526E-2,-2.556397E-1,-8.0209054E-2,4.1733824E-2,1.995898E-1,-1.457498E-1,2.549974E-2,2.1702796E-1,3.007922E-1,5.6197215E-2,1.9481696E-1,-7.2157747E-1,-2.4525307E-1,-6.841419E-2,-2.168164E-1,-6.1284477E-1,-3.4920007E-1,-4.2755693E-1,-8.143168E-1,-7.801609E-2,1.2119942E-1,1.71566E-2,1.528969E-1,-3.2019356E-1,-8.971509E-2,-1.7312239E-1,1.2927672E-2,-4.6237703E-2,1.3294075E-1,-9.348587E-2,2.1456945E-1,-2.8750935E-1,-7.2982386E-2,-3.0201366E-2,1.4292377E-1,1.838583E-1,2.7963415E-1,3.1572562E-1,2.1721995E-1,-2.1681236E-2,1.3281612E-1,1.597663E-1,2.724535E-1,-8.436941E-1,-2.3804571E-2,-1.6567181E-1,-3.6918503E-1,-2.6431528E-1,-2.8132915E-2,-5.689516E-1,-1.9894111E-1,-8.23864E-1,-4.2525586E-1,-4.6051756E-1,-2.5686625E-1,-5.46593E-1,1.5837645E-2,-1.0451429E0,-5.6174827E-1,1.3323903E-1,-1.11831695E-1,1.6750197E-1,-1.1773128E-1,8.626709E-2,-9.4177425E-2,3.5313413E-1,1.2368819E-1,-3.878059E-1,-1.3897072E-1,-1.4341049E-1,2.2194901E-1,-3.5329476E-2,-2.508375E-1,-2.1654812E-1,4.6465598E-2,2.8938783E-2,-1.1032121E-1,5.718465E-2,2.3217179E-1,7.061994E-2,-3.9583858E-2,3.6045152E-1,1.8447965E-1,-2.4777241E-1,-5.7048637E-1,-2.3184645E-1,-5.1861133E-2,9.912308E-3,-2.1547298E-1,1.9882683E-1,9.51027E-3,2.5408313E-1,1.2061639E-1,3.6440033E-1,2.0083188E-1,3.036273E-1,4.2929348E-1,3.0311516E-1,1.4641368E-1,-3.997288E-2,2.9954258E-1,9.476609E-2,2.7270097E-1,1.0600234E-1,2.156323E-1,3.1907016E-1,2.3817155E-1,-1.156758E-1,-5.383389E-2,-5.465801E-3,-2.4502896E-2,-4.8178747E-2,-2.5442569E-2,-3.1712368E-2,2.342664E-2,9.1224415E-3,-6.063137E-3,-7.470857E-2,-2.5931364E-2,-1.7437585E-2,-4.3268193E-2,-1.0674566E-1,-6.194919E-2,-9.680869E-3,-5.125041E-2,-4.921092E-2,-1.2481572E-2,1.2078549E-2,-2.986515E-2,-3.679933E-2,-8.204651E-2,-8.985493E-2,-1.5624738E-1,-7.488852E-2,-7.419833E-3,3.8431368E-3,2.9771877E-2,-1.5636874E-2,1.3022171E-3,5.2049853E-2,1.4384732E-2,-3.740098E-2,2.8857177E-3,-5.40399E-3,1.3446003E-2,-1.0378192E-3,-3.688805E-2,3.8105607E-2,1.4356735E-2,2.760365E-2,9.294635E-3,-3.0177388E-2,-4.802717E-2,-6.219104E-3,-5.5823784E-2,-5.0385524E-2,-8.03641E-3,4.4242986E-2,-1.9916054E-3,2.3647058E-3,-4.5052588E-2,-1.5983371E-2,-4.811054E-2,-3.9324235E-2,2.6920104E-2,4.0612236E-2,2.3843755E-3,-3.2257445E-3,2.1347145E-2,-2.1788381E-2,-1.6138855E-3,1.2215027E-2,-1.146645E-2,7.2407075E-3,3.0153958E-2,-1.0860851E-2,2.4092523E-2,4.130701E-2,2.1479039E-2,9.784141E-3,2.1253679E-2,-4.1505497E-2,-1.7510267E-2,-1.1725352E-1,-3.9059434E-2,-7.6254725E-2,-1.709575E-2,-1.0824278E-2,5.5091706E-4,4.0134448E-3,-1.4081259E-2,-2.854663E-2,7.825426E-3,8.238458E-3,2.429291E-2,-1.5781593E-2,9.930626E-3,2.7716016E-2,-2.4648109E-3,5.8993576E-3,1.8305581E-2,3.9105635E-2,2.008529E-2,8.597812E-3,2.7092416E-2,3.202884E-2,2.4821406E-2,3.723924E-2,4.8875537E-2,-3.8077608E-3,3.9599665E-2,8.832027E-3,4.0417373E-2,-1.17390824E-4,-2.1267807E-2,3.813183E-2,-1.3921516E-3,1.4096649E-2,-1.9549343E-3,1.9403484E-2,3.423744E-2,1.3906452E-2,-5.084164E-4,2.7591912E-2,1.7976133E-2,2.8776063E-2,3.924782E-2,1.4268005E-2,2.8996319E-2],"categories":[],"categories_nodes":[],"categories_segments":[],"categories_sizes":[],"default_left":[0,0,0,0,0,0,0,0,0,0,0,0,0,0,0,0,0,0,0,0,0,0,0,0,0,0,0,0,0,0,0,0,0,0,0,0,0,0,0,0,0,0,0,0,0,0,0,0,0,0,0,0,0,0,0,0,0,0,0,0,0,0,0,0,0,0,0,0,0,0,0,0,0,0,0,0,0,0,0,0,0,0,0,0,0,0,0,0,0,0,0,0,0,0,0,0,0,0,0,0,0,0,0,0,0,0,0,0,0,0,0,0,0,0,0,0,0,0,0,0,0,0,0,0,0,0,0,0,0,0,0,0,0,0,0,0,0,0,0,0,0,0,0,0,0,0,0,0,0,0,0,0,0,0,0,0,0,0,0,0,0,0,0,0,0,0,0,0,0,0,0,0,0,0,0,0,0,0,0,0,0,0,0,0,0,0,0,0,0,0,0,0,0,0,0,0,0,0,0,0,0,0,0,0,0,0,0,0,0,0,0,0,0,0,0,0,0,0,0,0,0,0,0,0,0,0,0,0,0,0,0,0,0,0,0,0,0,0,0,0,0,0,0,0,0,0,0,0,0],"id":6,"left_children":[1,3,5,7,9,11,13,15,17,19,21,23,25,27,29,31,33,35,37,39,41,43,45,47,49,51,53,55,57,59,61,63,65,67,69,71,73,75,77,79,81,83,85,87,89,91,93,95,97,99,101,103,105,107,109,111,113,115,117,119,121,123,125,127,-1,129,131,133,135,137,139,141,143,145,147,149,-1,151,153,155,157,159,161,163,165,167,169,171,173,175,177,179,181,183,185,187,189,191,193,195,-1,197,199,201,203,205,207,209,211,213,215,217,219,221,223,225,227,229,231,233,235,237,239,241,243,245,247,-1,-1,-1,-1,-1,-1,-1,-1,-1,-1,-1,-1,-1,-1,-1,-1,-1,-1,-1,-1,-1,-1,-1,-1,-1,-1,-1,-1,-1,-1,-1,-1,-1,-1,-1,-1,-1,-1,-1,-1,-1,-1,-1,-1,-1,-1,-1,-1,-1,-1,-1,-1,-1,-1,-1,-1,-1,-1,-1,-1,-1,-1,-1,-1,-1,-1,-1,-1,-1,-1,-1,-1,-1,-1,-1,-1,-1,-1,-1,-1,-1,-1,-1,-1,-1,-1,-1,-1,-1,-1,-1,-1,-1,-1,-1,-1,-1,-1,-1,-1,-1,-1,-1,-1,-1,-1,-1,-1,-1,-1,-1,-1,-1,-1,-1,-1,-1,-1,-1,-1,-1,-1],"loss_changes":[6.777164E2,2.2650226E2,2.0229092E2,1.146485E2,7.5319305E1,7.65561E1,6.2837433E1,3.0944916E1,2.4678528E1,2.7783363E1,2.3558952E1,2.0928947E1,5.7527466E1,9.145905E0,5.4203125E1,2.7677765E1,1.8277775E1,2.0576843E1,1.5756729E1,1.7078289E1,1.4360445E1,1.6209267E1,1.3415388E1,1.3566055E1,7.36042E0,4.0436333E1,2.5676361E1,5.47657E0,3.1650238E0,3.34656E1,1.5410217E1,7.2981567E0,3.249547E1,1.614574E1,8.686546E0,1.4375214E1,1.5371216E1,1.257132E1,1.5386948E1,1.7852768E1,5.772533E0,1.1087986E1,9.904911E0,1.3314018E1,7.1609087E0,8.301004E0,5.9745717E0,4.151123E0,6.2261286E0,4.0966167E0,6.9172974E0,1.48140335E1,8.688548E0,1.9793354E1,9.417841E0,7.7102814E0,6.0722046E0,2.8869019E0,2.3640594E0,1.6358202E1,1.5021214E1,1.1736153E1,2.7446747E0,9.032433E0,0E0,1.7711796E1,1.6547043E1,9.263218E0,6.595831E0,3.5017967E0,7.572773E0,8.001045E0,5.653015E0,7.1714478E0,1.307058E1,6.986183E0,0E0,9.364929E0,1.2079166E1,5.3684664E0,1.1974056E1,3.565731E0,3.204028E0,6.0185113E0,1.270316E1,1.2092209E0,6.933979E0,6.171356E0,9.558258E0,8.231312E0,3.368388E0,6.891457E0,1.031691E1,8.602938E0,5.498455E0,4.4900894E0,4.7071657E0,5.2835493E0,3.9567928E0,1.6744385E0,0E0,1.9883499E0,3.1903152E0,1.4125961E1,1.719553E1,9.693035E0,7.4079046E0,9.981603E0,9.767275E0,4.5504646E0,5.6351047E0,5.3134727E0,3.5252295E0,1.8483658E0,3.8328304E0,1.7559204E0,5.251274E-1,5.655987E0,3.2436457E0,1.7642916E1,3.8503723E0,1.1748631E1,3.2440567E0,7.3352127E0,4.100334E0,1.5993423E0,5.008148E0,0E0,0E0,0E0,0E0,0E0,0E0,0E0,0E0,0E0,0E0,0E0,0E0,0E0,0E0,0E0,0E0,0E0,0E0,0E0,0E0,0E0,0E0,0E0,0E0,0E0,0E0,0E0,0E0,0E0,0E0,0E0,0E0,0E0,0E0,0E0,0E0,0E0,0E0,0E0,0E0,0E0,0E0,0E0,0E0,0E0,0E0,0E0,0E0,0E0,0E0,0E0,0E0,0E0,0E0,0E0,0E0,0E0,0E0,0E0,0E0,0E0,0E0,0E0,0E0,0E0,0E0,0E0,0E0,0E0,0E0,0E0,0E0,0E0,0E0,0E0,0E0,0E0,0E0,0E0,0E0,0E0,0E0,0E0,0E0,0E0,0E0,0E0,0E0,0E0,0E0,0E0,0E0,0E0,0E0,0E0,0E0,0E0,0E0,0E0,0E0,0E0,0E0,0E0,0E0,0E0,0E0,0E0,0E0,0E0,0E0,0E0,0E0,0E0,0E0,0E0,0E0,0E0,0E0,0E0,0E0,0E0,0E0],"parents":[2147483647,0,0,1,1,2,2,3,3,4,4,5,5,6,6,7,7,8,8,9,9,10,10,11,11,12,12,13,13,14,14,15,15,16,16,17,17,18,18,19,19,20,20,21,21,22,22,23,23,24,24,25,25,26,26,27,27,28,28,29,29,30,30,31,31,32,32,33,33,34,34,35,35,36,36,37,37,38,38,39,39,40,40,41,41,42,42,43,43,44,44,45,45,46,46,47,47,48,48,49,49,50,50,51,51,52,52,53,53,54,54,55,55,56,56,57,57,58,58,59,59,60,60,61,61,62,62,63,63,65,65,66,66,67,67,68,68,69,69,70,70,71,71,72,72,73,73,74,74,75,75,77,77,78,78,79,79,80,80,81,81,82,82,83,83,84,84,85,85,86,86,87,87,88,88,89,89,90,90,91,91,92,92,93,93,94,94,95,95,96,96,97,97,98,98,99,99,101,101,102,102,103,103,104,104,105,105,106,106,107,107,108,108,109,109,110,110,111,111,112,112,113,113,114,114,115,115,116,116,117,117,118,118,119,119,120,120,121,121,122,122,123,123,124,124,125,125,126,126],"right_children":[2,4,6,8,10,12,14,16,18,20,22,24,26,28,30,32,34,36,38,40,42,44,46,48,50,52,54,56,58,60,62,64,66,68,70,72,74,76,78,80,82,84,86,88,90,92,94,96,98,100,102,104,106,108,110,112,114,116,118,120,122,124,126,128,-1,130,132,134,136,138,140,142,144,146,148,150,-1,152,154,156,158,160,162,164,166,168,170,172,174,176,178,180,182,184,186,188,190,192,194,196,-1,198,200,202,204,206,208,210,212,214,216,218,220,222,224,226,228,230,232,234,236,238,240,242,244,246,248,-1,-1,-1,-1,-1,-1,-1,-1,-1,-1,-1,-1,-1,-1,-1,-1,-1,-1,-1,-1,-1,-1,-1,-1,-1,-1,-1,-1,-1,-1,-1,-1,-1,-1,-1,-1,-1,-1,-1,-1,-1,-1,-1,-1,-1,-1,-1,-1,-1,-1,-1,-1,-1,-1,-1,-1,-1,-1,-1,-1,-1,-1,-1,-1,-1,-1,-1,-1,-1,-1,-1,-1,-1,-1,-1,-1,-1,-1,-1,-1,-1,-1,-1,-1,-1,-1,-1,-1,-1,-1,-1,-1,-1,-1,-1,-1,-1,-1,-1,-1,-1,-1,-1,-1,-1,-1,-1,-1,-1,-1,-1,-1,-1,-1,-1,-1,-1,-1,-1,-1,-1,-1],"split_conditions":[-1.703505E-1,9.698916E-3,-2.420225E-1,7.1039826E-1,4.5440304E-1,-5.183788E-1,-4.6717978E-1,-8.6775804E-1,1E0,1E0,1E0,8.757608E-1,1E0,8.757608E-1,8.757608E-1,-2.0400326E0,-1.0878645E-1,-1.2848684E0,-4.250807E-1,1.4121468E0,6.5698254E-1,8.0693424E-1,-8.6775804E-1,1E0,-2.0040724E0,5.2705705E-1,1.2244645E0,8.727438E-1,1E0,1E0,9.08704E-1,9.6057254E-1,1.9431484E-3,-1.392749E0,-1.5744593E0,-1.7699765E-1,-8.6775804E-1,-6.2700874E-1,1E0,-1.3375635E0,1E0,6.0748744E-1,-1.3887626E0,1.088505E0,1.2252643E0,8.844948E-2,-1.2847172E0,-1.1327673E0,-7.4546534E-1,4.9965766E-1,-1.2956518E0,1.4271849E0,-1.6804307E0,1.1711897E0,8.1279635E-1,8.844948E-2,-1.0303693E0,1.6638682E0,3.4796846E-1,1.8436693E0,1.1604254E0,1E0,6.0748744E-1,1.811718E-1,-2.3804571E-2,-4.6717978E-1,-5.297041E-1,1.5732951E0,-1.2863644E0,5.2920264E-1,1.426888E0,-8.6775804E-1,-1.3821582E0,1.4783839E0,-1.4686644E0,1.9431484E-3,1.5837645E-2,1E0,-3.139429E-1,-1.5935588E0,-5.190543E-1,-1.4976401E0,1.5919478E0,-1.2164618E0,4.4810683E-2,1E0,-4.3058848E-1,1.0175925E0,1.1845744E0,-1.111636E0,2E0,1.3062587E0,1.3759859E0,1.2323458E0,-1.1404829E0,9.364913E-1,2.9324678E-1,-7.74374E-1,-5.3511214E-1,1E0,-3.9583858E-2,1E0,-1.1769878E0,-1.1769878E0,-1.0367253E0,-1.2109516E0,1.2244645E0,1.466762E0,1E0,-1.1769878E0,-1.0691072E0,1.4983065E0,1E0,1.5590571E0,-2.6812842E-1,1.1265254E0,1E0,-2.6261287E-2,1.2294395E0,1.2995381E0,1.1711897E0,9.1519445E-1,-1.1446928E-3,1.0687916E0,1.9840781E-1,7.301151E-1,1.2323458E0,-1.156758E-1,-5.383389E-2,-5.465801E-3,-2.4502896E-2,-4.8178747E-2,-2.5442569E-2,-3.1712368E-2,2.342664E-2,9.1224415E-3,-6.063137E-3,-7.470857E-2,-2.5931364E-2,-1.7437585E-2,-4.3268193E-2,-1.0674566E-1,-6.194919E-2,-9.680869E-3,-5.125041E-2,-4.921092E-2,-1.2481572E-2,1.2078549E-2,-2.986515E-2,-3.679933E-2,-8.204651E-2,-8.985493E-2,-1.5624738E-1,-7.488852E-2,-7.419833E-3,3.8431368E-3,2.9771877E-2,-1.5636874E-2,1.3022171E-3,5.2049853E-2,1.4384732E-2,-3.740098E-2,2.8857177E-3,-5.40399E-3,1.3446003E-2,-1.0378192E-3,-3.688805E-2,3.8105607E-2,1.4356735E-2,2.760365E-2,9.294635E-3,-3.0177388E-2,-4.802717E-2,-6.219104E-3,-5.5823784E-2,-5.0385524E-2,-8.03641E-3,4.4242986E-2,-1.9916054E-3,2.3647058E-3,-4.5052588E-2,-1.5983371E-2,-4.811054E-2,-3.9324235E-2,2.6920104E-2,4.0612236E-2,2.3843755E-3,-3.2257445E-3,2.1347145E-2,-2.1788381E-2,-1.6138855E-3,1.2215027E-2,-1.146645E-2,7.2407075E-3,3.0153958E-2,-1.0860851E-2,2.4092523E-2,4.130701E-2,2.1479039E-2,9.784141E-3,2.1253679E-2,-4.1505497E-2,-1.7510267E-2,-1.1725352E-1,-3.9059434E-2,-7.6254725E-2,-1.709575E-2,-1.0824278E-2,5.5091706E-4,4.0134448E-3,-1.4081259E-2,-2.854663E-2,7.825426E-3,8.238458E-3,2.429291E-2,-1.5781593E-2,9.930626E-3,2.7716016E-2,-2.4648109E-3,5.8993576E-3,1.8305581E-2,3.9105635E-2,2.008529E-2,8.597812E-3,2.7092416E-2,3.202884E-2,2.4821406E-2,3.723924E-2,4.8875537E-2,-3.8077608E-3,3.9599665E-2,8.832027E-3,4.0417373E-2,-1.17390824E-4,-2.1267807E-2,3.813183E-2,-1.3921516E-3,1.4096649E-2,-1.9549343E-3,1.9403484E-2,3.423744E-2,1.3906452E-2,-5.084164E-4,2.7591912E-2,1.7976133E-2,2.8776063E-2,3.924782E-2,1.4268005E-2,2.8996319E-2],"split_indices":[17,14,14,12,12,12,12,17,29,34,34,17,34,17,17,14,12,14,4,14,14,19,17,34,14,17,17,14,23,34,14,19,3,14,19,4,17,4,34,12,23,3,12,14,16,3,4,12,14,19,3,12,14,12,12,3,12,14,3,14,14,34,3,16,0,12,14,16,12,16,4,17,3,12,3,3,0,37,14,12,17,19,14,17,12,25,3,12,4,4,6,19,12,14,4,4,13,12,0,27,0,37,14,14,19,16,17,13,30,14,14,19,34,3,0,3,34,14,19,3,12,12,0,12,12,19,14,0,0,0,0,0,0,0,0,0,0,0,0,0,0,0,0,0,0,0,0,0,0,0,0,0,0,0,0,0,0,0,0,0,0,0,0,0,0,0,0,0,0,0,0,0,0,0,0,0,0,0,0,0,0,0,0,0,0,0,0,0,0,0,0,0,0,0,0,0,0,0,0,0,0,0,0,0,0,0,0,0,0,0,0,0,0,0,0,0,0,0,0,0,0,0,0,0,0,0,0,0,0,0,0,0,0,0,0,0,0,0,0,0,0,0,0,0,0,0,0,0,0],"split_type":[0,0,0,0,0,0,0,0,0,0,0,0,0,0,0,0,0,0,0,0,0,0,0,0,0,0,0,0,0,0,0,0,0,0,0,0,0,0,0,0,0,0,0,0,0,0,0,0,0,0,0,0,0,0,0,0,0,0,0,0,0,0,0,0,0,0,0,0,0,0,0,0,0,0,0,0,0,0,0,0,0,0,0,0,0,0,0,0,0,0,0,0,0,0,0,0,0,0,0,0,0,0,0,0,0,0,0,0,0,0,0,0,0,0,0,0,0,0,0,0,0,0,0,0,0,0,0,0,0,0,0,0,0,0,0,0,0,0,0,0,0,0,0,0,0,0,0,0,0,0,0,0,0,0,0,0,0,0,0,0,0,0,0,0,0,0,0,0,0,0,0,0,0,0,0,0,0,0,0,0,0,0,0,0,0,0,0,0,0,0,0,0,0,0,0,0,0,0,0,0,0,0,0,0,0,0,0,0,0,0,0,0,0,0,0,0,0,0,0,0,0,0,0,0,0,0,0,0,0,0,0,0,0,0,0,0,0,0,0,0,0,0,0,0,0,0,0,0,0],"sum_hessian":[4.6156E4,1.8415E4,2.7741E4,9.197E3,9.218E3,1.1205E4,1.6536E4,6.869E3,2.328E3,6.154E3,3.064E3,3.36E3,7.845E3,5.251E3,1.1285E4,3.426E3,3.443E3,1.877E3,4.51E2,3.015E3,3.139E3,1.515E3,1.549E3,1.689E3,1.671E3,3.921E3,3.924E3,2.661E3,2.59E3,5.607E3,5.678E3,1.26E2,3.3E3,2.046E3,1.397E3,3.71E2,1.506E3,1.78E2,2.73E2,2.496E3,5.19E2,1.439E3,1.7E3,1.09E3,4.25E2,7.75E2,7.74E2,8.6E2,8.29E2,8.1E1,1.59E3,1.329E3,2.592E3,2.662E3,1.262E3,1.742E3,9.19E2,2.195E3,3.95E2,2.781E3,2.826E3,3.914E3,1.764E3,1E2,2.6E1,2.011E3,1.289E3,3.48E2,1.698E3,6.6E1,1.331E3,1.73E2,1.98E2,6.81E2,8.25E2,1.48E2,3E1,1.41E2,1.32E2,3.44E2,2.152E3,4.35E2,8.4E1,8.88E2,5.51E2,2.15E2,1.485E3,7.93E2,2.97E2,3.63E2,6.2E1,2.8E2,4.95E2,9.8E1,6.76E2,3.96E2,4.64E2,4.71E2,3.58E2,5.3E1,2.8E1,2.7E2,1.32E3,1.167E3,1.62E2,3.03E2,2.289E3,2.189E3,4.73E2,8.89E2,3.73E2,8.24E2,9.18E2,4.41E2,4.78E2,1.987E3,2.08E2,1.77E2,2.18E2,2.632E3,1.49E2,2.223E3,6.03E2,1.996E3,1.918E3,7.44E2,1.02E3,4.8E1,5.2E1,8.39E2,1.172E3,6.49E2,6.4E2,3.15E2,3.3E1,3.63E2,1.335E3,4.1E1,2.5E1,1.206E3,1.25E2,7.7E1,9.6E1,4.2E1,1.56E2,6.22E2,5.9E1,8.2E1,7.43E2,9.1E1,5.7E1,1.12E2,2.9E1,9.5E1,3.7E1,2.19E2,1.25E2,1.586E3,5.66E2,2.6E1,4.09E2,3E1,5.4E1,2.27E2,6.61E2,4.23E2,1.28E2,1.89E2,2.6E1,2.48E2,1.237E3,4.13E2,3.8E2,2.52E2,4.5E1,5.3E1,3.1E2,3.2E1,3E1,2.46E2,3.4E1,3.56E2,1.39E2,7.2E1,2.6E1,3.9E1,6.37E2,2.98E2,9.8E1,2.16E2,2.48E2,3.42E2,1.29E2,1.09E2,2.49E2,2.6E1,2.7E1,1.97E2,7.3E1,3.24E2,9.96E2,3.52E2,8.15E2,3.6E1,1.26E2,3E1,2.73E2,1.154E3,1.135E3,1.824E3,3.65E2,3.82E2,9.1E1,2.45E2,6.44E2,1.3E2,2.43E2,7.61E2,6.3E1,4.63E2,4.55E2,3.78E2,6.3E1,1.82E2,2.96E2,1.524E3,4.63E2,1.1E2,9.8E1,3.8E1,1.39E2,1.79E2,3.9E1,2.15E3,4.82E2,1.18E2,3.1E1,1.583E3,6.4E2,2.85E2,3.18E2,1.538E3,4.58E2,7.13E2,1.205E3,5.25E2,2.19E2,3.6E2,6.6E2],"tree_param":{"num_deleted":"0","num_feature":"38","num_nodes":"249","size_leaf_vector":"1"}},{"base_weights":[-3.4919428E-3,-2.1661694E-1,8.60968E-2,-3.573345E-1,-7.7629894E-2,-3.728248E-2,1.6834103E-1,-3.0340257E-1,-5.867071E-1,-1.6387932E-2,-3.1489286E-1,1.8202027E-2,-2.5363916E-1,9.390691E-2,2.5385684E-1,-1.9776602E-1,-4.0931374E-1,-5.3069687E-1,-1.1710765E0,-1.9300869E-1,3.620765E-2,-6.1429758E-2,-3.640298E-1,-5.7783835E-2,1.2593919E-1,-5.126422E-1,-1.444055E-1,1.3755935E-1,-7.968457E-2,2.865111E-1,1.2528686E-1,-4.5294943E-1,-1.5096502E-1,-6.6400504E-1,-3.688076E-1,