{"learner":{"attributes":{"best_iteration":"94","best_score":"0.73866015292675"},"feature_names":[],"feature_types":[],"gradient_booster":{"model":{"gbtree_model_param":{"num_parallel_tree":"1","num_trees":"145"},"iteration_indptr":[0,1,2,3,4,5,6,7,8,9,10,11,12,13,14,15,16,17,18,19,20,21,22,23,24,25,26,27,28,29,30,31,32,33,34,35,36,37,38,39,40,41,42,43,44,45,46,47,48,49,50,51,52,53,54,55,56,57,58,59,60,61,62,63,64,65,66,67,68,69,70,71,72,73,74,75,76,77,78,79,80,81,82,83,84,85,86,87,88,89,90,91,92,93,94,95,96,97,98,99,100,101,102,103,104,105,106,107,108,109,110,111,112,113,114,115,116,117,118,119,120,121,122,123,124,125,126,127,128,129,130,131,132,133,134,135,136,137,138,139,140,141,142,143,144,145],"tree_info":[0,0,0,0,0,0,0,0,0,0,0,0,0,0,0,0,0,0,0,0,0,0,0,0,0,0,0,0,0,0,0,0,0,0,0,0,0,0,0,0,0,0,0,0,0,0,0,0,0,0,0,0,0,0,0,0,0,0,0,0,0,0,0,0,0,0,0,0,0,0,0,0,0,0,0,0,0,0,0,0,0,0,0,0,0,0,0,0,0,0,0,0,0,0,0,0,0,0,0,0,0,0,0,0,0,0,0,0,0,0,0,0,0,0,0,0,0,0,0,0,0,0,0,0,0,0,0,0,0,0,0,0,0,0,0,0,0,0,0,0,0,0,0,0,0],"trees":[{"base_weights":[3.1452377E-3,2.2476585E-1,-2.1882834E-1,2.2500005E-2,3.6490273E-1,-4.2591095E-1,2.3850653E-2,1.037909E-1,-2.9935113E-1,4.2284513E-1,1.3850221E-1,-3.3327463E-1,-8.0839294E-1,9.6795306E-2,-2.5767845E-1,2.762175E-1,-6.644724E-3,-7.917829E-2,-4.3540817E-1,3.640723E-1,5.553225E-1,3.1529653E-1,2.5794825E-2,-5.194315E-1,-1.9235443E-1,-6.158451E-1,-9.531316E-1,-2.3990143E-2,2.1673597E-1,-3.7471896E-1,-3.110142E-3,1.0196459E-2,3.5539255E-2,-3.247087E-2,5.687497E-3,3.4457017E-3,-2.957097E-2,-5.949792E-2,-2.6270766E-2,4.403996E-2,2.5306774E-2,5.99581E-2,4.8535552E-2,1.8955074E-2,4.3391045E-2,1.1087488E-2,-1.683276E-2,-3.7447E-2,-6.990504E-2,-3.4356147E-2,-4.378268E-3,-7.95126E-2,-4.379566E-2,-1.0496546E-1,-6.7350134E-2,-2.232637E-2,5.1205135E-3,1.0682429E-2,3.2475837E-2,-5.5295587E-2,-2.4E-2,3.0581493E-2,-6.0989372E-3],"categories":[],"categories_nodes":[],"categories_segments":[],"categories_sizes":[],"default_left":[0,0,0,0,0,0,0,0,0,0,0,0,0,0,0,0,0,0,0,0,0,0,0,0,0,0,0,0,0,0,0,0,0,0,0,0,0,0,0,0,0,0,0,0,0,0,0,0,0,0,0,0,0,0,0,0,0,0,0,0,0,0,0],"id":0,"left_children":[1,3,5,7,9,11,13,15,17,19,21,23,25,27,29,31,33,35,37,39,41,43,45,47,49,51,53,55,57,59,61,-1,-1,-1,-1,-1,-1,-1,-1,-1,-1,-1,-1,-1,-1,-1,-1,-1,-1,-1,-1,-1,-1,-1,-1,-1,-1,-1,-1,-1,-1,-1,-1],"loss_changes":[1.9792681E3,5.706598E2,1.0101778E3,2.1564503E2,1.5595593E2,3.8402295E2,1.9010655E2,1.2529847E2,4.9752502E1,7.352429E1,4.831248E1,2.2899518E2,5.832837E1,1.0651426E2,5.6757935E1,3.540692E1,8.107422E1,1.5659361E1,2.8145752E1,5.5486267E1,8.713928E0,1.3997704E1,2.4495295E1,9.769263E1,1.116814E2,2.8673492E1,3.1816772E1,5.4914387E1,4.376454E1,3.1202835E1,1.0764739E1,0E0,0E0,0E0,0E0,0E0,0E0,0E0,0E0,0E0,0E0,0E0,0E0,0E0,0E0,0E0,0E0,0E0,0E0,0E0,0E0,0E0,0E0,0E0,0E0,0E0,0E0,0E0,0E0,0E0,0E0,0E0,0E0],"parents":[2147483647,0,0,1,1,2,2,3,3,4,4,5,5,6,6,7,7,8,8,9,9,10,10,11,11,12,12,13,13,14,14,15,15,16,16,17,17,18,18,19,19,20,20,21,21,22,22,23,23,24,24,25,25,26,26,27,27,28,28,29,29,30,30],"right_children":[2,4,6,8,10,12,14,16,18,20,22,24,26,28,30,32,34,36,38,40,42,44,46,48,50,52,54,56,58,60,62,-1,-1,-1,-1,-1,-1,-1,-1,-1,-1,-1,-1,-1,-1,-1,-1,-1,-1,-1,-1,-1,-1,-1,-1,-1,-1,-1,-1,-1,-1,-1,-1],"split_conditions":[8.3028555E-1,-2.367062E-1,1.1257387E-1,1E0,1E0,1E0,1E0,-8.397211E-1,-2.6238358E-1,9.109283E-1,-8.397211E-1,-7.356777E-1,-2.1118455E-1,1E0,1.1033379E0,-1.1348549E0,-1.484135E0,-2.830522E-1,1E0,-2.830522E-1,-2.830522E-1,5.6164825E-1,5.5680114E-1,1.4720878E-1,1E0,1E0,1.083721E0,4.3623787E-1,7.6123685E-1,-1.481684E-1,-1.0303693E0,1.0196459E-2,3.5539255E-2,-3.247087E-2,5.687497E-3,3.4457017E-3,-2.957097E-2,-5.949792E-2,-2.6270766E-2,4.403996E-2,2.5306774E-2,5.99581E-2,4.8535552E-2,1.8955074E-2,4.3391045E-2,1.1087488E-2,-1.683276E-2,-3.7447E-2,-6.990504E-2,-3.4356147E-2,-4.378268E-3,-7.95126E-2,-4.379566E-2,-1.0496546E-1,-6.7350134E-2,-2.232637E-2,5.1205135E-3,1.0682429E-2,3.2475837E-2,-5.5295587E-2,-2.4E-2,3.0581493E-2,-6.0989372E-3],"split_indices":[18,1,1,31,31,31,31,18,12,1,18,1,12,34,1,1,1,18,34,18,18,1,12,12,34,34,7,1,1,5,12,0,0,0,0,0,0,0,0,0,0,0,0,0,0,0,0,0,0,0,0,0,0,0,0,0,0,0,0,0,0,0,0],"split_type":[0,0,0,0,0,0,0,0,0,0,0,0,0,0,0,0,0,0,0,0,0,0,0,0,0,0,0,0,0,0,0,0,0,0,0,0,0,0,0,0,0,0,0,0,0,0,0,0,0,0,0,0,0,0,0,0,0,0,0,0,0,0,0],"sum_hessian":[4.0232E4,2.0132E4,2.01E4,8.24E3,1.1892E4,1.0845E4,9.255E3,6.579E3,1.661E3,9.468E3,2.424E3,8.732E3,2.113E3,7.351E3,1.904E3,2.568E3,4.011E3,6.35E2,1.026E3,6.561E3,2.907E3,9.43E2,1.481E3,3.761E3,4.971E3,9.09E2,1.204E3,3.663E3,3.688E3,1.304E3,6E2,8.03E2,1.765E3,6.67E2,3.344E3,4.17E2,2.18E2,5.32E2,4.94E2,3.886E3,2.675E3,1.776E3,1.131E3,4.59E2,4.84E2,1.03E3,4.51E2,2.083E3,1.678E3,2.463E3,2.508E3,4.51E2,4.58E2,8.93E2,3.11E2,1.003E3,2.66E3,1.829E3,1.859E3,5.6E2,7.44E2,9.4E1,5.06E2],"tree_param":{"num_deleted":"0","num_feature":"38","num_nodes":"63","size_leaf_vector":"1"}},{"base_weights":[-1.3307792E-3,-2.0514214E-1,2.0184499E-1,-4.5111927E-1,-3.988792E-2,-5.653742E-2,2.9420388E-1,-3.7542573E-1,-6.796687E-1,-1.049255E-1,2.1178736E-1,-1.9680128E-1,4.052799E-2,2.0966676E-1,3.9781743E-1,-4.4110265E-1,-1.2995668E-1,-1.0664989E0,-5.9214175E-1,-2.2270676E-2,-2.7554607E-1,2.748039E-1,6.318091E-2,-7.956207E-2,-3.466123E-1,-1.652148E-1,1.0036841E-1,8.796557E-2,2.9029754E-1,3.306057E-1,5.011908E-1,-4.9485918E-2,-1.7510062E-2,1.7319841E-2,-1.893388E-2,-1.1552713E-1,-6.0686696E-2,-5.4011036E-2,-8.719362E-2,-7.5062546E-3,1.9675119E-2,-3.7857633E-2,-1.0959043E-2,1.81661E-2,3.8291577E-2,2.0091362E-2,-2.6933483E-3,-2.0214248E-2,6.570644E-3,-6.267272E-2,-2.5223497E-2,-2.1338165E-3,-3.221854E-2,-1.3016387E-2,1.572721E-2,2.040958E-2,-1.2267553E-3,2.4803525E-2,4.4698857E-2,2.7520318E-2,4.689221E-2,5.4585706E-2,4.3974068E-2],"categories":[],"categories_nodes":[],"categories_segments":[],"categories_sizes":[],"default_left":[0,0,0,0,0,0,0,0,0,0,0,0,0,0,0,0,0,0,0,0,0,0,0,0,0,0,0,0,0,0,0,0,0,0,0,0,0,0,0,0,0,0,0,0,0,0,0,0,0,0,0,0,0,0,0,0,0,0,0,0,0,0,0],"id":1,"left_children":[1,3,5,7,9,11,13,15,17,19,21,23,25,27,29,31,33,35,37,39,41,43,45,47,49,51,53,55,57,59,61,-1,-1,-1,-1,-1,-1,-1,-1,-1,-1,-1,-1,-1,-1,-1,-1,-1,-1,-1,-1,-1,-1,-1,-1,-1,-1,-1,-1,-1,-1,-1,-1],"loss_changes":[1.670336E3,8.185261E2,4.820677E2,1.3973425E2,1.9719537E2,7.2438545E1,1.3026208E2,9.7978455E1,6.749103E1,1.349982E2,2.315081E1,3.8191093E1,3.8736996E1,8.041052E1,4.6281006E1,6.8507324E1,2.316535E1,1.4395905E1,2.3447998E1,7.459336E1,5.33741E1,1.7421783E1,9.165247E0,2.1773521E1,2.508876E1,1.6005463E1,3.1989372E1,3.8042336E1,3.2536194E1,3.0937103E1,6.984131E0,0E0,0E0,0E0,0E0,0E0,0E0,0E0,0E0,0E0,0E0,0E0,0E0,0E0,0E0,0E0,0E0,0E0,0E0,0E0,0E0,0E0,0E0,0E0,0E0,0E0,0E0,0E0,0E0,0E0,0E0,0E0,0E0],"parents":[2147483647,0,0,1,1,2,2,3,3,4,4,5,5,6,6,7,7,8,8,9,9,10,10,11,11,12,12,13,13,14,14,15,15,16,16,17,17,18,18,19,19,20,20,21,21,22,22,23,23,24,24,25,25,26,26,27,27,28,28,29,29,30,30],"right_children":[2,4,6,8,10,12,14,16,18,20,22,24,26,28,30,32,34,36,38,40,42,44,46,48,50,52,54,56,58,60,62,-1,-1,-1,-1,-1,-1,-1,-1,-1,-1,-1,-1,-1,-1,-1,-1,-1,-1,-1,-1,-1,-1,-1,-1,-1,-1,-1,-1,-1,-1,-1,-1],"split_conditions":[1.7835326E-1,-2.367062E-1,-6.358834E-1,7.1039826E-1,1.1852635E0,8.757608E-1,4.3623787E-1,1E0,-1.4342378E0,4.5440304E-1,5.0560206E-1,1.9840781E-1,-1.5340321E0,8.757608E-1,1.2244645E0,1.010369E0,-1.1839664E0,8.740704E-1,1E0,1E0,-5.190543E-1,1.2442861E-1,-3.6738694E-1,1.9257787E-1,-1.484135E0,9.600973E-2,-8.2966095E-1,-5.7587408E-2,1E0,1.3600026E0,1.9840781E-1,-4.9485918E-2,-1.7510062E-2,1.7319841E-2,-1.893388E-2,-1.1552713E-1,-6.0686696E-2,-5.4011036E-2,-8.719362E-2,-7.5062546E-3,1.9675119E-2,-3.7857633E-2,-1.0959043E-2,1.81661E-2,3.8291577E-2,2.0091362E-2,-2.6933483E-3,-2.0214248E-2,6.570644E-3,-6.267272E-2,-2.5223497E-2,-2.1338165E-3,-3.221854E-2,-1.3016387E-2,1.572721E-2,2.040958E-2,-1.2267553E-3,2.4803525E-2,4.4698857E-2,2.7520318E-2,4.689221E-2,5.4585706E-2,4.3974068E-2],"split_indices":[17,1,1,12,1,17,1,33,1,12,12,12,1,17,17,5,12,5,29,33,17,5,4,5,1,12,5,12,33,1,12,0,0,0,0,0,0,0,0,0,0,0,0,0,0,0,0,0,0,0,0,0,0,0,0,0,0,0,0,0,0,0,0],"split_type":[0,0,0,0,0,0,0,0,0,0,0,0,0,0,0,0,0,0,0,0,0,0,0,0,0,0,0,0,0,0,0,0,0,0,0,0,0,0,0,0,0,0,0,0,0,0,0,0,0,0,0,0,0,0,0,0,0,0,0,0,0,0,0],"sum_hessian":[4.0335E4,2.0136E4,2.0199E4,8.091E3,1.2045E4,5.319E3,1.488E4,6.08E3,2.011E3,9.572E3,2.473E3,2.175E3,3.144E3,8.196E3,6.684E3,4.796E3,1.284E3,3.69E2,1.642E3,6.449E3,3.123E3,1.736E3,7.37E2,1.221E3,9.54E2,7.08E2,2.436E3,3.267E3,4.929E3,4.053E3,2.631E3,3.989E3,8.07E2,2.1E2,1.074E3,3.08E2,6.1E1,1.387E3,2.55E2,5.197E3,1.252E3,1.926E3,1.197E3,9.34E2,8.02E2,2.91E2,4.46E2,6.62E2,5.59E2,2.39E2,7.15E2,3.7E2,3.38E2,4.82E2,1.954E3,1.513E3,1.754E3,3.884E3,1.045E3,2.896E3,1.157E3,1.519E3,1.112E3],"tree_param":{"num_deleted":"0","num_feature":"38","num_nodes":"63","size_leaf_vector":"1"}},{"base_weights":[-2.5635776E-3,-1.8563579E-1,1.8168405E-1,-1.1291523E-1,-4.7944435E-1,2.411986E-1,-4.9193826E-2,-2.4041918E-1,1.6010296E-2,-6.5982556E-1,-3.2134464E-1,1.4337076E-1,3.386174E-1,-1.8908377E-1,4.617981E-2,-4.1049355E-1,-1.1645483E-1,-1.6274746E-1,7.863719E-2,-8.7435323E-1,-4.4089282E-1,-4.9067593E-1,-2.2367105E-1,1.8196735E-3,2.3485395E-1,1.502024E-1,3.715977E-1,-3.2706136E-1,-5.8435474E-2,-9.937181E-2,1.4612085E-1,-5.8855593E-2,-3.170972E-2,-2.1558956E-3,-3.153918E-2,-1.9796854E-2,1.5722597E-2,6.9941845E-5,1.978883E-2,-2.2701375E-2,-9.439056E-2,-6.804743E-2,-2.9622022E-2,-5.7296444E-2,-2.7396658E-3,-3.4109306E-2,-1.0312046E-2,-9.271956E-3,1.5077968E-2,1.3809477E-2,2.97763E-2,5.4209847E-3,2.9337663E-2,4.4534914E-2,2.9423213E-2,-6.319941E-2,-2.5814265E-2,-4.61055E-2,-1.5924886E-3,1.8840818E-2,-1.7038438E-2,2.1204451E-2,-1.5981887E-3],"categories":[],"categories_nodes":[],"categories_segments":[],"categories_sizes":[],"default_left":[0,0,0,0,0,0,0,0,0,0,0,0,0,0,0,0,0,0,0,0,0,0,0,0,0,0,0,0,0,0,0,0,0,0,0,0,0,0,0,0,0,0,0,0,0,0,0,0,0,0,0,0,0,0,0,0,0,0,0,0,0,0,0],"id":2,"left_children":[1,3,5,7,9,11,13,15,17,19,21,23,25,27,29,31,33,35,37,39,41,43,45,47,49,51,53,55,57,59,61,-1,-1,-1,-1,-1,-1,-1,-1,-1,-1,-1,-1,-1,-1,-1,-1,-1,-1,-1,-1,-1,-1,-1,-1,-1,-1,-1,-1,-1,-1,-1,-1],"loss_changes":[1.3599174E3,4.32029E2,2.761153E2,2.6650507E2,1.14203064E2,1.5220709E2,5.496366E1,1.7180096E2,9.026723E1,8.758392E1,3.5284134E1,1.0324631E2,4.968091E1,3.0085201E1,3.5653645E1,5.6955322E1,8.902324E1,2.3607563E1,5.5495323E1,4.2333435E1,3.1998383E1,2.9796127E1,1.9201866E1,4.410649E1,2.9438354E1,1.6394026E1,3.8731323E1,1.6901497E1,1.469495E1,2.0427223E1,1.5530737E1,0E0,0E0,0E0,0E0,0E0,0E0,0E0,0E0,0E0,0E0,0E0,0E0,0E0,0E0,0E0,0E0,0E0,0E0,0E0,0E0,0E0,0E0,0E0,0E0,0E0,0E0,0E0,0E0,0E0,0E0,0E0,0E0],"parents":[2147483647,0,0,1,1,2,2,3,3,4,4,5,5,6,6,7,7,8,8,9,9,10,10,11,11,12,12,13,13,14,14,15,15,16,16,17,17,18,18,19,19,20,20,21,21,22,22,23,23,24,24,25,25,26,26,27,27,28,28,29,29,30,30],"right_children":[2,4,6,8,10,12,14,16,18,20,22,24,26,28,30,32,34,36,38,40,42,44,46,48,50,52,54,56,58,60,62,-1,-1,-1,-1,-1,-1,-1,-1,-1,-1,-1,-1,-1,-1,-1,-1,-1,-1,-1,-1,-1,-1,-1,-1,-1,-1,-1,-1,-1,-1,-1,-1],"split_conditions":[1.7835326E-1,1E0,1E0,1E0,-6.222149E-2,1E0,-2.060623E-1,-2.060623E-1,-6.3758475E-1,1E0,-2.2543044E-1,-2.420225E-1,-1.033147E0,1E0,8.757608E-1,-3.5261616E-1,4.5440304E-1,1.2829659E0,-5.190543E-1,-1.3375635E0,-2.2543044E-1,1.0785182E0,1E0,1.2244645E0,8.757608E-1,1.2244645E0,4.4810683E-2,-1.4287091E0,-1.3748549E0,-8.767721E-1,6.0800016E-1,-5.8855593E-2,-3.170972E-2,-2.1558956E-3,-3.153918E-2,-1.9796854E-2,1.5722597E-2,6.9941845E-5,1.978883E-2,-2.2701375E-2,-9.439056E-2,-6.804743E-2,-2.9622022E-2,-5.7296444E-2,-2.7396658E-3,-3.4109306E-2,-1.0312046E-2,-9.271956E-3,1.5077968E-2,1.3809477E-2,2.97763E-2,5.4209847E-3,2.9337663E-2,4.4534914E-2,2.9423213E-2,-6.319941E-2,-2.5814265E-2,-4.61055E-2,-1.5924886E-3,1.8840818E-2,-1.7038438E-2,2.1204451E-2,-1.5981887E-3],"split_indices":[17,31,31,34,14,34,14,14,14,34,7,14,14,34,17,5,12,5,17,12,7,5,34,17,17,17,12,14,5,12,12,0,0,0,0,0,0,0,0,0,0,0,0,0,0,0,0,0,0,0,0,0,0,0,0,0,0,0,0,0,0,0,0],"split_type":[0,0,0,0,0,0,0,0,0,0,0,0,0,0,0,0,0,0,0,0,0,0,0,0,0,0,0,0,0,0,0,0,0,0,0,0,0,0,0,0,0,0,0,0,0,0,0,0,0,0,0,0,0,0,0,0,0,0,0,0,0,0,0],"sum_hessian":[4.0315E4,2.0222E4,2.0093E4,1.6211E4,4.011E3,1.5975E4,4.118E3,8.15E3,8.061E3,1.872E3,2.139E3,7.972E3,8.003E3,1.669E3,2.449E3,3.435E3,4.715E3,2.091E3,5.97E3,9.44E2,9.28E2,7.81E2,1.358E3,3.13E3,4.842E3,1.193E3,6.81E3,8.11E2,8.58E2,9.97E2,1.452E3,1.18E3,2.255E3,3.193E3,1.522E3,1.884E3,2.07E2,3.611E3,2.359E3,9.2E1,8.52E2,3.48E2,5.8E2,6.63E2,1.18E2,6.87E2,6.71E2,1.915E3,1.215E3,1.909E3,2.933E3,7.15E2,4.78E2,3.484E3,3.326E3,1.48E2,6.63E2,8.1E1,7.77E2,1.97E2,8E2,1.032E3,4.2E2],"tree_param":{"num_deleted":"0","num_feature":"38","num_nodes":"63","size_leaf_vector":"1"}},{"base_weights":[1.367954E-3,1.6688742E-1,-1.6404495E-1,9.872258E-3,2.7329636E-1,-3.383627E-1,2.637513E-2,7.577903E-2,-2.450204E-1,3.1980357E-1,9.075507E-2,-2.566204E-1,-6.807082E-1,9.1228515E-2,-2.2714408E-1,-4.004026E-2,1.8746403E-1,-7.372809E-2,-3.46487E-1,2.505844E-1,3.907705E-1,2.506058E-1,-8.588685E-3,-3.8555995E-1,-1.2704314E-1,-8.537897E-1,-4.983819E-1,1.8624602E-2,2.2748305E-1,-3.180163E-1,3.2046158E-2,-2.2423327E-2,5.0005405E-3,2.6686817E-2,7.2230035E-3,-1.5272567E-2,1.3643931E-2,-1.5839648E-2,-4.7093563E-2,3.290571E-2,1.819793E-2,4.7535714E-2,3.364255E-2,1.9242097E-2,4.533276E-2,-1.5285085E-2,9.493495E-3,-2.4963936E-2,-5.7140596E-2,-4.4110265E-2,-7.898706E-3,-6.4838134E-2,-1.004529E-1,-4.4705175E-2,-9.8344706E-2,-8.385122E-3,1.21708065E-2,3.9188277E-2,1.7099833E-2,-2.028319E-2,-5.3963363E-2,-1.4444743E-3,4.7068376E-2],"categories":[],"categories_nodes":[],"categories_segments":[],"categories_sizes":[],"default_left":[0,0,0,0,0,0,0,0,0,0,0,0,0,0,0,0,0,0,0,0,0,0,0,0,0,0,0,0,0,0,0,0,0,0,0,0,0,0,0,0,0,0,0,0,0,0,0,0,0,0,0,0,0,0,0,0,0,0,0,0,0,0,0],"id":3,"left_children":[1,3,5,7,9,11,13,15,17,19,21,23,25,27,29,31,33,35,37,39,41,43,45,47,49,51,53,55,57,59,61,-1,-1,-1,-1,-1,-1,-1,-1,-1,-1,-1,-1,-1,-1,-1,-1,-1,-1,-1,-1,-1,-1,-1,-1,-1,-1,-1,-1,-1,-1,-1,-1],"loss_changes":[1.1046079E3,3.3692712E2,6.698225E2,1.3688126E2,1.0201465E2,2.9463782E2,1.5859975E2,8.375049E1,2.9069313E1,4.6956665E1,3.8781532E1,1.420661E2,6.3635864E1,7.598093E1,4.629222E1,5.2737408E1,3.0139305E1,1.0380932E1,2.452681E1,2.6061432E1,2.1574036E1,1.0953205E1,2.2520868E1,1.0754205E2,6.40176E1,3.1550293E1,2.4234726E1,5.295478E1,2.4726791E1,3.7032135E1,1.0427447E1,0E0,0E0,0E0,0E0,0E0,0E0,0E0,0E0,0E0,0E0,0E0,0E0,0E0,0E0,0E0,0E0,0E0,0E0,0E0,0E0,0E0,0E0,0E0,0E0,0E0,0E0,0E0,0E0,0E0,0E0,0E0,0E0],"parents":[2147483647,0,0,1,1,2,2,3,3,4,4,5,5,6,6,7,7,8,8,9,9,10,10,11,11,12,12,13,13,14,14,15,15,16,16,17,17,18,18,19,19,20,20,21,21,22,22,23,23,24,24,25,25,26,26,27,27,28,28,29,29,30,30],"right_children":[2,4,6,8,10,12,14,16,18,20,22,24,26,28,30,32,34,36,38,40,42,44,46,48,50,52,54,56,58,60,62,-1,-1,-1,-1,-1,-1,-1,-1,-1,-1,-1,-1,-1,-1,-1,-1,-1,-1,-1,-1,-1,-1,-1,-1,-1,-1,-1,-1,-1,-1,-1,-1],"split_conditions":[8.3028555E-1,-2.367062E-1,6.267672E-2,1E0,1E0,1E0,1E0,1E0,-3.1358263E-1,1E0,-8.397211E-1,1E0,1E0,9.791984E-1,1.1852635E0,-1.1648028E0,-2.830522E-1,-5.626684E-1,-8.397211E-1,-5.7587408E-2,-8.397211E-1,1.1604141E0,4.0742558E-1,2.4960686E-1,-1.484135E0,-2.1118455E-1,1.3759859E0,1E0,-6.71976E-1,4.03204E-1,2.3080485E0,-2.2423327E-2,5.0005405E-3,2.6686817E-2,7.2230035E-3,-1.5272567E-2,1.3643931E-2,-1.5839648E-2,-4.7093563E-2,3.290571E-2,1.819793E-2,4.7535714E-2,3.364255E-2,1.9242097E-2,4.533276E-2,-1.5285085E-2,9.493495E-3,-2.4963936E-2,-5.7140596E-2,-4.4110265E-2,-7.898706E-3,-6.4838134E-2,-1.004529E-1,-4.4705175E-2,-9.8344706E-2,-8.385122E-3,1.21708065E-2,3.9188277E-2,1.7099833E-2,-2.028319E-2,-5.3963363E-2,-1.4444743E-3,4.7068376E-2],"split_indices":[18,1,1,31,31,31,31,34,12,34,18,34,34,1,1,1,18,1,18,12,18,1,1,12,1,12,12,34,12,12,1,0,0,0,0,0,0,0,0,0,0,0,0,0,0,0,0,0,0,0,0,0,0,0,0,0,0,0,0,0,0,0,0],"split_type":[0,0,0,0,0,0,0,0,0,0,0,0,0,0,0,0,0,0,0,0,0,0,0,0,0,0,0,0,0,0,0,0,0,0,0,0,0,0,0,0,0,0,0,0,0,0,0,0,0,0,0,0,0,0,0,0,0,0,0,0,0,0,0],"sum_hessian":[4.0343E4,2.0165E4,2.0178E4,8.146E3,1.2019E4,1.0534E4,9.644E3,6.473E3,1.673E3,9.578E3,2.441E3,8.505E3,2.029E3,7.68E3,1.964E3,3.178E3,3.295E3,6.23E2,1.05E3,4.851E3,4.727E3,9.35E2,1.506E3,4.262E3,4.243E3,1.039E3,9.9E2,5.011E3,2.669E3,1.454E3,5.1E2,1.043E3,2.135E3,1.95E3,1.345E3,4.53E2,1.7E2,4.19E2,6.31E2,2.261E3,2.59E3,1.846E3,2.881E3,7.28E2,2.07E2,6.29E2,8.77E2,2.463E3,1.799E3,5.62E2,3.681E3,4.42E2,5.97E2,8.97E2,9.3E1,2.513E3,2.498E3,6.81E2,1.988E3,9.58E2,4.96E2,4.62E2,4.8E1],"tree_param":{"num_deleted":"0","num_feature":"38","num_nodes":"63","size_leaf_vector":"1"}},{"base_weights":[-8.444288E-5,-1.21058695E-1,1.8129027E-1,-2.6175204E-1,5.850211E-2,-7.4025616E-2,2.3100969E-1,-1.9539562E-1,-5.3575754E-1,1.05685495E-1,-1.2299261E-1,-1.5082904E-2,-2.9551563E-1,2.7754235E-1,5.158718E-2,-3.115485E-1,-7.746161E-2,-6.817909E-1,-3.9466438E-1,1.846527E-2,1.9244523E-1,-2.2330949E-1,4.6536237E-2,-1.1345164E-1,8.301554E-2,-8.706676E-2,-3.770916E-1,2.2362714E-1,3.726922E-1,-2.169721E-2,2.5583068E-1,-4.878806E-2,-2.1066172E-2,-2.3226868E-2,1.08850494E-4,-8.487614E-2,-5.4693766E-2,-7.0856206E-2,-3.3136293E-2,-8.661545E-3,1.2238906E-2,1.45855695E-2,3.248834E-2,-3.9839685E-2,-1.2454358E-2,-3.731709E-3,2.0426525E-2,-4.043724E-2,-6.963879E-3,-1.2981812E-3,1.739848E-2,3.6139708E-2,-2.3964358E-2,-4.4289414E-2,-9.042883E-3,1.4565997E-2,2.9942963E-2,3.125781E-2,4.3107737E-2,-1.27737075E-2,8.159204E-3,2.0419149E-2,3.632765E-2],"categories":[],"categories_nodes":[],"categories_segments":[],"categories_sizes":[],"default_left":[0,0,0,0,0,0,0,0,0,0,0,0,0,0,0,0,0,0,0,0,0,0,0,0,0,0,0,0,0,0,0,0,0,0,0,0,0,0,0,0,0,0,0,0,0,0,0,0,0,0,0,0,0,0,0,0,0,0,0,0,0,0,0],"id":4,"left_children":[1,3,5,7,9,11,13,15,17,19,21,23,25,27,29,31,33,35,37,39,41,43,45,47,49,51,53,55,57,59,61,-1,-1,-1,-1,-1,-1,-1,-1,-1,-1,-1,-1,-1,-1,-1,-1,-1,-1,-1,-1,-1,-1,-1,-1,-1,-1,-1,-1,-1,-1,-1,-1],"loss_changes":[8.80212E2,6.079696E2,2.0377106E2,2.4522546E2,9.055525E1,3.416106E1,1.1215466E2,1.4879501E2,5.3920227E1,6.3500427E1,3.71188E1,1.9965246E1,9.319595E0,5.4643738E1,4.1436592E1,9.725964E1,6.556758E1,2.8604614E1,2.6391235E1,4.5723335E1,2.5910767E1,2.365863E1,1.0747217E1,1.3138526E1,9.049448E0,1.0760935E1,7.4108925E0,4.0216003E1,1.3402405E1,2.2332186E1,3.9817085E0,0E0,0E0,0E0,0E0,0E0,0E0,0E0,0E0,0E0,0E0,0E0,0E0,0E0,0E0,0E0,0E0,0E0,0E0,0E0,0E0,0E0,0E0,0E0,0E0,0E0,0E0,0E0,0E0,0E0,0E0,0E0,0E0],"parents":[2147483647,0,0,1,1,2,2,3,3,4,4,5,5,6,6,7,7,8,8,9,9,10,10,11,11,12,12,13,13,14,14,15,15,16,16,17,17,18,18,19,19,20,20,21,21,22,22,23,23,24,24,25,25,26,26,27,27,28,28,29,29,30,30],"right_children":[2,4,6,8,10,12,14,16,18,20,22,24,26,28,30,32,34,36,38,40,42,44,46,48,50,52,54,56,58,60,62,-1,-1,-1,-1,-1,-1,-1,-1,-1,-1,-1,-1,-1,-1,-1,-1,-1,-1,-1,-1,-1,-1,-1,-1,-1,-1,-1,-1,-1,-1,-1,-1],"split_conditions":[5.2705705E-1,1.407653E-1,-9.851635E-1,1E0,1E0,1E0,1E0,1E0,-5.190543E-1,1E0,9.791984E-1,1.2244645E0,-6.5234995E-1,5.0208604E-1,8.11134E-1,-8.3547205E-1,-8.6775804E-1,-6.358834E-1,-1.3344436E0,-5.190543E-1,1.083721E0,-2.2543044E-1,1.6593856E0,-1.098198E0,1E0,-8.0585927E-1,1E0,1E0,2.109534E-1,1E0,1.5096941E0,-4.878806E-2,-2.1066172E-2,-2.3226868E-2,1.08850494E-4,-8.487614E-2,-5.4693766E-2,-7.0856206E-2,-3.3136293E-2,-8.661545E-3,1.2238906E-2,1.45855695E-2,3.248834E-2,-3.9839685E-2,-1.2454358E-2,-3.731709E-3,2.0426525E-2,-4.043724E-2,-6.963879E-3,-1.2981812E-3,1.739848E-2,3.6139708E-2,-2.3964358E-2,-4.4289414E-2,-9.042883E-3,1.4565997E-2,2.9942963E-2,3.125781E-2,4.3107737E-2,-1.27737075E-2,8.159204E-3,2.0419149E-2,3.632765E-2],"split_indices":[17,1,1,31,31,31,31,34,17,34,1,17,11,1,1,1,17,1,1,17,7,7,1,7,34,4,23,34,7,34,1,0,0,0,0,0,0,0,0,0,0,0,0,0,0,0,0,0,0,0,0,0,0,0,0,0,0,0,0,0,0,0,0],"split_type":[0,0,0,0,0,0,0,0,0,0,0,0,0,0,0,0,0,0,0,0,0,0,0,0,0,0,0,0,0,0,0,0,0,0,0,0,0,0,0,0,0,0,0,0,0,0,0,0,0,0,0,0,0,0,0,0,0,0,0,0,0,0,0],"sum_hessian":[4.0114E4,2.4064E4,1.605E4,1.3492E4,1.0572E4,2.616E3,1.3434E4,1.0863E4,2.629E3,8.391E3,2.181E3,2.067E3,5.49E2,1.0667E4,2.767E3,5.472E3,5.391E3,1.29E3,1.339E3,4.185E3,4.206E3,1.37E3,8.11E2,1.032E3,1.035E3,1.55E2,3.94E2,6.811E3,3.856E3,2.037E3,7.3E2,1.99E3,3.482E3,1.814E3,3.577E3,5.74E2,7.16E2,2.23E2,1.116E3,2.081E3,2.104E3,3.113E3,1.093E3,4.93E2,8.77E2,5.3E2,2.81E2,1.34E2,8.98E2,5.04E2,5.31E2,3.9E1,1.16E2,3.2E2,7.4E1,3.359E3,3.452E3,1.903E3,1.953E3,1.005E3,1.032E3,4.95E2,2.35E2],"tree_param":{"num_deleted":"0","num_feature":"38","num_nodes":"63","size_leaf_vector":"1"}},{"base_weights":[-2.948186E-4,-1.7267576E-1,1.1378134E-1,-4.257756E-1,-6.94693E-2,-7.007743E-2,1.9108959E-1,-4.8146436E-1,-2.1550499E-1,-1.6460352E-1,3.1301945E-2,-1.760109E-1,4.0340178E-2,1.2320908E-1,2.6996234E-1,-5.704559E-1,-3.3199424E-1,-3.1835985E-1,-6.2637195E-2,-2.6896843E-1,-5.986121E-2,-3.9860025E-2,1.1015397E-1,-3.5606465E-1,-9.779878E-2,-6.394438E-2,1.1994684E-1,4.0245105E-2,2.0535377E-1,2.2567627E-1,3.566551E-1,-8.67597E-2,-5.316466E-2,-4.4235233E-2,-2.2572802E-2,-3.9533116E-2,-1.6823253E-2,1.3323875E-2,-1.6449286E-2,-3.7585046E-2,-1.8682716E-2,-1.7004382E-2,4.0298104E-3,-1.448233E-2,2.3429052E-3,7.4940803E-3,2.9687447E-2,-5.2399553E-2,-2.4591595E-2,-2.2404628E-2,-2.6777834E-3,-2.6951754E-2,-1.6937802E-3,-4.117811E-3,1.5982507E-2,-1.8971916E-3,1.3567435E-2,1.6616862E-2,2.8735185E-2,7.6863915E-3,2.6002914E-2,3.210602E-2,4.1475628E-2],"categories":[],"categories_nodes":[],"categories_segments":[],"categories_sizes":[],"default_left":[0,0,0,0,0,0,0,0,0,0,0,0,0,0,0,0,0,0,0,0,0,0,0,0,0,0,0,0,0,0,0,0,0,0,0,0,0,0,0,0,0,0,0,0,0,0,0,0,0,0,0,0,0,0,0,0,0,0,0,0,0,0,0],"id":5,"left_children":[1,3,5,7,9,11,13,15,17,19,21,23,25,27,29,31,33,35,37,39,41,43,45,47,49,51,53,55,57,59,61,-1,-1,-1,-1,-1,-1,-1,-1,-1,-1,-1,-1,-1,-1,-1,-1,-1,-1,-1,-1,-1,-1,-1,-1,-1,-1,-1,-1,-1,-1,-1,-1],"loss_changes":[7.915573E2,4.186987E2,3.4431427E2,5.4264465E1,1.09179565E2,8.388571E1,9.126709E1,4.862732E1,1.5294449E1,6.402019E1,3.1040302E1,5.1506706E1,2.9163399E1,6.2465317E1,3.0199951E1,2.6050415E1,1.5990051E1,6.658798E0,7.862688E0,2.5688614E1,3.2286606E1,1.932132E1,1.7230604E1,2.0366226E1,2.2884754E1,1.4693299E1,1.2805933E1,2.5782597E1,1.4751816E1,2.6680664E1,5.3783264E0,0E0,0E0,0E0,0E0,0E0,0E0,0E0,0E0,0E0,0E0,0E0,0E0,0E0,0E0,0E0,0E0,0E0,0E0,0E0,0E0,0E0,0E0,0E0,0E0,0E0,0E0,0E0,0E0,0E0,0E0,0E0,0E0],"parents":[2147483647,0,0,1,1,2,2,3,3,4,4,5,5,6,6,7,7,8,8,9,9,10,10,11,11,12,12,13,13,14,14,15,15,16,16,17,17,18,18,19,19,20,20,21,21,22,22,23,23,24,24,25,25,26,26,27,27,28,28,29,29,30,30],"right_children":[2,4,6,8,10,12,14,16,18,20,22,24,26,28,30,32,34,36,38,40,42,44,46,48,50,52,54,56,58,60,62,-1,-1,-1,-1,-1,-1,-1,-1,-1,-1,-1,-1,-1,-1,-1,-1,-1,-1,-1,-1,-1,-1,-1,-1,-1,-1,-1,-1,-1,-1,-1,-1],"split_conditions":[-1.703505E-1,-5.360891E-1,-5.626684E-1,8.740704E-1,4.0742558E-1,8.757608E-1,4.6185395E-1,6.4733726E-1,-9.4645065E-1,2.109534E-1,5.6279358E-2,-4.8891467E-1,-1.1348549E0,8.757608E-1,1.2244645E0,-1.8833122E0,-8.6775804E-1,1E0,1.1466674E0,-1.481684E-1,-8.0019146E-2,-2.2543044E-1,1.6593856E0,-1.1847521E0,-2.2543044E-1,-8.978102E-1,-8.2966095E-1,3.2887638E-1,1.5731684E0,-8.978102E-1,6.4733726E-1,-8.67597E-2,-5.316466E-2,-4.4235233E-2,-2.2572802E-2,-3.9533116E-2,-1.6823253E-2,1.3323875E-2,-1.6449286E-2,-3.7585046E-2,-1.8682716E-2,-1.7004382E-2,4.0298104E-3,-1.448233E-2,2.3429052E-3,7.4940803E-3,2.9687447E-2,-5.2399553E-2,-2.4591595E-2,-2.2404628E-2,-2.6777834E-3,-2.6951754E-2,-1.6937802E-3,-4.117811E-3,1.5982507E-2,-1.8971916E-3,1.3567435E-2,1.6616862E-2,2.8735185E-2,7.6863915E-3,2.6002914E-2,3.210602E-2,4.1475628E-2],"split_indices":[17,1,1,5,1,17,1,7,1,7,5,5,1,17,17,1,17,20,5,5,5,7,1,1,7,5,5,5,17,5,7,0,0,0,0,0,0,0,0,0,0,0,0,0,0,0,0,0,0,0,0,0,0,0,0,0,0,0,0,0,0,0,0],"split_type":[0,0,0,0,0,0,0,0,0,0,0,0,0,0,0,0,0,0,0,0,0,0,0,0,0,0,0,0,0,0,0,0,0,0,0,0,0,0,0,0,0,0,0,0,0,0,0,0,0,0,0,0,0,0,0,0,0,0,0,0,0,0,0],"sum_hessian":[4.0251E4,1.6029E4,2.4222E4,4.642E3,1.1387E4,7.17E3,1.7052E4,3.669E3,9.73E2,5.857E3,5.53E3,3.659E3,3.511E3,9.166E3,7.886E3,2.298E3,1.371E3,5.81E2,3.92E2,2.933E3,2.924E3,2.907E3,2.623E3,1.107E3,2.552E3,1.52E3,1.991E3,4.561E3,4.605E3,5.222E3,2.664E3,2.63E2,2.035E3,6.71E2,7E2,3.83E2,1.98E2,1.34E2,2.58E2,1.273E3,1.66E3,1.392E3,1.532E3,1.093E3,1.814E3,2.208E3,4.15E2,4.37E2,6.7E2,9.18E2,1.634E3,2.82E2,1.238E3,3.95E2,1.596E3,2.815E3,1.746E3,3.118E3,1.487E3,9.8E2,4.242E3,1.656E3,1.008E3],"tree_param":{"num_deleted":"0","num_feature":"38","num_nodes":"63","size_leaf_vector":"1"}},{"base_weights":[-3.2008423E-3,-1.5380603E-1,9.635366E-2,-3.380564E-1,-4.9477708E-2,-1.9494735E-2,1.89142E-1,-4.626006E-1,-2.0947336E-1,3.5390076E-3,-2.5176427E-1,3.67067E-2,-2.4042004E-1,2.3103122E-1,2.6900444E-2,-1.8301278E-1,-5.38477E-1,-1.5470585E-1,-4.3655375E-1,6.832986E-2,-1.3526055E-1,-4.1000444E-1,-1.1959002E-1,-5.4412447E-2,1.2956789E-1,-3.6850113E-1,-1.0820275E-1,1.6265957E-1,3.020501E-1,1.0150558E-1,-1.734382E-1,-2.7710235E-2,2.241382E-2,-9.739156E-2,-5.055393E-2,-5.360398E-3,-2.393984E-2,-3.6210243E-2,-1.1812701E-1,2.364829E-3,2.2929749E-2,-2.1745004E-2,1.7994283E-3,-3.162102E-2,-6.9836386E-2,-2.5835088E-2,7.7092124E-4,-1.420697E-2,3.27475E-3,9.6760085E-4,1.8827599E-2,-6.808934E-2,-2.8680576E-2,-8.52331E-3,-6.2266763E-2,1.3080172E-2,3.149331E-2,2.7199516E-2,3.888745E-2,8.787143E-4,1.9321052E-2,-2.9858878E-2,7.7553946E-3],"categories":[],"categories_nodes":[],"categories_segments":[],"categories_sizes":[],"default_left":[0,0,0,0,0,0,0,0,0,0,0,0,0,0,0,0,0,0,0,0,0,0,0,0,0,0,0,0,0,0,0,0,0,0,0,0,0,0,0,0,0,0,0,0,0,0,0,0,0,0,0,0,0,0,0,0,0,0,0,0,0,0,0],"id":6,"left_children":[1,3,5,7,9,11,13,15,17,19,21,23,25,27,29,31,33,35,37,39,41,43,45,47,49,51,53,55,57,59,61,-1,-1,-1,-1,-1,-1,-1,-1,-1,-1,-1,-1,-1,-1,-1,-1,-1,-1,-1,-1,-1,-1,-1,-1,-1,-1,-1,-1,-1,-1,-1,-1],"loss_changes":[6.0517944E2,3.0875476E2,2.6121365E2,9.289801E1,1.100028E2,1.3420439E2,9.169446E1,6.2461853E1,3.5488777E1,7.3103874E1,4.4500504E1,7.291921E1,3.7080635E1,5.2023193E1,4.141883E1,2.4234879E1,3.2767517E1,1.9723907E1,3.0344284E1,3.985423E1,3.2589603E1,2.5987183E1,2.052774E1,3.3239532E1,3.003901E1,2.820961E1,1.2709372E1,2.647496E1,1.3617615E1,1.7165329E1,2.3644836E1,0E0,0E0,0E0,0E0,0E0,0E0,0E0,0E0,0E0,0E0,0E0,0E0,0E0,0E0,0E0,0E0,0E0,0E0,0E0,0E0,0E0,0E0,0E0,0E0,0E0,0E0,0E0,0E0,0E0,0E0,0E0,0E0],"parents":[2147483647,0,0,1,1,2,2,3,3,4,4,5,5,6,6,7,7,8,8,9,9,10,10,11,11,12,12,13,13,14,14,15,15,16,16,17,17,18,18,19,19,20,20,21,21,22,22,23,23,24,24,25,25,26,26,27,27,28,28,29,29,30,30],"right_children":[2,4,6,8,10,12,14,16,18,20,22,24,26,28,30,32,34,36,38,40,42,44,46,48,50,52,54,56,58,60,62,-1,-1,-1,-1,-1,-1,-1,-1,-1,-1,-1,-1,-1,-1,-1,-1,-1,-1,-1,-1,-1,-1,-1,-1,-1,-1,-1,-1,-1,-1,-1,-1],"split_conditions":[-1.703505E-1,-3.365005E-1,-1.5660368E-1,1E0,1E0,1E0,1E0,-7.74374E-1,1E0,5.0560206E-1,4.119568E-1,8.757608E-1,1E0,1E0,6.0800016E-1,1E0,-1.9831065E0,-1.0878645E-1,1.3759859E0,1.1604141E0,7.6123685E-1,7.6159734E-1,1E0,1E0,-1.0350606E0,-1.3344436E0,1.6831801E0,1.3600026E0,1E0,1E0,1.2244645E0,-2.7710235E-2,2.241382E-2,-9.739156E-2,-5.055393E-2,-5.360398E-3,-2.393984E-2,-3.6210243E-2,-1.1812701E-1,2.364829E-3,2.2929749E-2,-2.1745004E-2,1.7994283E-3,-3.162102E-2,-6.9836386E-2,-2.5835088E-2,7.7092124E-4,-1.420697E-2,3.27475E-3,9.6760085E-4,1.8827599E-2,-6.808934E-2,-2.8680576E-2,-8.52331E-3,-6.2266763E-2,1.3080172E-2,3.149331E-2,2.7199516E-2,3.888745E-2,8.787143E-4,1.9321052E-2,-2.9858878E-2,7.7553946E-3],"split_indices":[17,1,1,34,31,31,31,12,31,12,1,17,34,34,12,33,1,12,12,1,1,12,34,34,1,1,12,1,33,34,17,0,0,0,0,0,0,0,0,0,0,0,0,0,0,0,0,0,0,0,0,0,0,0,0,0,0,0,0,0,0,0,0],"split_type":[0,0,0,0,0,0,0,0,0,0,0,0,0,0,0,0,0,0,0,0,0,0,0,0,0,0,0,0,0,0,0,0,0,0,0,0,0,0,0,0,0,0,0,0,0,0,0,0,0,0,0,0,0,0,0,0,0,0,0,0,0,0,0],"sum_hessian":[4.0361E4,1.6062E4,2.4299E4,5.806E3,1.0256E4,1.0807E4,1.3492E4,2.948E3,2.858E3,8.127E3,2.129E3,8.616E3,2.191E3,1.0723E4,2.769E3,6.3E2,2.318E3,2.304E3,5.54E2,5.541E3,2.586E3,9.68E2,1.161E3,4.349E3,4.267E3,1.112E3,1.079E3,5.465E3,5.258E3,2.018E3,7.51E2,5.12E2,1.18E2,1.61E2,2.157E3,1.051E3,1.253E3,5.05E2,4.9E1,4.338E3,1.203E3,1.683E3,9.03E2,7.32E2,2.36E2,5.55E2,6.06E2,2.168E3,2.181E3,1.403E3,2.864E3,2.29E2,8.83E2,1.034E3,4.5E1,4.521E3,9.44E2,3.909E3,1.349E3,1.004E3,1.014E3,5.01E2,2.5E2],"tree_param":{"num_deleted":"0","num_feature":"38","num_nodes":"63","size_leaf_vector":"1"}},{"base_weights":[-3.6199526E-3,-9.988686E-2,1.4116259E-1,-3.082542E-1,-2.6617795E-2,-4.8114568E-2,1.8144096E-1,-4.2025706E-1,-1.9032528E-1,2.387209E-2,-2.2226231E-1,-3.8234365E-1,-1.5023172E-2,2.1538743E-1,4.9381077E-2,-3.813326E-1,-8.661905E-1,-2.500988E-1,3.623621E-2,-4.2131536E-2,1.2508826E-1,-3.5320505E-1,-9.394422E-2,-2.668591E-1,-6.2712693E-1,-1.16441846E-1,7.941761E-2,1.5592049E-1,2.751404E-1,1.4317235E-1,-9.0236455E-2,-4.763252E-2,-2.0925244E-2,-9.862966E-2,-4.0277325E-2,-4.4940792E-2,-1.622596E-2,7.920636E-3,-4.069166E-2,-1.84848E-2,2.8038707E-3,1.8195843E-2,3.4410178E-3,-2.4327086E-2,-5.5634886E-2,-2.7465273E-2,5.591387E-4,-4.006439E-2,1.6633188E-2,-8.857986E-2,-4.1105505E-2,-2.958574E-2,-1.0295527E-3,1.3007102E-2,-2.381484E-2,7.0369574E-3,2.1698583E-2,3.2703277E-2,2.1088399E-2,5.7019447E-3,2.3630323E-2,-1.8290032E-2,1.1232401E-2],"categories":[],"categories_nodes":[],"categories_segments":[],"categories_sizes":[],"default_left":[0,0,0,0,0,0,0,0,0,0,0,0,0,0,0,0,0,0,0,0,0,0,0,0,0,0,0,0,0,0,0,0,0,0,0,0,0,0,0,0,0,0,0,0,0,0,0,0,0,0,0,0,0,0,0,0,0,0,0,0,0,0,0],"id":7,"left_children":[1,3,5,7,9,11,13,15,17,19,21,23,25,27,29,31,33,35,37,39,41,43,45,47,49,51,53,55,57,59,61,-1,-1,-1,-1,-1,-1,-1,-1,-1,-1,-1,-1,-1,-1,-1,-1,-1,-1,-1,-1,-1,-1,-1,-1,-1,-1,-1,-1,-1,-1,-1,-1],"loss_changes":[5.629327E2,3.703511E2,1.22980255E2,8.3278015E1,1.7730676E2,3.1305416E1,5.9612823E1,5.5839294E1,4.1665405E1,9.5324554E1,6.1832962E1,7.0411606E0,2.4691904E1,3.75513E1,3.5644157E1,4.8579712E1,1.4018494E1,4.253949E1,1.2276456E1,8.649998E1,2.9037277E1,4.0554398E1,3.3475212E1,1.0208656E1,4.1631165E0,2.366902E1,2.1505522E1,2.7699097E1,1.7523407E1,1.3048775E1,2.0554962E1,0E0,0E0,0E0,0E0,0E0,0E0,0E0,0E0,0E0,0E0,0E0,0E0,0E0,0E0,0E0,0E0,0E0,0E0,0E0,0E0,0E0,0E0,0E0,0E0,0E0,0E0,0E0,0E0,0E0,0E0,0E0,0E0],"parents":[2147483647,0,0,1,1,2,2,3,3,4,4,5,5,6,6,7,7,8,8,9,9,10,10,11,11,12,12,13,13,14,14,15,15,16,16,17,17,18,18,19,19,20,20,21,21,22,22,23,23,24,24,25,25,26,26,27,27,28,28,29,29,30,30],"right_children":[2,4,6,8,10,12,14,16,18,20,22,24,26,28,30,32,34,36,38,40,42,44,46,48,50,52,54,56,58,60,62,-1,-1,-1,-1,-1,-1,-1,-1,-1,-1,-1,-1,-1,-1,-1,-1,-1,-1,-1,-1,-1,-1,-1,-1,-1,-1,-1,-1,-1,-1,-1,-1],"split_conditions":[5.2705705E-1,-6.358834E-1,-9.352663E-1,1E0,1E0,-1.3748549E0,1E0,1.4271849E0,1E0,5.1453984E-1,1E0,4.5440304E-1,1E0,1E0,3.008059E-1,3.9702561E-1,1E0,-4.8891467E-1,1.4783839E0,-8.6775804E-1,3.008059E-1,4.03204E-1,-2.2543044E-1,8.3051604E-1,-1.0691072E0,-1.484135E0,1.1711897E0,6.267672E-2,1.4720878E-1,2.6226532E-1,7.0005137E-1,-4.763252E-2,-2.0925244E-2,-9.862966E-2,-4.0277325E-2,-4.4940792E-2,-1.622596E-2,7.920636E-3,-4.069166E-2,-1.84848E-2,2.8038707E-3,1.8195843E-2,3.4410178E-3,-2.4327086E-2,-5.5634886E-2,-2.7465273E-2,5.591387E-4,-4.006439E-2,1.6633188E-2,-8.857986E-2,-4.1105505E-2,-2.958574E-2,-1.0295527E-3,1.3007102E-2,-2.381484E-2,7.0369574E-3,2.1698583E-2,3.2703277E-2,2.1088399E-2,5.7019447E-3,2.3630323E-2,-1.8290032E-2,1.1232401E-2],"split_indices":[17,1,1,34,31,5,31,12,33,1,34,12,34,34,12,5,33,5,12,17,12,12,7,10,14,1,12,1,12,1,1,0,0,0,0,0,0,0,0,0,0,0,0,0,0,0,0,0,0,0,0,0,0,0,0,0,0,0,0,0,0,0,0],"split_type":[0,0,0,0,0,0,0,0,0,0,0,0,0,0,0,0,0,0,0,0,0,0,0,0,0,0,0,0,0,0,0,0,0,0,0,0,0,0,0,0,0,0,0,0,0,0,0,0,0,0,0,0,0,0,0,0,0,0,0,0,0,0,0],"sum_hessian":[4.0387E4,2.4258E4,1.6129E4,6.31E3,1.7948E4,2.83E3,1.3299E4,3.235E3,3.075E3,1.4267E4,3.681E3,2.54E2,2.576E3,1.0579E4,2.72E3,2.977E3,2.58E2,2.433E3,6.42E2,8.636E3,5.631E3,1.821E3,1.86E3,1.74E2,8E1,1.242E3,1.334E3,5.304E3,5.275E3,1.627E3,1.093E3,1.917E3,1.06E3,2.04E2,5.4E1,7.43E2,1.69E3,5.86E2,5.6E1,2.846E3,5.79E3,3.46E3,2.171E3,1.183E3,6.38E2,6.6E2,1.2E3,1.33E2,4.1E1,3.5E1,4.5E1,4.61E2,7.81E2,1.151E3,1.83E2,2.21E3,3.094E3,2.916E3,2.359E3,8.46E2,7.81E2,7.5E2,3.43E2],"tree_param":{"num_deleted":"0","num_feature":"38","num_nodes":"63","size_leaf_vector":"1"}},{"base_weights":[3.1849495E-3,1.2507847E-1,-7.742324E-2,2.1836583E-1,7.534592E-2,-3.333875E-2,-2.517395E-1,2.4676105E-1,1.0625023E-1,1.846213E-3,1.489998E-1,6.672575E-2,-1.1622085E-1,-3.6416382E-1,-1.373618E-1,3.3398807E-1,2.184329E-1,-1.9681854E-4,1.9570766E-1,4.2210188E-2,-1.5454714E-1,9.574536E-2,2.3501109E-1,-7.837023E-2,1.0013442E-1,-2.1017513E-1,-2.2031693E-2,-4.9132273E-1,-2.423504E-1,-3.005282E-1,-4.276324E-2,2.6190719E-2,3.7313767E-2,1.670078E-2,2.691215E-2,4.633224E-3,-2.2146616E-2,3.2579977E-2,1.6278686E-2,-6.919934E-3,9.271614E-3,-2.9462988E-2,-7.3511796E-3,6.1292113E-3,2.3125557E-2,2.683029E-2,8.178807E-4,7.5235387E-4,-2.4646366E-2,3.4021416E-3,1.6568452E-2,-3.0443296E-2,-1.1455027E-2,-1.5870957E-2,3.4838046E-3,-4.52485E-2,-1.0978112E-1,-3.3033513E-2,-1.1374674E-2,-4.6033554E-2,-1.6425172E-2,2.2424143E-3,-2.0840572E-2],"categories":[],"categories_nodes":[],"categories_segments":[],"categories_sizes":[],"default_left":[0,0,0,0,0,0,0,0,0,0,0,0,0,0,0,0,0,0,0,0,0,0,0,0,0,0,0,0,0,0,0,0,0,0,0,0,0,0,0,0,0,0,0,0,0,0,0,0,0,0,0,0,0,0,0,0,0,0,0,0,0,0,0],"id":8,"left_children":[1,3,5,7,9,11,13,15,17,19,21,23,25,27,29,31,33,35,37,39,41,43,45,47,49,51,53,55,57,59,61,-1,-1,-1,-1,-1,-1,-1,-1,-1,-1,-1,-1,-1,-1,-1,-1,-1,-1,-1,-1,-1,-1,-1,-1,-1,-1,-1,-1,-1,-1,-1,-1],"loss_changes":[3.9634552E2,7.44787E1,1.8658244E2,1.7747528E1,5.6706547E1,1.6074515E2,6.29711E1,1.093277E1,1.0760442E1,3.3110096E1,2.3942581E1,4.257343E1,9.3808655E1,3.8155853E1,3.751038E1,2.97818E0,8.726486E0,5.3330107E0,2.5765667E0,2.3464733E1,1.21927185E1,1.507995E1,1.5101112E1,2.3738218E1,3.0928413E1,4.7799194E1,4.1162697E1,2.7957275E1,1.4264786E1,1.935035E1,1.6633286E1,0E0,0E0,0E0,0E0,0E0,0E0,0E0,0E0,0E0,0E0,0E0,0E0,0E0,0E0,0E0,0E0,0E0,0E0,0E0,0E0,0E0,0E0,0E0,0E0,0E0,0E0,0E0,0E0,0E0,0E0,0E0,0E0],"parents":[2147483647,0,0,1,1,2,2,3,3,4,4,5,5,6,6,7,7,8,8,9,9,10,10,11,11,12,12,13,13,14,14,15,15,16,16,17,17,18,18,19,19,20,20,21,21,22,22,23,23,24,24,25,25,26,26,27,27,28,28,29,29,30,30],"right_children":[2,4,6,8,10,12,14,16,18,20,22,24,26,28,30,32,34,36,38,40,42,44,46,48,50,52,54,56,58,60,62,-1,-1,-1,-1,-1,-1,-1,-1,-1,-1,-1,-1,-1,-1,-1,-1,-1,-1,-1,-1,-1,-1,-1,-1,-1,-1,-1,-1,-1,-1,-1,-1],"split_conditions":[2.7361667E-1,-3.6478168E-1,1E0,1E0,1E0,-1.0878645E-1,1E0,-1.39639E0,-1.3414189E-1,1E0,6.4733726E-1,-8.893061E-1,1E0,-2.6261287E-2,-2.2543044E-1,-2.2543044E-1,1E0,1.466762E0,1E0,-4.9374393E-1,-2.2543044E-1,1E0,1.4271849E0,-4.8522934E-1,2.109534E-1,2.109534E-1,-5.297041E-1,1.6831801E0,6.4733726E-1,-6.222149E-2,5.5680114E-1,2.6190719E-2,3.7313767E-2,1.670078E-2,2.691215E-2,4.633224E-3,-2.2146616E-2,3.2579977E-2,1.6278686E-2,-6.919934E-3,9.271614E-3,-2.9462988E-2,-7.3511796E-3,6.1292113E-3,2.3125557E-2,2.683029E-2,8.178807E-4,7.5235387E-4,-2.4646366E-2,3.4021416E-3,1.6568452E-2,-3.0443296E-2,-1.1455027E-2,-1.5870957E-2,3.4838046E-3,-4.52485E-2,-1.0978112E-1,-3.3033513E-2,-1.1374674E-2,-4.6033554E-2,-1.6425172E-2,2.2424143E-3,-2.0840572E-2],"split_indices":[18,12,31,31,34,12,34,18,14,31,7,14,34,14,7,7,34,13,6,14,7,33,12,2,7,7,14,12,7,14,12,0,0,0,0,0,0,0,0,0,0,0,0,0,0,0,0,0,0,0,0,0,0,0,0,0,0,0,0,0,0,0,0],"split_type":[0,0,0,0,0,0,0,0,0,0,0,0,0,0,0,0,0,0,0,0,0,0,0,0,0,0,0,0,0,0,0,0,0,0,0,0,0,0,0,0,0,0,0,0,0,0,0,0,0,0,0,0,0,0,0,0,0,0,0,0,0,0,0],"sum_hessian":[4.0336E4,1.6056E4,2.428E4,5.582E3,1.0474E4,1.938E4,4.9E3,4.453E3,1.129E3,5.243E3,5.231E3,8.78E3,1.06E4,2.47E3,2.43E3,1.089E3,3.364E3,5.16E2,6.13E2,4.168E3,1.075E3,3.232E3,1.999E3,1.643E3,7.137E3,5.306E3,5.294E3,1.207E3,1.263E3,8.91E2,1.539E3,3.86E2,7.03E2,1.672E3,1.692E3,4.27E2,8.9E1,1.22E2,4.91E2,1.3E3,2.868E3,3.93E2,6.82E2,2.578E3,6.54E2,1.743E3,2.56E2,1.088E3,5.55E2,3.554E3,3.583E3,2.671E3,2.635E3,1.555E3,3.739E3,1.136E3,7.1E1,7.49E2,5.14E2,4.09E2,4.82E2,1.105E3,4.34E2],"tree_param":{"num_deleted":"0","num_feature":"38","num_nodes":"63","size_leaf_vector":"1"}},{"base_weights":[2.9687565E-3,9.697381E-2,-9.025056E-2,1.2963986E-1,-3.148529E-2,-5.092543E-2,-2.4505642E-1,4.8696786E-2,1.7907181E-1,-5.8903653E-2,2.2507758E-1,-1.4110188E-1,1.837174E-2,-3.8060868E-1,-1.3327785E-1,-1.3501218E-1,7.449008E-2,1.01761915E-1,2.2339652E-1,-1.1706323E-1,6.2266797E-2,-1.9131994E-2,2.9109925E-1,-2.1240607E-1,-4.2863723E-2,-2.1446433E-2,1.3678317E-1,-4.275724E-1,-1.5138666E-1,-1.8563293E-1,4.4825763E-2,-3.947415E-3,-2.8421676E-2,1.5235588E-2,2.3964758E-3,2.2371883E-2,7.2638555E-3,1.9386988E-2,3.0886296E-2,-3.331225E-2,-8.651076E-3,-1.9748134E-3,1.4175541E-2,-2.8505338E-2,2.5990782E-2,3.3728402E-2,1.03938775E-2,-3.1851333E-2,-1.4968373E-2,2.043731E-3,-9.821503E-3,-9.066919E-3,5.0517875E-3,1.5235491E-2,-2.1593012E-2,-7.2378606E-2,-3.862196E-2,-2.3157934E-2,2.830776E-2,-2.9634267E-2,-8.195112E-3,2.672152E-2,-9.195529E-3],"categories":[],"categories_nodes":[],"categories_segments":[],"categories_sizes":[],"default_left":[0,0,0,0,0,0,0,0,0,0,0,0,0,0,0,0,0,0,0,0,0,0,0,0,0,0,0,0,0,0,0,0,0,0,0,0,0,0,0,0,0,0,0,0,0,0,0,0,0,0,0,0,0,0,0,0,0,0,0,0,0,0,0],"id":9,"left_children":[1,3,5,7,9,11,13,15,17,19,21,23,25,27,29,31,33,35,37,39,41,43,45,47,49,51,53,55,57,59,61,-1,-1,-1,-1,-1,-1,-1,-1,-1,-1,-1,-1,-1,-1,-1,-1,-1,-1,-1,-1,-1,-1,-1,-1,-1,-1,-1,-1,-1,-1,-1,-1],"loss_changes":[3.5490497E2,8.462154E1,1.23782104E2,6.4318146E1,2.8777468E1,1.0134218E2,6.2359695E1,2.890044E1,3.4179565E1,2.604678E1,6.3742027E0,4.935367E1,4.3243523E1,1.9969177E1,2.1072662E1,1.0694069E1,2.1032492E1,1.2908733E1,1.5946899E1,1.6454243E1,7.8193827E0,6.3813124E0,2.6532173E0,2.7125885E1,1.0390759E1,3.4198063E1,1.27092705E1,1.86333E1,1.1144945E1,2.0017326E1,1.5659764E1,0E0,0E0,0E0,0E0,0E0,0E0,0E0,0E0,0E0,0E0,0E0,0E0,0E0,0E0,0E0,0E0,0E0,0E0,0E0,0E0,0E0,0E0,0E0,0E0,0E0,0E0,0E0,0E0,0E0,0E0,0E0,0E0],"parents":[2147483647,0,0,1,1,2,2,3,3,4,4,5,5,6,6,7,7,8,8,9,9,10,10,11,11,12,12,13,13,14,14,15,15,16,16,17,17,18,18,19,19,20,20,21,21,22,22,23,23,24,24,25,25,26,26,27,27,28,28,29,29,30,30],"right_children":[2,4,6,8,10,12,14,16,18,20,22,24,26,28,30,32,34,36,38,40,42,44,46,48,50,52,54,56,58,60,62,-1,-1,-1,-1,-1,-1,-1,-1,-1,-1,-1,-1,-1,-1,-1,-1,-1,-1,-1,-1,-1,-1,-1,-1,-1,-1,-1,-1,-1,-1,-1,-1],"split_conditions":[8.3028555E-1,1E0,1E0,-2.8446692E-1,1.3511152E0,-1.481684E-1,-6.222149E-2,-1.1410276E0,-2.2543044E-1,4.7718155E-1,-6.0162455E-1,1.8949993E-1,1E0,1.010369E0,8.0592114E-1,-2.830522E-1,-8.397211E-1,-1.39639E0,1E0,-1.098198E0,2.109534E-1,6.4733726E-1,1.2130318E0,-2.2543044E-1,-2.1375779E-3,2.109534E-1,1E0,-1.098198E0,1E0,2.109534E-1,2.6146212E-1,-3.947415E-3,-2.8421676E-2,1.5235588E-2,2.3964758E-3,2.2371883E-2,7.2638555E-3,1.9386988E-2,3.0886296E-2,-3.331225E-2,-8.651076E-3,-1.9748134E-3,1.4175541E-2,-2.8505338E-2,2.5990782E-2,3.3728402E-2,1.03938775E-2,-3.1851333E-2,-1.4968373E-2,2.043731E-3,-9.821503E-3,-9.066919E-3,5.0517875E-3,1.5235491E-2,-2.1593012E-2,-7.2378606E-2,-3.862196E-2,-2.3157934E-2,2.830776E-2,-2.9634267E-2,-8.195112E-3,2.672152E-2,-9.195529E-3],"split_indices":[18,31,31,5,5,5,14,14,7,14,14,14,33,5,5,18,18,18,33,7,7,7,3,7,10,7,29,7,26,7,3,0,0,0,0,0,0,0,0,0,0,0,0,0,0,0,0,0,0,0,0,0,0,0,0,0,0,0,0,0,0,0,0],"split_type":[0,0,0,0,0,0,0,0,0,0,0,0,0,0,0,0,0,0,0,0,0,0,0,0,0,0,0,0,0,0,0,0,0,0,0,0,0,0,0,0,0,0,0,0,0,0,0,0,0,0,0,0,0,0,0,0,0,0,0,0,0,0,0],"sum_hessian":[4.0498E4,2.0164E4,2.0334E4,1.6076E4,4.088E3,1.6216E4,4.118E3,6.096E3,9.98E3,3.694E3,3.94E2,7.046E3,9.17E3,1.86E3,2.258E3,7.5E2,5.346E3,3.638E3,6.342E3,2.496E3,1.198E3,8.4E1,3.1E2,4.082E3,2.964E3,6.863E3,2.307E3,1.543E3,3.17E2,1.745E3,5.13E2,4.58E2,2.92E2,2.103E3,3.243E3,7E2,2.938E3,4.716E3,1.626E3,3.08E2,2.188E3,5.9E2,6.08E2,4.3E1,4.1E1,2.48E2,6.2E1,1.515E3,2.567E3,1.383E3,1.581E3,3.498E3,3.365E3,2.21E3,9.7E1,1.87E2,1.356E3,2.68E2,4.9E1,8.43E2,9.02E2,1.95E2,3.18E2],"tree_param":{"num_deleted":"0","num_feature":"38","num_nodes":"63","size_leaf_vector":"1"}},{"base_weights":[-2.6490672E-3,-9.2937134E-2,9.675272E-2,-2.5668198E-1,-2.3035975E-2,-2.6519768E-2,1.4976968E-1,-1.9516331E-1,-4.8189428E-1,6.3563615E-2,-9.492268E-2,2.8009772E-2,-1.5576892E-1,1.8296479E-1,4.9322255E-2,-2.4578978E-1,1.2060229E-2,-9.3496037E-1,-4.5683864E-1,-2.413067E-2,1.1294196E-1,-3.159385E-1,-6.2205635E-2,-2.5145026E-2,1.0987126E-1,-2.4908617E-1,-3.1514876E-2,1.5238377E-1,2.865089E-1,-1.3299616E-3,1.8127161E-1,-3.0959023E-2,-6.8414174E-3,-4.5408543E-2,4.2039E-3,-5.525547E-2,-1.24244526E-1,-4.7721393E-2,-1.6722014E-2,-1.3457085E-2,2.9745833E-3,6.5005734E-3,1.7879179E-2,-3.8178816E-2,-3.8518868E-3,-1.821026E-2,-1.0352241E-3,-6.0939933E-3,1.1564605E-2,-3.5564655E-3,1.8588122E-2,-3.0922238E-2,-3.953151E-3,-2.0111615E-2,2.4259393E-3,1.2396622E-2,2.747953E-2,2.3241408E-2,3.1657517E-2,-3.1887132E-3,1.6081853E-2,3.3708084E-3,2.147373E-2],"categories":[],"categories_nodes":[],"categories_segments":[],"categories_sizes":[],"default_left":[0,0,0,0,0,0,0,0,0,0,0,0,0,0,0,0,0,0,0,0,0,0,0,0,0,0,0,0,0,0,0,0,0,0,0,0,0,0,0,0,0,0,0,0,0,0,0,0,0,0,0,0,0,0,0,0,0,0,0,0,0,0,0],"id":10,"left_children":[1,3,5,7,9,11,13,15,17,19,21,23,25,27,29,31,33,35,37,39,41,43,45,47,49,51,53,55,57,59,61,-1,-1,-1,-1,-1,-1,-1,-1,-1,-1,-1,-1,-1,-1,-1,-1,-1,-1,-1,-1,-1,-1,-1,-1,-1,-1,-1,-1,-1,-1,-1,-1],"loss_changes":[3.6145987E2,2.4156097E2,1.25290146E2,8.738492E1,9.2091545E1,4.0642536E1,4.468811E1,5.2048798E1,1.4943268E1,2.9058357E1,5.84284E1,1.765176E1,1.9831272E1,3.1858643E1,2.2263073E1,4.5098267E1,1.3644202E1,7.5443535E0,7.5030823E0,1.4391418E1,1.3539627E1,1.9020538E1,4.377868E1,1.2404471E1,1.7660772E1,1.2299755E1,6.9575276E0,2.7029709E1,3.6607208E0,1.1936285E1,4.5557613E0,0E0,0E0,0E0,0E0,0E0,0E0,0E0,0E0,0E0,0E0,0E0,0E0,0E0,0E0,0E0,0E0,0E0,0E0,0E0,0E0,0E0,0E0,0E0,0E0,0E0,0E0,0E0,0E0,0E0,0E0,0E0,0E0],"parents":[2147483647,0,0,1,1,2,2,3,3,4,4,5,5,6,6,7,7,8,8,9,9,10,10,11,11,12,12,13,13,14,14,15,15,16,16,17,17,18,18,19,19,20,20,21,21,22,22,23,23,24,24,25,25,26,26,27,27,28,28,29,29,30,30],"right_children":[2,4,6,8,10,12,14,16,18,20,22,24,26,28,30,32,34,36,38,40,42,44,46,48,50,52,54,56,58,60,62,-1,-1,-1,-1,-1,-1,-1,-1,-1,-1,-1,-1,-1,-1,-1,-1,-1,-1,-1,-1,-1,-1,-1,-1,-1,-1,-1,-1,-1,-1,-1,-1],"split_conditions":[6.267672E-2,-5.190543E-1,-5.190543E-1,8.6399543E-1,-1.0878645E-1,5.5680114E-1,7.1039826E-1,1E0,-1.9831065E0,-8.853692E-1,-1.484135E0,3.2887638E-1,8.610312E-1,1.2602084E0,1.2244645E0,1E0,-1.8833122E0,2.9324678E-1,1.555563E0,-4.2076543E-1,8.757608E-1,1E0,-4.8891467E-1,1E0,-1.2164618E0,1E0,-5.5706394E-1,9.422197E-1,1.5096941E0,1.459797E0,-8.2966095E-1,-3.0959023E-2,-6.8414174E-3,-4.5408543E-2,4.2039E-3,-5.525547E-2,-1.24244526E-1,-4.7721393E-2,-1.6722014E-2,-1.3457085E-2,2.9745833E-3,6.5005734E-3,1.7879179E-2,-3.8178816E-2,-3.8518868E-3,-1.821026E-2,-1.0352241E-3,-6.0939933E-3,1.1564605E-2,-3.5564655E-3,1.8588122E-2,-3.0922238E-2,-3.953151E-3,-2.0111615E-2,2.4259393E-3,1.2396622E-2,2.747953E-2,2.3241408E-2,3.1657517E-2,-3.1887132E-3,1.6081853E-2,3.3708084E-3,2.147373E-2],"split_indices":[1,17,17,12,12,12,12,33,1,1,1,5,1,1,17,30,1,13,5,5,17,33,5,33,17,33,5,5,1,1,5,0,0,0,0,0,0,0,0,0,0,0,0,0,0,0,0,0,0,0,0,0,0,0,0,0,0,0,0,0,0,0,0],"split_type":[0,0,0,0,0,0,0,0,0,0,0,0,0,0,0,0,0,0,0,0,0,0,0,0,0,0,0,0,0,0,0,0,0,0,0,0,0,0,0,0,0,0,0,0,0,0,0,0,0,0,0,0,0,0,0,0,0,0,0,0,0,0,0],"sum_hessian":[4.0273E4,2.1104E4,1.9169E4,6.313E3,1.4791E4,5.765E3,1.3404E4,4.96E3,1.353E3,6.709E3,8.082E3,4.055E3,1.71E3,1.0074E4,3.33E3,3.986E3,9.74E2,6.9E1,1.284E3,2.417E3,4.292E3,1.041E3,7.041E3,2.459E3,1.596E3,9.76E2,7.34E2,7.779E3,2.295E3,2.407E3,9.23E2,2.931E3,1.055E3,5.8E1,9.16E2,3.2E1,3.7E1,1.199E3,8.5E1,7.92E2,1.625E3,2.485E3,1.807E3,8.41E2,2E2,2.125E3,4.916E3,1.961E3,4.98E2,5.48E2,1.048E3,7.58E2,2.18E2,1.81E2,5.53E2,6.315E3,1.464E3,8.23E2,1.472E3,2.026E3,3.81E2,1.71E2,7.52E2],"tree_param":{"num_deleted":"0","num_feature":"38","num_nodes":"63","size_leaf_vector":"1"}},{"base_weights":[-8.980356E-4,-1.3617183E-1,5.5140287E-2,-2.1569103E-1,-5.6643095E-2,-1.5120951E-2,1.2580149E-1,-3.5082313E-1,-1.490405E-1,-1.6692223E-2,-2.1926886E-1,2.0879453E-2,-1.5731671E-1,1.5880461E-1,2.430592E-2,-2.2440486E-1,-4.6345335E-1,-9.1475375E-2,-3.1203488E-1,8.662691E-3,-2.4868923E-1,-1.8910907E-1,-5.8760536E-1,5.7184257E-2,-9.7612284E-2,-6.75652E-2,-3.208486E-1,9.77133E-2,2.1917827E-1,-1.5222368E-1,6.2186472E-2,-6.250079E-2,-1.8254703E-2,-6.479945E-2,-3.4214225E-2,-1.4055448E-2,5.2018E-3,-2.7663246E-2,-8.1992015E-2,-3.1443757E-3,1.2723672E-2,-2.0736376E-2,-7.255876E-2,-1.1523663E-2,-3.0303603E-2,-3.1138763E-2,-8.966505E-2,2.7967298E-3,1.8498011E-2,-2.302486E-2,-4.4285427E-3,-9.394638E-3,2.360929E-2,-3.9228275E-2,2.4413054E-3,1.3486105E-2,-4.6036015E-3,1.5959842E-2,2.5789285E-2,-5.9027516E-4,-2.4613287E-2,1.0013346E-3,1.8537149E-2],"categories":[],"categories_nodes":[],"categories_segments":[],"categories_sizes":[],"default_left":[0,0,0,0,0,0,0,0,0,0,0,0,0,0,0,0,0,0,0,0,0,0,0,0,0,0,0,0,0,0,0,0,0,0,0,0,0,0,0,0,0,0,0,0,0,0,0,0,0,0,0,0,0,0,0,0,0,0,0,0,0,0,0],"id":11,"left_children":[1,3,5,7,9,11,13,15,17,19,21,23,25,27,29,31,33,35,37,39,41,43,45,47,49,51,53,55,57,59,61,-1,-1,-1,-1,-1,-1,-1,-1,-1,-1,-1,-1,-1,-1,-1,-1,-1,-1,-1,-1,-1,-1,-1,-1,-1,-1,-1,-1,-1,-1,-1,-1],"loss_changes":[3.0677588E2,7.4953186E1,1.4206805E2,5.3329956E1,3.85108E1,7.345732E1,4.7785904E1,2.7760773E1,3.7230522E1,2.800173E1,1.28752365E1,4.9265717E1,4.2527626E1,3.968689E1,2.3427479E1,1.537989E1,2.2926346E1,2.0684164E1,1.8400848E1,2.0414967E1,9.092615E0,9.071262E0,7.2328014E0,3.2725372E1,1.8988092E1,1.5026518E1,2.5338959E1,2.859103E1,1.2446808E1,8.504151E0,1.8533459E1,0E0,0E0,0E0,0E0,0E0,0E0,0E0,0E0,0E0,0E0,0E0,0E0,0E0,0E0,0E0,0E0,0E0,0E0,0E0,0E0,0E0,0E0,0E0,0E0,0E0,0E0,0E0,0E0,0E0,0E0,0E0,0E0],"parents":[2147483647,0,0,1,1,2,2,3,3,4,4,5,5,6,6,7,7,8,8,9,9,10,10,11,11,12,12,13,13,14,14,15,15,16,16,17,17,18,18,19,19,20,20,21,21,22,22,23,23,24,24,25,25,26,26,27,27,28,28,29,29,30,30],"right_children":[2,4,6,8,10,12,14,16,18,20,22,24,26,28,30,32,34,36,38,40,42,44,46,48,50,52,54,56,58,60,62,-1,-1,-1,-1,-1,-1,-1,-1,-1,-1,-1,-1,-1,-1,-1,-1,-1,-1,-1,-1,-1,-1,-1,-1,-1,-1,-1,-1,-1,-1,-1,-1],"split_conditions":[-5.626684E-1,1E0,1E0,-4.2076543E-1,1E0,1E0,7.1039826E-1,-5.7587408E-2,6.5919924E-1,1.3247868E0,1.4783839E0,7.6159734E-1,4.03204E-1,2.109534E-1,-8.978102E-1,-1.9332094E0,-2.2543044E-1,1.010369E0,1E0,1E0,2.5023649E0,5.2920264E-1,2.6583904E-1,1.1604141E0,-5.5706394E-1,1.6874619E0,9.422197E-1,1E0,-2.1631765E-1,-2.0849556E-1,8.326312E-1,-6.250079E-2,-1.8254703E-2,-6.479945E-2,-3.4214225E-2,-1.4055448E-2,5.2018E-3,-2.7663246E-2,-8.1992015E-2,-3.1443757E-3,1.2723672E-2,-2.0736376E-2,-7.255876E-2,-1.1523663E-2,-3.0303603E-2,-3.1138763E-2,-8.966505E-2,2.7967298E-3,1.8498011E-2,-2.302486E-2,-4.4285427E-3,-9.394638E-3,2.360929E-2,-3.9228275E-2,2.4413054E-3,1.3486105E-2,-4.6036015E-3,1.5959842E-2,2.5789285E-2,-5.9027516E-4,-2.4613287E-2,1.0013346E-3,1.8537149E-2],"split_indices":[1,34,34,5,31,31,12,12,12,12,12,12,12,7,5,1,7,5,29,33,12,16,0,1,5,1,5,31,5,2,1,0,0,0,0,0,0,0,0,0,0,0,0,0,0,0,0,0,0,0,0,0,0,0,0,0,0,0,0,0,0,0,0],"split_type":[0,0,0,0,0,0,0,0,0,0,0,0,0,0,0,0,0,0,0,0,0,0,0,0,0,0,0,0,0,0,0,0,0,0,0,0,0,0,0,0,0,0,0,0,0,0,0,0,0,0,0,0,0,0,0,0,0,0,0,0,0,0,0],"sum_hessian":[4.0467E4,1.1853E4,2.8614E4,5.926E3,5.927E3,1.4348E4,1.4266E4,1.956E3,3.97E3,4.759E3,1.168E3,1.145E4,2.898E3,1.0765E4,3.501E3,9.23E2,1.033E3,2.935E3,1.035E3,4.291E3,4.68E2,1.081E3,8.7E1,8.765E3,2.685E3,1.872E3,1.026E3,5.352E3,5.413E3,6.18E2,2.883E3,8.6E1,8.37E2,4.08E2,6.25E2,2.187E3,7.48E2,9.69E2,6.6E1,3.207E3,1.084E3,4.32E2,3.6E1,6.57E2,4.24E2,4.7E1,4E1,7.135E3,1.63E3,7.69E2,1.916E3,1.723E3,1.49E2,8.5E2,1.76E2,4.253E3,1.099E3,2.134E3,3.279E3,2.42E2,3.76E2,2.026E3,8.57E2],"tree_param":{"num_deleted":"0","num_feature":"38","num_nodes":"63","size_leaf_vector":"1"}},{"base_weights":[8.4824685E-4,-1.0264204E-1,7.023997E-2,-1.8032855E-1,-2.532544E-2,2.8970739E-2,1.5236129E-1,-2.62829E-1,-9.995937E-2,-9.223852E-2,4.309312E-2,6.361173E-2,-1.0744369E-1,1.3203546E-1,2.3476487E-1,-2.1636453E-1,-4.551825E-1,-2.3146854E-1,-5.7463694E-2,-1.2752478E-1,4.4129837E-2,7.081298E-2,-6.0580283E-2,3.459448E-3,1.2299014E-1,-2.6077494E-1,-5.8503E-2,8.69725E-2,1.7698835E-1,7.495197E-2,2.516344E-1,-2.5170667E-2,-1.0631549E-2,-5.0196417E-2,-2.4310684E-2,-1.7348852E-2,-4.8261445E-2,-3.2112475E-3,-1.5589895E-2,-1.8601397E-2,-6.967033E-3,-8.417956E-3,1.08548E-2,-1.2419976E-3,9.825992E-3,-1.9891752E-2,-7.846141E-4,-3.1316623E-3,1.0419316E-2,9.074464E-3,2.1840489E-2,-2.056795E-2,-4.405139E-2,-1.4363535E-2,2.6539008E-3,5.3923167E-3,1.8092075E-2,1.5507412E-2,2.3779964E-2,-1.4005224E-2,1.3936541E-2,2.3361567E-2,3.632811E-2],"categories":[],"categories_nodes":[],"categories_segments":[],"categories_sizes":[],"default_left":[0,0,0,0,0,0,0,0,0,0,0,0,0,0,0,0,0,0,0,0,0,0,0,0,0,0,0,0,0,0,0,0,0,0,0,0,0,0,0,0,0,0,0,0,0,0,0,0,0,0,0,0,0,0,0,0,0,0,0,0,0,0,0],"id":12,"left_children":[1,3,5,7,9,11,13,15,17,19,21,23,25,27,29,31,33,35,37,39,41,43,45,47,49,51,53,55,57,59,61,-1,-1,-1,-1,-1,-1,-1,-1,-1,-1,-1,-1,-1,-1,-1,-1,-1,-1,-1,-1,-1,-1,-1,-1,-1,-1,-1,-1,-1,-1,-1,-1],"loss_changes":[2.8993347E2,9.733003E1,8.190297E1,5.3567993E1,3.7191856E1,7.602173E1,1.350737E1,3.5544678E1,2.2877487E1,1.9768211E1,1.1548393E1,4.582151E1,2.4433224E1,1.3123375E1,4.2892914E0,1.2473663E1,7.5669403E0,1.4477722E1,7.7234154E0,1.1028584E1,6.9934473E0,7.2430553E0,6.184681E0,2.2332169E1,1.984333E1,7.712799E0,1.7893421E1,1.0053312E1,4.2888412E0,2.1522892E0,2.8220825E0,0E0,0E0,0E0,0E0,0E0,0E0,0E0,0E0,0E0,0E0,0E0,0E0,0E0,0E0,0E0,0E0,0E0,0E0,0E0,0E0,0E0,0E0,0E0,0E0,0E0,0E0,0E0,0E0,0E0,0E0,0E0,0E0],"parents":[2147483647,0,0,1,1,2,2,3,3,4,4,5,5,6,6,7,7,8,8,9,9,10,10,11,11,12,12,13,13,14,14,15,15,16,16,17,17,18,18,19,19,20,20,21,21,22,22,23,23,24,24,25,25,26,26,27,27,28,28,29,29,30,30],"right_children":[2,4,6,8,10,12,14,16,18,20,22,24,26,28,30,32,34,36,38,40,42,44,46,48,50,52,54,56,58,60,62,-1,-1,-1,-1,-1,-1,-1,-1,-1,-1,-1,-1,-1,-1,-1,-1,-1,-1,-1,-1,-1,-1,-1,-1,-1,-1,-1,-1,-1,-1,-1,-1],"split_conditions":[-1.703505E-1,1E0,1.2244645E0,2.109534E-1,2.109534E-1,1E0,1E0,1E0,-1.2164618E0,1E0,1E0,1E0,-6.618143E-1,1E0,-1.3366416E0,1E0,1E0,1E0,1E0,-8.6775804E-1,1E0,-1.2164618E0,-8.17398E-1,1E0,1E0,9.6762305E-1,1E0,1E0,1.083721E0,-1.0386969E0,1.3062587E0,-2.5170667E-2,-1.0631549E-2,-5.0196417E-2,-2.4310684E-2,-1.7348852E-2,-4.8261445E-2,-3.2112475E-3,-1.5589895E-2,-1.8601397E-2,-6.967033E-3,-8.417956E-3,1.08548E-2,-1.2419976E-3,9.825992E-3,-1.9891752E-2,-7.846141E-4,-3.1316623E-3,1.0419316E-2,9.074464E-3,2.1840489E-2,-2.056795E-2,-4.405139E-2,-1.4363535E-2,2.6539008E-3,5.3923167E-3,1.8092075E-2,1.5507412E-2,2.3779964E-2,-1.4005224E-2,1.3936541E-2,2.3361567E-2,3.632811E-2],"split_indices":[17,34,17,7,7,31,33,31,17,33,31,34,7,34,4,33,26,31,31,17,9,17,4,33,33,2,34,32,7,2,19,0,0,0,0,0,0,0,0,0,0,0,0,0,0,0,0,0,0,0,0,0,0,0,0,0,0,0,0,0,0,0,0],"split_type":[0,0,0,0,0,0,0,0,0,0,0,0,0,0,0,0,0,0,0,0,0,0,0,0,0,0,0,0,0,0,0,0,0,0,0,0,0,0,0,0,0,0,0,0,0,0,0,0,0,0,0,0,0,0,0,0,0,0,0,0,0,0,0],"sum_hessian":[4.0371E4,1.6204E4,2.4167E4,8.082E3,8.122E3,1.6085E4,8.082E3,3.987E3,4.095E3,4.106E3,4.016E3,1.2828E4,3.257E3,6.485E3,1.597E3,3.213E3,7.74E2,9.99E2,3.096E3,3.262E3,8.44E2,3.169E3,8.47E2,6.373E3,6.455E3,7.87E2,2.47E3,3.24E3,3.245E3,1.53E2,1.444E3,2.431E3,7.82E2,6.33E2,1.41E2,8.13E2,1.86E2,2.463E3,6.33E2,1.621E3,1.641E3,2.82E2,5.62E2,7.86E2,2.383E3,2.33E2,6.14E2,4.738E3,1.635E3,4.826E3,1.629E3,6.04E2,1.83E2,1.234E3,1.236E3,2.398E3,8.42E2,2.388E3,8.57E2,3.5E1,1.18E2,1.246E3,1.98E2],"tree_param":{"num_deleted":"0","num_feature":"38","num_nodes":"63","size_leaf_vector":"1"}},{"base_weights":[1.6997285E-3,-5.4067984E-2,1.080014E-1,-1.7849074E-1,-5.9484784E-4,1.5273321E-2,1.4804281E-1,-1.2754674E-1,-3.5278094E-1,3.1646013E-2,-1.2872522E-1,-6.212597E-2,8.908653E-2,1.7403741E-1,6.1552435E-2,-2.355344E-1,-6.316387E-2,-2.9302132E-1,-6.1541677E-1,-1.5322952E-1,5.2993678E-2,-2.0261079E-1,-3.131316E-2,-3.9326776E-2,-2.6734945E-1,2.0836733E-1,2.69702E-2,1.4703794E-1,2.390806E-1,1.0205451E-1,-8.867278E-2,-2.8970349E-3,-2.9495021E-2,-1.1594078E-2,2.8463313E-3,-4.221062E-2,-1.6632825E-2,-7.547597E-2,-3.459196E-2,-9.468733E-3,-4.7357004E-2,8.298931E-3,-3.5727106E-3,-3.1944465E-2,-9.4727045E-3,-9.745811E-3,3.5284336E-3,-7.4846046E-3,1.1361155E-2,3.1973538E-3,-4.0755067E-2,3.2409967E-3,2.3483437E-2,-2.094798E-2,6.1550713E-3,1.9887192E-2,1.1435146E-2,2.255202E-2,3.3632487E-2,3.2128065E-3,1.6991368E-2,-2.9554857E-2,1.6526763E-5],"categories":[],"categories_nodes":[],"categories_segments":[],"categories_sizes":[],"default_left":[0,0,0,0,0,0,0,0,0,0,0,0,0,0,0,0,0,0,0,0,0,0,0,0,0,0,0,0,0,0,0,0,0,0,0,0,0,0,0,0,0,0,0,0,0,0,0,0,0,0,0,0,0,0,0,0,0,0,0,0,0,0,0],"id":13,"left_children":[1,3,5,7,9,11,13,15,17,19,21,23,25,27,29,31,33,35,37,39,41,43,45,47,49,51,53,55,57,59,61,-1,-1,-1,-1,-1,-1,-1,-1,-1,-1,-1,-1,-1,-1,-1,-1,-1,-1,-1,-1,-1,-1,-1,-1,-1,-1,-1,-1,-1,-1,-1,-1],"loss_changes":[2.388353E2,1.7581268E2,5.1470535E1,7.048122E1,7.635797E1,2.3897676E1,2.1757172E1,4.272944E1,2.8007935E1,5.8292404E1,2.6738995E1,9.543862E0,1.5857664E1,1.3037491E1,1.3632093E1,2.8170662E1,1.8635635E1,2.3888634E1,1.2206352E1,2.8629162E1,3.523773E1,2.6602997E1,7.0691996E0,9.998425E0,8.573981E0,3.406023E0,1.15336685E1,8.894211E0,2.801506E0,8.364986E0,8.748186E0,0E0,0E0,0E0,0E0,0E0,0E0,0E0,0E0,0E0,0E0,0E0,0E0,0E0,0E0,0E0,0E0,0E0,0E0,0E0,0E0,0E0,0E0,0E0,0E0,0E0,0E0,0E0,0E0,0E0,0E0,0E0,0E0],"parents":[2147483647,0,0,1,1,2,2,3,3,4,4,5,5,6,6,7,7,8,8,9,9,10,10,11,11,12,12,13,13,14,14,15,15,16,16,17,17,18,18,19,19,20,20,21,21,22,22,23,23,24,24,25,25,26,26,27,27,28,28,29,29,30,30],"right_children":[2,4,6,8,10,12,14,16,18,20,22,24,26,28,30,32,34,36,38,40,42,44,46,48,50,52,54,56,58,60,62,-1,-1,-1,-1,-1,-1,-1,-1,-1,-1,-1,-1,-1,-1,-1,-1,-1,-1,-1,-1,-1,-1,-1,-1,-1,-1,-1,-1,-1,-1,-1,-1],"split_conditions":[4.0742558E-1,-5.190543E-1,-5.190543E-1,8.1279635E-1,1E0,1E0,7.6159734E-1,-6.857806E-1,1E0,-1.484135E0,8.757608E-1,1.3247868E0,-3.6478168E-1,1.3101056E0,1E0,-9.791702E-1,6.4733726E-1,2.109534E-1,8.8000435E-1,1.0687916E0,7.1039826E-1,2.109534E-1,-4.8619196E-1,1E0,1E0,-1.098198E0,-1.098198E0,-5.183788E-1,2.3080485E0,2.109534E-1,1.7835326E-1,-2.8970349E-3,-2.9495021E-2,-1.1594078E-2,2.8463313E-3,-4.221062E-2,-1.6632825E-2,-7.547597E-2,-3.459196E-2,-9.468733E-3,-4.7357004E-2,8.298931E-3,-3.5727106E-3,-3.1944465E-2,-9.4727045E-3,-9.745811E-3,3.5284336E-3,-7.4846046E-3,1.1361155E-2,3.1973538E-3,-4.0755067E-2,3.2409967E-3,2.3483437E-2,-2.094798E-2,6.1550713E-3,1.9887192E-2,1.1435146E-2,2.255202E-2,3.3632487E-2,3.2128065E-3,1.6991368E-2,-2.9554857E-2,1.6526763E-5],"split_indices":[1,17,17,12,31,34,12,1,31,1,17,12,12,1,31,12,7,7,13,12,12,7,1,33,9,7,7,12,1,7,17,0,0,0,0,0,0,0,0,0,0,0,0,0,0,0,0,0,0,0,0,0,0,0,0,0,0,0,0,0,0,0,0],"split_type":[0,0,0,0,0,0,0,0,0,0,0,0,0,0,0,0,0,0,0,0,0,0,0,0,0,0,0,0,0,0,0,0,0,0,0,0,0,0,0,0,0,0,0,0,0,0,0,0,0,0,0,0,0,0,0,0,0,0,0,0,0,0,0],"sum_hessian":[4.0286E4,2.6424E4,1.3862E4,7.942E3,1.8482E4,4.181E3,9.681E3,6.147E3,1.795E3,1.4767E4,3.715E3,2.041E3,2.14E3,7.443E3,2.238E3,2.295E3,3.852E3,1.464E3,3.31E2,1.528E3,1.3239E4,2.112E3,1.603E3,1.838E3,2.03E2,7.32E2,1.408E3,5.262E3,2.181E3,1.763E3,4.75E2,5.13E2,1.782E3,2.444E3,1.408E3,7.24E2,7.4E2,2.17E2,1.14E2,1.293E3,2.35E2,9.894E3,3.345E3,1.013E3,1.099E3,8.04E2,7.99E2,1.492E3,3.46E2,6.5E1,1.38E2,9.6E1,6.36E2,1.79E2,1.229E3,2.033E3,3.229E3,1.917E3,2.64E2,8.69E2,8.94E2,1.42E2,3.33E2],"tree_param":{"num_deleted":"0","num_feature":"38","num_nodes":"63","size_leaf_vector":"1"}},{"base_weights":[6.1652786E-3,-8.2840875E-2,6.675982E-2,2.037778E-2,-1.5332441E-1,1.2764769E-2,1.206187E-1,-1.8846994E-2,9.72394E-2,-5.177873E-2,-2.3796804E-1,9.450224E-2,-4.2151343E-2,2.0354252E-1,9.226803E-2,-1.4824627E-1,1.8619243E-2,6.6837244E-2,2.1609522E-1,-3.0206606E-1,-2.3161372E-2,-2.8303745E-1,-5.3557374E-2,7.468898E-2,2.480363E-1,-1.07678615E-1,4.002384E-2,8.5779704E-2,2.2672907E-1,5.7147734E-2,1.6178693E-1,4.5033302E-2,-1.681899E-2,3.549067E-3,-2.0459915E-2,7.622429E-3,-3.3362802E-2,2.6502091E-2,1.11781405E-2,-4.7325518E-2,-1.3913182E-2,-1.9003926E-2,1.3912573E-3,-4.7717135E-2,-2.4199324E-2,-4.7416862E-2,-1.4137859E-3,2.886721E-4,1.1384569E-2,4.0613037E-2,2.2099284E-2,-8.983244E-3,-4.8846047E-2,1.323961E-3,2.7648015E-2,4.4304454E-3,2.6158798E-2,3.0776563E-3,2.3437904E-2,1.23204915E-2,1.6040305E-3,1.5039922E-3,1.740281E-2],"categories":[],"categories_nodes":[],"categories_segments":[],"categories_sizes":[],"default_left":[0,0,0,0,0,0,0,0,0,0,0,0,0,0,0,0,0,0,0,0,0,0,0,0,0,0,0,0,0,0,0,0,0,0,0,0,0,0,0,0,0,0,0,0,0,0,0,0,0,0,0,0,0,0,0,0,0,0,0,0,0,0,0],"id":14,"left_children":[1,3,5,7,9,11,13,15,17,19,21,23,25,27,29,31,33,35,37,39,41,43,45,47,49,51,53,55,57,59,61,-1,-1,-1,-1,-1,-1,-1,-1,-1,-1,-1,-1,-1,-1,-1,-1,-1,-1,-1,-1,-1,-1,-1,-1,-1,-1,-1,-1,-1,-1,-1,-1],"loss_changes":[2.1710692E2,1.1862553E2,6.9647766E1,1.995129E1,8.3266525E1,5.3693375E1,2.8169052E1,2.1247154E1,8.065283E0,3.1551247E1,4.390164E1,1.4604416E1,3.8531948E1,8.319557E0,2.1810661E1,1.1822586E1,1.2807938E1,6.724301E0,2.2925243E0,1.2541595E1,2.4471521E1,3.371701E1,1.722022E1,1.197402E1,2.25745E0,2.7009007E1,2.0104567E1,3.6634233E0,3.816803E0,1.6125025E1,5.3846436E0,0E0,0E0,0E0,0E0,0E0,0E0,0E0,0E0,0E0,0E0,0E0,0E0,0E0,0E0,0E0,0E0,0E0,0E0,0E0,0E0,0E0,0E0,0E0,0E0,0E0,0E0,0E0,0E0,0E0,0E0,0E0,0E0],"parents":[2147483647,0,0,1,1,2,2,3,3,4,4,5,5,6,6,7,7,8,8,9,9,10,10,11,11,12,12,13,13,14,14,15,15,16,16,17,17,18,18,19,19,20,20,21,21,22,22,23,23,24,24,25,25,26,26,27,27,28,28,29,29,30,30],"right_children":[2,4,6,8,10,12,14,16,18,20,22,24,26,28,30,32,34,36,38,40,42,44,46,48,50,52,54,56,58,60,62,-1,-1,-1,-1,-1,-1,-1,-1,-1,-1,-1,-1,-1,-1,-1,-1,-1,-1,-1,-1,-1,-1,-1,-1,-1,-1,-1,-1,-1,-1,-1,-1],"split_conditions":[-2.367062E-1,2.7361667E-1,1E0,4.6517488E-1,-1.0878645E-1,2.7361667E-1,-6.71976E-1,-1.3344436E0,1E0,-1.7336208E0,1E0,1.2148167E0,1.9257787E-1,-9.659594E-1,8.610312E-1,-1.849554E0,1.529583E0,2.0927725E0,5.0560206E-1,-1.1446928E-3,-8.978102E-1,-1.484135E0,-1.8833122E0,3.121625E-1,-3.7117586E-2,1.7855783E0,1.6593856E0,1.2747095E0,-9.612265E-1,2.7361667E-1,-1.4430043E0,4.5033302E-2,-1.681899E-2,3.549067E-3,-2.0459915E-2,7.622429E-3,-3.3362802E-2,2.6502091E-2,1.11781405E-2,-4.7325518E-2,-1.3913182E-2,-1.9003926E-2,1.3912573E-3,-4.7717135E-2,-2.4199324E-2,-4.7416862E-2,-1.4137859E-3,2.886721E-4,1.1384569E-2,4.0613037E-2,2.2099284E-2,-8.983244E-3,-4.8846047E-2,1.323961E-3,2.7648015E-2,4.4304454E-3,2.6158798E-2,3.0776563E-3,2.3437904E-2,1.23204915E-2,1.6040305E-3,1.5039922E-3,1.740281E-2],"split_indices":[1,18,34,5,12,18,12,1,33,1,33,5,5,5,1,12,12,12,12,0,5,1,1,1,1,12,1,1,14,18,5,0,0,0,0,0,0,0,0,0,0,0,0,0,0,0,0,0,0,0,0,0,0,0,0,0,0,0,0,0,0,0,0],"split_type":[0,0,0,0,0,0,0,0,0,0,0,0,0,0,0,0,0,0,0,0,0,0,0,0,0,0,0,0,0,0,0,0,0,0,0,0,0,0,0,0,0,0,0,0,0,0,0,0,0,0,0,0,0,0,0,0,0,0,0,0,0,0,0],"sum_hessian":[4.0253E4,1.6304E4,2.3949E4,6.616E3,9.688E3,1.196E4,1.1989E4,4.381E3,2.235E3,4.405E3,5.283E3,4.806E3,7.154E3,3.053E3,8.936E3,9.83E2,3.398E3,1.781E3,4.54E2,4.51E2,3.954E3,4.245E3,1.038E3,4.258E3,5.48E2,3.98E3,3.174E3,5.03E2,2.55E3,5.938E3,2.998E3,3.1E1,9.52E2,3.16E3,2.38E2,1.741E3,4E1,3.08E2,1.46E2,2.19E2,2.32E2,7.18E2,3.236E3,7.39E2,3.506E3,8.8E1,9.5E2,1.503E3,2.755E3,7.8E1,4.7E2,3.803E3,1.77E2,2.852E3,3.22E2,4.08E2,9.5E1,9.6E1,2.454E3,2.277E3,3.661E3,2.31E2,2.767E3],"tree_param":{"num_deleted":"0","num_feature":"38","num_nodes":"63","size_leaf_vector":"1"}},{"base_weights":[-1.4852269E-3,7.469069E-2,-5.1747568E-2,2.97704E-2,1.3235536E-1,-1.6415374E-1,-5.4995418E-3,6.278953E-2,-1.0080098E-1,4.9447455E-2,1.6092773E-1,-2.0039222E-1,1.7146757E-2,-8.541734E-2,4.231687E-2,1.595818E-1,3.099542E-2,-1.2262487E-2,-2.0908374E-1,-8.101377E-2,8.909682E-2,1.2672426E-1,2.1371084E-1,-1.2675865E-1,-2.9654887E-1,6.6865854E-2,-1.7848647E-1,-1.3127337E-1,4.3489896E-2,7.189427E-2,-7.070121E-2,1.717843E-2,-3.3790484E-2,-7.059517E-3,6.87183E-3,-1.3983886E-2,6.8999114E-3,-2.7927225E-2,3.5042192E-3,5.640137E-3,-2.1675041E-2,1.5505266E-2,2.1175751E-3,1.0904236E-2,2.5057947E-2,2.3376811E-2,9.69646E-3,-3.1709384E-2,-9.62875E-3,-3.954988E-2,-1.9334838E-2,2.0924828E-3,2.323756E-2,-1.0403804E-2,-5.9747096E-2,-2.92885E-2,-9.614279E-3,-9.608137E-3,7.988099E-3,2.2596415E-2,5.1329858E-3,-1.7689249E-2,-8.8563515E-4],"categories":[],"categories_nodes":[],"categories_segments":[],"categories_sizes":[],"default_left":[0,0,0,0,0,0,0,0,0,0,0,0,0,0,0,0,0,0,0,0,0,0,0,0,0,0,0,0,0,0,0,0,0,0,0,0,0,0,0,0,0,0,0,0,0,0,0,0,0,0,0,0,0,0,0,0,0,0,0,0,0,0,0],"id":15,"left_children":[1,3,5,7,9,11,13,15,17,19,21,23,25,27,29,31,33,35,37,39,41,43,45,47,49,51,53,55,57,59,61,-1,-1,-1,-1,-1,-1,-1,-1,-1,-1,-1,-1,-1,-1,-1,-1,-1,-1,-1,-1,-1,-1,-1,-1,-1,-1,-1,-1,-1,-1,-1,-1],"loss_changes":[1.5470189E2,4.1601677E1,1.26547745E2,3.8937847E1,1.6652344E1,4.6624527E1,6.591481E1,2.2177128E1,1.7474888E1,9.3387785E0,9.414993E0,4.1835632E1,1.1518629E1,3.8174164E1,3.6080383E1,1.0875816E1,2.0802687E1,1.0418177E1,1.4060352E1,7.864829E0,6.196746E0,6.9281044E0,4.789345E0,1.9404362E1,2.6106277E1,7.1730185E0,7.424098E0,2.701384E1,8.616837E0,2.7090534E1,1.4702807E1,0E0,0E0,0E0,0E0,0E0,0E0,0E0,0E0,0E0,0E0,0E0,0E0,0E0,0E0,0E0,0E0,0E0,0E0,0E0,0E0,0E0,0E0,0E0,0E0,0E0,0E0,0E0,0E0,0E0,0E0,0E0,0E0],"parents":[2147483647,0,0,1,1,2,2,3,3,4,4,5,5,6,6,7,7,8,8,9,9,10,10,11,11,12,12,13,13,14,14,15,15,16,16,17,17,18,18,19,19,20,20,21,21,22,22,23,23,24,24,25,25,26,26,27,27,28,28,29,29,30,30],"right_children":[2,4,6,8,10,12,14,16,18,20,22,24,26,28,30,32,34,36,38,40,42,44,46,48,50,52,54,56,58,60,62,-1,-1,-1,-1,-1,-1,-1,-1,-1,-1,-1,-1,-1,-1,-1,-1,-1,-1,-1,-1,-1,-1,-1,-1,-1,-1,-1,-1,-1,-1,-1,-1],"split_conditions":[2.7361667E-1,1.407653E-1,-5.626684E-1,1E0,-6.252132E-1,1.010369E0,-2.2543044E-1,-1.39639E0,1.4720878E-1,-6.618143E-1,6.4733726E-1,1.9840781E-1,8.6399543E-1,9.109283E-1,1E0,2.0415735E0,-6.252132E-1,-7.8557485E-1,7.3777187E-1,4.4810683E-2,-8.397211E-1,1.6094885E0,1.0687916E0,-1.1704072E0,2.109534E-1,4E0,1.333774E0,-8.978102E-1,-8.978102E-1,-1.1839664E0,1.407653E-1,1.717843E-2,-3.3790484E-2,-7.059517E-3,6.87183E-3,-1.3983886E-2,6.8999114E-3,-2.7927225E-2,3.5042192E-3,5.640137E-3,-2.1675041E-2,1.5505266E-2,2.1175751E-3,1.0904236E-2,2.5057947E-2,2.3376811E-2,9.69646E-3,-3.1709384E-2,-9.62875E-3,-3.954988E-2,-1.9334838E-2,2.0924828E-3,2.323756E-2,-1.0403804E-2,-5.9747096E-2,-2.92885E-2,-9.614279E-3,-9.608137E-3,7.988099E-3,2.2596415E-2,5.1329858E-3,-1.7689249E-2,-8.8563515E-4],"split_indices":[18,1,1,31,5,5,7,18,12,7,7,12,12,1,31,12,5,1,5,12,18,1,12,5,7,8,0,5,5,12,1,0,0,0,0,0,0,0,0,0,0,0,0,0,0,0,0,0,0,0,0,0,0,0,0,0,0,0,0,0,0,0,0],"split_type":[0,0,0,0,0,0,0,0,0,0,0,0,0,0,0,0,0,0,0,0,0,0,0,0,0,0,0,0,0,0,0,0,0,0,0,0,0,0,0,0,0,0,0,0,0,0,0,0,0,0,0,0,0,0,0,0,0,0,0,0,0,0,0],"sum_hessian":[4.0403E4,1.6061E4,2.4342E4,9.029E3,7.032E3,7.095E3,1.7247E4,7.207E3,1.822E3,1.803E3,5.229E3,5.913E3,1.182E3,6.456E3,1.0791E4,1.781E3,5.426E3,1.003E3,8.19E2,4.2E2,1.383E3,3.175E3,2.054E3,3.35E3,2.563E3,9.43E2,2.39E2,4.762E3,1.694E3,8.553E3,2.238E3,1.739E3,4.2E1,1.469E3,3.957E3,3.9E2,6.13E2,6.36E2,1.83E2,2.09E2,2.11E2,7.01E2,6.82E2,2.78E3,3.95E2,1.752E3,3.02E2,4.61E2,2.889E3,1.307E3,1.256E3,7.39E2,2.04E2,2.04E2,3.5E1,8.49E2,3.913E3,3.5E2,1.344E3,1.006E3,7.547E3,8.23E2,1.415E3],"tree_param":{"num_deleted":"0","num_feature":"38","num_nodes":"63","size_leaf_vector":"1"}},{"base_weights":[3.8994814E-3,-9.810873E-2,4.013146E-2,-1.6562939E-1,-3.0696943E-2,-9.376E-3,8.895364E-2,-1.2925944E-1,-3.2022682E-1,9.9136814E-2,-5.8596432E-2,-3.673716E-2,1.00321725E-1,-2.7165657E-2,1.05780736E-1,-3.5514736E-1,-1.0603882E-1,-8.6878635E-2,-4.2340404E-1,2.0391315E-1,5.027178E-2,-8.9259416E-2,6.500615E-2,-9.793944E-2,1.9878682E-2,1.8628152E-2,1.4406586E-1,-5.7738096E-2,-1.8632071E-2,1.479373E-1,6.842236E-2,-4.4914193E-2,-6.577858E-3,-3.0311388E-3,-1.576685E-2,-1.621869E-2,5.961276E-2,-5.5062205E-2,-2.0697284E-2,2.4258848E-2,-1.1401254E-2,-5.548917E-4,2.1811744E-2,-1.36982E-2,-1.2523846E-3,-5.2564885E-3,1.3409733E-2,1.3738641E-3,-1.4455415E-2,-6.9832723E-3,4.803008E-3,-1.3930424E-2,7.365337E-3,1.7995937E-2,1.7342046E-3,-2.114995E-2,8.89818E-4,1.2945974E-2,2.2318792E-2,8.8662505E-3,-1.1364917E-3],"categories":[],"categories_nodes":[],"categories_segments":[],"categories_sizes":[],"default_left":[0,0,0,0,0,0,0,0,0,0,0,0,0,0,0,0,0,0,0,0,0,0,0,0,0,0,0,0,0,0,0,0,0,0,0,0,0,0,0,0,0,0,0,0,0,0,0,0,0,0,0,0,0,0,0,0,0,0,0,0,0],"id":16,"left_children":[1,3,5,7,9,11,13,15,17,19,21,23,25,27,29,31,33,35,37,39,41,43,45,47,49,51,53,-1,55,57,59,-1,-1,-1,-1,-1,-1,-1,-1,-1,-1,-1,-1,-1,-1,-1,-1,-1,-1,-1,-1,-1,-1,-1,-1,-1,-1,-1,-1,-1,-1],"loss_changes":[1.4935027E2,4.820186E1,7.2072784E1,2.9708298E1,1.9207596E1,4.4443256E1,2.9337547E1,2.243827E1,2.420797E1,4.7922153E0,1.6545465E1,4.1065887E1,1.0560919E1,8.915028E0,2.0641556E1,1.0822891E1,1.5192547E1,1.604185E1,1.9104729E1,3.6918287E0,6.0069075E0,1.2804365E1,7.0579166E0,2.9649246E1,1.5552866E1,8.978613E0,8.752865E0,0E0,9.946928E0,8.536255E0,1.123106E1,0E0,0E0,0E0,0E0,0E0,0E0,0E0,0E0,0E0,0E0,0E0,0E0,0E0,0E0,0E0,0E0,0E0,0E0,0E0,0E0,0E0,0E0,0E0,0E0,0E0,0E0,0E0,0E0,0E0,0E0],"parents":[2147483647,0,0,1,1,2,2,3,3,4,4,5,5,6,6,7,7,8,8,9,9,10,10,11,11,12,12,13,13,14,14,15,15,16,16,17,17,18,18,19,19,20,20,21,21,22,22,23,23,24,24,25,25,26,26,28,28,29,29,30,30],"right_children":[2,4,6,8,10,12,14,16,18,20,22,24,26,28,30,32,34,36,38,40,42,44,46,48,50,52,54,-1,56,58,60,-1,-1,-1,-1,-1,-1,-1,-1,-1,-1,-1,-1,-1,-1,-1,-1,-1,-1,-1,-1,-1,-1,-1,-1,-1,-1,-1,-1,-1,-1],"split_conditions":[-6.358834E-1,1E0,1E0,1E0,-9.279712E-1,1E0,-1.098198E0,-1.9831065E0,-5.183788E-1,-1.5935588E0,1E0,3.121625E-1,-2.2543044E-1,-1.6770346E0,-5.7587408E-2,1.083721E0,-2.1118455E-1,-6.207769E-1,3.8840088E-1,1E0,1.083721E0,6.4733726E-1,-2.1667665E-1,-5.183788E-1,-6.618143E-1,-1.169726E-1,8.1279635E-1,-5.7738096E-2,-3.8639766E-1,1E0,1E0,-4.4914193E-2,-6.577858E-3,-3.0311388E-3,-1.576685E-2,-1.621869E-2,5.961276E-2,-5.5062205E-2,-2.0697284E-2,2.4258848E-2,-1.1401254E-2,-5.548917E-4,2.1811744E-2,-1.36982E-2,-1.2523846E-3,-5.2564885E-3,1.3409733E-2,1.3738641E-3,-1.4455415E-2,-6.9832723E-3,4.803008E-3,-1.3930424E-2,7.365337E-3,1.7995937E-2,1.7342046E-3,-2.114995E-2,8.89818E-4,1.2945974E-2,2.2318792E-2,8.8662505E-3,-1.1364917E-3],"split_indices":[1,34,34,31,12,33,7,1,12,12,33,1,7,4,12,7,12,12,4,24,7,7,11,12,7,1,12,0,1,33,31,0,0,0,0,0,0,0,0,0,0,0,0,0,0,0,0,0,0,0,0,0,0,0,0,0,0,0,0,0,0],"split_type":[0,0,0,0,0,0,0,0,0,0,0,0,0,0,0,0,0,0,0,0,0,0,0,0,0,0,0,0,0,0,0,0,0,0,0,0,0,0,0,0,0,0,0,0,0,0,0,0,0,0,0,0,0,0,0,0,0,0,0,0,0],"sum_hessian":[4.0407E4,1.059E4,2.9817E4,5.29E3,5.3E3,1.4805E4,1.5012E4,4.284E3,1.006E3,9.37E2,4.363E3,1.185E4,2.955E3,1.9E3,1.3112E4,3.98E2,3.886E3,3.09E2,6.97E2,2.97E2,6.4E2,3.496E3,8.67E2,5.694E3,6.156E3,1.031E3,1.924E3,2.8E1,1.872E3,6.159E3,6.953E3,3E2,9.8E1,1.576E3,2.31E3,2.79E2,3E1,4.38E2,2.59E2,2.65E2,3.2E1,4.81E2,1.59E2,2.155E3,1.341E3,3.21E2,5.46E2,1.677E3,4.017E3,1.47E3,4.686E3,2.66E2,7.65E2,1.499E3,4.25E2,2.33E2,1.639E3,4.947E3,1.212E3,5.546E3,1.407E3],"tree_param":{"num_deleted":"0","num_feature":"38","num_nodes":"61","size_leaf_vector":"1"}},{"base_weights":[-1.4729882E-3,-1.2210543E-1,2.9042419E-2,-1.5764646E-1,5.7941794E-2,-8.605493E-2,5.125311E-2,-1.2624396E-1,-3.1733152E-1,2.339398E-2,2.7120027E-1,-6.461291E-2,-3.5725918E-1,1.5986564E-2,1.0889309E-1,-2.5413367E-1,-8.627326E-2,-4.9166268E-1,-2.5974208E-1,-5.78358E-2,1.0223142E-1,4.3501484E-1,1.8035631E-1,-1.553212E-1,-1.2487838E-2,-6.123267E-1,-2.6554283E-1,4.0923566E-2,-8.261422E-2,1.2436036E-1,-2.2185808E-2,-1.9332048E-2,-5.308766E-2,2.6443216E-3,-1.1373951E-2,-5.7339925E-2,5.180868E-3,-5.2618314E-2,-2.1072935E-2,3.210799E-2,-8.781051E-3,5.973339E-3,3.425358E-2,2.1249453E-2,5.6551516E-2,3.0148415E-2,5.8159156E-4,-3.335716E-3,-2.149336E-2,1.8640878E-3,-1.2656008E-2,-8.574064E-2,-1.189398E-3,-1.0517116E-2,-4.780608E-2,8.544556E-3,-5.5466447E-4,-1.5983356E-2,-2.26741E-4,1.0331141E-2,1.8755412E-2,-8.74081E-3,7.869237E-3],"categories":[],"categories_nodes":[],"categories_segments":[],"categories_sizes":[],"default_left":[0,0,0,0,0,0,0,0,0,0,0,0,0,0,0,0,0,0,0,0,0,0,0,0,0,0,0,0,0,0,0,0,0,0,0,0,0,0,0,0,0,0,0,0,0,0,0,0,0,0,0,0,0,0,0,0,0,0,0,0,0,0,0],"id":17,"left_children":[1,3,5,7,9,11,13,15,17,19,21,23,25,27,29,31,33,35,37,39,41,43,45,47,49,51,53,55,57,59,61,-1,-1,-1,-1,-1,-1,-1,-1,-1,-1,-1,-1,-1,-1,-1,-1,-1,-1,-1,-1,-1,-1,-1,-1,-1,-1,-1,-1,-1,-1,-1,-1],"loss_changes":[1.4834645E2,5.2071922E1,8.222564E1,3.403354E1,9.880993E0,3.0233238E1,5.480358E1,2.901332E1,1.107653E1,7.408877E0,2.7043943E0,2.280205E1,8.750462E0,4.1134327E1,2.0751503E1,2.2651016E1,1.3405159E1,1.2290031E1,1.0871746E1,6.5021925E0,5.974254E0,1.7964029E0,2.577534E0,1.2789036E1,1.0882385E1,1.4705189E1,9.560808E0,2.7625046E1,2.0951656E1,1.2156937E1,7.1193233E0,0E0,0E0,0E0,0E0,0E0,0E0,0E0,0E0,0E0,0E0,0E0,0E0,0E0,0E0,0E0,0E0,0E0,0E0,0E0,0E0,0E0,0E0,0E0,0E0,0E0,0E0,0E0,0E0,0E0,0E0,0E0,0E0],"parents":[2147483647,0,0,1,1,2,2,3,3,4,4,5,5,6,6,7,7,8,8,9,9,10,10,11,11,12,12,13,13,14,14,15,15,16,16,17,17,18,18,19,19,20,20,21,21,22,22,23,23,24,24,25,25,26,26,27,27,28,28,29,29,30,30],"right_children":[2,4,6,8,10,12,14,16,18,20,22,24,26,28,30,32,34,36,38,40,42,44,46,48,50,52,54,56,58,60,62,-1,-1,-1,-1,-1,-1,-1,-1,-1,-1,-1,-1,-1,-1,-1,-1,-1,-1,-1,-1,-1,-1,-1,-1,-1,-1,-1,-1,-1,-1,-1,-1],"split_conditions":[-8.6775804E-1,1.0107226E0,-9.851635E-1,1.0175925E0,2.0326371E0,1.4783839E0,6.4733726E-1,-8.3547205E-1,-6.618143E-1,-1.2164618E0,1E0,-2.2543044E-1,-1.703505E-1,1E0,1.3247868E0,1E0,-9.791702E-1,1.4725507E0,-1.0849578E0,-1.4399617E0,1.2130318E0,-5.3511214E-1,5.328228E-1,-5.183788E-1,1E0,1.083721E0,3E0,4.4810683E-2,2.308242E-1,1.2244645E0,8.757608E-1,-1.9332048E-2,-5.308766E-2,2.6443216E-3,-1.1373951E-2,-5.7339925E-2,5.180868E-3,-5.2618314E-2,-2.1072935E-2,3.210799E-2,-8.781051E-3,5.973339E-3,3.425358E-2,2.1249453E-2,5.6551516E-2,3.0148415E-2,5.8159156E-4,-3.335716E-3,-2.149336E-2,1.8640878E-3,-1.2656008E-2,-8.574064E-2,-1.189398E-3,-1.0517116E-2,-4.780608E-2,8.544556E-3,-5.5466447E-4,-1.5983356E-2,-2.26741E-4,1.0331141E-2,1.8755412E-2,-8.74081E-3,7.869237E-3],"split_indices":[17,1,1,12,1,12,7,1,7,17,9,7,17,31,12,31,12,3,1,12,3,0,0,12,31,7,8,12,1,17,17,0,0,0,0,0,0,0,0,0,0,0,0,0,0,0,0,0,0,0,0,0,0,0,0,0,0,0,0,0,0,0,0],"split_type":[0,0,0,0,0,0,0,0,0,0,0,0,0,0,0,0,0,0,0,0,0,0,0,0,0,0,0,0,0,0,0,0,0,0,0,0,0,0,0,0,0,0,0,0,0,0,0,0,0,0,0,0,0,0,0,0,0,0,0,0,0,0,0],"sum_hessian":[4.0297E4,8.135E3,3.2162E4,6.794E3,1.341E3,5.202E3,2.696E4,5.679E3,1.115E3,1.155E3,1.86E2,4.822E3,3.8E2,1.6727E4,1.0233E4,1.351E3,4.328E3,2.75E2,8.4E2,5.69E2,5.86E2,6.5E1,1.21E2,1.759E3,3.063E3,9.9E1,2.81E2,1.3351E4,3.376E3,9.153E3,1.08E3,1.109E3,2.42E2,8.48E2,3.48E3,2.39E2,3.6E1,1.29E2,7.11E2,4.1E1,5.28E2,4.99E2,8.7E1,2.5E1,4E1,7.1E1,5E1,5.78E2,1.181E3,2.407E3,6.56E2,7E1,2.9E1,1.61E2,1.2E2,6.818E3,6.533E3,1.721E3,1.655E3,6.868E3,2.285E3,6.56E2,4.24E2],"tree_param":{"num_deleted":"0","num_feature":"38","num_nodes":"63","size_leaf_vector":"1"}},{"base_weights":[-5.1339535E-4,-3.7626527E-2,7.341968E-2,-7.609252E-2,5.197387E-2,1.0648083E-1,1.201689E-2,-1.3486934E-1,-1.6750734E-2,1.3421439E-1,2.2329295E-2,5.032754E-2,1.3021554E-1,-1.9888708E-1,3.5987183E-2,-9.9392585E-2,-2.7631348E-1,7.23434E-2,-4.166132E-2,-4.756575E-2,1.5006945E-1,-1.6540453E-2,1.03212655E-1,-2.2486106E-1,6.272114E-2,8.235754E-2,1.7705207E-1,-4.3821096E-1,-1.2732603E-1,-1.7456017E-3,1.1045268E-1,-6.102832E-2,-9.102645E-3,-2.2148363E-2,-4.9305044E-2,1.7827135E-2,2.2251026E-3,-1.0485007E-2,-1.642845E-3,2.1223089E-2,-1.3782376E-2,1.6566273E-2,8.996014E-3,-7.00956E-3,3.5864871E-3,-4.9464457E-4,1.2703125E-2,-5.292603E-2,1.0576469E-2,8.72465E-3,-4.30994E-3,2.0978687E-2,6.422445E-3,3.6190107E-2,1.6476508E-2,-7.857164E-2,-1.186177E-2,-2.116667E-2,6.2083937E-3,-6.7229965E-3,6.2729004E-3,-2.2165806E-3,1.3100504E-2],"categories":[],"categories_nodes":[],"categories_segments":[],"categories_sizes":[],"default_left":[0,0,0,0,0,0,0,0,0,0,0,0,0,0,0,0,0,0,0,0,0,0,0,0,0,0,0,0,0,0,0,0,0,0,0,0,0,0,0,0,0,0,0,0,0,0,0,0,0,0,0,0,0,0,0,0,0,0,0,0,0,0,0],"id":18,"left_children":[1,3,5,7,9,11,13,15,17,19,21,23,25,27,29,31,33,35,37,39,41,43,45,47,49,51,53,55,57,59,61,-1,-1,-1,-1,-1,-1,-1,-1,-1,-1,-1,-1,-1,-1,-1,-1,-1,-1,-1,-1,-1,-1,-1,-1,-1,-1,-1,-1,-1,-1,-1,-1],"loss_changes":[1.1118785E2,9.298891E1,2.7491638E1,6.583573E1,1.9754436E1,1.1725914E1,2.3974949E1,4.755806E1,2.0851934E1,6.19508E0,1.8733158E1,8.9395895E0,1.38536E1,8.23332E0,1.1964283E1,3.2355522E1,2.2481628E1,1.0889625E1,1.1704607E1,4.0858793E0,1.8362656E0,1.1298977E1,4.982994E0,1.1428549E1,6.5049534E0,7.0618496E0,7.040268E0,1.2234505E1,5.987776E0,1.1940032E1,3.9059925E0,0E0,0E0,0E0,0E0,0E0,0E0,0E0,0E0,0E0,0E0,0E0,0E0,0E0,0E0,0E0,0E0,0E0,0E0,0E0,0E0,0E0,0E0,0E0,0E0,0E0,0E0,0E0,0E0,0E0,0E0,0E0,0E0],"parents":[2147483647,0,0,1,1,2,2,3,3,4,4,5,5,6,6,7,7,8,8,9,9,10,10,11,11,12,12,13,13,14,14,15,15,16,16,17,17,18,18,19,19,20,20,21,21,22,22,23,23,24,24,25,25,26,26,27,27,28,28,29,29,30,30],"right_children":[2,4,6,8,10,12,14,16,18,20,22,24,26,28,30,32,34,36,38,40,42,44,46,48,50,52,54,56,58,60,62,-1,-1,-1,-1,-1,-1,-1,-1,-1,-1,-1,-1,-1,-1,-1,-1,-1,-1,-1,-1,-1,-1,-1,-1,-1,-1,-1,-1,-1,-1,-1,-1],"split_conditions":[4.6517488E-1,8.757608E-1,4.03204E-1,1E0,-6.207769E-1,-5.190543E-1,-1.2164618E0,1E0,-7.74374E-1,-1.7156012E0,1.5731684E0,-1.7163908E0,1.010369E0,-8.83087E-1,8.757608E-1,-2.0759928E0,9.1519445E-1,-5.544128E-1,-8.6775804E-1,-8.311466E-1,1.0368065E0,-4.2076543E-1,-1.0361328E0,-7.648594E-2,1E0,-1.4399617E0,-1.5006295E0,1E0,6.2494516E-1,1E0,-1.0880232E0,-6.102832E-2,-9.102645E-3,-2.2148363E-2,-4.9305044E-2,1.7827135E-2,2.2251026E-3,-1.0485007E-2,-1.642845E-3,2.1223089E-2,-1.3782376E-2,1.6566273E-2,8.996014E-3,-7.00956E-3,3.5864871E-3,-4.9464457E-4,1.2703125E-2,-5.292603E-2,1.0576469E-2,8.72465E-3,-4.30994E-3,2.0978687E-2,6.422445E-3,3.6190107E-2,1.6476508E-2,-7.857164E-2,-1.186177E-2,-2.116667E-2,6.2083937E-3,-6.7229965E-3,6.2729004E-3,-2.2165806E-3,1.3100504E-2],"split_indices":[5,17,12,34,12,17,17,31,12,5,17,14,5,19,17,14,12,2,17,2,2,5,3,19,31,12,14,28,4,34,11,0,0,0,0,0,0,0,0,0,0,0,0,0,0,0,0,0,0,0,0,0,0,0,0,0,0,0,0,0,0,0,0],"split_type":[0,0,0,0,0,0,0,0,0,0,0,0,0,0,0,0,0,0,0,0,0,0,0,0,0,0,0,0,0,0,0,0,0,0,0,0,0,0,0,0,0,0,0,0,0,0,0,0,0,0,0,0,0,0,0,0,0,0,0,0,0,0,0],"sum_hessian":[4.052E4,2.6978E4,1.3542E4,1.8875E4,8.103E3,8.802E3,4.74E3,9.482E3,9.393E3,2.146E3,5.957E3,2.616E3,6.186E3,4.83E2,4.257E3,7.582E3,1.9E3,2.052E3,7.341E3,1.72E2,1.974E3,4.024E3,1.933E3,1.12E2,2.504E3,3.061E3,3.125E3,1.1E2,3.73E2,2.826E3,1.431E3,1.21E2,7.461E3,1.518E3,3.82E2,6.58E2,1.394E3,2.094E3,5.247E3,4.4E1,1.28E2,1.566E3,4.08E2,1.99E3,2.034E3,3.49E2,1.584E3,5.8E1,5.4E1,2.033E3,4.71E2,3.8E2,2.681E3,1.93E2,2.932E3,5.2E1,5.8E1,2.58E2,1.15E2,1.402E3,1.424E3,1.92E2,1.239E3],"tree_param":{"num_deleted":"0","num_feature":"38","num_nodes":"63","size_leaf_vector":"1"}},{"base_weights":[-2.254406E-3,-1.0737394E-1,2.4195662E-2,-2.6230857E-1,-7.030747E-2,-1.1727021E-2,8.769415E-2,-7.987481E-1,-2.3482582E-1,-1.03171244E-1,5.2490074E-2,-6.500283E-2,4.1338507E-2,5.1312614E-2,1.3038392E-1,-4.2458955E-2,-9.96252E-2,-2.8003556E-1,-6.0688768E-2,-1.6711518E-1,-4.060558E-2,3.3411715E-2,3.266352E-1,-9.5684916E-2,8.635835E-2,1.6270675E-2,1.4108251E-1,2.0385388E-2,1.0269258E-1,1.1051927E-1,2.1147007E-1,-3.5982262E-2,-1.807519E-2,1.3907032E-2,-2.7612854E-2,-2.337307E-2,-3.0350252E-3,4.6134433E-3,-9.387667E-3,5.902144E-3,-1.5411461E-2,5.3521223E-2,1.6392104E-2,-1.3261104E-2,2.0468598E-3,5.2720285E-3,2.3049267E-2,-9.7509613E-4,9.716268E-3,2.0955008E-2,1.2101259E-2,-8.814798E-3,5.210109E-3,8.68987E-3,2.2010308E-2,-5.9847035E-3,1.1877468E-2,2.2643074E-2,1.0080168E-3],"categories":[],"categories_nodes":[],"categories_segments":[],"categories_sizes":[],"default_left":[0,0,0,0,0,0,0,0,0,0,0,0,0,0,0,0,0,0,0,0,0,0,0,0,0,0,0,0,0,0,0,0,0,0,0,0,0,0,0,0,0,0,0,0,0,0,0,0,0,0,0,0,0,0,0,0,0,0,0],"id":19,"left_children":[1,3,5,7,9,11,13,15,17,19,21,23,25,27,29,-1,-1,31,33,35,37,39,41,43,45,47,49,51,53,55,57,-1,-1,-1,-1,-1,-1,-1,-1,-1,-1,-1,-1,-1,-1,-1,-1,-1,-1,-1,-1,-1,-1,-1,-1,-1,-1,-1,-1],"loss_changes":[1.1235932E2,4.6636703E1,7.364884E1,2.2929176E1,2.6466782E1,5.8303326E1,1.8112E1,5.1932373E0,1.1736931E1,2.0688805E1,7.2329683E0,4.7800465E1,2.5831486E1,1.0008856E1,8.621513E0,0E0,0E0,9.321991E0,1.3336539E1,2.3297989E1,1.2092175E1,6.2331324E0,2.9667263E0,3.670453E1,8.399825E0,1.738356E1,2.8259773E0,1.3546252E1,4.370163E0,6.073097E0,3.1763573E0,0E0,0E0,0E0,0E0,0E0,0E0,0E0,0E0,0E0,0E0,0E0,0E0,0E0,0E0,0E0,0E0,0E0,0E0,0E0,0E0,0E0,0E0,0E0,0E0,0E0,0E0,0E0,0E0],"parents":[2147483647,0,0,1,1,2,2,3,3,4,4,5,5,6,6,7,7,8,8,9,9,10,10,11,11,12,12,13,13,14,14,17,17,18,18,19,19,20,20,21,21,22,22,23,23,24,24,25,25,26,26,27,27,28,28,29,29,30,30],"right_children":[2,4,6,8,10,12,14,16,18,20,22,24,26,28,30,-1,-1,32,34,36,38,40,42,44,46,48,50,52,54,56,58,-1,-1,-1,-1,-1,-1,-1,-1,-1,-1,-1,-1,-1,-1,-1,-1,-1,-1,-1,-1,-1,-1,-1,-1,-1,-1,-1,-1],"split_conditions":[-8.6775804E-1,-8.3547205E-1,3.6205962E-1,-1.647452E0,9.791984E-1,1E0,1.2442861E-1,-3.1438267E-1,1E0,1E0,2.3080485E0,1.010369E0,1E0,8.757608E-1,1E0,-4.2458955E-2,-9.96252E-2,1.9257787E-1,-9.4521884E-4,4.6517488E-1,-3.4686247E-1,1.3135402E0,4.9903274E-2,1.2244645E0,1E0,1E0,-1.033147E0,-1.1704072E0,1.75918E0,-1.7194856E0,1.5590571E0,-3.5982262E-2,-1.807519E-2,1.3907032E-2,-2.7612854E-2,-2.337307E-2,-3.0350252E-3,4.6134433E-3,-9.387667E-3,5.902144E-3,-1.5411461E-2,5.3521223E-2,1.6392104E-2,-1.3261104E-2,2.0468598E-3,5.2720285E-3,2.3049267E-2,-9.7509613E-4,9.716268E-3,2.0955008E-2,1.2101259E-2,-8.814798E-3,5.210109E-3,8.68987E-3,2.2010308E-2,-5.9847035E-3,1.1877468E-2,2.2643074E-2,1.0080168E-3],"split_indices":[17,1,1,5,1,34,5,10,33,34,1,5,33,17,33,0,0,5,2,5,2,2,10,17,30,30,14,5,1,10,3,0,0,0,0,0,0,0,0,0,0,0,0,0,0,0,0,0,0,0,0,0,0,0,0,0,0,0,0],"split_type":[0,0,0,0,0,0,0,0,0,0,0,0,0,0,0,0,0,0,0,0,0,0,0,0,0,0,0,0,0,0,0,0,0,0,0,0,0,0,0,0,0,0,0,0,0,0,0,0,0,0,0,0,0,0,0,0,0,0,0],"sum_hessian":[4.0409E4,8.123E3,3.2286E4,1.567E3,6.556E3,2.0621E4,1.1665E4,7.5E1,1.492E3,5.172E3,1.384E3,1.029E4,1.0331E4,6.299E3,5.366E3,2.7E1,4.8E1,1.184E3,3.08E2,2.557E3,2.615E3,1.295E3,8.9E1,8.556E3,1.734E3,8.257E3,2.074E3,3.933E3,2.366E3,4.312E3,1.054E3,6.55E2,5.29E2,1.6E2,1.48E2,1.719E3,8.38E2,9.95E2,1.62E3,1.14E3,1.55E2,3.8E1,5.1E1,6.492E3,2.064E3,1.407E3,3.27E2,6.248E3,2.009E3,4.68E2,1.606E3,8.89E2,3.044E3,2.087E3,2.79E2,1.99E2,4.113E3,9.81E2,7.3E1],"tree_param":{"num_deleted":"0","num_feature":"38","num_nodes":"59","size_leaf_vector":"1"}},{"base_weights":[-1.0469436E-3,-9.625332E-2,2.067402E-2,-1.3122301E-1,4.2304926E-2,-2.2069339E-2,6.344207E-2,-2.0172301E-1,-6.07028E-2,-5.347265E-2,8.202388E-2,-1.0482906E-1,1.3385658E-2,7.23766E-3,9.714E-2,-1.1709144E-1,-3.2008654E-1,-1.6087618E-1,-2.3000987E-2,-2.5773315E-2,-4.988668E-2,-4.000292E-3,1.680555E-1,9.952777E-2,-1.2697743E-1,-9.607051E-3,9.482761E-2,6.1701596E-2,-4.1213967E-2,8.942295E-2,2.136616E-1,-2.7830541E-2,-6.297778E-3,-9.725399E-2,-2.864008E-2,-2.8020805E-2,-3.4578894E-3,1.4874059E-3,-1.8249134E-2,-2.6219875E-2,2.5908276E-4,1.2488053E-2,-1.0623241E-2,-7.9124E-3,1.8868882E-2,6.1221574E-3,4.6293847E-2,-2.9515246E-2,-1.0442209E-2,1.4784681E-3,-1.0326089E-2,1.2247924E-2,-1.08262E-3,8.406176E-3,-2.4270054E-3,-8.268794E-3,6.8719545E-3,1.44790085E-2,7.24767E-3,2.3853954E-2,6.869179E-3],"categories":[],"categories_nodes":[],"categories_segments":[],"categories_sizes":[],"default_left":[0,0,0,0,0,0,0,0,0,0,0,0,0,0,0,0,0,0,0,0,0,0,0,0,0,0,0,0,0,0,0,0,0,0,0,0,0,0,0,0,0,0,0,0,0,0,0,0,0,0,0,0,0,0,0,0,0,0,0,0,0],"id":20,"left_children":[1,3,5,7,9,11,13,15,17,19,21,23,25,27,29,31,33,35,37,39,-1,41,43,45,47,49,51,53,55,57,59,-1,-1,-1,-1,-1,-1,-1,-1,-1,-1,-1,-1,-1,-1,-1,-1,-1,-1,-1,-1,-1,-1,-1,-1,-1,-1,-1,-1,-1,-1],"loss_changes":[8.370325E1,3.6437653E1,6.024845E1,2.98377E1,5.7715306E0,4.8369503E1,3.1200592E1,3.0034431E1,1.1337784E1,5.4771624E0,7.9343305E0,2.239003E1,2.1612253E1,1.630018E1,9.241791E0,1.5266708E1,2.7216415E1,1.236384E1,1.3189571E1,2.8172011E0,0E0,7.0886493E0,2.748598E0,6.7093644E0,1.6890831E1,2.0563223E1,7.424858E0,5.592203E0,1.4910294E1,9.054085E0,2.2882004E0,0E0,0E0,0E0,0E0,0E0,0E0,0E0,0E0,0E0,0E0,0E0,0E0,0E0,0E0,0E0,0E0,0E0,0E0,0E0,0E0,0E0,0E0,0E0,0E0,0E0,0E0,0E0,0E0,0E0,0E0],"parents":[2147483647,0,0,1,1,2,2,3,3,4,4,5,5,6,6,7,7,8,8,9,9,10,10,11,11,12,12,13,13,14,14,15,15,16,16,17,17,18,18,19,19,21,21,22,22,23,23,24,24,25,25,26,26,27,27,28,28,29,29,30,30],"right_children":[2,4,6,8,10,12,14,16,18,20,22,24,26,28,30,32,34,36,38,40,-1,42,44,46,48,50,52,54,56,58,60,-1,-1,-1,-1,-1,-1,-1,-1,-1,-1,-1,-1,-1,-1,-1,-1,-1,-1,-1,-1,-1,-1,-1,-1,-1,-1,-1,-1,-1,-1],"split_conditions":[-8.853692E-1,1.2244645E0,1E0,2.109534E-1,-1.5839293E0,-5.190543E-1,-2.2543044E-1,1.9840781E-1,-1.6338265E0,1.6319811E0,1.5731684E0,-1.2863644E0,9.6082544E-1,-5.7587408E-2,1.6874619E0,-8.6775804E-1,-2.2557938E0,1.083721E0,1E0,-1.098198E0,-4.988668E-2,-1.599855E-1,-1.4751065E0,1.4788123E0,-1.098198E0,1E0,8.6399543E-1,1E0,7.6123685E-1,-7.23175E-1,1.0687916E0,-2.7830541E-2,-6.297778E-3,-9.725399E-2,-2.864008E-2,-2.8020805E-2,-3.4578894E-3,1.4874059E-3,-1.8249134E-2,-2.6219875E-2,2.5908276E-4,1.2488053E-2,-1.0623241E-2,-7.9124E-3,1.8868882E-2,6.1221574E-3,4.6293847E-2,-2.9515246E-2,-1.0442209E-2,1.4784681E-3,-1.0326089E-2,1.2247924E-2,-1.08262E-3,8.406176E-3,-2.4270054E-3,-8.268794E-3,6.8719545E-3,1.44790085E-2,7.24767E-3,2.3853954E-2,6.869179E-3],"split_indices":[1,17,34,7,1,17,7,12,1,12,17,12,1,12,1,17,14,7,31,7,0,12,4,4,7,31,12,31,1,12,12,0,0,0,0,0,0,0,0,0,0,0,0,0,0,0,0,0,0,0,0,0,0,0,0,0,0,0,0,0,0],"split_type":[0,0,0,0,0,0,0,0,0,0,0,0,0,0,0,0,0,0,0,0,0,0,0,0,0,0,0,0,0,0,0,0,0,0,0,0,0,0,0,0,0,0,0,0,0,0,0,0,0,0,0,0,0,0,0,0,0,0,0,0,0],"sum_hessian":[4.0474E4,7.518E3,3.2956E4,6.003E3,1.515E3,1.6483E4,1.6473E4,3.001E3,3.002E3,4.44E2,1.071E3,4.943E3,1.154E4,6.175E3,1.0298E4,1.751E3,1.25E3,8.2E2,2.182E3,4.19E2,2.5E1,5.36E2,5.35E2,4.83E2,4.46E3,9E3,2.54E3,2.907E3,3.268E3,9.66E3,6.38E2,4.39E2,1.312E3,6E1,1.19E3,4.21E2,3.99E2,1.764E3,4.18E2,4.4E1,3.75E2,2.37E2,2.99E2,4.1E1,4.94E2,4.38E2,4.5E1,5.26E2,3.934E3,7.141E3,1.859E3,2.013E3,5.27E2,2.307E3,6E2,2.373E3,8.95E2,2.262E3,7.398E3,5.44E2,9.4E1],"tree_param":{"num_deleted":"0","num_feature":"38","num_nodes":"61","size_leaf_vector":"1"}},{"base_weights":[1.00425146E-4,-6.860446E-2,3.354146E-2,-9.772278E-2,4.6632957E-2,-8.500529E-3,7.457883E-2,-1.2612714E-1,2.0940496E-2,4.7193216E-3,9.189335E-2,-3.626813E-2,7.357891E-2,-4.800941E-2,8.7865844E-2,-1.880062E-1,-6.6201895E-2,-6.965104E-2,8.913987E-2,3.9288342E-2,-1.24663435E-1,-1.0712528E-1,1.1001566E-1,-1.0471721E-2,-1.4011128E-1,-7.339132E-2,9.039141E-2,2.9075E-2,-1.2219775E-1,6.761206E-2,1.6868155E-1,-2.1803161E-2,-9.341539E-3,-1.9229975E-2,-4.4014286E-3,3.385395E-4,-2.0273484E-2,1.9237814E-2,1.41902E-3,7.251811E-3,-9.8518375E-3,3.3215515E-2,-1.8040778E-2,-2.4364578E-2,2.5139887E-2,-1.684538E-2,1.1976699E-2,-8.569061E-3,2.2718161E-3,-8.939505E-3,-2.4655493E-2,7.748987E-3,-2.0141046E-2,5.4294984E-3,1.6993709E-2,-3.159794E-2,6.6848123E-3,-1.7250292E-2,7.5559183E-3,4.784611E-3,1.19432965E-2,1.5624761E-2,3.061519E-2],"categories":[],"categories_nodes":[],"categories_segments":[],"categories_sizes":[],"default_left":[0,0,0,0,0,0,0,0,0,0,0,0,0,0,0,0,0,0,0,0,0,0,0,0,0,0,0,0,0,0,0,0,0,0,0,0,0,0,0,0,0,0,0,0,0,0,0,0,0,0,0,0,0,0,0,0,0,0,0,0,0,0,0],"id":21,"left_children":[1,3,5,7,9,11,13,15,17,19,21,23,25,27,29,31,33,35,37,39,41,43,45,47,49,51,53,55,57,59,61,-1,-1,-1,-1,-1,-1,-1,-1,-1,-1,-1,-1,-1,-1,-1,-1,-1,-1,-1,-1,-1,-1,-1,-1,-1,-1,-1,-1,-1,-1,-1,-1],"loss_changes":[9.2313774E1,4.414307E1,4.662667E1,3.539682E1,5.034278E0,3.0429308E1,2.228012E1,3.1406448E1,1.254195E1,6.172662E0,4.613905E0,2.6722046E1,8.34605E0,7.65526E0,2.0185356E1,1.1817291E1,1.2038904E1,8.476497E0,8.957496E0,4.993986E0,7.470254E0,5.2984633E0,3.1972513E0,1.9954023E1,1.0693825E1,6.7181478E0,8.687986E0,8.584317E0,6.7977037E0,1.0101978E1,4.1775513E0,0E0,0E0,0E0,0E0,0E0,0E0,0E0,0E0,0E0,0E0,0E0,0E0,0E0,0E0,0E0,0E0,0E0,0E0,0E0,0E0,0E0,0E0,0E0,0E0,0E0,0E0,0E0,0E0,0E0,0E0,0E0,0E0],"parents":[2147483647,0,0,1,1,2,2,3,3,4,4,5,5,6,6,7,7,8,8,9,9,10,10,11,11,12,12,13,13,14,14,15,15,16,16,17,17,18,18,19,19,20,20,21,21,22,22,23,23,24,24,25,25,26,26,27,27,28,28,29,29,30,30],"right_children":[2,4,6,8,10,12,14,16,18,20,22,24,26,28,30,32,34,36,38,40,42,44,46,48,50,52,54,56,58,60,62,-1,-1,-1,-1,-1,-1,-1,-1,-1,-1,-1,-1,-1,-1,-1,-1,-1,-1,-1,-1,-1,-1,-1,-1,-1,-1,-1,-1,-1,-1,-1,-1],"split_conditions":[-4.2076543E-1,1.2244645E0,2.109534E-1,1E0,1.5731684E0,1.010369E0,-1.2164618E0,2.109534E-1,-1.102258E0,1E0,-1.9881983E0,1E0,-1.2164618E0,1.9431484E-3,1E0,1E0,-1.647452E0,6.546699E-1,-2.1030098E-1,1.1265254E0,-1.3031589E0,1.0667902E0,-1.8756082E0,-5.190543E-1,6.939938E-1,-1.14895515E-1,1.6918614E0,-1.2109516E0,1E0,9.422197E-1,1.6918614E0,-2.1803161E-2,-9.341539E-3,-1.9229975E-2,-4.4014286E-3,3.385395E-4,-2.0273484E-2,1.9237814E-2,1.41902E-3,7.251811E-3,-9.8518375E-3,3.3215515E-2,-1.8040778E-2,-2.4364578E-2,2.5139887E-2,-1.684538E-2,1.1976699E-2,-8.569061E-3,2.2718161E-3,-8.939505E-3,-2.4655493E-2,7.748987E-3,-2.0141046E-2,5.4294984E-3,1.6993709E-2,-3.159794E-2,6.6848123E-3,-1.7250292E-2,7.5559183E-3,4.784611E-3,1.19432965E-2,1.5624761E-2,3.061519E-2],"split_indices":[5,17,7,33,17,5,17,7,5,31,5,31,17,3,33,32,5,11,10,3,10,0,10,17,3,19,5,16,33,5,5,0,0,0,0,0,0,0,0,0,0,0,0,0,0,0,0,0,0,0,0,0,0,0,0,0,0,0,0,0,0,0,0],"split_type":[0,0,0,0,0,0,0,0,0,0,0,0,0,0,0,0,0,0,0,0,0,0,0,0,0,0,0,0,0,0,0,0,0,0,0,0,0,0,0,0,0,0,0,0,0,0,0,0,0,0,0,0,0,0,0,0,0,0,0,0,0,0,0],"sum_hessian":[4.0177E4,1.3153E4,2.7024E4,1.05E4,2.653E3,1.3349E4,1.3675E4,8.472E3,2.028E3,1.378E3,1.275E3,9.975E3,3.374E3,1.337E3,1.2338E4,4.167E3,4.305E3,8.71E2,1.157E3,1.088E3,2.9E2,1.06E2,1.169E3,7.991E3,1.984E3,3.46E2,3.028E3,6.56E2,6.81E2,9.867E3,2.471E3,3.162E3,1.005E3,6.43E2,3.662E3,5.63E2,3.08E2,4.86E2,6.71E2,8.77E2,2.11E2,3.1E1,2.59E2,7.7E1,2.9E1,3.9E1,1.13E3,2.446E3,5.545E3,1.345E3,6.39E2,1.59E2,1.87E2,2.084E3,9.44E2,6.4E1,5.92E2,5.43E2,1.38E2,7.144E3,2.723E3,2.268E3,2.03E2],"tree_param":{"num_deleted":"0","num_feature":"38","num_nodes":"63","size_leaf_vector":"1"}},{"base_weights":[-1.6549233E-3,1.71662E-2,-9.684356E-2,-3.5518035E-3,9.953814E-2,-3.4335008E-1,-8.269268E-2,-8.767456E-2,1.7192673E-2,4.2967E-2,1.1320186E-1,-5.593628E-1,-2.615531E-1,-1.2086141E-1,8.590053E-3,9.3862645E-2,-1.1711639E-1,-8.319049E-4,1.0633463E-1,2.8569633E-1,2.9490843E-2,9.9889204E-2,1.6639726E-1,-3.8601413E-1,-9.585023E-2,-5.331283E-1,-1.7865835E-1,-1.4583255E-1,9.19981E-3,-1.0619722E-2,1.4968264E-1,-1.1254578E-2,1.5272491E-2,-2.007377E-2,-6.0599903E-3,-2.017281E-3,5.7191E-3,2.5435466E-2,9.005703E-3,9.066145E-3,4.2483013E-2,-1.3354032E-2,5.397847E-3,1.29291015E-2,7.572535E-3,-1.2365752E-2,1.7674586E-2,-1.7844625E-2,-7.304195E-2,-3.0653168E-2,-7.161033E-2,6.7424285E-3,-2.9244766E-2,-1.1391811E-2,-2.7138665E-2,1.21265855E-2,-1.4147651E-2,-3.378894E-3,8.90123E-3,1.934672E-2,-1.2632755E-2],"categories":[],"categories_nodes":[],"categories_segments":[],"categories_sizes":[],"default_left":[0,0,0,0,0,0,0,0,0,0,0,0,0,0,0,0,0,0,0,0,0,0,0,0,0,0,0,0,0,0,0,0,0,0,0,0,0,0,0,0,0,0,0,0,0,0,0,0,0,0,0,0,0,0,0,0,0,0,0,0,0],"id":22,"left_children":[1,3,5,7,9,11,13,15,17,19,21,23,25,27,29,31,33,35,37,39,41,43,45,47,-1,49,51,53,55,57,59,-1,-1,-1,-1,-1,-1,-1,-1,-1,-1,-1,-1,-1,-1,-1,-1,-1,-1,-1,-1,-1,-1,-1,-1,-1,-1,-1,-1,-1,-1],"loss_changes":[7.2027626E1,5.7285202E1,2.3123348E1,4.6808113E1,5.2095947E0,6.2145996E0,2.1874508E1,2.8370441E1,3.457244E1,4.2897453E0,3.8308868E0,6.410654E0,5.825451E0,1.4379257E1,5.02117E0,9.020092E0,2.1566666E1,2.0087688E1,8.696751E0,1.8338637E0,4.9815474E0,3.0792923E0,3.28166E0,4.873783E0,0E0,2.3096428E0,5.704036E0,1.4851044E1,1.2073545E1,3.768001E0,2.7073064E0,0E0,0E0,0E0,0E0,0E0,0E0,0E0,0E0,0E0,0E0,0E0,0E0,0E0,0E0,0E0,0E0,0E0,0E0,0E0,0E0,0E0,0E0,0E0,0E0,0E0,0E0,0E0,0E0,0E0,0E0],"parents":[2147483647,0,0,1,1,2,2,3,3,4,4,5,5,6,6,7,7,8,8,9,9,10,10,11,11,12,12,13,13,14,14,15,15,16,16,17,17,18,18,19,19,20,20,21,21,22,22,23,23,25,25,26,26,27,27,28,28,29,29,30,30],"right_children":[2,4,6,8,10,12,14,16,18,20,22,24,26,28,30,32,34,36,38,40,42,44,46,48,-1,50,52,54,56,58,60,-1,-1,-1,-1,-1,-1,-1,-1,-1,-1,-1,-1,-1,-1,-1,-1,-1,-1,-1,-1,-1,-1,-1,-1,-1,-1,-1,-1,-1,-1],"split_conditions":[1.0175925E0,1E0,-1.647452E0,-8.6775804E-1,-8.6775804E-1,-7.6785827E-1,8.757608E-1,-1.1839664E0,1.010369E0,-1.7471559E0,9.422197E-1,1.6831801E0,-8.6775804E-1,1E0,1.2829659E0,-9.599061E-1,-2.1631765E-1,1.2244645E0,-1.4399617E0,-3.9046445E-1,-1.1704072E0,-1.3931212E-1,-1.5921645E0,4.9903274E-2,-9.585023E-2,6.823823E-2,1.2735878E0,1E0,2.7578858E-1,1E0,1.3860444E0,-1.1254578E-2,1.5272491E-2,-2.007377E-2,-6.0599903E-3,-2.017281E-3,5.7191E-3,2.5435466E-2,9.005703E-3,9.066145E-3,4.2483013E-2,-1.3354032E-2,5.397847E-3,1.29291015E-2,7.572535E-3,-1.2365752E-2,1.7674586E-2,-1.7844625E-2,-7.304195E-2,-3.0653168E-2,-7.161033E-2,6.7424285E-3,-2.9244766E-2,-1.1391811E-2,-2.7138665E-2,1.21265855E-2,-1.4147651E-2,-3.378894E-3,8.90123E-3,1.934672E-2,-1.2632755E-2],"split_indices":[12,33,5,17,17,19,17,12,5,12,5,12,17,24,5,19,5,17,12,4,5,2,2,10,0,2,12,31,2,33,3,0,0,0,0,0,0,0,0,0,0,0,0,0,0,0,0,0,0,0,0,0,0,0,0,0,0,0,0,0,0],"split_type":[0,0,0,0,0,0,0,0,0,0,0,0,0,0,0,0,0,0,0,0,0,0,0,0,0,0,0,0,0,0,0,0,0,0,0,0,0,0,0,0,0,0,0,0,0,0,0,0,0,0,0,0,0,0,0,0,0,0,0,0,0],"sum_hessian":[4.0202E4,3.3566E4,6.636E3,2.6821E4,6.745E3,3.59E2,6.277E3,5.305E3,2.1516E4,1.313E3,5.432E3,9.7E1,2.62E2,4.426E3,1.851E3,7.4E2,4.565E3,1.7898E4,3.618E3,6.8E1,1.245E3,4.347E3,1.085E3,6.9E1,2.8E1,6E1,2.02E2,3.713E3,7.13E2,1.63E3,2.21E2,1.64E2,5.76E2,1.84E3,2.725E3,1.3424E4,4.474E3,3.57E2,3.261E3,2.9E1,3.9E1,1.62E2,1.083E3,1.959E3,2.388E3,3.7E1,1.048E3,4.4E1,2.5E1,2.8E1,3.2E1,6.4E1,1.38E2,2.962E3,7.51E2,4.09E2,3.04E2,1.323E3,3.07E2,1.91E2,3E1],"tree_param":{"num_deleted":"0","num_feature":"38","num_nodes":"61","size_leaf_vector":"1"}},{"base_weights":[4.026779E-3,-4.275017E-2,3.515674E-2,-9.22313E-2,6.5165916E-3,-1.2180052E-2,6.2615335E-2,1.2653577E-1,-1.1140225E-1,5.6278843E-2,-3.7675567E-2,7.417211E-2,-4.0803473E-2,1.0294844E-1,4.391179E-2,-7.323606E-2,1.633543E-1,-1.5684605E-1,-3.7829265E-2,-1.5591598E-1,7.384542E-2,-6.392842E-3,-1.5488365E-1,3.9886843E-2,1.4268881E-1,-8.524698E-2,3.2957534E-3,1.7415859E-1,9.3310446E-2,1.2467834E-2,7.6005906E-2,6.1719795E-3,-3.9918747E-2,4.9960658E-2,1.3385044E-2,-8.212782E-2,-1.5097042E-2,-2.2876945E-3,-4.0128686E-2,2.5229754E-3,-2.5928518E-2,3.1171387E-2,6.851197E-3,3.365444E-4,-2.5325064E-2,4.1265055E-3,-2.3703566E-2,-8.823004E-4,9.981689E-3,1.9127231E-2,4.70825E-3,-1.7145548E-2,-6.0814987E-3,-1.1998321E-3,1.9403026E-2,3.4121297E-2,1.3990292E-2,3.8657867E-4,1.0201403E-2,3.7832705E-3,-8.561178E-3,4.875764E-3,1.1730272E-2],"categories":[],"categories_nodes":[],"categories_segments":[],"categories_sizes":[],"default_left":[0,0,0,0,0,0,0,0,0,0,0,0,0,0,0,0,0,0,0,0,0,0,0,0,0,0,0,0,0,0,0,0,0,0,0,0,0,0,0,0,0,0,0,0,0,0,0,0,0,0,0,0,0,0,0,0,0,0,0,0,0,0,0],"id":23,"left_children":[1,3,5,7,9,11,13,15,17,19,21,23,25,27,29,31,33,35,37,39,41,43,45,47,49,51,53,55,57,59,61,-1,-1,-1,-1,-1,-1,-1,-1,-1,-1,-1,-1,-1,-1,-1,-1,-1,-1,-1,-1,-1,-1,-1,-1,-1,-1,-1,-1,-1,-1,-1,-1],"loss_changes":[5.8974712E1,3.945111E1,3.1608042E1,3.387623E1,1.7836832E1,2.2070314E1,1.1605267E1,4.800268E0,2.4815727E1,1.4232063E1,1.5750673E1,5.2163877E0,1.3143533E1,3.3295746E0,1.0611443E1,4.511521E0,5.389534E0,1.7791298E1,1.540316E1,5.4742093E0,4.449396E0,8.171871E0,1.4592958E1,4.3300295E0,3.4328575E0,7.024431E0,9.824228E0,3.2713451E0,3.343998E0,1.3220795E1,5.85017E0,0E0,0E0,0E0,0E0,0E0,0E0,0E0,0E0,0E0,0E0,0E0,0E0,0E0,0E0,0E0,0E0,0E0,0E0,0E0,0E0,0E0,0E0,0E0,0E0,0E0,0E0,0E0,0E0,0E0,0E0,0E0,0E0],"parents":[2147483647,0,0,1,1,2,2,3,3,4,4,5,5,6,6,7,7,8,8,9,9,10,10,11,11,12,12,13,13,14,14,15,15,16,16,17,17,18,18,19,19,20,20,21,21,22,22,23,23,24,24,25,25,26,26,27,27,28,28,29,29,30,30],"right_children":[2,4,6,8,10,12,14,16,18,20,22,24,26,28,30,32,34,36,38,40,42,44,46,48,50,52,54,56,58,60,62,-1,-1,-1,-1,-1,-1,-1,-1,-1,-1,-1,-1,-1,-1,-1,-1,-1,-1,-1,-1,-1,-1,-1,-1,-1,-1,-1,-1,-1,-1,-1,-1],"split_conditions":[-1.703505E-1,1E0,-2.2543044E-1,-1.4399617E0,-5.7587408E-2,-6.71976E-1,-4.6717978E-1,-1.1174054E0,6.4733726E-1,-1.4287091E0,1E0,8.8000435E-1,1E0,-1.2956518E0,1E0,-1.296256E0,-8.462449E-1,-2.2557938E0,1.8879763E0,-1.0303693E0,-1.2848684E0,1.6172773E0,-6.0360116E-1,2.3079064E-1,2E0,-7.0950514E-1,1.4840672E0,-1.1519539E0,-1.212948E0,1E0,1.083721E0,6.1719795E-3,-3.9918747E-2,4.9960658E-2,1.3385044E-2,-8.212782E-2,-1.5097042E-2,-2.2876945E-3,-4.0128686E-2,2.5229754E-3,-2.5928518E-2,3.1171387E-2,6.851197E-3,3.365444E-4,-2.5325064E-2,4.1265055E-3,-2.3703566E-2,-8.823004E-4,9.981689E-3,1.9127231E-2,4.70825E-3,-1.7145548E-2,-6.0814987E-3,-1.1998321E-3,1.9403026E-2,3.4121297E-2,1.3990292E-2,3.8657867E-4,1.0201403E-2,3.7832705E-3,-8.561178E-3,4.875764E-3,1.1730272E-2],"split_indices":[17,34,7,12,12,12,12,4,7,14,31,13,34,3,34,4,4,14,12,12,14,4,3,19,15,14,14,19,14,31,7,0,0,0,0,0,0,0,0,0,0,0,0,0,0,0,0,0,0,0,0,0,0,0,0,0,0,0,0,0,0,0,0],"split_type":[0,0,0,0,0,0,0,0,0,0,0,0,0,0,0,0,0,0,0,0,0,0,0,0,0,0,0,0,0,0,0,0,0,0,0,0,0,0,0,0,0,0,0,0,0,0,0,0,0,0,0,0,0,0,0,0,0,0,0,0,0,0,0],"sum_hessian":[4.0498E4,1.6182E4,2.4316E4,8.073E3,8.109E3,8.927E3,1.5389E4,6.5E2,7.423E3,3.814E3,4.295E3,2.222E3,6.705E3,4.874E3,1.0515E4,1.01E2,5.49E2,4.588E3,2.835E3,2.91E2,3.523E3,3.391E3,9.04E2,1.482E3,7.4E2,3.339E3,3.366E3,5.79E2,4.295E3,5.312E3,5.203E3,7.2E1,2.9E1,4.3E1,5.06E2,3.9E1,4.549E3,2.724E3,1.11E2,1.06E2,1.85E2,7.6E1,3.447E3,3.263E3,1.28E2,2.67E2,6.37E2,8.18E2,6.64E2,4.9E2,2.5E2,7.36E2,2.603E3,3.117E3,2.49E2,9.7E1,4.82E2,3.81E2,3.914E3,4.221E3,1.091E3,3.136E3,2.067E3],"tree_param":{"num_deleted":"0","num_feature":"38","num_nodes":"63","size_leaf_vector":"1"}},{"base_weights":[2.6579644E-3,-1.0705743E-1,1.8968707E-2,-2.766026E-1,-7.953062E-2,-3.160176E-2,4.3703247E-2,-4.487756E-1,-1.2744172E-1,-5.0933998E-2,-1.9256826E-1,-4.9771048E-2,8.577322E-2,3.5828166E-2,1.4887108E-1,-3.1790507E-1,-8.169542E-1,-3.924736E-1,-5.388603E-2,-5.6777116E-2,5.2716423E-2,-2.4718204E-1,2.3613717E-1,-7.001119E-2,3.421835E-2,3.8967725E-2,7.889178E-2,2.0839509E-2,9.450921E-2,-1.2637305E-2,1.590127E-1,-6.237101E-2,-2.2277348E-2,-9.710342E-2,-4.6999726E-2,-1.2988626E-2,-8.233249E-2,7.2373555E-4,-4.8837423E-2,-9.533188E-3,2.5827004E-4,-6.8968027E-3,-3.5347857E-2,6.541776E-2,-7.4361386E-3,-1.8311644E-2,-5.534164E-3,1.4053895E-2,1.0331621E-3,8.496155E-3,-2.462741E-2,-2.558167E-4,9.23523E-3,4.2999435E-2,9.099635E-3,1.7632555E-2,-2.0519866E-2,1.3363539E-2,2.2585167E-2],"categories":[],"categories_nodes":[],"categories_segments":[],"categories_sizes":[],"default_left":[0,0,0,0,0,0,0,0,0,0,0,0,0,0,0,0,0,0,0,0,0,0,0,0,0,0,0,0,0,0,0,0,0,0,0,0,0,0,0,0,0,0,0,0,0,0,0,0,0,0,0,0,0,0,0,0,0,0,0],"id":24,"left_children":[1,3,5,7,9,11,13,15,17,19,21,23,25,27,29,31,33,35,37,39,-1,41,43,45,47,-1,49,51,53,55,57,-1,-1,-1,-1,-1,-1,-1,-1,-1,-1,-1,-1,-1,-1,-1,-1,-1,-1,-1,-1,-1,-1,-1,-1,-1,-1,-1,-1],"loss_changes":[7.220458E1,2.4349277E1,4.3938293E1,1.8664597E1,1.4517023E1,2.4610435E1,1.9531204E1,1.602639E1,7.6207347E0,1.2149824E1,2.1294163E1,1.6988373E1,3.2044973E0,1.9301512E1,2.6931725E0,7.1630745E0,4.24802E0,9.50963E0,8.183211E0,8.131656E0,0E0,1.5225166E1,1.3418142E1,1.3349773E1,4.928011E0,0E0,3.009079E0,2.9253368E1,5.2229233E0,3.6021018E0,2.5921364E0,0E0,0E0,0E0,0E0,0E0,0E0,0E0,0E0,0E0,0E0,0E0,0E0,0E0,0E0,0E0,0E0,0E0,0E0,0E0,0E0,0E0,0E0,0E0,0E0,0E0,0E0,0E0,0E0],"parents":[2147483647,0,0,1,1,2,2,3,3,4,4,5,5,6,6,7,7,8,8,9,9,10,10,11,11,12,12,13,13,14,14,15,15,16,16,17,17,18,18,19,19,21,21,22,22,23,23,24,24,26,26,27,27,28,28,29,29,30,30],"right_children":[2,4,6,8,10,12,14,16,18,20,22,24,26,28,30,32,34,36,38,40,-1,42,44,46,48,-1,50,52,54,56,58,-1,-1,-1,-1,-1,-1,-1,-1,-1,-1,-1,-1,-1,-1,-1,-1,-1,-1,-1,-1,-1,-1,-1,-1,-1,-1,-1,-1],"split_conditions":[-1.1348549E0,-1.102258E0,-4.2076543E-1,-1.5340321E0,1E0,1.1852635E0,1.6094885E0,8.670064E-1,-9.4962645E-1,2.5096524E0,1.3576555E0,1E0,-1.6128689E0,1E0,2.6142034E-1,-2.111953E0,1E0,1.539715E-1,1E0,4.6517488E-1,5.2716423E-2,-4.3058848E-1,1.5076592E0,-1.7837505E0,-7.4546534E-1,3.8967725E-2,1E0,1E0,-1.7883112E0,2.1899661E-1,9.422197E-1,-6.237101E-2,-2.2277348E-2,-9.710342E-2,-4.6999726E-2,-1.2988626E-2,-8.233249E-2,7.2373555E-4,-4.8837423E-2,-9.533188E-3,2.5827004E-4,-6.8968027E-3,-3.5347857E-2,6.541776E-2,-7.4361386E-3,-1.8311644E-2,-5.534164E-3,1.4053895E-2,1.0331621E-3,8.496155E-3,-2.462741E-2,-2.558167E-4,9.23523E-3,4.2999435E-2,9.099635E-3,1.7632555E-2,-2.0519866E-2,1.3363539E-2,2.2585167E-2],"split_indices":[1,5,5,1,31,1,1,3,3,5,4,33,19,33,14,14,20,19,24,5,0,3,4,5,14,0,29,30,14,11,5,0,0,0,0,0,0,0,0,0,0,0,0,0,0,0,0,0,0,0,0,0,0,0,0,0,0,0,0],"split_type":[0,0,0,0,0,0,0,0,0,0,0,0,0,0,0,0,0,0,0,0,0,0,0,0,0,0,0,0,0,0,0,0,0,0,0,0,0,0,0,0,0,0,0,0,0,0,0,0,0,0,0,0,0,0,0,0,0,0,0],"sum_hessian":[4.0346E4,5.221E3,3.5125E4,7.28E2,4.493E3,1.1537E4,2.3588E4,3.37E2,3.91E2,3.587E3,9.06E2,9.991E3,1.546E3,2.1946E4,1.642E3,2.5E2,8.7E1,8.4E1,3.07E2,3.552E3,3.5E1,8.04E2,1.02E2,8.051E3,1.94E3,3.3E1,1.513E3,1.7482E4,4.464E3,9.7E1,1.545E3,5.8E1,1.92E2,5.9E1,2.8E1,5.3E1,3.1E1,2.7E2,3.7E1,2.153E3,1.399E3,3.01E2,5.03E2,4.3E1,5.9E1,9.23E2,7.128E3,3.55E2,1.585E3,1.486E3,2.7E1,1.3173E4,4.309E3,4.5E1,4.419E3,4.9E1,4.8E1,1.122E3,4.23E2],"tree_param":{"num_deleted":"0","num_feature":"38","num_nodes":"59","size_leaf_vector":"1"}},{"base_weights":[-5.864579E-3,-5.2325662E-2,2.5161445E-2,-9.1472104E-2,1.1260895E-2,8.004279E-2,3.5185623E-3,-6.4556375E-2,-2.2038464E-1,-7.573194E-2,4.0400308E-2,7.0834704E-2,2.0309341E-1,-2.5275748E-2,6.1772134E-2,2.9747512E-2,-8.826488E-2,-2.845597E-1,-7.161209E-2,-1.1255985E-1,6.1175693E-2,2.539825E-2,1.8817785E-1,1.5539769E-2,8.9778736E-2,1.6841576E-1,3.8384762E-1,-1.0570099E-1,2.8974724E-3,1.5337019E-2,9.0112366E-2,-3.1058922E-2,4.330849E-3,-1.4358508E-2,-3.4351652E-3,-1.1012594E-2,-3.425188E-2,-1.3387712E-2,1.4090009E-2,-1.628293E-2,4.938385E-3,-8.360236E-3,2.038409E-2,-1.4282297E-3,6.8046213E-3,2.2790013E-2,-2.4299743E-3,-3.7239432E-2,2.6034496E-3,6.0894317E-3,1.1597282E-2,2.0909242E-2,2.089795E-3,4.6882294E-2,2.8653491E-2,-1.3738244E-2,2.8963655E-3,-1.6068111E-3,7.786487E-3,-4.3587466E-3,7.937316E-3,1.7272005E-3,1.1337294E-2],"categories":[],"categories_nodes":[],"categories_segments":[],"categories_sizes":[],"default_left":[0,0,0,0,0,0,0,0,0,0,0,0,0,0,0,0,0,0,0,0,0,0,0,0,0,0,0,0,0,0,0,0,0,0,0,0,0,0,0,0,0,0,0,0,0,0,0,0,0,0,0,0,0,0,0,0,0,0,0,0,0,0,0],"id":25,"left_children":[1,3,5,7,9,11,13,15,17,19,21,23,25,27,29,31,33,35,37,39,41,43,45,47,49,51,53,55,57,59,61,-1,-1,-1,-1,-1,-1,-1,-1,-1,-1,-1,-1,-1,-1,-1,-1,-1,-1,-1,-1,-1,-1,-1,-1,-1,-1,-1,-1,-1,-1,-1,-1],"loss_changes":[5.8304337E1,4.0313416E1,2.8806015E1,3.4766792E1,1.5648586E1,7.757271E0,2.917776E1,1.854639E1,1.6506325E1,7.8169775E0,1.0246477E1,6.6848526E0,2.925253E0,2.6376925E1,7.570778E0,7.707153E0,1.976302E1,1.2185295E1,6.9392395E0,9.94798E0,6.8124685E0,7.1069164E0,3.601018E0,6.645853E0,3.589817E0,2.4078455E0,4.941225E-1,1.288842E1,1.2260015E1,8.236793E0,6.0518074E0,0E0,0E0,0E0,0E0,0E0,0E0,0E0,0E0,0E0,0E0,0E0,0E0,0E0,0E0,0E0,0E0,0E0,0E0,0E0,0E0,0E0,0E0,0E0,0E0,0E0,0E0,0E0,0E0,0E0,0E0,0E0,0E0],"parents":[2147483647,0,0,1,1,2,2,3,3,4,4,5,5,6,6,7,7,8,8,9,9,10,10,11,11,12,12,13,13,14,14,15,15,16,16,17,17,18,18,19,19,20,20,21,21,22,22,23,23,24,24,25,25,26,26,27,27,28,28,29,29,30,30],"right_children":[2,4,6,8,10,12,14,16,18,20,22,24,26,28,30,32,34,36,38,40,42,44,46,48,50,52,54,56,58,60,62,-1,-1,-1,-1,-1,-1,-1,-1,-1,-1,-1,-1,-1,-1,-1,-1,-1,-1,-1,-1,-1,-1,-1,-1,-1,-1,-1,-1,-1,-1,-1,-1],"split_conditions":[-1.703505E-1,3.2887638E-1,-5.695779E-1,1.0175925E0,-1.2164618E0,1.555563E0,1.2244645E0,-9.791702E-1,5.4910195E-1,1E0,1.8963093E0,-6.618143E-1,1.2294395E0,-6.252132E-1,-2.8446692E-1,-1.7883112E0,1E0,-6.5234995E-1,-1.1869896E-2,1E0,2E0,4.5659117E-2,1.333774E0,-1.9881983E0,-2.6261287E-2,1E0,2E0,1E0,1E0,1E0,-6.618143E-1,-3.1058922E-2,4.330849E-3,-1.4358508E-2,-3.4351652E-3,-1.1012594E-2,-3.425188E-2,-1.3387712E-2,1.4090009E-2,-1.628293E-2,4.938385E-3,-8.360236E-3,2.038409E-2,-1.4282297E-3,6.8046213E-3,2.2790013E-2,-2.4299743E-3,-3.7239432E-2,2.6034496E-3,6.0894317E-3,1.1597282E-2,2.0909242E-2,2.089795E-3,4.6882294E-2,2.8653491E-2,-1.3738244E-2,2.8963655E-3,-1.6068111E-3,7.786487E-3,-4.3587466E-3,7.937316E-3,1.7272005E-3,1.1337294E-2],"split_indices":[17,5,12,12,17,5,17,12,14,33,5,7,19,5,5,14,34,11,5,30,6,14,0,5,14,37,6,33,33,34,7,0,0,0,0,0,0,0,0,0,0,0,0,0,0,0,0,0,0,0,0,0,0,0,0,0,0,0,0,0,0,0,0],"split_type":[0,0,0,0,0,0,0,0,0,0,0,0,0,0,0,0,0,0,0,0,0,0,0,0,0,0,0,0,0,0,0,0,0,0,0,0,0,0,0,0,0,0,0,0,0,0,0,0,0,0,0,0,0,0,0,0,0,0,0,0,0,0,0],"sum_hessian":[4.0445E4,1.6194E4,2.4251E4,1.0023E4,6.171E3,6.858E3,1.7393E4,8.293E3,1.73E3,1.548E3,4.623E3,6.382E3,4.76E2,1.164E4,5.753E3,1.666E3,6.627E3,1.208E3,5.22E2,1.22E3,3.28E2,4.198E3,4.25E2,1.629E3,4.753E3,4.01E2,7.5E1,3.019E3,8.621E3,2.181E3,3.572E3,6.3E1,1.603E3,3.27E3,3.357E3,3.02E2,